~o
<STREAMINFO> 1 39
<VECSIZE> 39<NULLD><MFCC_D_A_0><DIAGC>
~s "silst"
<MEAN> 39
 -1.822536e+01 -2.243835e-02 -4.006009e-01 -4.637819e+00 4.567237e+00 -1.259027e+00 7.950784e+00 2.223420e-01 2.921089e+00 2.175387e+00 3.728554e+00 1.382723e+00 4.961237e+01 1.224056e-01 3.450831e-02 6.503019e-02 -2.555619e-01 -1.521763e-01 -3.012128e-01 -2.143606e-02 -3.540296e-01 1.052118e-01 -7.771318e-02 9.260513e-04 -4.811595e-03 3.816184e-01 5.263520e-03 3.703818e-02 1.125387e-02 9.758126e-02 4.729404e-02 3.034344e-03 -1.097486e-01 1.472361e-01 -8.780970e-02 1.421512e-01 -2.329342e-03 1.172436e-02 -1.411487e-01
<VARIANCE> 39
 2.986579e+01 4.011783e+01 3.413758e+01 5.244460e+01 4.090612e+01 3.226764e+01 4.814852e+01 7.726398e+01 5.624903e+01 6.185326e+01 3.219012e+01 2.247383e+01 8.242932e+01 2.181132e+00 3.466269e+00 2.535201e+00 4.638704e+00 3.368593e+00 3.724257e+00 4.815066e+00 8.508919e+00 4.829798e+00 6.113440e+00 2.780172e+00 1.948945e+00 8.932096e+00 4.081130e-01 6.523702e-01 4.672143e-01 8.006622e-01 5.678576e-01 7.005756e-01 8.741844e-01 1.583008e+00 8.643800e-01 1.138572e+00 5.011734e-01 3.427159e-01 1.657477e+00
<GCONST> 1.346320e+02
~h "b"
<BEGINHMM>
<NUMSTATES> 5
<STATE> 2
<MEAN> 39
 2.600946e-01 7.592678e+00 3.514033e+00 3.551731e+00 1.451183e+01 -1.776579e+01 -8.399529e+00 -1.872572e-01 8.029092e+00 -4.844347e+00 3.014769e-01 -5.958223e+00 6.675104e+01 1.598558e-01 -2.714294e-01 -9.789567e-02 2.490104e-01 4.251593e-02 -3.727912e-01 -1.276297e-01 -2.905364e-02 -3.609042e-01 -3.483775e-01 1.603338e-01 -4.481229e-02 2.528230e-01 -4.381767e-02 -2.006779e-02 3.498008e-02 8.543842e-03 -6.364148e-02 -5.503302e-02 8.400564e-02 9.093750e-02 -4.587371e-02 2.678705e-03 2.406761e-02 3.635126e-02 -3.873973e-02
<VARIANCE> 39
 3.979531e+01 6.630602e+01 4.755119e+01 9.048485e+01 1.061628e+02 1.444081e+02 7.347461e+01 4.844833e+01 1.220592e+02 7.601187e+01 6.322803e+01 3.417594e+01 4.960181e+01 1.466118e+00 3.327229e+00 2.883112e+00 6.545363e+00 3.525069e+00 1.051071e+01 4.881345e+00 3.290241e+00 6.486398e+00 4.020407e+00 3.315084e+00 1.827245e+00 3.029881e+00 2.010510e-01 5.322292e-01 4.889627e-01 9.046910e-01 5.484142e-01 1.334012e+00 8.618946e-01 5.756385e-01 8.999633e-01 6.940420e-01 3.925129e-01 3.186455e-01 4.473798e-01
<GCONST> 1.361192e+02
<STATE> 3
<MEAN> 39
 2.040845e+00 7.483963e+00 1.423763e+01 8.925695e+00 -3.667926e+00 -2.791034e+01 7.272823e-01 9.864337e+00 3.403875e+00 -3.355994e+00 2.232386e+00 -5.623721e+00 6.396662e+01 -3.056362e-02 5.949880e-01 3.340818e-01 4.653139e-02 -4.043112e-01 5.052635e-01 5.218811e-01 8.712084e-01 -2.190207e-01 2.343443e-01 -7.411715e-02 1.570418e-02 -7.530668e-01 -1.183250e-01 9.987654e-02 -1.907890e-01 -2.643974e-01 3.700517e-01 6.525185e-01 6.692734e-02 -8.128113e-02 1.815457e-01 1.692619e-01 5.209842e-02 1.128779e-01 -1.469745e-01
<VARIANCE> 39
 1.595429e+01 2.863171e+01 8.020278e+01 5.671118e+01 1.236488e+02 1.997967e+02 6.676019e+01 4.304784e+01 3.933507e+01 4.355948e+01 4.766424e+01 4.096171e+01 2.070112e+01 5.843058e-01 1.182618e+00 2.474257e+00 3.053306e+00 3.235238e+00 6.948860e+00 3.861069e+00 2.334132e+00 2.565995e+00 2.040604e+00 3.004116e+00 2.313679e+00 8.585395e-01 9.403885e-02 1.095207e-01 2.925186e-01 4.541691e-01 3.886069e-01 8.879525e-01 5.715426e-01 6.093034e-01 4.447435e-01 3.649614e-01 5.114391e-01 4.685057e-01 4.972636e-02
<GCONST> 1.177999e+02
<STATE> 4
<MEAN> 39
 -7.242144e-01 1.046464e+01 1.000660e+01 2.963888e+00 3.106056e+00 -1.585429e+01 -2.791605e-01 1.046271e+01 3.995259e+00 1.577575e+00 4.309606e+00 -2.829925e+00 5.865650e+01 -2.626860e-01 2.601401e-01 -8.724736e-01 -2.447597e-01 2.900243e-01 1.578780e+00 1.024175e+00 4.319966e-01 -1.372304e-01 1.108886e+00 -5.120891e-01 5.428486e-01 -1.213841e+00 -3.359947e-02 -2.025226e-01 -2.137345e-01 -7.946049e-02 1.502650e-01 -1.299670e-02 -4.530929e-03 -3.047200e-01 -8.067913e-02 -1.034817e-01 2.382910e-02 -1.071564e-01 2.131487e-01
<VARIANCE> 39
 2.393220e+01 6.511785e+01 7.661832e+01 7.720744e+01 1.343845e+02 1.434101e+02 9.073753e+01 5.312208e+01 4.181647e+01 7.089362e+01 4.822060e+01 5.079322e+01 3.689001e+01 5.838037e-01 2.165231e+00 3.000646e+00 2.218201e+00 2.842586e+00 3.757949e+00 3.185510e+00 2.590387e+00 1.513178e+00 2.829648e+00 2.598344e+00 2.758972e+00 1.021665e+00 1.071437e-01 4.254134e-01 3.948763e-01 6.152850e-01 4.784015e-01 6.590587e-01 4.433134e-01 9.845122e-01 4.402130e-01 5.996827e-01 6.452456e-01 4.438368e-01 3.944804e-01
<GCONST> 1.255224e+02
<TRANSP> 5
 0.000000e+00 1.000000e+00 0.000000e+00 0.000000e+00 0.000000e+00
 0.000000e+00 8.760921e-01 1.239079e-01 0.000000e+00 0.000000e+00
 0.000000e+00 0.000000e+00 6.565500e-01 3.434500e-01 0.000000e+00
 0.000000e+00 0.000000e+00 0.000000e+00 4.118424e-01 5.881576e-01
 0.000000e+00 0.000000e+00 0.000000e+00 0.000000e+00 0.000000e+00
<ENDHMM>
~h "d"
<BEGINHMM>
<NUMSTATES> 5
<STATE> 2
<MEAN> 39
 3.305879e-01 3.106541e+00 -1.101391e+00 -2.776003e+00 1.042951e+01 -1.343184e+01 5.682520e+00 9.192503e+00 6.618063e+00 5.597067e-02 5.963860e-01 -2.478266e-02 6.715020e+01 2.610414e-01 5.907205e-01 1.261856e-02 4.240651e-01 4.133583e-02 -5.024154e-02 -1.699355e-01 1.271017e+00 2.159940e-02 8.318815e-01 -2.661263e-01 5.646765e-03 -1.030540e+00 -1.134434e-01 -6.026971e-03 1.492590e-01 9.558906e-02 -7.764995e-05 -4.341982e-03 6.393892e-02 -7.760870e-02 -2.327002e-02 4.352003e-02 1.253451e-01 5.967998e-02 -2.945388e-02
<VARIANCE> 39
 5.348178e+01 3.109363e+01 3.968613e+01 6.912066e+01 3.306525e+01 1.351304e+02 5.597304e+01 8.162046e+01 7.163625e+01 7.946108e+01 2.181604e+01 2.555482e+01 5.524756e+01 7.182770e-01 7.648875e-01 2.023205e+00 1.219882e+00 1.281127e+00 3.721742e+00 3.408873e+00 2.658365e+00 4.092015e+00 6.041193e+00 1.805560e+00 1.395818e+00 1.216981e+00 5.581123e-02 1.740828e-01 2.194561e-01 1.865466e-01 2.348025e-01 3.698197e-01 5.176877e-01 4.222251e-01 6.734474e-01 8.867522e-01 3.048150e-01 2.835585e-01 1.092632e-01
<GCONST> 1.142512e+02
<STATE> 3
<MEAN> 39
 -4.714348e+00 7.162298e+00 5.774240e+00 5.206093e+00 1.168003e+01 -3.182251e+00 6.059460e+00 7.134665e+00 2.170190e+00 2.389466e+00 3.293401e+00 4.058511e-01 5.737480e+01 -3.640577e-01 6.309038e-01 2.589009e-01 1.721241e-01 -1.359208e-01 4.959801e-01 4.289980e-01 1.118218e+00 1.453686e-01 5.922030e-01 6.917009e-02 2.123669e-01 -1.258627e+00 -2.310068e-01 -7.939983e-01 -3.161058e-01 -6.098855e-01 -1.153559e-01 -3.453568e-01 2.749166e-01 -5.414562e-01 2.318127e-01 -6.638776e-01 1.431249e-01 -8.329929e-02 8.737247e-01
<VARIANCE> 39
 4.383996e+01 5.237076e+01 3.452559e+01 7.551092e+01 5.683976e+01 6.268814e+01 4.685409e+01 6.696573e+01 4.951383e+01 4.965643e+01 2.647603e+01 2.876350e+01 4.773492e+01 1.105919e+00 1.547720e+00 1.784859e+00 1.604679e+00 1.548740e+00 2.893731e+00 2.332099e+00 1.844533e+00 2.352756e+00 3.235324e+00 1.460745e+00 1.375371e+00 1.422886e+00 7.413346e-02 7.069412e-01 2.416945e-01 5.222697e-01 3.988929e-01 5.940903e-01 6.194863e-01 5.684533e-01 6.941806e-01 7.851151e-01 3.576427e-01 2.501860e-01 5.087295e-01
<GCONST> 1.182505e+02
<STATE> 4
<MEAN> 39
 -6.691195e+00 -3.771823e+00 5.285833e+00 5.350410e-01 8.647914e+00 -6.478155e+00 4.990060e+00 -1.119363e-02 -4.237391e-01 -3.067962e+00 6.499756e+00 2.542945e+00 6.339490e+01 -1.004113e-01 -8.493758e-01 -6.547148e-01 -8.575642e-01 -8.669395e-01 -4.977440e-01 1.827893e-01 -1.162853e-01 -2.769690e-01 -5.021642e-01 4.851169e-01 2.606456e-01 6.409280e-01 9.328581e-02 2.195996e-01 -1.078880e-01 2.445157e-02 1.366977e-02 -5.334991e-02 -5.038306e-03 1.081038e-01 3.889439e-02 1.790294e-01 -1.404549e-01 -8.867093e-02 -1.011729e-01
<VARIANCE> 39
 2.386371e+01 7.297229e+01 2.498260e+01 4.705478e+01 3.023693e+01 3.953798e+01 5.803732e+01 7.094515e+01 6.554627e+01 4.836763e+01 2.389735e+01 4.455393e+01 8.095979e+01 2.070497e+00 9.117009e+00 1.998440e+00 4.821394e+00 2.705214e+00 4.568000e+00 6.804911e+00 6.743031e+00 5.270181e+00 7.101193e+00 2.436794e+00 1.663790e+00 8.063027e+00 2.805773e-01 1.440735e+00 2.446110e-01 6.547307e-01 4.549290e-01 8.493267e-01 1.436576e+00 1.079674e+00 1.037199e+00 1.162951e+00 4.340736e-01 2.608207e-01 1.280641e+00
<GCONST> 1.347047e+02
<TRANSP> 5
 0.000000e+00 1.000000e+00 0.000000e+00 0.000000e+00 0.000000e+00
 0.000000e+00 5.797425e-01 4.202575e-01 0.000000e+00 0.000000e+00
 0.000000e+00 0.000000e+00 4.589485e-01 5.410515e-01 0.000000e+00
 0.000000e+00 0.000000e+00 0.000000e+00 7.922173e-01 2.077827e-01
 0.000000e+00 0.000000e+00 0.000000e+00 0.000000e+00 0.000000e+00
<ENDHMM>
~h "f"
<BEGINHMM>
<NUMSTATES> 5
<STATE> 2
<MEAN> 39
 -1.358200e+01 3.907091e+00 2.237169e+00 3.931780e+00 2.210846e+01 -1.221346e+01 2.298166e-01 -2.926859e+00 1.970832e+00 -1.744792e+00 7.169258e+00 -9.875648e+00 6.972462e+01 -2.044570e+00 7.005592e-01 2.974926e-02 -4.592310e-01 5.890962e-01 8.039499e-01 9.019589e-01 -3.588670e-01 3.484329e-01 -5.537878e-01 -1.228490e-01 4.698817e-01 7.452930e-01 -4.372241e-02 -1.831159e-01 9.544541e-03 9.464362e-02 -2.902195e-01 2.019805e-01 -6.000723e-02 9.587257e-02 -6.220593e-03 -6.982091e-02 -1.703063e-01 8.470495e-02 -1.270900e-01
<VARIANCE> 39
 6.639868e+01 5.302005e+01 3.619995e+01 9.473377e+01 4.391644e+01 7.301891e+01 1.383770e+02 5.831349e+01 3.425296e+01 4.811975e+01 3.510208e+01 6.755781e+01 2.295393e+01 7.253781e+00 2.253033e+00 1.644832e+00 2.983805e+00 2.770440e+00 5.227836e+00 4.671532e+00 3.913337e+00 2.959538e+00 2.892835e+00 2.529577e+00 3.562024e+00 2.635264e+00 7.298720e-01 5.207578e-01 3.144773e-01 3.920859e-01 5.570104e-01 8.224674e-01 1.077874e+00 1.205636e+00 4.238619e-01 6.525800e-01 4.116072e-01 6.159257e-01 2.697954e-01
<GCONST> 1.310962e+02
<STATE> 3
<MEAN> 39
 -2.916850e+01 4.618026e+00 -3.072875e+00 -6.632190e+00 1.730374e+01 -2.702274e+00 1.135718e+01 -2.131977e+00 6.947645e+00 -1.458715e+00 5.710579e+00 -2.269194e+00 6.832327e+01 -4.825667e-01 -8.697781e-01 -3.892034e-01 -3.842624e-01 -3.068904e-01 4.366754e-01 7.741204e-02 1.902020e-01 2.860509e-02 -1.742315e-01 -4.472198e-01 -2.737195e-01 -1.970550e-01 5.913848e-01 -2.646197e-02 3.618638e-02 -1.203322e-01 -1.293245e-01 -1.664519e-01 -1.386476e-01 8.486905e-02 -7.741393e-02 -1.589776e-02 -5.101859e-02 -4.354412e-02 -6.968377e-02
<VARIANCE> 39
 1.260181e+01 2.665510e+01 2.190449e+01 2.705168e+01 3.201835e+01 3.853756e+01 1.929410e+01 2.075872e+01 2.283867e+01 1.949837e+01 2.030876e+01 1.240122e+01 6.528037e+00 1.496183e+00 1.311325e+00 5.077434e-01 9.192126e-01 1.121443e+00 1.247644e+00 1.728613e+00 1.278540e+00 1.100360e+00 9.139954e-01 1.145755e+00 9.042856e-01 3.278484e-01 2.493798e-01 2.877972e-01 1.158716e-01 2.048405e-01 2.144739e-01 2.036173e-01 3.651915e-01 3.017826e-01 2.729370e-01 1.967935e-01 1.851499e-01 1.998499e-01 6.401218e-02
<GCONST> 8.977861e+01
<STATE> 4
<MEAN> 39
 -1.323799e+01 4.240911e+00 -4.822283e+00 -1.352462e+01 1.206217e+01 -4.099188e+00 6.645664e+00 2.196288e+00 6.016350e+00 -3.951722e+00 1.264250e+00 -3.037213e+00 6.699924e+01 4.570194e+00 1.376298e+00 -2.058909e-02 -7.635374e-01 -1.071860e+00 -1.231254e+00 -1.806083e+00 1.033115e+00 2.692133e-01 1.947382e-01 -4.408782e-01 -9.719556e-02 8.320427e-02 2.810909e-01 3.853887e-01 8.903321e-02 1.810758e-01 1.334848e-01 -2.217952e-02 4.168634e-02 2.975001e-01 3.270265e-02 6.946961e-02 1.330750e-01 7.033575e-02 1.155815e-01
<VARIANCE> 39
 1.678997e+02 4.782361e+01 2.488275e+01 2.878988e+01 3.954150e+01 4.144917e+01 4.069751e+01 3.330988e+01 2.986197e+01 3.742901e+01 1.638563e+01 1.902639e+01 7.359927e+00 5.218731e+00 4.706986e+00 2.605870e+00 5.109666e+00 4.071537e+00 2.685464e+00 3.068624e+00 4.365984e+00 4.729303e+00 4.507593e+00 1.599788e+00 2.985746e+00 9.376207e-01 1.480328e+00 1.353973e+00 4.841096e-01 7.865744e-01 7.523690e-01 5.189186e-01 6.738290e-01 8.105000e-01 7.146776e-01 7.983505e-01 2.423583e-01 6.575804e-01 1.926108e-01
<GCONST> 1.260891e+02
<TRANSP> 5
 0.000000e+00 1.000000e+00 0.000000e+00 0.000000e+00 0.000000e+00
 0.000000e+00 7.999575e-01 2.000425e-01 0.000000e+00 0.000000e+00
 0.000000e+00 0.000000e+00 8.966221e-01 1.033780e-01 0.000000e+00
 0.000000e+00 0.000000e+00 0.000000e+00 7.932982e-01 2.067018e-01
 0.000000e+00 0.000000e+00 0.000000e+00 0.000000e+00 0.000000e+00
<ENDHMM>
~h "g"
<BEGINHMM>
<NUMSTATES> 5
<STATE> 2
<MEAN> 39
 -9.260871e-01 6.982779e+00 5.118901e+00 6.452261e+00 1.748155e+01 -9.476307e+00 -3.190283e+00 4.940810e+00 2.498221e+00 -5.566035e+00 7.909935e+00 -5.480371e+00 6.348519e+01 3.491350e-01 1.014959e+00 5.646443e-01 1.078142e+00 4.252764e-01 5.359167e-01 -5.836855e-01 9.787363e-01 7.661753e-01 2.033549e+00 -8.766614e-01 -1.762907e-01 -1.858119e+00 1.437642e-01 -3.788950e-02 -8.279965e-02 -4.188576e-01 -5.891286e-01 6.501733e-02 5.556095e-01 5.434365e-01 3.451419e-01 3.512135e-01 -5.804382e-01 6.391350e-04 -7.230598e-02
<VARIANCE> 39
 2.913226e+01 2.872134e+01 4.780994e+01 1.056413e+02 7.565228e+01 5.954736e+01 9.720563e+01 6.971448e+01 4.269613e+01 5.514358e+01 2.482544e+01 3.045314e+01 2.080875e+01 6.953976e-01 2.343953e+00 1.536373e+00 1.156865e+00 3.533885e+00 1.716101e+00 7.201915e+00 4.182878e+00 1.318365e+00 2.960526e+00 2.419633e+00 3.210964e+00 8.125738e-01 1.001377e-01 5.429242e-01 2.369619e-01 3.969053e-01 6.562192e-01 2.965087e-01 1.408882e+00 5.941921e-01 5.403047e-01 8.024096e-01 4.156225e-01 6.416633e-01 1.778872e-01
<GCONST> 1.200969e+02
<STATE> 3
<MEAN> 39
 -1.483192e+00 1.007949e+01 8.586191e+00 1.197227e+01 1.619927e+01 -7.673539e+00 -2.047157e+00 1.028618e+01 6.493939e+00 1.193297e+00 1.625230e+00 -6.710926e+00 5.577142e+01 -2.163969e-01 1.145702e+00 -1.082062e-01 -5.211672e-01 -9.792321e-01 1.217237e+00 1.375533e+00 3.815274e-01 2.753966e-01 1.103658e+00 -1.049554e+00 4.495887e-01 -1.617074e+00 -2.282027e-01 -4.664928e-01 -3.130523e-01 -8.353898e-01 8.087113e-03 1.149185e-01 3.353586e-01 -3.326204e-01 -2.919792e-01 -4.492190e-01 2.953949e-01 1.361600e-01 5.937613e-01
<VARIANCE> 39
 2.871797e+01 2.278038e+01 2.765236e+01 1.328156e+02 1.123522e+02 2.395511e+01 7.054967e+01 8.255063e+01 3.076203e+01 4.826133e+01 1.331880e+01 1.035413e+01 1.678947e+01 6.749193e-01 1.179592e+00 1.339308e+00 1.880723e+00 8.967376e-01 1.306788e+00 2.059004e+00 2.275906e+00 1.622681e+00 1.918150e+00 1.265695e+00 9.496769e-01 3.953639e-01 9.980913e-02 3.143375e-01 2.860691e-01 6.424527e-01 2.626790e-01 4.915465e-01 3.913335e-01 6.698024e-01 4.752719e-01 4.350373e-01 3.075737e-01 2.607151e-01 3.803241e-01
<GCONST> 1.071695e+02
<STATE> 4
<MEAN> 39
 -7.326358e+00 6.365770e+00 2.869150e+00 -3.862305e+00 1.319407e+01 -2.753324e+00 6.482242e+00 4.258625e+00 1.657712e+00 -2.802196e+00 4.845189e+00 -4.013224e+00 6.165755e+01 -8.354232e-01 -1.601631e+00 -2.201598e+00 -4.541658e+00 -5.639383e-02 -3.170187e-02 1.237930e+00 -6.250157e-01 3.404750e-02 -1.232722e+00 8.505746e-01 8.302501e-01 3.283766e+00 5.727729e-02 2.996111e-02 5.442576e-01 3.356835e-01 2.417645e-01 3.683876e-02 -5.096133e-01 -3.538197e-01 1.754798e-02 -2.695078e-01 1.731814e-01 -1.777783e-04 2.653456e-01
<VARIANCE> 39
 2.763420e+01 8.924187e+01 9.260718e+01 2.173265e+02 5.239085e+01 8.636172e+01 8.232800e+01 7.365674e+01 9.308127e+01 5.892056e+01 3.392418e+01 1.428712e+01 1.089038e+02 1.841239e+00 4.347302e+00 7.594395e+00 1.021253e+01 4.348605e+00 6.554769e+00 9.091335e+00 6.212686e+00 6.509914e+00 4.856238e+00 3.404018e+00 1.450077e+00 1.172534e+01 5.380538e-01 1.416024e+00 2.481157e+00 3.875723e+00 5.968742e-01 1.479756e+00 1.508506e+00 1.130459e+00 1.192923e+00 1.038099e+00 7.778605e-01 2.244256e-01 3.381606e+00
<GCONST> 1.494230e+02
<TRANSP> 5
 0.000000e+00 1.000000e+00 0.000000e+00 0.000000e+00 0.000000e+00
 0.000000e+00 4.099265e-01 5.900735e-01 0.000000e+00 0.000000e+00
 0.000000e+00 0.000000e+00 6.393576e-01 3.606424e-01 0.000000e+00
 0.000000e+00 0.000000e+00 0.000000e+00 6.845282e-01 3.154719e-01
 0.000000e+00 0.000000e+00 0.000000e+00 0.000000e+00 0.000000e+00
<ENDHMM>
~h "k"
<BEGINHMM>
<NUMSTATES> 5
<STATE> 2
<MEAN> 39
 -1.055772e+01 -1.168127e+00 -2.529590e+00 -1.588963e+00 6.880001e+00 2.056056e+00 6.199774e+00 1.288083e+00 -9.649547e+00 1.901245e+00 1.003074e+01 7.655659e+00 5.129590e+01 -1.172714e-01 8.361039e-01 1.443552e-01 8.617444e-02 -7.196078e-02 4.026320e-01 9.846610e-02 5.277206e-01 -8.938938e-02 3.317928e-03 -4.321170e-01 3.027638e-02 -8.819769e-01 -5.686780e-02 -1.047315e-01 4.559270e-02 -9.022313e-03 -2.855771e-02 -7.128961e-02 3.331903e-02 -1.118552e-02 1.755447e-01 1.015138e-02 -4.804617e-02 -1.222119e-01 1.356942e-01
<VARIANCE> 39
 2.142053e+01 5.782887e+01 6.473542e+01 3.732858e+01 3.382717e+01 7.015095e+01 2.732418e+01 4.581131e+01 9.066835e+01 3.107286e+01 2.377581e+01 5.162206e+01 6.173850e+01 7.579618e-01 6.837291e-01 1.170233e+00 9.446570e-01 1.296349e+00 1.129765e+00 1.429017e+00 1.469101e+00 2.056628e+00 1.455807e+00 1.268308e+00 1.317174e+00 5.712242e-01 8.010723e-02 1.336531e-01 1.893152e-01 1.819665e-01 2.302676e-01 2.281375e-01 2.859829e-01 3.271630e-01 2.667156e-01 2.964886e-01 2.264582e-01 1.948394e-01 8.427264e-02
<GCONST> 1.009360e+02
<STATE> 3
<MEAN> 39
 -8.118432e+00 8.257504e+00 1.807514e+00 2.877318e+00 8.162378e+00 -3.991327e+00 4.277792e+00 6.248547e+00 3.602587e+00 6.205768e+00 5.203210e+00 -1.190804e+00 5.286310e+01 -1.192949e+00 -1.029728e+00 -5.218658e-01 -4.896210e-01 -4.985484e-01 -2.958573e-01 7.679211e-01 -2.353761e-01 6.458590e-01 -2.901031e-01 1.433855e-02 -1.256378e-01 5.328974e-01 -4.308967e-01 -1.317767e+00 -3.066567e-01 -4.159673e-01 5.119868e-03 -6.706197e-01 1.077443e-01 -5.306292e-01 2.732671e-01 -8.354750e-01 -9.477671e-03 -1.038782e-01 1.644269e+00
<VARIANCE> 39
 3.651402e+01 5.477388e+01 6.173506e+01 8.435552e+01 8.700456e+01 7.858126e+01 5.392243e+01 7.525199e+01 9.605742e+01 4.784060e+01 4.939833e+01 3.030975e+01 3.818370e+01 1.913082e+00 7.208213e+00 3.756237e+00 2.377618e+00 3.500414e+00 3.459381e+00 5.562521e+00 3.209207e+00 3.571348e+00 4.457345e+00 2.605939e+00 2.090298e+00 5.975675e+00 4.134027e-01 6.250764e-01 5.999123e-01 5.788625e-01 8.720508e-01 6.746146e-01 9.038266e-01 7.797203e-01 7.597206e-01 7.566984e-01 7.096573e-01 3.718523e-01 1.012490e+00
<GCONST> 1.356362e+02
<STATE> 4
<MEAN> 39
 -1.635564e+01 -7.653280e+00 -8.478296e-01 -1.747084e+00 6.257940e+00 -1.200821e+01 2.483812e+00 -2.400587e+00 7.191323e+00 -1.272523e+00 5.419811e+00 -3.258024e+00 7.204346e+01 -2.138947e-01 -9.339595e-01 8.412560e-02 -7.304248e-01 -1.794081e-01 -6.270506e-01 -7.370927e-01 -7.468899e-01 5.858750e-01 -1.923419e-01 5.274123e-01 -2.208644e-01 1.621067e+00 3.300793e-01 4.280134e-01 1.817245e-01 1.528213e-01 2.172856e-01 2.249928e-01 -1.271275e-01 1.274492e-01 -7.855451e-02 2.519930e-01 9.838899e-02 -2.136154e-02 -4.646460e-01
<VARIANCE> 39
 1.859730e+01 4.104161e+01 1.918444e+01 2.439557e+01 2.617252e+01 4.937728e+01 4.603203e+01 4.586551e+01 3.489061e+01 3.860727e+01 4.366806e+01 2.629372e+01 1.026280e+02 3.005705e+00 6.931304e+00 3.797715e+00 3.352184e+00 4.167379e+00 5.196546e+00 3.655035e+00 4.799457e+00 3.094086e+00 6.032929e+00 4.216412e+00 2.060354e+00 1.403857e+01 2.976555e-01 9.283965e-01 7.163517e-01 4.867706e-01 6.394135e-01 7.871212e-01 7.473141e-01 8.041600e-01 5.368138e-01 8.671588e-01 6.740331e-01 3.832091e-01 2.126825e+00
<GCONST> 1.325170e+02
<TRANSP> 5
 0.000000e+00 1.000000e+00 0.000000e+00 0.000000e+00 0.000000e+00
 0.000000e+00 7.715988e-01 2.284012e-01 0.000000e+00 0.000000e+00
 0.000000e+00 0.000000e+00 5.812763e-01 4.187237e-01 0.000000e+00
 0.000000e+00 0.000000e+00 0.000000e+00 8.178403e-01 1.821597e-01
 0.000000e+00 0.000000e+00 0.000000e+00 0.000000e+00 0.000000e+00
<ENDHMM>
~h "l"
<BEGINHMM>
<NUMSTATES> 5
<STATE> 2
<MEAN> 39
 2.339955e+00 1.060011e+01 1.468834e+01 3.874606e+00 -5.682776e+00 -2.367383e+01 2.160065e+00 9.968699e+00 5.625047e+00 -2.616762e+00 5.056181e+00 -3.601301e+00 6.259453e+01 3.147230e-02 3.037474e-01 4.651094e-01 4.513416e-01 -2.310049e-01 5.973949e-02 -2.840067e-01 1.166648e-01 -1.770105e-01 3.912235e-01 1.738025e-01 2.448441e-01 -4.882019e-01 -1.069861e-01 -1.394630e-01 -1.500833e-01 -2.000740e-01 1.273017e-01 2.108566e-01 9.384674e-03 -1.660748e-01 7.437342e-02 -6.837935e-02 2.475989e-02 4.760675e-02 1.187075e-01
<VARIANCE> 39
 1.385336e+01 3.109001e+01 5.377117e+01 8.028913e+01 8.442433e+01 1.151877e+02 4.719524e+01 4.376031e+01 7.527370e+01 7.914320e+01 3.964719e+01 4.546187e+01 4.914893e+01 5.159352e-01 8.974919e-01 1.188305e+00 2.140198e+00 2.422817e+00 4.870990e+00 2.322517e+00 2.581903e+00 2.522863e+00 2.827953e+00 2.113589e+00 2.122430e+00 6.369953e-01 7.229599e-02 1.916979e-01 2.106263e-01 3.095441e-01 3.266152e-01 5.853090e-01 3.515124e-01 5.256715e-01 5.189009e-01 4.830514e-01 4.512136e-01 3.677776e-01 1.176915e-01
<GCONST> 1.147786e+02
<STATE> 3
<MEAN> 39
 -1.163875e+00 1.180722e+01 1.326029e+01 7.189397e+00 9.093742e-01 -1.354902e+01 3.126973e+00 8.794809e+00 3.897788e+00 1.796068e+00 2.458079e+00 -1.392964e+00 5.680874e+01 -1.522347e+00 -1.624137e+00 -1.285070e+00 -1.281563e+00 1.561230e+00 1.267849e+00 3.311889e-01 -1.995923e+00 1.001083e+00 -5.817876e-01 5.070301e-01 1.175242e-01 1.643594e+00 -3.034008e-01 -6.528505e-01 -3.107612e-01 -3.856134e-01 -5.282242e-02 -5.363446e-01 3.812294e-01 -9.722651e-02 1.818257e-01 -5.975866e-01 1.394414e-01 -3.643113e-01 9.096931e-01
<VARIANCE> 39
 3.847646e+01 4.199318e+01 5.976956e+01 4.465239e+01 6.973241e+01 9.489944e+01 6.734097e+01 7.640868e+01 5.422707e+01 4.422511e+01 3.828598e+01 4.380420e+01 3.956305e+01 2.915146e+00 5.859909e+00 4.157273e+00 4.282041e+00 5.065972e+00 1.298113e+01 6.535569e+00 1.127490e+01 5.441645e+00 7.138582e+00 5.772767e+00 4.187164e+00 6.368555e+00 3.636315e-01 8.297420e-01 7.302406e-01 5.003536e-01 6.926414e-01 9.319107e-01 9.869973e-01 1.636032e+00 8.872374e-01 8.735343e-01 6.563671e-01 4.961729e-01 6.516839e-01
<GCONST> 1.421135e+02
<STATE> 4
<MEAN> 39
 -5.506378e+00 3.220230e+00 9.843860e+00 -2.778563e-01 2.501550e+00 -1.562262e+01 5.448383e+00 3.852129e+00 8.233851e+00 -4.716751e+00 3.876810e+00 -5.924936e+00 6.834779e+01 -2.387903e-01 -6.835454e-01 -7.593776e-01 -8.078900e-01 2.891956e-01 -3.286198e-01 4.841516e-01 -1.834071e-01 -2.018430e-02 -2.184324e-01 1.930179e-01 -9.256760e-02 9.479824e-01 3.685451e-01 3.767498e-01 5.706053e-03 3.318985e-01 -4.607003e-03 -7.336212e-03 -2.562816e-01 3.397759e-01 -2.203462e-01 3.247258e-01 -9.982834e-02 9.966306e-02 -5.240099e-01
<VARIANCE> 39
 7.129978e+01 6.362760e+01 4.487326e+01 6.477338e+01 1.365304e+02 1.433939e+02 1.135029e+02 1.074733e+02 5.820841e+01 5.824404e+01 6.124708e+01 5.063477e+01 4.931567e+01 4.132399e+00 3.834836e+00 4.787224e+00 4.855088e+00 6.995658e+00 8.794429e+00 6.369831e+00 7.956843e+00 4.537507e+00 4.914931e+00 4.491202e+00 2.493839e+00 5.259980e+00 6.081678e-01 6.710713e-01 6.741078e-01 7.849482e-01 1.083833e+00 1.244200e+00 1.177227e+00 1.479893e+00 8.024241e-01 8.997416e-01 1.025980e+00 5.580553e-01 8.548136e-01
<GCONST> 1.468454e+02
<TRANSP> 5
 0.000000e+00 1.000000e+00 0.000000e+00 0.000000e+00 0.000000e+00
 0.000000e+00 8.137751e-01 1.862249e-01 0.000000e+00 0.000000e+00
 0.000000e+00 0.000000e+00 5.882346e-01 4.117654e-01 0.000000e+00
 0.000000e+00 0.000000e+00 0.000000e+00 7.472416e-01 2.527584e-01
 0.000000e+00 0.000000e+00 0.000000e+00 0.000000e+00 0.000000e+00
<ENDHMM>
~h "m"
<BEGINHMM>
<NUMSTATES> 5
<STATE> 2
<MEAN> 39
 5.861475e+00 5.278677e+00 -8.062313e-01 6.377717e+00 1.191000e+01 -2.075687e+00 6.600782e+00 8.656354e+00 1.289662e-01 3.708609e-01 3.094267e+00 -9.411367e+00 6.312245e+01 -1.970817e-01 6.072180e-01 -2.177407e-01 -4.697625e-01 -1.405868e-01 -3.158931e-01 2.892845e-01 -4.219030e-01 9.128548e-01 -1.605151e-01 9.652909e-02 -3.414724e-01 -1.420514e-01 -5.880879e-01 1.517133e-01 -7.640951e-02 -7.237623e-01 2.347971e-02 -5.948519e-01 5.296668e-02 -4.030764e-01 6.907355e-01 -1.998565e-01 3.223711e-01 3.539753e-01 3.363748e-01
<VARIANCE> 39
 1.400558e+01 1.798988e+01 6.174292e+01 4.397409e+01 3.662831e+01 5.396025e+01 2.783886e+01 3.760130e+01 2.516673e+01 6.556821e+01 1.927859e+01 9.342907e+01 6.498913e+00 2.174751e+00 1.097755e+00 2.787619e+00 2.113212e+00 1.515689e+00 4.282574e+00 2.056432e+00 3.519691e+00 4.030616e+00 3.114387e+00 2.021028e+00 3.525182e+00 8.148259e-01 1.441198e-01 2.057977e-01 3.309965e-01 3.334812e-01 4.194929e-01 8.151243e-01 4.242461e-01 5.843634e-01 6.266540e-01 4.081285e-01 4.060095e-01 8.149276e-01 1.336042e-01
<GCONST> 1.145421e+02
<STATE> 3
<MEAN> 39
 1.677861e+00 7.514342e+00 -3.572727e+00 5.500033e-01 1.454609e+01 -7.915119e+00 6.462918e+00 5.176886e+00 5.993922e+00 -2.384701e+00 5.285503e+00 -5.962821e+00 6.448951e+01 -1.640974e+00 4.949496e-01 9.576705e-02 -2.075663e+00 -2.012025e-01 -1.995240e+00 1.193702e-01 -1.269515e+00 1.851404e+00 -4.362553e-01 1.093261e+00 1.030369e+00 8.580680e-01 1.199680e-02 -1.868714e-01 1.529565e-01 -7.560748e-02 -2.015995e-01 6.409230e-02 7.896705e-02 3.251576e-01 -2.420530e-01 -4.272312e-04 8.579284e-03 1.626935e-01 1.502260e-02
<VARIANCE> 39
 1.914985e+01 2.319219e+01 3.570488e+01 4.611546e+01 4.717269e+01 3.317314e+01 4.038330e+01 5.524011e+01 3.849296e+01 6.064146e+01 2.368550e+01 4.508413e+01 1.606096e+01 2.999259e+00 2.350372e+00 2.761951e+00 4.042624e+00 3.653407e+00 1.067992e+01 4.691791e+00 5.546312e+00 5.349307e+00 3.441039e+00 2.362545e+00 6.514355e+00 1.536364e+00 3.310498e-01 3.994847e-01 3.033601e-01 8.481387e-01 4.089921e-01 5.083649e-01 7.530165e-01 9.017915e-01 7.676725e-01 4.969094e-01 4.913332e-01 7.115541e-01 2.769185e-01
<GCONST> 1.264783e+02
<STATE> 4
<MEAN> 39
 -4.458902e+00 5.337012e+00 -1.568654e+00 7.230279e-01 1.340293e+01 -1.126142e+01 6.795752e+00 8.063219e-01 1.039612e+01 -3.093421e-03 1.056993e+01 -4.117387e+00 6.530064e+01 -1.392856e+00 -3.775873e-01 2.284198e-01 -1.878949e+00 -3.277772e-01 -1.013383e+00 5.398302e-01 -3.976315e-02 7.952254e-01 -6.741886e-01 2.261449e-01 3.256789e-01 1.235820e+00 1.230706e-01 -3.160990e-01 8.889556e-02 1.024030e-01 5.326771e-02 2.628506e-01 4.797897e-02 5.149207e-01 -5.274071e-01 -1.164450e-01 -3.193934e-01 1.090331e-02 1.841457e-02
<VARIANCE> 39
 5.991085e+01 6.330868e+01 2.681316e+01 8.075963e+01 4.079964e+01 7.085789e+01 3.505841e+01 3.998629e+01 2.674135e+01 6.485966e+01 4.182100e+01 2.930259e+01 3.460953e+01 6.293705e+00 6.046799e+00 3.558116e+00 4.670268e+00 4.164502e+00 7.406550e+00 4.726997e+00 5.671887e+00 3.608518e+00 3.338366e+00 2.773773e+00 3.039544e+00 3.498592e+00 4.917624e-01 9.929801e-01 5.283656e-01 5.640101e-01 7.045017e-01 8.610475e-01 3.991123e-01 1.047680e+00 6.902046e-01 6.674668e-01 5.183577e-01 8.995675e-01 5.314714e-01
<GCONST> 1.344980e+02
<TRANSP> 5
 0.000000e+00 1.000000e+00 0.000000e+00 0.000000e+00 0.000000e+00
 0.000000e+00 7.229196e-01 2.770804e-01 0.000000e+00 0.000000e+00
 0.000000e+00 0.000000e+00 4.069872e-01 5.930128e-01 0.000000e+00
 0.000000e+00 0.000000e+00 0.000000e+00 4.365409e-01 5.634591e-01
 0.000000e+00 0.000000e+00 0.000000e+00 0.000000e+00 0.000000e+00
<ENDHMM>
~h "n"
<BEGINHMM>
<NUMSTATES> 5
<STATE> 2
<MEAN> 39
 -8.151988e-02 2.545956e+00 -2.702361e+00 -6.727133e-01 1.844971e+01 -1.219791e+01 3.849126e+00 4.158483e+00 6.252891e+00 -2.606605e+00 4.295159e+00 -1.612074e+00 6.996344e+01 4.647523e-01 9.869298e-01 2.114016e-01 1.697384e+00 2.984452e-01 1.792579e+00 -3.795929e-01 -5.708354e-01 3.557647e-02 1.344922e-01 -3.395100e-01 -1.460137e-02 -1.603747e+00 3.286277e-01 1.118404e-01 -3.054365e-02 5.767083e-01 -1.825233e-01 1.263351e-01 -5.862752e-02 9.131198e-02 -2.006603e-01 4.621564e-01 3.232215e-02 -3.177454e-01 -4.416121e-01
<VARIANCE> 39
 2.137811e+01 1.719047e+01 5.222670e+01 6.091796e+01 5.449676e+01 5.584139e+01 1.156088e+02 5.100871e+01 3.704003e+01 3.329627e+01 4.681503e+01 4.072023e+01 3.019170e+01 1.228863e+00 1.320790e+00 1.880996e+00 2.890807e+00 1.710813e+00 2.774471e+00 3.045090e+00 3.687542e+00 2.538224e+00 2.748721e+00 2.174026e+00 1.819146e+00 1.381757e+00 1.144136e-01 1.688625e-01 3.039459e-01 4.310007e-01 3.299777e-01 3.773250e-01 6.354567e-01 5.737872e-01 5.345411e-01 4.259776e-01 4.210312e-01 3.457690e-01 1.355050e-01
<GCONST> 1.157474e+02
<STATE> 3
<MEAN> 39
 2.885264e+00 5.661889e+00 -1.640864e+00 7.842283e+00 1.855290e+01 -7.002766e+00 3.398576e+00 3.676250e+00 2.766102e+00 8.370036e-01 3.938515e+00 -3.005885e+00 6.298380e+01 9.996884e-01 7.560841e-01 1.658297e-01 1.865281e+00 -6.733590e-02 1.309247e+00 -1.913341e-01 -9.502845e-02 -7.657449e-01 1.286792e+00 -6.386198e-01 -7.785165e-01 -1.705803e+00 -1.655632e-01 -1.604786e-01 -1.601969e-02 -4.774854e-01 -9.667172e-02 -3.831007e-01 5.599236e-02 7.276623e-03 1.359740e-01 2.275447e-02 7.818109e-02 -1.074306e-01 3.768083e-01
<VARIANCE> 39
 1.786080e+01 8.007104e+00 3.556313e+01 2.385497e+01 2.998428e+01 3.272564e+01 5.218576e+01 2.390008e+01 2.478078e+01 3.374959e+01 3.510953e+01 3.142444e+01 1.349515e+01 5.866712e-01 1.131231e+00 1.418345e+00 1.772714e+00 1.730541e+00 1.988334e+00 2.010348e+00 1.862325e+00 2.400464e+00 2.281555e+00 1.293168e+00 1.587676e+00 9.454494e-01 6.123241e-02 9.063778e-02 1.598282e-01 2.297872e-01 1.511534e-01 2.591506e-01 3.063716e-01 2.184191e-01 3.083899e-01 3.102939e-01 2.541124e-01 2.335524e-01 5.803228e-02
<GCONST> 9.671004e+01
<STATE> 4
<MEAN> 39
 4.033257e+00 8.726990e+00 7.889879e-01 9.949202e+00 1.703187e+01 -4.396052e+00 1.715646e+00 4.643246e+00 1.948026e+00 5.497989e+00 1.261542e+00 -4.803272e+00 5.829299e+01 7.148671e-02 5.990962e-01 2.254735e-01 9.007420e-02 -3.102477e-01 3.513958e-01 -2.564141e-01 3.261040e-02 1.412053e-04 3.823979e-01 -2.430110e-01 2.499369e-02 -6.428512e-01 -2.317038e-01 -8.110206e-02 4.968579e-02 -3.539814e-01 5.215920e-02 -1.075839e-01 2.173293e-02 -4.535697e-02 1.785196e-01 -2.887445e-01 1.217164e-01 1.818639e-01 2.149070e-01
<VARIANCE> 39
 2.389842e+01 1.498567e+01 3.162807e+01 1.700161e+01 2.754234e+01 3.541279e+01 3.196761e+01 2.890188e+01 2.427336e+01 3.136792e+01 3.362469e+01 2.515481e+01 1.936726e+01 3.867868e-01 6.127884e-01 8.440709e-01 8.506504e-01 9.856775e-01 1.121007e+00 1.645409e+00 1.101979e+00 1.263310e+00 1.580372e+00 1.168368e+00 1.241023e+00 2.514798e-01 9.233241e-02 1.527303e-01 1.130351e-01 2.566088e-01 2.052741e-01 3.455073e-01 3.776318e-01 2.904042e-01 2.844169e-01 3.902857e-01 2.236490e-01 2.276819e-01 1.178908e-01
<GCONST> 9.253065e+01
<TRANSP> 5
 0.000000e+00 1.000000e+00 0.000000e+00 0.000000e+00 0.000000e+00
 0.000000e+00 5.616951e-01 4.383049e-01 0.000000e+00 0.000000e+00
 0.000000e+00 0.000000e+00 5.459063e-01 4.540937e-01 0.000000e+00
 0.000000e+00 0.000000e+00 0.000000e+00 7.903638e-01 2.096362e-01
 0.000000e+00 0.000000e+00 0.000000e+00 0.000000e+00 0.000000e+00
<ENDHMM>
~h "p"
<BEGINHMM>
<NUMSTATES> 5
<STATE> 2
<MEAN> 39
 -4.361826e-01 8.790421e+00 -6.414007e+00 -1.620207e+01 6.400685e+00 -8.846943e+00 1.382330e+01 4.363473e+00 3.897412e+00 1.605058e+00 4.934231e+00 1.574527e+00 6.414464e+01 -5.464412e-02 2.579057e-01 4.144271e-02 -1.193294e-01 6.494488e-02 3.332593e-01 2.528113e-01 2.120617e-01 -3.305855e-01 2.085828e-01 7.450449e-02 2.216828e-01 -4.658128e-01 -4.729649e-02 -8.267969e-02 1.022491e-02 1.609277e-01 1.029060e-01 7.041642e-03 1.853852e-02 -6.904598e-02 -5.471977e-02 1.951348e-02 2.100172e-02 -1.996433e-02 5.892956e-03
<VARIANCE> 39
 2.521823e+01 9.356915e+01 2.630186e+01 6.660101e+01 5.203659e+01 1.223297e+02 1.415296e+02 3.132840e+01 1.746847e+02 5.156767e+01 4.220771e+01 4.394635e+01 3.153378e+01 1.439873e+00 3.513546e+00 1.870867e+00 3.362255e+00 2.759833e+00 3.981224e+00 4.885566e+00 3.207680e+00 5.391024e+00 4.240547e+00 2.850241e+00 1.909272e+00 1.627268e+00 2.249919e-01 5.560058e-01 3.412493e-01 3.527628e-01 5.239874e-01 4.548229e-01 5.292768e-01 5.690989e-01 6.754227e-01 6.608447e-01 5.031028e-01 3.735575e-01 3.486385e-01
<GCONST> 1.277075e+02
<STATE> 3
<MEAN> 39
 -9.977522e+00 -1.363866e+00 -7.889540e+00 -6.363233e+00 1.011892e+01 -5.673645e+00 6.814616e+00 6.497295e-01 3.831206e+00 1.396208e+00 7.863368e+00 -3.040560e+00 6.632683e+01 -1.228212e+00 -2.985600e+00 -6.254529e-01 3.459098e-01 6.194416e-02 -1.227174e+00 -1.196130e+00 -1.952758e+00 1.029827e+00 -5.354801e-01 -8.177893e-02 -9.680274e-01 2.967979e+00 2.853244e-01 2.654929e-01 3.681128e-01 -1.732741e-01 -2.608086e-01 2.699485e-01 -2.428628e-02 -1.081196e-01 -4.374721e-01 2.722938e-02 -3.734101e-02 2.754517e-01 -3.893119e-01
<VARIANCE> 39
 2.304487e+01 7.486942e+01 3.523646e+01 3.079747e+01 2.981962e+01 4.367345e+01 4.271338e+01 6.375385e+01 5.376080e+01 3.572187e+01 3.020613e+01 2.743257e+01 1.146188e+02 2.220140e+00 5.517313e+00 4.169875e+00 5.643680e+00 4.291759e+00 4.803004e+00 3.743478e+00 3.895155e+00 2.830042e+00 5.046586e+00 3.731611e+00 3.770401e+00 1.104383e+01 4.485149e-01 1.311428e+00 9.176943e-01 1.128250e+00 6.416513e-01 1.035034e+00 6.394629e-01 9.358150e-01 4.421512e-01 1.292693e+00 6.773341e-01 5.296527e-01 3.656430e+00
<GCONST> 1.375909e+02
<STATE> 4
<MEAN> 39
 -9.959124e+00 -1.329783e+01 -3.753050e+00 -1.784386e+00 8.429337e+00 -4.058173e+00 -7.640489e-01 -9.063136e+00 -4.598255e-01 3.446830e+00 9.184934e+00 -6.955356e-01 6.504599e+01 5.833305e-01 -2.098792e-01 3.770415e-01 6.851904e-01 -2.345957e-01 4.750334e-01 1.755547e-01 3.883444e-01 -7.521055e-01 7.227025e-01 3.179565e-01 8.927674e-01 -1.407331e+00 2.298578e-02 2.749104e-01 -8.218737e-02 3.963386e-02 4.081100e-02 -2.271501e-02 1.850390e-01 2.811345e-01 -7.248389e-02 -9.021940e-02 4.537836e-02 5.015143e-02 -1.305727e-02
<VARIANCE> 39
 1.058156e+01 3.197942e+01 1.175759e+01 1.878805e+01 1.760054e+01 1.719593e+01 2.559658e+01 5.227983e+01 4.312518e+01 1.783708e+01 2.035589e+01 2.497842e+01 1.999377e+01 4.011862e-01 1.561593e+00 1.045243e+00 7.338616e-01 9.617422e-01 1.181494e+00 2.044462e+00 2.255105e+00 1.525775e+00 1.775176e+00 1.599577e+00 1.100783e+00 8.254561e-01 1.197999e-01 3.361814e-01 2.644613e-01 2.178445e-01 1.959915e-01 2.352723e-01 3.288404e-01 2.884969e-01 3.431883e-01 3.701738e-01 3.998577e-01 2.343533e-01 2.546057e-01
<GCONST> 9.667974e+01
<TRANSP> 5
 0.000000e+00 1.000000e+00 0.000000e+00 0.000000e+00 0.000000e+00
 0.000000e+00 9.308299e-01 6.917002e-02 0.000000e+00 0.000000e+00
 0.000000e+00 0.000000e+00 6.979032e-01 3.020968e-01 0.000000e+00
 0.000000e+00 0.000000e+00 0.000000e+00 8.075526e-01 1.924474e-01
 0.000000e+00 0.000000e+00 0.000000e+00 0.000000e+00 0.000000e+00
<ENDHMM>
~h "r"
<BEGINHMM>
<NUMSTATES> 5
<STATE> 2
<MEAN> 39
 9.018434e-01 6.782026e+00 -3.961474e+00 -1.042151e+01 1.168742e+01 -7.975466e+00 4.610348e+00 2.915473e-01 2.656815e+00 -4.144444e+00 6.445429e+00 2.242632e+00 6.464570e+01 1.464700e-01 8.458914e-01 -1.323400e-01 -7.705200e-01 -1.047143e+00 8.797193e-01 1.677440e+00 7.291706e-01 -1.330135e+00 -8.394503e-01 3.704365e-01 7.852290e-01 -4.484533e-01 -7.137151e-02 5.201979e-02 1.247632e-01 1.654113e-01 -7.780764e-03 1.695259e-03 -1.721218e-01 9.169652e-02 -1.311075e-01 -6.080032e-02 -5.810758e-02 -8.881994e-02 -7.751668e-02
<VARIANCE> 39
 4.652999e+01 9.231123e+01 2.964308e+01 8.800475e+01 8.305024e+01 9.919857e+01 5.226516e+01 7.530806e+01 7.020226e+01 7.240891e+01 3.702169e+01 5.501864e+01 4.770109e+01 7.345714e-01 1.113493e+00 1.318133e+00 3.785420e+00 1.674250e+00 3.357316e+00 4.772759e+00 2.698064e+00 3.325737e+00 5.791320e+00 1.831038e+00 2.814451e+00 1.166187e+00 6.145317e-02 1.768951e-01 2.620231e-01 2.840016e-01 2.468345e-01 4.064672e-01 4.835475e-01 4.807034e-01 4.233274e-01 6.028215e-01 3.886247e-01 3.808057e-01 6.246284e-02
<GCONST> 1.187335e+02
<STATE> 3
<MEAN> 39
 3.150914e+00 1.390251e+01 -4.077936e+00 -1.522708e+01 8.737716e+00 -6.057203e+00 1.189022e+01 7.193460e+00 -2.139529e+00 -1.139305e+01 5.930001e+00 3.948165e+00 6.469335e+01 1.055593e-01 5.968606e-01 2.493857e-01 3.937679e-01 -2.080536e-01 5.763004e-01 4.196665e-01 3.792330e-01 -1.015413e+00 -8.152319e-01 -7.257181e-02 2.858311e-01 -4.501454e-01 -5.212239e-02 -2.179983e-01 -7.118531e-02 1.792498e-01 3.118868e-01 3.454217e-02 -2.477004e-01 -2.717382e-01 1.985460e-01 -8.820944e-03 7.338050e-02 1.846108e-02 7.097659e-02
<VARIANCE> 39
 2.569264e+01 7.183506e+01 3.319767e+01 9.738313e+01 8.019069e+01 7.787289e+01 3.853385e+01 9.815060e+01 7.521073e+01 1.166430e+02 3.310788e+01 4.990004e+01 5.831270e+01 4.219596e-01 7.462860e-01 1.052941e+00 2.103460e+00 1.399958e+00 2.470659e+00 1.516442e+00 2.350583e+00 1.719529e+00 4.036103e+00 1.668463e+00 1.756854e+00 7.294569e-01 6.257562e-02 1.415171e-01 1.216606e-01 3.946263e-01 2.404291e-01 3.484234e-01 2.248819e-01 4.089646e-01 3.023950e-01 4.792220e-01 3.615460e-01 2.780432e-01 1.120363e-01
<GCONST> 1.106135e+02
<STATE> 4
<MEAN> 39
 1.073210e+00 9.600837e+00 -5.859342e+00 -1.142382e+01 1.599360e+01 -2.725731e+00 5.166983e+00 2.661310e-01 -1.321850e+00 -1.445082e+01 8.910083e+00 5.106049e+00 6.762263e+01 -6.709136e-01 -1.338493e+00 -3.435784e-02 1.905137e+00 1.602799e+00 -1.973445e-01 -1.770275e+00 -1.023677e+00 7.156126e-01 1.419640e+00 7.002939e-01 -2.264429e-01 3.921551e-01 -1.493040e-01 -2.411593e-01 2.386073e-01 3.307975e-01 -1.139436e-01 -2.774364e-01 -3.995376e-02 1.255570e-01 4.165298e-01 4.848727e-01 -1.785307e-01 -3.005641e-01 -1.957888e-02
<VARIANCE> 39
 3.066140e+01 5.748442e+01 3.361750e+01 9.724630e+01 1.042703e+02 6.474938e+01 9.105593e+01 9.741560e+01 9.732622e+01 1.427201e+02 5.039439e+01 3.784848e+01 5.364532e+01 1.020667e+00 3.646121e+00 2.069601e+00 6.708377e+00 6.186527e+00 5.675870e+00 5.919098e+00 5.950191e+00 5.756937e+00 9.410919e+00 4.785300e+00 4.577627e+00 2.473369e+00 2.336123e-01 4.369482e-01 3.780971e-01 1.007015e+00 9.350319e-01 8.657674e-01 1.071351e+00 8.758925e-01 8.052346e-01 1.665050e+00 8.737980e-01 7.897788e-01 2.986822e-01
<GCONST> 1.404678e+02
<TRANSP> 5
 0.000000e+00 1.000000e+00 0.000000e+00 0.000000e+00 0.000000e+00
 0.000000e+00 5.054023e-01 4.945977e-01 0.000000e+00 0.000000e+00
 0.000000e+00 0.000000e+00 7.046232e-01 2.953768e-01 0.000000e+00
 0.000000e+00 0.000000e+00 0.000000e+00 7.009010e-01 2.990990e-01
 0.000000e+00 0.000000e+00 0.000000e+00 0.000000e+00 0.000000e+00
<ENDHMM>
~h "s"
<BEGINHMM>
<NUMSTATES> 5
<STATE> 2
<MEAN> 39
 -1.332791e+01 -6.247717e+00 1.251604e+01 -2.398553e+00 1.473315e+01 -6.112077e+00 6.836039e+00 -6.166054e+00 4.481374e+00 -5.917614e+00 9.192714e+00 -2.397382e+00 7.370136e+01 -4.026057e+00 -2.345579e+00 2.717761e+00 1.934679e-01 -1.501280e+00 -8.822561e-01 2.137410e+00 2.511542e-01 2.096730e+00 7.360012e-01 5.468360e-02 -5.745386e-01 1.408741e+00 -5.412401e-02 4.527498e-01 -3.115941e-01 -6.026711e-01 -3.312084e-01 8.441720e-03 2.614796e-01 3.370120e-01 -7.290832e-01 -5.426957e-01 1.195898e-01 4.481757e-02 9.984790e-03
<VARIANCE> 39
 6.315503e+01 2.674399e+01 6.838041e+01 2.387767e+01 6.218540e+01 2.706166e+01 5.163695e+01 5.578855e+01 7.370666e+01 4.235796e+01 1.719931e+01 2.491053e+01 2.763756e+01 2.538842e+00 3.983211e+00 3.943076e+00 6.416327e+00 2.761995e+00 3.621809e+00 6.206124e+00 5.141541e+00 8.154858e+00 4.751635e+00 2.439805e+00 1.991436e+00 9.391382e-01 8.240441e-01 4.008207e-01 8.040136e-01 5.154850e-01 5.417728e-01 5.200169e-01 1.176813e+00 8.450980e-01 1.098287e+00 1.020081e+00 4.608901e-01 2.753790e-01 2.571117e-01
<GCONST> 1.292426e+02
<STATE> 3
<MEAN> 39
 -2.795183e+01 -1.257421e+01 1.833356e+01 -8.859875e+00 3.605560e+00 -7.442730e+00 1.518686e+01 -5.223236e+00 4.092883e+00 -3.346977e+00 9.340304e+00 -5.349020e+00 7.768583e+01 -5.499130e-01 -3.102247e-01 -5.141814e-02 -1.141389e-01 -5.645433e-01 -1.491463e-01 2.146157e-01 3.619176e-01 -2.169109e-01 1.680808e-01 -1.070241e-02 7.307442e-02 -3.030148e-01 3.708371e-01 1.083487e-01 -1.686959e-01 2.761914e-01 2.101441e-01 4.048852e-02 -2.649658e-01 4.252470e-02 2.889895e-02 2.031546e-02 -1.088393e-02 1.334521e-01 -2.739907e-01
<VARIANCE> 39
 1.442460e+01 1.204422e+01 2.504204e+01 2.623321e+01 3.168143e+01 2.026567e+01 2.869869e+01 3.480706e+01 2.267978e+01 3.042679e+01 1.681171e+01 1.405646e+01 9.007711e+00 9.688589e-01 5.046306e-01 1.965479e+00 1.716276e+00 1.569943e+00 1.428150e+00 1.763812e+00 1.237999e+00 1.437426e+00 1.687053e+00 9.662688e-01 1.020773e+00 5.404696e-01 2.315329e-01 8.126913e-02 3.392386e-01 1.873446e-01 2.324966e-01 3.068649e-01 3.234422e-01 2.876487e-01 2.706314e-01 3.592152e-01 2.150570e-01 1.869605e-01 9.683315e-02
<GCONST> 9.361598e+01
<STATE> 4
<MEAN> 39
 -2.083336e+01 -1.160172e+01 1.448012e+01 -8.315374e-01 2.877493e+00 -5.351378e+00 9.238477e+00 -1.026534e+00 2.526659e+00 -8.593002e-01 8.032139e+00 -2.235798e+00 6.661710e+01 1.965016e+00 9.852118e-01 -5.431308e-01 9.548029e-01 -2.491377e-01 1.028492e+00 -9.197964e-01 3.843811e-01 -5.488600e-01 4.866928e-01 -2.948647e-01 1.275983e-01 -1.682827e+00 1.484859e-01 8.750982e-02 -6.667882e-02 -2.317465e-01 2.058564e-03 -2.670814e-02 3.220186e-02 -1.328984e-01 -6.520281e-03 -9.802748e-02 -1.253921e-01 -2.138527e-01 2.409053e-01
<VARIANCE> 39
 5.844861e+01 6.462376e+01 5.962466e+01 3.536253e+01 5.115567e+01 3.211433e+01 7.031868e+01 5.992601e+01 4.484391e+01 3.048588e+01 2.614944e+01 1.986320e+01 5.014309e+01 2.434121e+00 3.087235e+00 5.591956e+00 2.735641e+00 2.594261e+00 3.234918e+00 2.424550e+00 3.093927e+00 2.284012e+00 1.974216e+00 2.599381e+00 2.059053e+00 3.106721e+00 4.266481e-01 4.432787e-01 1.164866e+00 5.198915e-01 4.624088e-01 7.567895e-01 5.727596e-01 5.972785e-01 5.454395e-01 4.570550e-01 4.780377e-01 3.630498e-01 5.762052e-01
<GCONST> 1.259289e+02
<TRANSP> 5
 0.000000e+00 1.000000e+00 0.000000e+00 0.000000e+00 0.000000e+00
 0.000000e+00 7.410592e-01 2.589407e-01 0.000000e+00 0.000000e+00
 0.000000e+00 0.000000e+00 8.846950e-01 1.153050e-01 0.000000e+00
 0.000000e+00 0.000000e+00 0.000000e+00 8.401457e-01 1.598543e-01
 0.000000e+00 0.000000e+00 0.000000e+00 0.000000e+00 0.000000e+00
<ENDHMM>
~h "t"
<BEGINHMM>
<NUMSTATES> 5
<STATE> 2
<MEAN> 39
 -6.756694e+00 6.891070e+00 3.554265e+00 3.281954e+00 1.200390e+01 -1.673242e+00 3.848758e+00 3.486530e+00 1.387537e+00 5.739326e+00 6.074139e+00 -1.979720e+00 5.443962e+01 -6.830320e-01 -9.611702e-01 -1.071288e-02 -1.216396e+00 -3.462800e-01 7.689914e-02 7.389668e-01 -8.684607e-01 7.173564e-01 -9.356951e-01 -2.091258e-01 -1.764797e-02 1.052329e+00 -3.222612e-01 -6.302438e-01 2.691207e-01 -3.482302e-01 -6.595738e-02 -4.855497e-01 1.444282e-02 -4.231498e-01 2.742936e-01 -5.734674e-01 7.943217e-02 -2.393594e-01 1.085173e+00
<VARIANCE> 39
 4.787436e+01 7.206721e+01 8.324558e+01 7.200587e+01 7.883481e+01 5.126694e+01 4.854042e+01 4.815892e+01 4.466434e+01 4.399765e+01 3.635241e+01 3.235056e+01 4.259209e+01 3.156575e+00 9.181327e+00 6.505070e+00 5.183869e+00 3.783234e+00 3.456466e+00 3.644284e+00 5.728928e+00 4.637799e+00 4.902048e+00 3.571121e+00 2.411253e+00 8.663592e+00 4.509940e-01 9.605939e-01 9.115453e-01 6.531252e-01 6.946030e-01 6.803114e-01 5.418808e-01 1.050800e+00 6.225267e-01 5.958686e-01 5.264710e-01 2.872750e-01 1.012406e+00
<GCONST> 1.373824e+02
<STATE> 3
<MEAN> 39
 -1.465550e+01 -7.793791e+00 6.644067e+00 -7.292063e+00 6.527153e+00 -7.755148e+00 8.080143e+00 -2.617348e+00 7.994721e+00 -4.386940e+00 7.333897e+00 -4.134465e+00 7.048478e+01 -9.881022e-01 -1.696004e+00 1.441999e+00 -6.308433e-01 1.216125e-01 -1.695258e+00 -6.122668e-01 -1.922696e+00 2.690049e-01 -1.704534e+00 3.659512e-02 -4.315873e-01 3.208689e+00 5.664312e-01 9.112025e-01 -1.400771e-01 9.626796e-01 4.102044e-01 2.215790e-01 -5.840622e-01 5.065177e-01 -6.446316e-01 7.057510e-01 -9.254863e-03 2.406470e-01 -9.957753e-01
<VARIANCE> 39
 4.325262e+01 1.121751e+02 8.631116e+01 5.377037e+01 5.320009e+01 4.593689e+01 3.034941e+01 5.017656e+01 5.296554e+01 4.002255e+01 4.265115e+01 3.045502e+01 7.356040e+01 7.315326e+00 1.114657e+01 5.283696e+00 8.284806e+00 6.492898e+00 6.060998e+00 4.957457e+00 6.046834e+00 4.255104e+00 4.887711e+00 3.859444e+00 2.329739e+00 1.025499e+01 8.447430e-01 1.441719e+00 1.397429e+00 9.101018e-01 7.098070e-01 9.181322e-01 1.114973e+00 1.077802e+00 9.846615e-01 7.592178e-01 7.406213e-01 4.066291e-01 1.799759e+00
<GCONST> 1.449650e+02
<STATE> 4
<MEAN> 39
 -1.307712e+01 -8.420590e+00 6.793626e+00 -3.023490e+00 8.934280e+00 -5.831945e+00 3.279576e+00 -5.557753e+00 2.792961e+00 -3.301307e+00 8.278806e+00 -2.416090e+00 6.913231e+01 1.031824e+00 1.033993e+00 -4.121558e-01 6.922593e-01 2.293941e-01 1.972335e-01 -9.887534e-01 6.303300e-01 -8.856286e-01 3.264127e-01 -1.401606e-01 2.085813e-01 -1.003644e+00 5.149822e-02 1.639555e-01 -9.865807e-02 -4.967545e-02 -1.794067e-01 -2.103501e-02 2.154494e-01 4.030957e-01 1.045104e-01 2.287935e-01 -4.336398e-03 2.042113e-03 -2.423504e-01
<VARIANCE> 39
 4.219418e+01 8.677412e+01 5.456685e+01 4.752068e+01 5.411504e+01 6.672019e+01 5.118716e+01 6.010242e+01 5.027057e+01 4.209626e+01 3.892838e+01 2.342503e+01 3.851077e+01 3.602271e+00 4.021645e+00 4.145566e+00 4.026397e+00 4.387903e+00 3.049803e+00 5.790584e+00 4.087306e+00 3.489342e+00 2.571690e+00 2.281312e+00 1.582561e+00 3.051693e+00 4.049386e-01 5.127864e-01 5.610915e-01 7.426680e-01 5.180568e-01 5.779620e-01 7.110643e-01 6.744369e-01 5.929931e-01 5.907575e-01 4.643728e-01 2.613262e-01 5.531416e-01
<GCONST> 1.297922e+02
<TRANSP> 5
 0.000000e+00 1.000000e+00 0.000000e+00 0.000000e+00 0.000000e+00
 0.000000e+00 6.294349e-01 3.705651e-01 0.000000e+00 0.000000e+00
 0.000000e+00 0.000000e+00 5.174965e-01 4.825035e-01 0.000000e+00
 0.000000e+00 0.000000e+00 0.000000e+00 6.828154e-01 3.171846e-01
 0.000000e+00 0.000000e+00 0.000000e+00 0.000000e+00 0.000000e+00
<ENDHMM>
~h "v"
<BEGINHMM>
<NUMSTATES> 5
<STATE> 2
<MEAN> 39
 -7.820011e+00 1.199468e+01 -1.819642e+00 2.370899e+00 2.753827e+01 -1.251425e+01 6.940608e+00 -7.146574e+00 3.485313e+00 -3.474253e+00 8.791791e+00 -2.745388e+00 6.839238e+01 -4.881850e-01 3.255699e-02 6.793485e-01 6.255690e-01 1.621785e+00 -9.288388e-03 -5.081174e-01 -3.161672e-01 -2.808453e-01 -5.629391e-02 5.452275e-02 -7.990685e-01 -2.873655e-01 4.370608e-01 -9.662631e-01 2.534477e-01 4.965723e-01 -3.085787e-01 -1.811839e-01 -1.105869e+00 3.851039e-02 -3.569688e-01 -3.253932e-01 1.898774e-01 -5.064932e-01 4.374104e-01
<VARIANCE> 39
 1.443998e+01 1.173705e+01 1.172815e+01 8.418576e+00 1.962418e+01 2.193493e+01 3.975845e+01 2.182244e+01 1.590551e+01 2.680000e+01 1.340617e+01 1.318662e+01 7.783217e+00 3.602147e+00 6.225680e+00 1.084172e+00 2.375749e+00 9.305050e-01 1.312765e+00 9.589951e+00 1.494565e+00 4.164296e+00 2.358066e+00 1.245405e+00 2.351285e+00 7.246030e-01 4.504320e-01 2.413754e-01 1.792904e-01 3.267207e-01 2.084267e-01 4.071637e-01 5.563820e-01 3.887868e-01 7.522295e-01 4.542573e-01 2.934107e-01 2.126297e-01 2.309693e-02
<GCONST> 1.008003e+02
<STATE> 3
<MEAN> 39
 -4.735021e+00 1.736798e+00 4.155692e+00 1.345753e+01 3.090071e+01 -1.742327e+01 -6.480850e+00 -8.207403e+00 6.609166e-01 -8.872497e+00 1.004008e+01 -1.243786e+01 7.189702e+01 -2.036212e-01 -1.859795e+00 2.406797e+00 2.117738e+00 -5.570019e-01 -1.634957e+00 -1.494587e+00 2.889824e-01 1.287072e+00 -1.432961e+00 1.427246e-01 -2.012162e+00 1.007871e+00 -4.021713e-01 4.677379e-01 2.637771e-01 -3.986645e-01 -3.734455e-01 1.351161e-01 7.651573e-01 2.851001e-01 4.162664e-01 2.037484e-01 -2.331965e-01 4.810293e-01 -2.093671e-01
<VARIANCE> 39
 4.310799e+00 1.178861e+01 2.984662e+01 3.267822e+01 7.531855e+00 3.302108e+01 1.864815e+01 2.293889e+01 2.460238e+01 2.426794e+01 2.349597e+01 2.404569e+01 5.671220e+00 1.436840e+00 1.802636e+00 1.056541e+00 1.817461e+00 1.874347e+00 1.777316e+00 3.063079e+00 2.089808e+00 2.715551e+00 1.793193e+00 1.514655e+00 1.523668e+00 5.729578e-01 1.784726e-01 1.613216e-01 2.183724e-01 1.566340e-01 2.274196e-01 4.390081e-01 2.993411e-01 3.665108e-01 6.733654e-01 3.314593e-01 2.765938e-01 3.722784e-01 1.076176e-01
<GCONST> 9.761429e+01
<STATE> 4
<MEAN> 39
 -7.411559e+00 -2.642336e+00 1.658539e+01 1.605575e+01 2.777588e+01 -1.822099e+01 -8.589010e+00 -5.170607e+00 5.334532e+00 -1.177184e+01 9.319086e+00 -1.569513e+01 7.257053e+01 -1.852924e-01 -2.841331e-01 1.040075e+00 2.928846e-01 6.488398e-02 4.363953e-01 -3.959989e-02 2.607933e-01 -6.832314e-02 5.467203e-01 -1.518475e-01 8.716320e-02 -5.066177e-01 2.922880e-02 2.005923e-01 -3.529868e-01 -2.153891e-01 1.560377e-01 3.341208e-01 1.060555e-01 -6.007543e-02 -2.571383e-01 3.531255e-01 5.506150e-03 1.819631e-01 -2.384036e-01
<VARIANCE> 39
 4.086480e+00 1.206539e+01 1.440030e+01 1.350298e+01 1.049632e+01 3.046639e+01 2.922656e+01 1.914758e+01 1.466219e+01 2.874724e+01 1.565985e+01 1.564666e+01 6.960814e+00 2.175598e-01 3.041174e-01 1.669400e+00 9.671141e-01 1.045522e+00 1.673383e+00 1.367958e+00 2.052790e+00 1.218314e+00 1.957940e+00 1.228576e+00 1.127596e+00 3.546081e-01 5.135722e-02 6.691934e-02 1.606898e-01 1.694546e-01 1.936927e-01 2.673444e-01 3.386213e-01 3.496719e-01 2.886273e-01 3.337633e-01 2.963930e-01 2.682140e-01 8.381207e-02
<GCONST> 8.421746e+01
<TRANSP> 5
 0.000000e+00 1.000000e+00 0.000000e+00 0.000000e+00 0.000000e+00
 0.000000e+00 8.307275e-01 1.692725e-01 0.000000e+00 0.000000e+00
 0.000000e+00 0.000000e+00 7.413759e-01 2.586241e-01 0.000000e+00
 0.000000e+00 0.000000e+00 0.000000e+00 8.460944e-01 1.539056e-01
 0.000000e+00 0.000000e+00 0.000000e+00 0.000000e+00 0.000000e+00
<ENDHMM>
~h "w"
<BEGINHMM>
<NUMSTATES> 5
<STATE> 2
<MEAN> 39
 -1.016428e+01 8.968126e-01 5.912480e+00 4.222321e+00 1.677984e+01 -1.349721e+01 -6.266457e-01 -3.415842e+00 3.367454e+00 -4.421663e+00 7.811852e+00 -9.336926e+00 6.661691e+01 1.070490e+00 5.567239e-01 2.163850e-01 4.596649e-01 -2.560836e-01 -4.398941e-01 -6.430436e-01 -4.245147e-01 3.000393e-01 -8.782933e-02 -3.843590e-01 -5.742714e-01 3.994592e-01 2.470113e-01 2.374017e-01 -2.632118e-02 1.395674e-01 -1.900367e-01 -5.946919e-02 -1.775137e-01 1.251237e-01 7.622310e-02 1.133925e-01 -2.004003e-01 6.434680e-02 -1.944773e-01
<VARIANCE> 39
 8.414539e+01 1.083839e+02 3.852974e+01 9.757738e+01 7.519793e+01 1.526315e+02 1.247712e+02 8.740219e+01 5.184320e+01 3.927310e+01 6.281454e+01 5.306690e+01 6.656143e+01 3.725898e+00 6.622582e+00 2.668779e+00 4.960143e+00 3.772891e+00 9.344055e+00 6.623925e+00 5.289088e+00 5.932728e+00 5.666264e+00 3.454775e+00 2.813249e+00 5.876111e+00 8.092983e-01 1.019360e+00 6.284013e-01 9.724467e-01 5.526766e-01 9.824151e-01 8.985673e-01 9.454961e-01 7.312788e-01 1.070806e+00 4.834486e-01 5.997214e-01 6.598537e-01
<GCONST> 1.447121e+02
<STATE> 3
<MEAN> 39
 3.373055e+00 1.725274e+01 8.164730e+00 3.342437e+00 5.637572e+00 -1.834365e+01 -6.049796e+00 2.003617e+00 8.796253e+00 1.904283e+00 3.356747e-01 -4.299031e+00 5.888207e+01 8.698509e-01 -6.801001e-02 -6.676630e-01 9.125568e-02 -2.824512e-01 -1.787047e+00 -8.908105e-01 5.800692e-01 1.038239e+00 6.276070e-01 -4.604989e-01 -2.130843e-01 3.902016e-01 -1.263978e-01 -3.866329e-01 -3.196584e-01 -2.679354e-01 1.731852e-01 6.577837e-02 5.024186e-01 2.718496e-01 7.628480e-03 -1.924040e-01 4.618907e-02 -1.096005e-01 2.698363e-01
<VARIANCE> 39
 1.265192e+01 2.902155e+01 2.342395e+01 2.325209e+01 3.391494e+01 8.225645e+01 6.469303e+01 4.457013e+01 7.767928e+01 3.575740e+01 2.863976e+01 2.699065e+01 1.369139e+01 8.364865e-01 2.217441e+00 3.245546e+00 2.378153e+00 2.056562e+00 3.689646e+00 4.804956e+00 4.150498e+00 5.500476e+00 3.703743e+00 2.102010e+00 4.454931e+00 1.463131e+00 1.342718e-01 2.075768e-01 3.107547e-01 2.943711e-01 4.070231e-01 6.448579e-01 7.029010e-01 5.368243e-01 1.161705e+00 5.911015e-01 3.500347e-01 6.752561e-01 5.551465e-02
<GCONST> 1.172992e+02
<STATE> 4
<MEAN> 39
 2.343183e+00 8.171590e+00 1.245323e+00 3.962552e-01 1.447293e+01 -1.469765e+01 -5.008037e+00 2.349778e+00 7.265500e+00 -7.021387e+00 6.077962e+00 -9.885274e+00 6.778802e+01 -2.218846e-01 -1.412293e+00 -4.704799e-01 1.801293e-02 7.789491e-01 6.249121e-01 5.765095e-01 -1.700292e-01 -8.831548e-01 -6.510393e-02 2.030304e-01 5.580807e-01 9.633422e-01 -1.541435e-01 4.840833e-02 2.525308e-01 1.610222e-01 -3.535397e-02 2.539523e-01 7.210889e-02 -2.282209e-01 -2.934112e-01 4.045428e-01 1.611518e-01 2.863733e-01 -1.543428e-01
<VARIANCE> 39
 1.600853e+01 6.150508e+01 2.757409e+01 3.431920e+01 6.849986e+01 1.084155e+02 4.875961e+01 5.952267e+01 1.223971e+02 1.209215e+02 7.170361e+01 4.542472e+01 3.359425e+01 8.298244e-01 4.017892e+00 3.893029e+00 3.820949e+00 4.463251e+00 6.169443e+00 6.906987e+00 6.458519e+00 1.074415e+01 1.228985e+01 3.942937e+00 4.340485e+00 2.288613e+00 1.268152e-01 4.451704e-01 4.266048e-01 6.221153e-01 6.495871e-01 1.288994e+00 1.139289e+00 1.244073e+00 2.578065e+00 2.061525e+00 7.309142e-01 9.902481e-01 1.545979e-01
<GCONST> 1.385325e+02
<TRANSP> 5
 0.000000e+00 1.000000e+00 0.000000e+00 0.000000e+00 0.000000e+00
 0.000000e+00 7.739957e-01 2.260043e-01 0.000000e+00 0.000000e+00
 0.000000e+00 0.000000e+00 8.666531e-01 1.333469e-01 0.000000e+00
 0.000000e+00 0.000000e+00 0.000000e+00 8.245239e-01 1.754762e-01
 0.000000e+00 0.000000e+00 0.000000e+00 0.000000e+00 0.000000e+00
<ENDHMM>
~h "aa"
<BEGINHMM>
<NUMSTATES> 5
<STATE> 2
<MEAN> 39
 -1.821999e-01 4.454462e+00 -5.238420e+00 -1.154262e+01 5.388578e+00 -1.804126e+01 5.643287e+00 1.146105e+01 1.218375e+01 3.810999e+00 3.630396e+00 -2.621230e+00 6.501053e+01 1.243351e+00 4.890505e-01 -7.187058e-01 1.821492e-01 3.333874e-01 -1.177925e+00 6.236966e-01 1.000711e+00 -2.237020e-01 1.233746e-01 -3.410809e-02 3.933908e-01 2.356572e-01 -1.008640e-01 -1.079500e-01 -4.550274e-02 6.315475e-02 1.148162e-01 1.040514e-01 3.864986e-02 -1.634133e-01 -6.864972e-02 -2.658351e-01 3.520877e-02 6.899256e-02 8.583684e-02
<VARIANCE> 39
 2.844670e+01 4.336161e+01 3.068628e+01 7.477216e+01 4.584322e+01 1.003816e+02 8.396980e+01 6.145928e+01 4.551762e+01 4.791848e+01 2.728867e+01 2.953590e+01 2.237492e+01 1.702890e+00 3.230107e+00 2.284040e+00 5.077702e+00 3.155859e+00 3.477912e+00 3.106398e+00 3.284885e+00 2.183123e+00 3.817011e+00 1.705222e+00 2.200094e+00 1.209539e+00 4.008903e-01 3.923056e-01 2.603666e-01 6.218547e-01 4.419468e-01 4.332587e-01 5.661482e-01 5.356718e-01 4.040687e-01 5.492294e-01 2.444283e-01 4.423361e-01 1.603390e-01
<GCONST> 1.214335e+02
<STATE> 3
<MEAN> 39
 6.798005e+00 5.951708e+00 -9.562563e+00 -1.017849e+01 8.873124e+00 -2.315210e+01 6.894011e+00 1.373723e+01 1.159046e+01 1.157662e-01 4.864493e+00 -2.387923e-01 6.876601e+01 2.269800e-01 2.419007e-01 -7.708955e-01 -7.884834e-01 9.191348e-01 5.765976e-01 7.867056e-01 7.316233e-02 -6.284795e-01 -8.951494e-01 1.730700e-01 6.068677e-01 1.370347e-01 -2.119770e-01 3.965903e-02 3.052252e-01 -1.149617e-01 -1.986072e-01 2.657084e-01 1.009958e-01 -6.378985e-02 -1.852208e-01 -7.551257e-02 -1.107677e-01 -3.899242e-02 -5.449835e-02
<VARIANCE> 39
 1.317492e+01 2.249962e+01 2.566033e+01 6.903498e+01 5.186515e+01 9.030936e+01 5.456408e+01 6.404401e+01 4.665282e+01 4.742600e+01 3.807301e+01 4.147613e+01 1.510218e+01 2.223294e-01 6.030561e-01 1.630954e+00 2.736306e+00 2.371692e+00 2.125325e+00 1.312427e+00 1.620129e+00 2.040159e+00 3.040635e+00 2.073467e+00 1.466131e+00 3.051177e-01 5.421020e-02 8.692464e-02 2.005173e-01 2.500801e-01 3.189574e-01 2.307578e-01 2.743798e-01 3.283033e-01 2.727084e-01 3.771057e-01 3.132623e-01 2.118811e-01 2.976277e-02
<GCONST> 1.009809e+02
<STATE> 4
<MEAN> 39
 6.197956e+00 6.315970e+00 -9.647309e+00 -6.805474e+00 8.721427e+00 -2.096706e+01 1.459276e+01 1.244567e+01 9.751072e+00 3.345283e+00 1.504451e+00 -1.494784e+00 6.720100e+01 -2.553793e-01 -8.053230e-02 3.550264e-02 -4.081033e-01 7.392194e-01 1.276386e+00 3.512363e-01 -3.807591e-01 -8.627803e-01 -2.706820e-01 -2.449715e-01 -2.150483e-01 -1.824683e-03 -9.025197e-02 3.331315e-02 1.492386e-01 7.473546e-02 2.138367e-02 1.540790e-01 -1.527880e-01 -1.606936e-01 7.180886e-03 -3.640352e-02 1.557849e-02 9.107447e-02 -5.256041e-02
<VARIANCE> 39
 1.223981e+01 2.407535e+01 2.709244e+01 3.982570e+01 5.852874e+01 9.479610e+01 5.930196e+01 6.985934e+01 5.558092e+01 8.906725e+01 4.368344e+01 5.347371e+01 1.502799e+01 2.554463e-01 5.366094e-01 1.303048e+00 1.170914e+00 1.699452e+00 1.571084e+00 2.893272e+00 2.574765e+00 3.102854e+00 2.179400e+00 2.045234e+00 2.689261e+00 3.219187e-01 4.066792e-02 6.452912e-02 1.707228e-01 2.357774e-01 2.427029e-01 2.668466e-01 5.055214e-01 5.434356e-01 4.634957e-01 3.072353e-01 3.485264e-01 3.568987e-01 3.917519e-02
<GCONST> 1.037210e+02
<TRANSP> 5
 0.000000e+00 1.000000e+00 0.000000e+00 0.000000e+00 0.000000e+00
 0.000000e+00 7.907873e-01 2.092127e-01 0.000000e+00 0.000000e+00
 0.000000e+00 0.000000e+00 7.755257e-01 2.244743e-01 0.000000e+00
 0.000000e+00 0.000000e+00 0.000000e+00 7.891941e-01 2.108058e-01
 0.000000e+00 0.000000e+00 0.000000e+00 0.000000e+00 0.000000e+00
<ENDHMM>
~h "ae"
<BEGINHMM>
<NUMSTATES> 5
<STATE> 2
<MEAN> 39
 -1.356185e+00 -1.878356e+00 -6.474874e+00 -5.258021e+00 1.387651e+01 -1.153729e+01 2.893108e+00 2.227337e+00 8.220220e+00 1.771159e+00 1.221038e+01 -3.108119e+00 7.629704e+01 3.772868e-01 2.142304e-02 -5.233676e-01 -2.710983e-01 -1.154555e-01 -2.754647e-01 7.741548e-01 7.100861e-01 -2.354946e-01 4.112620e-02 -2.067074e-01 -1.027472e-01 -8.727375e-02 -1.093672e-01 4.130105e-02 5.488566e-02 1.291691e-02 -6.316267e-02 1.776141e-02 -3.946441e-02 -1.003589e-01 -1.225533e-01 -1.487960e-01 2.326847e-02 6.336792e-02 -8.100062e-02
<VARIANCE> 39
 8.998105e+00 5.239445e+00 2.311307e+01 5.698811e+01 4.001742e+01 2.170106e+01 4.872234e+01 3.739647e+01 1.879349e+01 3.652309e+01 1.834390e+01 2.298745e+01 1.463934e+01 5.828975e-01 5.831856e-01 1.012190e+00 1.277106e+00 1.155724e+00 1.393909e+00 1.597929e+00 1.562477e+00 1.800860e+00 1.817883e+00 1.516504e+00 1.341943e+00 1.655327e-01 7.636061e-02 9.748095e-02 1.197676e-01 2.032618e-01 1.880344e-01 2.338710e-01 2.641447e-01 2.459953e-01 3.184913e-01 2.404755e-01 3.019799e-01 2.411657e-01 2.572102e-02
<GCONST> 8.959182e+01
<STATE> 3
<MEAN> 39
 -4.559494e+00 3.258292e+00 -5.415051e+00 -6.536427e+00 6.200791e+00 -1.394236e+01 1.265449e+01 9.062295e+00 4.710871e+00 3.922852e+00 7.921564e+00 -2.779432e+00 6.552750e+01 -3.544793e-01 4.833834e-01 3.923547e-01 -3.861915e-02 -4.420006e-01 -1.082815e-01 -4.868870e-01 -1.583648e-01 4.762939e-02 -3.581936e-01 3.539545e-01 -2.030731e-01 -7.870439e-01 2.103677e-02 7.718195e-02 9.261089e-02 6.643017e-02 8.721175e-02 1.074043e-01 -2.308180e-01 -2.172603e-01 9.380163e-02 -5.997105e-03 8.934326e-02 -6.362449e-02 2.706760e-02
<VARIANCE> 39
 3.443640e+01 3.843622e+01 3.257306e+01 2.724059e+01 4.274867e+01 5.104541e+01 8.467031e+01 4.460063e+01 1.919619e+01 5.174727e+01 4.371880e+01 2.738490e+01 9.638120e+01 1.104098e+00 1.823121e+00 1.361896e+00 1.974327e+00 2.074038e+00 3.034388e+00 4.421127e+00 4.728920e+00 2.154658e+00 4.225992e+00 3.157297e+00 2.088285e+00 4.478069e+00 1.949111e-01 2.415536e-01 2.535123e-01 3.098097e-01 3.623869e-01 4.560854e-01 7.038924e-01 6.619398e-01 4.443752e-01 6.158437e-01 4.393541e-01 3.878478e-01 3.372371e-01
<GCONST> 1.199814e+02
<STATE> 4
<MEAN> 39
 -3.628412e+00 3.725100e-01 -5.788169e+00 -3.757086e+00 1.169176e+01 -1.310946e+01 3.794991e+00 2.604558e+00 2.767630e+00 -7.871128e-01 1.590392e+01 -3.702775e+00 7.008681e+01 -1.916903e-01 8.574176e-01 2.028147e-01 2.718971e-01 -3.379154e-01 5.119492e-01 1.853602e-01 -2.562610e-01 -3.117635e-01 2.822300e-01 -1.267993e-01 3.661872e-01 -8.997545e-01 3.788234e-02 1.094320e-01 8.420862e-02 -6.353019e-02 6.107150e-02 2.283542e-01 3.184054e-02 3.880624e-02 6.518049e-02 4.319388e-02 -3.375735e-01 6.907038e-02 -1.571020e-01
<VARIANCE> 39
 2.287557e+01 2.467416e+01 2.845538e+01 7.632069e+01 4.879276e+01 3.248880e+01 6.630374e+01 3.919145e+01 2.526368e+01 4.894738e+01 4.309609e+01 3.535652e+01 4.953875e+01 1.663776e+00 1.185606e+00 1.013178e+00 2.731698e+00 2.406201e+00 2.324709e+00 3.077897e+00 2.063193e+00 1.911134e+00 2.666859e+00 2.990405e+00 1.381556e+00 2.849340e+00 2.367655e-01 2.909808e-01 1.824616e-01 5.415655e-01 4.676690e-01 5.405722e-01 5.137001e-01 5.902852e-01 2.927814e-01 5.304478e-01 4.981844e-01 2.062678e-01 3.303505e-01
<GCONST> 1.158377e+02
<TRANSP> 5
 0.000000e+00 1.000000e+00 0.000000e+00 0.000000e+00 0.000000e+00
 0.000000e+00 8.962579e-01 1.037421e-01 0.000000e+00 0.000000e+00
 0.000000e+00 0.000000e+00 7.406653e-01 2.593348e-01 0.000000e+00
 0.000000e+00 0.000000e+00 0.000000e+00 7.658090e-01 2.341910e-01
 0.000000e+00 0.000000e+00 0.000000e+00 0.000000e+00 0.000000e+00
<ENDHMM>
~h "ah"
<BEGINHMM>
<NUMSTATES> 5
<STATE> 2
<MEAN> 39
 -5.852038e+00 1.124823e+00 4.372549e+00 6.582356e+00 1.599705e+01 -1.461357e+01 -3.870040e+00 2.531491e+00 2.790684e+00 -3.158338e+00 4.100622e+00 -9.047581e+00 6.730941e+01 3.950790e-01 1.604404e-01 2.635543e-01 6.516160e-01 4.554809e-01 -1.911433e-01 -2.921540e-01 8.088243e-02 -8.652140e-02 2.135632e-01 -3.307009e-02 -1.020408e-01 5.696043e-02 -1.003121e-02 1.825995e-02 6.908178e-02 1.021849e-01 1.517977e-02 1.264819e-01 -5.294142e-02 -7.777365e-02 -1.275261e-01 1.154478e-01 5.226666e-02 9.026358e-02 -1.142674e-01
<VARIANCE> 39
 6.291895e+01 2.696609e+01 6.399823e+01 1.098966e+02 1.089830e+02 7.692738e+01 9.250496e+01 7.209983e+01 5.833493e+01 6.994643e+01 5.075780e+01 5.029355e+01 1.144852e+02 1.030115e+00 1.268226e+00 1.448880e+00 2.481854e+00 2.076643e+00 6.750427e+00 4.002662e+00 4.903726e+00 2.159210e+00 3.963474e+00 3.393123e+00 2.917497e+00 5.165320e+00 1.666250e-01 1.901824e-01 2.328821e-01 4.527598e-01 3.448971e-01 9.876611e-01 7.583883e-01 7.153642e-01 3.874995e-01 5.789179e-01 5.535023e-01 4.239460e-01 4.533036e-01
<GCONST> 1.288311e+02
<STATE> 3
<MEAN> 39
 4.289510e-01 7.630753e+00 4.472621e+00 6.197437e+00 1.070164e+01 -9.428039e+00 1.551223e+00 9.317545e+00 3.925933e+00 1.063162e+00 2.423858e+00 -4.587884e+00 6.017875e+01 8.241269e-02 6.907004e-01 1.229428e-01 7.936396e-01 1.676546e-01 1.346236e+00 4.283851e-02 3.557253e-01 -6.556374e-01 1.171216e+00 -1.637546e-01 1.991699e-01 -1.452261e+00 -1.346624e-01 -6.743814e-02 9.562237e-02 -1.798157e-01 -1.207619e-02 -1.182343e-01 -5.374898e-02 -3.669506e-01 -4.999266e-02 -1.003788e-01 2.796595e-02 -1.689788e-01 2.088588e-01
<VARIANCE> 39
 5.909613e+01 2.793107e+01 7.414062e+01 8.276109e+01 1.144634e+02 6.791983e+01 5.257082e+01 4.983916e+01 3.494355e+01 4.182652e+01 3.514084e+01 2.632059e+01 6.601205e+01 3.872105e-01 1.112184e+00 8.425928e-01 1.804084e+00 1.045505e+00 2.817903e+00 2.109838e+00 2.880460e+00 1.962884e+00 1.938102e+00 1.922459e+00 2.444224e+00 1.152216e+00 5.187749e-02 8.012895e-02 1.431210e-01 2.053011e-01 1.953977e-01 4.396941e-01 4.005463e-01 2.991565e-01 3.002460e-01 3.752907e-01 2.956746e-01 2.431202e-01 6.431406e-02
<GCONST> 1.072846e+02
<STATE> 4
<MEAN> 39
 -5.903700e+00 9.984282e+00 6.887191e+00 8.046603e+00 1.293393e+01 -8.779955e-02 4.880759e+00 1.013570e+01 1.228298e+00 7.722326e+00 4.241096e+00 -1.697743e+00 5.114475e+01 -2.552570e-01 3.590021e-01 2.208490e-01 1.182846e-01 4.473114e-02 5.585197e-01 4.037769e-02 -9.122130e-02 -2.111748e-01 4.033005e-01 -9.981495e-02 1.632378e-01 -6.627906e-01 -9.170783e-02 -1.290250e-01 9.171356e-03 -9.184439e-02 -7.087328e-04 -1.326758e-01 3.959361e-03 -1.392038e-01 1.351930e-01 -1.699993e-01 5.979977e-02 -7.748782e-03 1.997014e-01
<VARIANCE> 39
 7.251396e+01 2.707272e+01 3.980005e+01 4.886807e+01 8.083308e+01 1.029416e+02 4.312228e+01 4.385752e+01 2.317781e+01 5.612287e+01 3.074956e+01 2.696685e+01 8.448551e+01 2.266449e-01 5.470080e-01 4.790391e-01 4.965473e-01 8.000701e-01 1.343908e+00 1.535119e+00 1.899883e+00 1.704800e+00 1.509658e+00 1.011670e+00 1.112082e+00 4.255511e-01 6.506958e-02 1.581288e-01 1.193188e-01 2.148130e-01 2.351468e-01 2.330214e-01 3.095478e-01 3.875421e-01 2.333914e-01 3.251187e-01 3.003507e-01 2.103755e-01 1.118829e-01
<GCONST> 9.876395e+01
<TRANSP> 5
 0.000000e+00 1.000000e+00 0.000000e+00 0.000000e+00 0.000000e+00
 0.000000e+00 7.734689e-01 2.265310e-01 0.000000e+00 0.000000e+00
 0.000000e+00 0.000000e+00 4.776848e-01 5.223152e-01 0.000000e+00
 0.000000e+00 0.000000e+00 0.000000e+00 6.166452e-01 3.833548e-01
 0.000000e+00 0.000000e+00 0.000000e+00 0.000000e+00 0.000000e+00
<ENDHMM>
~h "ao"
<BEGINHMM>
<NUMSTATES> 5
<STATE> 2
<MEAN> 39
 5.809166e+00 4.352862e+00 -3.404365e+00 -4.472052e+00 3.421395e+00 -3.009962e+01 8.136100e+00 1.668212e+01 9.155330e+00 7.677504e+00 1.255695e+00 -3.767504e+00 7.061433e+01 1.248117e-01 -1.477901e-01 -4.052114e-01 -7.408373e-03 1.930251e-01 -8.379640e-02 3.124810e-01 1.686358e-01 -1.381129e-01 1.681088e-01 -1.746281e-01 -2.235582e-01 -1.341483e-02 -7.073247e-02 4.309943e-02 1.781160e-01 1.119305e-01 1.418001e-02 3.022047e-01 -1.956275e-01 -2.526375e-01 -9.292103e-03 -2.560309e-01 7.545747e-02 -5.332198e-03 -7.556893e-02
<VARIANCE> 39
 1.080844e+01 9.487970e+00 3.244541e+01 3.856500e+01 4.257322e+01 9.113960e+01 4.634127e+01 5.157961e+01 3.306760e+01 8.241404e+01 2.286302e+01 2.123623e+01 1.380656e+01 3.746098e-01 5.391904e-01 1.210092e+00 1.509300e+00 1.613226e+00 4.637358e+00 2.848916e+00 3.350078e+00 2.617373e+00 4.817390e+00 2.025712e+00 1.550239e+00 4.503749e-01 3.607321e-02 7.560608e-02 1.420793e-01 1.494025e-01 2.332111e-01 3.817096e-01 3.453638e-01 3.918342e-01 3.850712e-01 4.095672e-01 3.048675e-01 3.359390e-01 4.236884e-02
<GCONST> 1.008921e+02
<STATE> 3
<MEAN> 39
 3.549395e+00 5.101552e+00 -1.317820e+00 -2.044707e+00 5.289210e+00 -1.694646e+01 3.465610e+00 1.093241e+01 9.376812e+00 1.738455e+00 2.100127e+00 -5.329864e+00 6.586720e+01 -9.084734e-01 8.104585e-01 8.695871e-01 3.046509e-01 5.028138e-01 1.375334e+00 -3.679302e-01 -4.980834e-01 3.712819e-01 -1.156575e+00 9.946007e-01 3.489934e-01 -6.182699e-01 -2.341890e-01 2.889596e-01 1.690928e-01 -4.993885e-02 1.761907e-01 -2.161954e-01 1.812415e-01 5.762322e-02 1.097288e-01 4.554896e-01 2.219271e-01 1.527298e-01 -7.859872e-02
<VARIANCE> 39
 2.283820e+01 2.764687e+01 4.976056e+01 9.657243e+01 6.346309e+01 1.069922e+02 9.590385e+01 5.260070e+01 6.665243e+01 1.299243e+02 3.457624e+01 2.876491e+01 3.765748e+01 1.514283e+00 1.698855e+00 1.236661e+00 2.218095e+00 2.231073e+00 4.352908e+00 3.510763e+00 3.802295e+00 4.171408e+00 6.085069e+00 3.294351e+00 2.522858e+00 1.224260e+00 2.144885e-01 2.731647e-01 2.268473e-01 3.344947e-01 3.589934e-01 4.336766e-01 6.929295e-01 6.811917e-01 6.553285e-01 9.086843e-01 4.280760e-01 4.966783e-01 1.492176e-01
<GCONST> 1.239266e+02
<STATE> 4
<MEAN> 39
 -4.003382e+00 5.788938e+00 3.544416e+00 -3.790132e+00 7.884895e+00 -1.391447e+01 -1.100929e+00 3.634599e+00 1.177709e+01 2.657670e+00 3.311771e+00 -2.282417e+00 6.435898e+01 -6.526282e-02 -8.554688e-02 8.457958e-02 -4.106575e-02 3.321844e-01 4.390920e-02 -5.742666e-01 -6.970690e-01 -1.713074e-01 8.360400e-02 1.236382e-01 2.251545e-01 1.305005e-01 1.885600e-01 -1.208463e-01 -1.380104e-01 -1.056668e-01 -1.432790e-01 2.238806e-02 1.582098e-01 1.003913e-01 -7.827768e-02 8.093785e-02 -8.775239e-02 -6.368551e-04 -1.111103e-03
<VARIANCE> 39
 6.806792e+01 1.405784e+02 9.659126e+01 6.339337e+01 8.328867e+01 9.427253e+01 1.528003e+02 1.064805e+02 6.658734e+01 6.904672e+01 7.452316e+01 3.361005e+01 3.715427e+01 3.112126e+00 6.122346e+00 5.839804e+00 3.628840e+00 4.910714e+00 5.162512e+00 5.170018e+00 5.552781e+00 4.771129e+00 4.696963e+00 4.366217e+00 2.762033e+00 3.659611e+00 4.083042e-01 8.151374e-01 1.050141e+00 6.396469e-01 8.311757e-01 9.337238e-01 8.483646e-01 1.043692e+00 7.701990e-01 1.105177e+00 7.748346e-01 4.975182e-01 6.958809e-01
<GCONST> 1.442407e+02
<TRANSP> 5
 0.000000e+00 1.000000e+00 0.000000e+00 0.000000e+00 0.000000e+00
 0.000000e+00 8.900141e-01 1.099859e-01 0.000000e+00 0.000000e+00
 0.000000e+00 0.000000e+00 6.831407e-01 3.168592e-01 0.000000e+00
 0.000000e+00 0.000000e+00 0.000000e+00 7.679210e-01 2.320790e-01
 0.000000e+00 0.000000e+00 0.000000e+00 0.000000e+00 0.000000e+00
<ENDHMM>
~h "aw"
<BEGINHMM>
<NUMSTATES> 5
<STATE> 2
<MEAN> 39
 -6.939352e-01 2.953840e+00 -1.135815e+01 -9.885325e+00 1.164356e+01 -1.788685e+01 1.744193e+01 7.472385e+00 1.036917e+01 8.267190e+00 1.245724e+00 -4.180397e+00 7.058111e+01 1.184091e-01 5.003366e-01 1.961192e-01 2.049392e-01 -2.509096e-01 -7.834742e-01 -1.942251e-01 1.601501e-01 5.959191e-02 7.485488e-02 -2.569498e-01 1.969292e-01 -3.577587e-01 -2.671469e-02 4.017801e-02 6.350486e-02 -5.310433e-02 -3.953329e-02 4.382873e-02 -6.578690e-02 4.982376e-02 3.782475e-03 -8.587435e-02 1.801811e-02 -2.900213e-02 -4.708755e-02
<VARIANCE> 39
 2.507729e+01 4.871886e+01 2.434038e+01 1.908673e+01 2.843007e+01 1.707228e+02 6.226946e+01 2.679356e+01 2.419894e+01 1.890962e+01 4.280841e+01 1.878787e+01 1.853198e+01 8.312702e-01 6.927096e-01 1.312715e+00 8.107225e-01 1.829572e+00 2.505628e+00 3.317560e+00 1.683060e+00 1.714441e+00 1.832318e+00 9.713867e-01 1.621394e+00 5.310566e-01 9.416332e-02 7.423608e-02 1.097230e-01 1.559833e-01 2.788661e-01 2.376785e-01 3.861749e-01 2.575854e-01 3.437971e-01 3.251952e-01 1.157955e-01 3.500570e-01 3.281304e-02
<GCONST> 9.742142e+01
<STATE> 3
<MEAN> 39
 -9.130506e+00 3.276450e+00 3.926779e+00 -1.012189e+01 4.946305e+00 -2.099809e+01 1.177788e+01 9.249725e+00 4.613973e+00 -4.596642e-01 1.945729e+00 -3.568902e+00 6.450513e+01 -2.353074e+00 -2.232677e+00 1.076111e+00 -3.878120e-01 -3.035472e-01 1.693864e+00 7.784234e-01 -1.249578e+00 -4.419729e-01 -8.324070e-01 1.570761e+00 -8.223432e-02 1.230639e+00 -3.755914e-02 -1.021016e-01 -7.698163e-02 2.823523e-02 -7.558091e-02 -2.199265e-02 5.603538e-02 -5.507134e-02 2.421090e-02 1.457342e-01 2.336989e-02 4.850079e-02 8.376089e-02
<VARIANCE> 39
 1.204975e+02 1.736703e+02 3.759097e+01 8.797405e+00 1.622375e+01 7.807159e+01 4.867508e+01 1.213191e+02 2.673181e+01 5.390618e+01 1.080696e+02 2.689321e+01 5.461702e+01 4.122614e+00 6.309655e+00 3.196251e+00 8.360466e-01 2.410631e+00 2.598116e+00 3.260777e+00 8.649847e+00 2.783136e+00 4.600461e+00 8.272405e+00 4.080299e+00 3.086748e+00 9.338377e-01 1.026459e+00 7.181962e-01 1.458278e-01 6.050081e-01 5.717019e-01 5.532070e-01 1.643420e+00 6.000877e-01 8.298358e-01 1.716764e+00 7.724279e-01 5.142408e-01
<GCONST> 1.345790e+02
<STATE> 4
<MEAN> 39
 -2.003786e+01 -1.442432e+01 1.019975e+01 -1.266942e+01 -6.282412e+00 -1.068604e+01 1.104249e+01 -3.466722e+00 -1.208888e+00 -6.324104e+00 1.489003e+01 -1.085329e+00 7.111232e+01 8.097258e-01 1.650967e-01 -3.808425e-01 2.803193e-01 -4.756121e-01 1.384845e-01 -3.433215e-01 2.164455e-01 -5.338926e-01 -2.427055e-01 -1.046188e-01 4.897412e-01 -7.679424e-01 5.341372e-02 6.670985e-02 -6.381780e-02 5.733178e-02 8.641197e-02 -1.969788e-02 5.033590e-02 5.275560e-02 -4.839542e-02 -4.375084e-02 -5.070551e-02 3.651991e-02 -6.854215e-02
<VARIANCE> 39
 4.599260e+01 5.930344e+00 1.201772e+01 2.204601e+01 1.578262e+01 1.743262e+01 1.713680e+01 3.502732e+01 2.206950e+01 2.757539e+01 1.433232e+01 3.201707e+01 3.927510e+01 3.673389e-01 5.543050e-01 8.984503e-01 1.114628e+00 1.170830e+00 1.022655e+00 1.651515e+00 1.449716e+00 1.661918e+00 1.563628e+00 1.058684e+00 1.170878e+00 5.444673e-01 8.848358e-02 9.471712e-02 1.312197e-01 1.225609e-01 1.877446e-01 2.156237e-01 2.804985e-01 2.620302e-01 2.469515e-01 3.610570e-01 1.911518e-01 1.589997e-01 3.172945e-02
<GCONST> 8.702478e+01
<TRANSP> 5
 0.000000e+00 1.000000e+00 0.000000e+00 0.000000e+00 0.000000e+00
 0.000000e+00 9.554923e-01 4.450773e-02 0.000000e+00 0.000000e+00
 0.000000e+00 0.000000e+00 9.237579e-01 7.624213e-02 0.000000e+00
 0.000000e+00 0.000000e+00 0.000000e+00 9.580518e-01 4.194823e-02
 0.000000e+00 0.000000e+00 0.000000e+00 0.000000e+00 0.000000e+00
<ENDHMM>
~h "ay"
<BEGINHMM>
<NUMSTATES> 5
<STATE> 2
<MEAN> 39
 4.481656e-01 3.418124e+00 -1.048271e+00 -2.068263e+00 5.987496e+00 -1.389903e+01 6.532685e+00 7.689864e+00 1.225395e+01 -1.592610e+00 1.831228e+00 -3.872751e+00 6.652438e+01 1.283106e+00 -5.652055e-01 -2.551575e+00 -2.062569e+00 -8.533442e-01 -2.483401e+00 9.704327e-01 7.508859e-03 9.703948e-01 -8.146013e-01 -1.709705e-01 -6.568825e-01 2.385884e+00 6.524849e-02 5.717494e-02 1.156639e-01 3.217206e-01 1.906529e-01 7.676320e-02 1.157913e-01 1.394187e-01 -2.278935e-01 1.619574e-01 -6.304573e-02 1.823544e-01 -9.817947e-02
<VARIANCE> 39
 4.995582e+01 3.464505e+01 4.874091e+01 6.069382e+01 4.663400e+01 1.963119e+02 4.318267e+01 5.161126e+01 5.614728e+01 6.425246e+01 3.426907e+01 2.422431e+01 5.838156e+01 3.229630e+00 4.576990e+00 3.059688e+00 6.592010e+00 5.962834e+00 1.054940e+01 8.652712e+00 1.098080e+01 5.592795e+00 5.588919e+00 2.882757e+00 2.907321e+00 4.346942e+00 7.206345e-01 6.699041e-01 5.411600e-01 1.209588e+00 1.315301e+00 2.369575e+00 1.128302e+00 2.375023e+00 1.161298e+00 1.174942e+00 4.943946e-01 6.204037e-01 1.363999e+00
<GCONST> 1.447773e+02
<STATE> 3
<MEAN> 39
 5.602863e+00 1.130650e+00 -1.024202e+01 -3.549327e+00 8.220975e+00 -2.214091e+01 1.382253e+01 6.959258e+00 8.705362e+00 4.002348e+00 -6.346455e-01 -3.387354e+00 7.282095e+01 -8.121144e-01 -9.283102e-01 -2.417541e-02 1.713022e-01 1.573227e+00 2.078151e+00 -4.085851e-01 -1.753985e+00 -2.361886e+00 -1.764350e-01 1.865307e+00 3.373860e-01 7.386377e-01 -2.372077e-01 1.212224e-01 5.561008e-01 2.432794e-01 3.755832e-02 1.890867e-01 -1.071239e+00 -3.579900e-01 -6.703918e-02 -1.286352e-01 4.794506e-01 -3.076134e-02 -8.303405e-02
<VARIANCE> 39
 5.391157e+00 7.740821e+00 1.874687e+01 1.494583e+01 2.773632e+01 4.820823e+01 4.704221e+01 5.488465e+01 5.516030e+01 6.739062e+01 4.811213e+01 3.400299e+01 6.006435e+00 5.370531e-01 7.349265e-01 1.974032e+00 1.292683e+00 1.540018e+00 4.338144e+00 9.734299e+00 4.410822e+00 3.621312e+00 4.387538e+00 4.904657e+00 1.702205e+00 3.946752e-01 6.442813e-02 6.737436e-02 9.658962e-02 2.324361e-01 3.493328e-01 7.245746e-01 5.946342e-01 6.811042e-01 6.618956e-01 6.014656e-01 4.492036e-01 4.470713e-01 2.494237e-02
<GCONST> 1.054048e+02
<STATE> 4
<MEAN> 39
 -4.456169e+00 -1.442036e+00 2.403275e+00 5.086351e+00 1.811674e+01 -1.437915e+01 -6.102340e+00 -5.061262e+00 -1.147041e+00 -3.065103e+00 1.238521e+01 -8.111320e+00 7.211659e+01 -7.191274e-01 2.014619e-01 1.073820e+00 4.124874e-01 4.977098e-01 2.490430e-01 -9.016134e-01 -3.120705e-01 6.041840e-02 -2.873605e-01 1.172432e-01 -3.430223e-01 -7.122175e-01 1.196058e-01 1.449457e-01 -1.357018e-01 -1.501187e-01 -9.793557e-02 -1.357884e-02 4.289597e-01 2.994254e-01 1.677064e-01 1.011322e-01 -3.537439e-01 6.628621e-02 -1.860340e-01
<VARIANCE> 39
 1.929156e+01 6.972368e+00 3.769408e+01 2.363817e+01 1.808309e+01 1.957278e+01 3.402376e+01 2.314491e+01 2.941435e+01 5.718855e+01 4.152288e+01 3.786111e+01 2.348344e+01 7.978913e-01 7.942411e-01 1.643748e+00 2.168939e+00 1.343694e+00 2.038259e+00 4.329224e+00 2.730780e+00 2.203564e+00 2.555274e+00 3.303744e+00 1.591075e+00 8.655442e-01 1.211103e-01 1.431919e-01 1.985811e-01 2.926036e-01 2.100162e-01 4.512295e-01 4.876632e-01 4.602124e-01 4.848332e-01 4.420179e-01 6.996342e-01 3.205334e-01 9.190001e-02
<GCONST> 1.052163e+02
<TRANSP> 5
 0.000000e+00 1.000000e+00 0.000000e+00 0.000000e+00 0.000000e+00
 0.000000e+00 6.906013e-01 3.093987e-01 0.000000e+00 0.000000e+00
 0.000000e+00 0.000000e+00 8.562521e-01 1.437479e-01 0.000000e+00
 0.000000e+00 0.000000e+00 0.000000e+00 9.160029e-01 8.399710e-02
 0.000000e+00 0.000000e+00 0.000000e+00 0.000000e+00 0.000000e+00
<ENDHMM>
~h "ch"
<BEGINHMM>
<NUMSTATES> 5
<STATE> 2
<MEAN> 39
 -1.153251e+00 3.420734e+00 -5.738812e+00 -1.251940e+01 2.192254e+01 5.346645e-01 3.188800e-01 -1.324223e+01 3.220084e+00 -3.268981e+00 1.102974e+01 9.256365e+00 6.743842e+01 -5.235565e-02 2.493002e-03 -4.476628e-01 -1.040003e-01 -2.606002e-02 -6.869063e-03 1.587902e-01 2.387976e-01 2.425733e-01 1.270373e-01 -3.637052e-01 2.947251e-01 -4.176646e-01 -4.445997e-02 -4.338052e-02 2.022644e-02 6.343447e-02 -7.844882e-02 -1.797015e-02 1.975420e-02 1.018963e-01 -8.642839e-02 2.468031e-02 -4.301643e-03 -2.931583e-02 -5.146252e-02
<VARIANCE> 39
 8.566694e+00 3.699709e+01 1.699992e+01 7.190609e+01 1.936908e+01 3.573288e+01 1.029289e+02 3.606055e+01 6.476481e+01 3.754925e+01 5.695178e+01 2.052757e+01 1.873834e+01 6.003023e-01 1.780459e+00 8.506588e-01 3.192802e+00 1.984863e+00 2.827333e+00 5.000885e+00 3.416941e+00 3.924127e+00 2.485903e+00 2.499622e+00 1.754257e+00 2.817766e-01 1.003267e-01 1.622110e-01 1.164912e-01 2.547674e-01 3.199442e-01 4.469733e-01 5.464475e-01 4.425113e-01 5.509876e-01 4.576454e-01 4.043794e-01 2.937929e-01 3.037500e-02
<GCONST> 1.072106e+02
<STATE> 3
<MEAN> 39
 -5.670764e+00 -2.056999e-02 -9.624127e+00 -3.286622e+00 1.239437e+01 -1.511379e+00 -1.715682e+00 3.352689e+00 -3.636261e+00 1.824177e+00 3.212737e+00 1.295669e+01 5.138012e+01 -5.674275e-01 7.398615e-01 5.305202e-01 2.639455e-01 -8.614380e-01 3.882458e-01 9.814599e-01 3.796867e-01 -1.634787e+00 -1.313232e-03 5.857500e-01 8.121436e-02 -1.049599e+00 -6.440149e-02 3.854913e-02 1.510042e-01 -7.332864e-02 9.732424e-02 1.380229e-01 -2.188268e-02 -2.140005e-01 1.965781e-01 1.131967e-02 -7.508652e-02 -9.726840e-02 5.185402e-02
<VARIANCE> 39
 7.613381e+00 1.763998e+01 1.142703e+01 7.116457e+00 2.681203e+01 2.666262e+01 2.960887e+01 2.049110e+01 6.341143e+01 4.880085e+01 1.703561e+01 2.260264e+01 1.452838e+01 2.312930e-01 3.989814e-01 8.013915e-01 1.068976e+00 9.871005e-01 1.241957e+00 1.155269e+00 1.683530e+00 3.489946e+00 2.043123e+00 1.386961e+00 1.206019e+00 1.166848e-01 2.233673e-02 1.157064e-01 9.314223e-02 2.272767e-01 1.419265e-01 3.154778e-01 2.097051e-01 3.254306e-01 3.974878e-01 3.269349e-01 2.123484e-01 1.936834e-01 1.411379e-02
<GCONST> 8.418810e+01
<STATE> 4
<MEAN> 39
 -1.786643e+01 4.071918e+00 6.663932e-01 1.248851e+00 1.055499e+01 3.684203e+00 6.002462e+00 8.404607e+00 -2.974831e+00 9.981655e+00 2.922642e+00 4.410382e+00 4.063697e+01 -4.034933e-01 -1.117603e-01 2.534308e-01 1.947857e-01 -6.955379e-02 2.268312e-02 1.177008e-01 2.632727e-01 1.631601e-01 9.284291e-02 -1.623472e-01 -2.850181e-01 -2.541317e-01 4.468977e-02 -3.966800e-02 -6.789494e-02 -4.837511e-02 -4.676070e-02 -3.195749e-02 -3.972018e-02 -2.818594e-02 4.716595e-02 -4.937324e-02 1.092756e-02 9.884723e-03 5.203804e-02
<VARIANCE> 39
 1.000430e+01 5.380277e+00 1.085244e+01 6.563456e+00 1.341613e+01 5.370004e+00 1.270027e+01 1.723998e+01 2.056632e+01 1.737798e+01 1.213771e+01 1.884343e+01 4.313262e+00 1.911334e-01 1.477262e-01 4.260846e-01 6.149510e-01 3.982331e-01 4.851166e-01 6.743611e-01 9.161392e-01 1.338604e+00 7.847386e-01 7.405642e-01 8.084303e-01 7.507259e-02 2.328140e-02 4.070947e-02 4.538098e-02 1.144749e-01 6.740402e-02 7.983179e-02 9.161516e-02 1.337504e-01 2.605595e-01 1.286794e-01 1.523492e-01 1.721675e-01 1.711973e-02
<GCONST> 5.933077e+01
<TRANSP> 5
 0.000000e+00 1.000000e+00 0.000000e+00 0.000000e+00 0.000000e+00
 0.000000e+00 9.695680e-01 3.043203e-02 0.000000e+00 0.000000e+00
 0.000000e+00 0.000000e+00 9.126902e-01 8.730978e-02 0.000000e+00
 0.000000e+00 0.000000e+00 0.000000e+00 9.378396e-01 6.216049e-02
 0.000000e+00 0.000000e+00 0.000000e+00 0.000000e+00 0.000000e+00
<ENDHMM>
~h "dh"
<BEGINHMM>
<NUMSTATES> 5
<STATE> 2
<MEAN> 39
 -9.920115e+00 8.206573e+00 7.420368e+00 2.634376e+00 1.258017e+01 4.278724e+00 4.190811e+00 2.754734e+00 2.472405e+00 5.961163e-01 3.209079e+00 -1.478559e+00 5.536404e+01 5.744816e-01 -1.185785e-01 4.878239e-01 -2.644758e-01 -1.840363e-02 -1.221293e-01 3.933001e-01 -8.493695e-01 6.094072e-01 -9.998038e-01 2.617988e-01 -1.322202e-01 2.091636e+00 8.555207e-02 -1.454667e-01 -1.358206e-01 -8.359797e-02 -7.055863e-02 -2.664634e-01 -1.393492e-01 -9.305915e-02 -1.176410e-01 -8.220164e-02 7.312129e-02 3.715254e-02 1.989311e-01
<VARIANCE> 39
 7.006808e+01 5.832546e+01 3.797235e+01 4.742313e+01 3.716161e+01 3.210941e+01 3.713731e+01 4.387534e+01 5.586597e+01 4.574669e+01 2.894026e+01 1.729221e+01 1.080683e+02 5.409962e+00 6.191621e+00 3.812329e+00 5.440797e+00 3.234902e+00 4.936996e+00 3.916052e+00 3.681322e+00 4.575936e+00 3.589063e+00 2.454778e+00 1.675676e+00 4.598549e+00 8.103991e-01 7.983625e-01 5.918856e-01 8.856065e-01 4.985427e-01 8.164826e-01 8.855340e-01 6.963392e-01 9.439436e-01 6.856185e-01 4.406470e-01 3.622446e-01 9.050434e-01
<GCONST> 1.336013e+02
<STATE> 3
<MEAN> 39
 -5.260443e+00 2.086250e+00 5.176318e+00 -1.502151e+00 1.084222e+01 -5.550919e+00 2.823756e+00 -4.885632e+00 3.821565e+00 -6.294952e+00 7.202351e+00 -2.912955e+00 7.268505e+01 9.597724e-01 -1.283505e-01 -7.533768e-01 2.403606e-01 -1.011091e-02 -1.665017e+00 -9.183879e-01 5.156608e-01 -7.060761e-01 -3.383669e-01 6.073247e-01 3.918493e-01 6.892877e-01 -3.516984e-02 3.503689e-01 -5.604241e-02 2.441978e-01 1.756100e-01 4.494956e-01 4.911000e-01 5.968430e-01 3.744791e-01 5.501054e-01 -1.560422e-01 2.025864e-02 -6.479298e-01
<VARIANCE> 39
 1.971000e+01 3.041562e+01 2.052520e+01 4.545077e+01 2.762315e+01 3.464283e+01 6.449111e+01 2.461752e+01 3.004760e+01 4.444065e+01 3.588398e+01 3.325383e+01 2.719154e+01 1.539545e+00 1.941266e+00 1.833052e+00 3.453497e+00 3.884470e+00 3.922651e+00 5.152749e+00 3.664368e+00 4.055517e+00 3.897671e+00 2.756619e+00 3.267271e+00 2.035238e+00 2.022450e-01 3.273962e-01 3.810129e-01 5.894300e-01 4.795930e-01 4.488069e-01 9.358891e-01 6.774080e-01 6.307524e-01 4.990900e-01 4.186842e-01 4.548410e-01 2.368937e-01
<GCONST> 1.205463e+02
<STATE> 4
<MEAN> 39
 -8.285676e+00 -2.339276e-01 5.361929e+00 3.397575e+00 1.086429e+01 -4.354517e+00 1.198224e+00 -4.106475e+00 4.958766e+00 -1.182337e+00 3.974027e+00 -1.536821e+00 6.778013e+01 4.580906e-01 5.115312e-01 -6.246059e-01 2.457522e-02 3.731914e-02 3.826236e-02 2.096028e-01 9.905839e-01 1.761932e-01 5.179822e-01 1.297747e-01 -1.841313e-01 -6.246985e-01 -7.229966e-02 -6.484462e-03 -1.372948e-02 -6.139790e-02 4.935202e-02 2.348069e-01 2.046351e-01 6.628761e-03 1.577289e-01 8.978158e-02 -6.508467e-02 -1.609015e-01 -9.067595e-02
<VARIANCE> 39
 8.869850e+01 1.484373e+02 2.744117e+01 6.758633e+01 3.697807e+01 6.541644e+01 8.399364e+01 5.426457e+01 6.173877e+01 4.524154e+01 5.782928e+01 3.152306e+01 7.973212e+01 9.066221e-01 1.547730e+00 1.212961e+00 1.252459e+00 1.397141e+00 2.116869e+00 3.047908e+00 3.870741e+00 2.776320e+00 2.298128e+00 1.728908e+00 1.972627e+00 1.608124e+00 1.206169e-01 2.595099e-01 1.675305e-01 2.662064e-01 2.406358e-01 3.046652e-01 6.407068e-01 4.618559e-01 4.694455e-01 4.358895e-01 4.051884e-01 4.646246e-01 1.794660e-01
<GCONST> 1.172108e+02
<TRANSP> 5
 0.000000e+00 1.000000e+00 0.000000e+00 0.000000e+00 0.000000e+00
 0.000000e+00 8.638564e-01 1.361436e-01 0.000000e+00 0.000000e+00
 0.000000e+00 0.000000e+00 6.217842e-01 3.782158e-01 0.000000e+00
 0.000000e+00 0.000000e+00 0.000000e+00 4.849742e-01 5.150258e-01
 0.000000e+00 0.000000e+00 0.000000e+00 0.000000e+00 0.000000e+00
<ENDHMM>
~h "eh"
<BEGINHMM>
<NUMSTATES> 5
<STATE> 2
<MEAN> 39
 -3.056249e+00 -1.965086e+00 3.675017e-02 2.067986e+00 1.923265e+01 -1.084510e+01 -7.798952e+00 -3.884180e+00 -1.294062e+00 -3.869479e+00 1.176110e+01 -1.704134e+00 7.375468e+01 2.573071e-01 3.603266e-01 -6.709361e-01 -2.758347e-01 5.260836e-01 -9.853127e-02 1.661958e-01 -2.820150e-01 -3.034239e-01 -2.368924e-01 2.641494e-01 4.971135e-01 -7.718303e-02 -9.773745e-02 1.707489e-01 4.932702e-02 -1.689738e-01 -2.069784e-02 1.195494e-01 3.885939e-01 -4.566653e-02 1.668381e-01 -1.250574e-01 -5.031602e-02 6.272789e-03 -1.475918e-01
<VARIANCE> 39
 1.772156e+01 9.020189e+00 1.399088e+01 1.903598e+01 4.759940e+01 3.742677e+01 4.012463e+01 2.823542e+01 3.762515e+01 3.053225e+01 2.119040e+01 2.436020e+01 6.343345e+01 4.012445e-01 7.683701e-01 1.109833e+00 1.704130e+00 9.750839e-01 2.258232e+00 2.007767e+00 1.583742e+00 1.901894e+00 2.113634e+00 1.456028e+00 1.358682e+00 3.689311e-01 8.234367e-02 1.558999e-01 1.078543e-01 1.554331e-01 2.234649e-01 3.189381e-01 4.182697e-01 3.025642e-01 4.130288e-01 2.886777e-01 2.975076e-01 2.175252e-01 1.234858e-01
<GCONST> 9.667166e+01
<STATE> 3
<MEAN> 39
 -1.057417e+01 -2.573429e+00 -1.261895e+00 1.471851e+00 1.594819e+01 -1.032949e+01 -4.925400e+00 -3.016087e+00 3.069703e+00 -1.203505e+00 1.225645e+01 -2.130248e+00 6.581498e+01 6.134430e-01 4.046969e-03 -1.176020e-02 -4.470175e-02 4.945262e-01 -8.177792e-01 3.316164e-01 -8.364578e-01 2.521440e-01 -6.528174e-01 2.558327e-01 3.755980e-02 1.488307e+00 -2.996912e-02 2.359829e-01 4.152601e-02 4.250751e-02 6.825216e-02 3.477485e-02 1.798875e-01 1.062766e-01 -2.979167e-03 2.255607e-02 -1.227986e-01 -3.216400e-03 -1.543338e-01
<VARIANCE> 39
 7.441499e+01 2.813452e+01 1.701068e+01 3.132392e+01 7.659431e+01 9.885802e+01 6.424884e+01 4.438244e+01 5.031344e+01 4.384240e+01 5.307675e+01 3.431323e+01 1.914010e+02 1.996848e+00 4.347192e+00 1.382239e+00 2.871154e+00 3.166520e+00 7.731771e+00 6.223112e+00 4.782539e+00 3.355702e+00 2.387991e+00 4.891241e+00 2.151389e+00 8.196356e+00 3.722481e-01 7.369630e-01 2.646233e-01 4.964117e-01 4.287535e-01 1.375598e+00 1.131422e+00 8.485257e-01 7.501467e-01 4.976130e-01 6.845210e-01 3.773203e-01 1.104398e+00
<GCONST> 1.334877e+02
<STATE> 4
<MEAN> 39
 -2.176389e+00 6.048928e+00 -2.142015e+00 -6.499043e+00 2.364019e+01 -7.772370e-01 3.520909e+00 -1.326333e+01 -2.959533e+00 -5.956305e+00 1.009815e+01 7.094372e+00 6.687601e+01 -2.320011e-01 3.853798e-01 9.110054e-02 2.238028e-02 1.510842e-03 -1.385697e-01 7.344441e-01 5.927380e-02 4.927981e-01 2.024267e-01 -5.892369e-01 1.096420e-01 -6.290056e-01 -2.570604e-02 4.856878e-02 2.481768e-02 9.339714e-02 -5.786559e-02 -4.077067e-03 -7.991347e-02 1.539825e-01 -4.452250e-03 1.621904e-01 2.945529e-02 -1.042926e-01 -7.395238e-02
<VARIANCE> 39
 1.672622e+01 6.391919e+01 1.208434e+01 5.960526e+01 2.606575e+01 9.866527e+01 5.939589e+01 9.826064e+01 7.921629e+01 7.902814e+01 3.197040e+01 4.532801e+01 3.887166e+01 6.693276e-01 4.970500e+00 6.827416e-01 3.324981e+00 2.054332e+00 3.651484e+00 4.609867e+00 6.798841e+00 8.303226e+00 4.454648e+00 2.404531e+00 1.569802e+00 2.269950e+00 1.613832e-01 6.004752e-01 1.235053e-01 4.601890e-01 2.415575e-01 4.718184e-01 4.029283e-01 1.373852e+00 1.642516e+00 6.753109e-01 4.230034e-01 2.692980e-01 4.577860e-01
<GCONST> 1.238624e+02
<TRANSP> 5
 0.000000e+00 1.000000e+00 0.000000e+00 0.000000e+00 0.000000e+00
 0.000000e+00 8.078099e-01 1.921901e-01 0.000000e+00 0.000000e+00
 0.000000e+00 0.000000e+00 6.892991e-01 3.107008e-01 0.000000e+00
 0.000000e+00 0.000000e+00 0.000000e+00 7.428936e-01 2.571064e-01
 0.000000e+00 0.000000e+00 0.000000e+00 0.000000e+00 0.000000e+00
<ENDHMM>
~h "er"
<BEGINHMM>
<NUMSTATES> 5
<STATE> 2
<MEAN> 39
 -4.427839e+00 7.367629e+00 6.957130e-01 -1.627268e+01 1.061747e+01 3.381592e-01 6.044530e+00 9.995817e-01 -7.919005e-01 -1.328454e+01 2.008858e+00 -1.003572e+00 7.032217e+01 3.293550e+00 2.780298e+00 1.922736e+00 -1.734387e+00 -1.125437e+00 1.183264e+00 -7.686120e-02 7.423962e-01 -1.704476e+00 -3.423542e+00 -4.660566e-01 1.333249e+00 -1.636312e-01 -4.314175e-01 -2.029974e-01 -3.181472e-01 9.572734e-02 -2.588424e-02 -1.136562e-01 2.544368e-01 2.685566e-01 -2.612074e-01 -3.045030e-01 2.786777e-01 2.591026e-01 -2.580119e-01
<VARIANCE> 39
 4.339312e+01 5.435799e+01 3.812230e+01 4.939833e+01 4.737580e+01 6.852711e+01 4.826826e+01 7.884280e+01 3.244964e+01 5.889468e+01 4.091537e+01 2.247162e+01 1.194131e+01 5.425000e+00 2.629462e+00 2.998080e+00 5.620947e+00 2.854290e+00 4.234184e+00 3.174480e+00 6.428357e+00 2.801370e+00 4.885331e+00 1.988643e+00 2.817586e+00 1.403850e+00 9.380811e-01 8.389310e-01 7.926349e-01 9.112787e-01 5.145656e-01 6.345360e-01 4.833739e-01 7.273157e-01 4.808672e-01 9.271145e-01 4.251088e-01 4.107212e-01 7.940695e-01
<GCONST> 1.303284e+02
<STATE> 3
<MEAN> 39
 2.552213e+00 1.353635e+01 2.253020e+00 -2.410016e+01 6.923954e+00 5.534983e-01 1.017184e+01 5.453952e+00 -4.578563e+00 -2.613386e+01 4.130093e+00 6.537301e+00 6.987350e+01 1.907074e-01 2.649365e-01 -6.653662e-02 -5.559121e-01 2.470913e-01 1.938671e-02 5.904132e-01 1.315893e-02 -6.521605e-01 -1.014736e+00 7.823135e-01 7.019451e-01 5.222336e-02 -2.002169e-01 -2.092151e-01 -6.585039e-02 3.843824e-01 2.574888e-01 -7.223395e-02 -1.990493e-01 -2.416892e-01 1.894391e-01 4.428033e-01 1.375743e-01 -1.769817e-01 -2.218005e-02
<VARIANCE> 39
 3.858456e+00 2.371112e+01 3.050227e+01 3.146277e+01 3.121126e+01 5.757985e+01 6.372162e+01 1.068419e+02 7.244222e+01 3.615184e+01 4.398617e+01 4.135618e+01 4.777051e+00 2.733076e-01 3.772667e-01 6.641486e-01 1.412426e+00 1.637983e+00 1.330702e+00 1.586701e+00 1.442545e+00 1.858783e+00 2.472724e+00 1.065509e+00 1.420058e+00 1.031174e-01 9.414494e-02 1.016011e-01 1.127831e-01 2.026749e-01 1.970532e-01 2.236922e-01 3.247727e-01 3.095425e-01 3.197411e-01 3.580009e-01 2.410610e-01 3.055107e-01 3.208870e-02
<GCONST> 9.319682e+01
<STATE> 4
<MEAN> 39
 1.336822e+00 1.335490e+01 3.278179e-01 -2.090825e+01 1.311005e+01 -1.060889e+00 8.782577e+00 2.415666e+00 -3.718837e+00 -2.388497e+01 1.119601e+01 5.867191e+00 6.942391e+01 -3.625971e-01 -1.062367e+00 7.524292e-02 2.189216e+00 1.138216e+00 -9.456990e-01 -1.274791e+00 -9.603875e-01 1.404137e+00 2.733534e+00 -5.733667e-02 -1.217094e+00 -8.848052e-02 -1.458484e-01 -4.056375e-01 3.086092e-01 4.611198e-01 -1.635435e-01 -3.516406e-01 -6.734773e-02 1.513882e-01 5.931259e-01 6.185920e-01 -4.527391e-01 -3.762201e-01 3.732695e-02
<VARIANCE> 39
 4.647903e+00 2.720489e+01 2.421784e+01 3.758657e+01 3.549226e+01 5.982916e+01 4.617071e+01 6.311739e+01 1.236796e+02 9.834979e+01 3.400478e+01 3.525964e+01 1.568080e+01 4.700758e-01 2.387589e+00 1.343902e+00 2.358128e+00 2.247090e+00 6.390843e+00 2.783307e+00 3.683765e+00 5.540442e+00 7.265133e+00 4.312280e+00 3.324213e+00 2.991599e-01 1.696784e-01 2.713787e-01 3.013463e-01 1.846822e-01 3.350886e-01 3.457298e-01 5.278350e-01 4.033111e-01 1.020433e+00 1.214857e+00 4.667026e-01 4.453219e-01 5.945946e-02
<GCONST> 1.157810e+02
<TRANSP> 5
 0.000000e+00 1.000000e+00 0.000000e+00 0.000000e+00 0.000000e+00
 0.000000e+00 6.663854e-01 3.336146e-01 0.000000e+00 0.000000e+00
 0.000000e+00 0.000000e+00 8.698483e-01 1.301517e-01 0.000000e+00
 0.000000e+00 0.000000e+00 0.000000e+00 8.204846e-01 1.795154e-01
 0.000000e+00 0.000000e+00 0.000000e+00 0.000000e+00 0.000000e+00
<ENDHMM>
~h "ey"
<BEGINHMM>
<NUMSTATES> 5
<STATE> 2
<MEAN> 39
 -6.839813e+00 1.083219e+00 9.645350e+00 9.038960e+00 2.149647e+01 -9.126311e+00 -4.867106e+00 -5.470617e+00 1.783218e+00 -8.242574e-02 8.445902e+00 -1.284408e+01 6.820591e+01 4.758038e-01 7.409093e-01 2.669557e-02 2.228756e-01 1.194294e-01 -7.476553e-02 4.375710e-01 5.897425e-01 3.927698e-01 1.578775e-02 -2.348211e-01 5.326101e-02 -3.847019e-01 -6.467356e-03 -3.088049e-02 4.708158e-02 -7.615355e-02 -2.252148e-01 -2.052887e-01 1.625047e-02 6.606442e-02 5.229519e-02 -4.885530e-03 -4.945289e-02 8.609704e-02 5.221105e-02
<VARIANCE> 39
 2.259058e+01 4.917427e+01 2.360423e+01 5.047634e+01 5.078066e+01 3.222812e+01 6.825890e+01 3.623767e+01 3.503060e+01 4.099423e+01 3.028256e+01 3.223022e+01 3.721088e+01 9.409634e-01 1.664115e+00 2.353318e+00 4.925274e+00 5.205254e+00 3.084668e+00 5.124503e+00 2.426756e+00 3.080370e+00 3.994907e+00 1.845142e+00 2.304611e+00 2.607072e+00 2.005810e-01 2.809086e-01 5.128170e-01 9.118642e-01 4.266803e-01 6.813372e-01 1.092384e+00 4.875491e-01 6.458231e-01 7.540225e-01 3.079221e-01 3.000028e-01 4.646858e-01
<GCONST> 1.224980e+02
<STATE> 3
<MEAN> 39
 -4.330959e+00 9.597028e+00 2.041817e+01 1.953881e+00 2.437410e+00 -1.788913e+01 -2.780377e+00 4.855380e+00 4.764348e+00 3.563585e+00 5.083770e+00 2.618178e-01 6.087923e+01 1.509799e-01 3.212752e-01 7.686619e-01 -9.686858e-02 -7.466108e-01 -9.812186e-01 -8.840555e-01 3.757007e-01 2.831770e-02 7.252435e-01 5.328590e-02 3.657450e-01 -4.860452e-01 -4.268081e-02 -5.667715e-02 -2.975591e-01 8.349347e-02 2.438846e-01 2.913269e-01 8.536791e-02 4.691547e-02 -9.152488e-02 -1.162637e-02 -3.691723e-02 -1.231093e-01 -3.196656e-02
<VARIANCE> 39
 2.983990e+01 6.769315e+01 8.921605e+01 2.337708e+01 2.633317e+01 5.671295e+01 4.977925e+01 5.383287e+01 4.202105e+01 8.090239e+01 2.981473e+01 3.895619e+01 2.536495e+01 1.895489e+00 3.544699e+00 6.065465e+00 3.551043e+00 3.983507e+00 1.017371e+01 4.525849e+00 3.820184e+00 4.400140e+00 1.796478e+00 2.571894e+00 3.898563e+00 6.692840e-01 3.468117e-01 5.422571e-01 6.127031e-01 6.213602e-01 4.890935e-01 1.079757e+00 6.512658e-01 6.635218e-01 8.210326e-01 5.887570e-01 4.198593e-01 5.953023e-01 1.797440e-01
<GCONST> 1.281096e+02
<STATE> 4
<MEAN> 39
 -5.689678e+00 1.065073e+00 4.418437e+00 7.608267e+00 1.764642e+01 -1.880143e+01 -9.480002e+00 3.710675e+00 1.183871e+01 -7.950168e-01 3.890614e+00 -1.194371e+01 7.177276e+01 9.397902e-01 5.639350e-01 -5.285895e-01 4.373673e-01 2.911788e-01 3.967969e-01 3.264764e-01 4.839227e-01 -4.895197e-01 -6.141970e-02 -8.915893e-03 -2.909228e-01 -3.292539e-01 -1.130175e-02 -4.267494e-02 -3.735150e-02 -2.550859e-02 -7.796375e-02 1.112755e-01 1.293878e-01 -4.002397e-03 -1.106602e-01 -1.063136e-02 5.482458e-03 6.182967e-02 -3.042259e-02
<VARIANCE> 39
 3.910767e+01 2.138768e+01 4.610601e+01 2.205625e+01 2.961206e+01 7.795582e+01 5.732123e+01 2.130898e+01 4.800710e+01 2.276849e+01 1.837547e+01 2.828829e+01 2.308953e+01 9.643932e-01 1.294839e+00 1.896394e+00 1.045152e+00 1.119974e+00 3.458046e+00 3.380002e+00 1.592767e+00 2.312047e+00 1.201579e+00 1.148184e+00 1.252207e+00 7.477080e-01 1.872688e-01 2.157154e-01 2.437411e-01 1.355566e-01 1.518397e-01 4.005213e-01 4.776159e-01 2.874717e-01 3.230633e-01 2.547199e-01 1.747988e-01 2.009903e-01 7.996999e-02
<GCONST> 1.018335e+02
<TRANSP> 5
 0.000000e+00 1.000000e+00 0.000000e+00 0.000000e+00 0.000000e+00
 0.000000e+00 9.104539e-01 8.954617e-02 0.000000e+00 0.000000e+00
 0.000000e+00 0.000000e+00 8.124414e-01 1.875586e-01 0.000000e+00
 0.000000e+00 0.000000e+00 0.000000e+00 9.223629e-01 7.763717e-02
 0.000000e+00 0.000000e+00 0.000000e+00 0.000000e+00 0.000000e+00
<ENDHMM>
~h "hh"
<BEGINHMM>
<NUMSTATES> 5
<STATE> 2
<MEAN> 39
 -9.736917e+00 -6.399334e+00 7.843040e-01 -4.372267e+00 1.215409e+01 -1.172622e+01 -3.343804e+00 -1.092698e+00 5.954379e+00 5.720927e+00 1.495558e+01 -4.522457e+00 7.264153e+01 1.385669e-01 1.886595e-01 -4.994788e-01 -1.702843e-01 9.276580e-02 2.109527e-01 -1.892119e-01 2.349624e-01 -5.297105e-02 -3.013328e-02 1.495150e-01 -9.815399e-02 1.565924e-01 8.056209e-02 1.090109e-01 1.134301e-01 1.173627e-01 2.108662e-02 5.274293e-02 7.459165e-02 6.808855e-02 -1.126032e-02 -1.970725e-01 -1.083808e-01 -3.685886e-02 -7.324733e-04
<VARIANCE> 39
 1.257045e+01 2.096075e+01 2.868158e+01 4.872838e+01 2.705851e+01 2.411205e+01 4.176916e+01 2.315349e+01 3.511569e+01 2.905210e+01 2.572723e+01 1.647334e+01 6.047283e+00 8.055655e-01 1.036387e+00 1.835605e+00 2.082181e+00 1.756447e+00 1.990227e+00 2.791086e+00 1.855953e+00 2.616446e+00 1.917124e+00 1.475495e+00 1.322136e+00 2.695257e-01 1.398474e-01 1.301425e-01 1.812238e-01 2.252194e-01 2.572038e-01 3.290217e-01 3.396856e-01 2.722136e-01 3.837164e-01 2.736636e-01 2.755475e-01 2.368958e-01 5.224326e-02
<GCONST> 9.766174e+01
<STATE> 3
<MEAN> 39
 -5.762594e+00 -2.806375e-01 -6.290820e+00 -1.071427e+01 1.240336e+01 -1.013577e+01 7.897431e+00 8.015140e+00 9.228085e+00 4.230329e-01 1.144516e+01 -6.629043e+00 7.124940e+01 8.042882e-01 7.686169e-01 -3.673673e-03 -4.478240e-02 9.696681e-02 -6.769341e-01 5.941682e-01 5.822766e-01 -8.261283e-02 -2.274172e-01 -8.030676e-01 -1.496767e-01 -8.283366e-02 9.747066e-02 -8.755630e-02 1.050321e-01 1.063022e-01 -8.134611e-03 -2.297467e-01 -2.959006e-01 -2.068710e-01 -6.790316e-02 1.638119e-02 -1.087337e-01 9.164067e-02 2.066939e-02
<VARIANCE> 39
 1.671249e+01 2.247443e+01 6.887812e+01 5.250754e+01 4.498901e+01 4.213437e+01 8.617962e+01 5.219633e+01 2.812881e+01 3.297475e+01 2.470575e+01 2.762774e+01 1.033536e+01 1.334054e+00 1.169997e+00 2.000358e+00 2.598837e+00 1.809724e+00 2.886591e+00 2.889191e+00 2.051387e+00 2.747478e+00 3.183346e+00 1.512603e+00 1.116687e+00 5.675274e-01 2.273235e-01 1.375373e-01 3.585806e-01 3.600695e-01 3.000552e-01 5.382981e-01 5.080547e-01 2.802523e-01 3.146422e-01 4.027409e-01 2.240330e-01 2.692789e-01 7.251169e-02
<GCONST> 1.083220e+02
<STATE> 4
<MEAN> 39
 -1.744206e+00 5.557561e+00 1.701972e+00 -8.060835e+00 1.002975e+01 -1.755812e+01 1.618814e+00 8.821856e+00 1.116683e+01 1.618848e+00 5.031832e+00 -6.411485e+00 6.700568e+01 6.092027e-01 1.878467e-01 5.586884e-02 1.803996e-01 -7.308281e-02 -3.513113e-01 -9.658473e-01 -5.937204e-01 -3.888693e-01 3.111775e-01 -6.443047e-01 5.950588e-01 -1.224063e-01 -1.591581e-01 -1.193758e-01 -1.829838e-01 2.146482e-03 -4.330419e-02 -3.724538e-02 6.567792e-02 -2.654276e-01 -1.415468e-01 -5.761176e-02 1.339530e-01 5.688794e-03 1.127024e-02
<VARIANCE> 39
 2.209237e+01 5.186123e+01 3.547904e+01 3.977362e+01 2.859412e+01 6.695344e+01 6.123316e+01 1.095452e+02 5.275203e+01 2.415503e+01 3.889560e+01 3.569700e+01 2.812163e+01 9.519180e-01 1.559055e+00 2.070218e+00 1.666965e+00 1.512688e+00 1.638220e+00 3.962233e+00 1.932299e+00 3.822940e+00 2.482202e+00 1.834027e+00 3.050440e+00 9.731635e-01 9.728336e-02 2.464836e-01 2.616332e-01 2.409340e-01 2.386876e-01 3.652697e-01 5.455483e-01 5.530918e-01 6.983799e-01 4.165534e-01 2.722686e-01 5.888928e-01 5.349787e-02
<GCONST> 1.124593e+02
<TRANSP> 5
 0.000000e+00 1.000000e+00 0.000000e+00 0.000000e+00 0.000000e+00
 0.000000e+00 8.871710e-01 1.128291e-01 0.000000e+00 0.000000e+00
 0.000000e+00 0.000000e+00 6.463789e-01 3.536211e-01 0.000000e+00
 0.000000e+00 0.000000e+00 0.000000e+00 6.868778e-01 3.131222e-01
 0.000000e+00 0.000000e+00 0.000000e+00 0.000000e+00 0.000000e+00
<ENDHMM>
~h "ih"
<BEGINHMM>
<NUMSTATES> 5
<STATE> 2
<MEAN> 39
 -8.625669e+00 8.374579e+00 8.482670e+00 6.564525e+00 1.365525e+01 6.453377e+00 6.881936e+00 -4.896891e+00 3.598569e+00 -1.352656e+00 3.455376e+00 -6.746404e-01 6.217271e+01 -1.629448e+00 -1.467305e-01 2.183609e-01 1.603550e-01 -1.578428e-01 1.251513e+00 1.154255e+00 -7.805898e-01 1.542885e+00 -2.701800e-02 3.229008e-01 2.513507e-01 -8.914199e-03 -1.616267e-01 -4.297091e-01 -1.129598e-01 -2.153928e-01 -1.765422e-01 -3.418480e-01 -5.785246e-02 -8.895060e-02 3.567103e-01 -1.950761e-01 -3.784319e-03 -2.158199e-01 4.521134e-01
<VARIANCE> 39
 9.299271e+01 5.003724e+01 1.746376e+01 2.529760e+01 2.111081e+01 3.190593e+01 3.035280e+01 5.090496e+01 4.983055e+01 2.339307e+01 2.305230e+01 1.708694e+01 5.192047e+01 2.323214e+00 3.582104e+00 1.825932e+00 1.731771e+00 3.191374e+00 2.169306e+00 2.047481e+00 4.089385e+00 5.518964e+00 2.626735e+00 2.709220e+00 2.037515e+00 2.225964e+00 4.666164e-01 6.126266e-01 3.902429e-01 4.237769e-01 5.078340e-01 4.438028e-01 4.579543e-01 8.438342e-01 1.070071e+00 4.980362e-01 5.208799e-01 3.352456e-01 4.367948e-01
<GCONST> 1.208728e+02
<STATE> 3
<MEAN> 39
 -1.279838e+01 1.191651e+00 6.995564e+00 2.108344e+00 1.006162e+01 5.671145e+00 6.968164e+00 -9.365688e+00 1.255215e+01 -2.191069e+00 3.428821e+00 -2.743288e+00 6.806879e+01 9.165791e-01 -1.974267e+00 -2.542560e-01 -1.453176e+00 -5.259457e-01 -2.390231e+00 -3.036324e+00 -9.362858e-01 -1.273507e+00 -7.912673e-01 3.112986e-01 -8.803753e-01 2.544590e+00 5.913444e-01 3.303613e-01 1.699187e-01 5.779721e-01 6.280303e-01 -4.625202e-01 -1.006649e+00 2.786645e-01 -1.398350e+00 -7.574728e-02 1.672043e-02 -8.430985e-02 -2.362615e-01
<VARIANCE> 39
 4.415091e+01 2.336028e+01 1.913060e+01 4.557219e+01 4.236479e+01 4.847644e+01 6.599943e+01 2.235223e+01 4.925259e+01 1.868784e+01 2.099043e+01 1.536927e+01 2.964444e+01 4.975904e+00 4.039055e+00 2.916753e+00 8.038442e+00 5.856580e+00 2.840185e+00 7.813926e+00 4.940797e+00 1.402876e+01 2.955329e+00 2.306993e+00 1.977077e+00 3.856135e+00 6.090759e-01 5.075390e-01 6.820252e-01 1.768259e+00 1.205968e+00 8.655511e-01 1.515234e+00 9.663566e-01 1.653561e+00 4.240618e-01 4.518564e-01 3.920148e-01 5.896168e-01
<GCONST> 1.323366e+02
<STATE> 4
<MEAN> 39
 -4.473752e+00 -3.398812e+00 8.570605e+00 5.488656e+00 1.800871e+01 -7.907387e+00 -9.934200e+00 -8.802770e+00 -6.354934e+00 -5.938326e+00 7.102493e+00 -7.574023e+00 7.422525e+01 2.223227e-01 -1.867705e-01 4.375204e-01 2.044412e-01 4.607012e-01 -5.249048e-01 8.014458e-02 3.616672e-01 -1.025416e+00 1.613887e-01 2.979329e-01 -2.541757e-01 9.558794e-02 -3.362509e-01 5.667729e-02 1.358040e-01 -2.016193e-01 -3.013543e-01 3.192263e-01 7.580609e-01 -4.554002e-02 5.195167e-01 2.102888e-01 -3.261231e-02 1.608702e-01 -1.388404e-01
<VARIANCE> 39
 1.435862e+01 8.198277e+00 1.432359e+01 1.661125e+01 2.318124e+01 3.290660e+01 3.264532e+01 2.625802e+01 3.304932e+01 2.820757e+01 1.728115e+01 2.820770e+01 7.479640e+00 1.209296e+00 6.355418e-01 1.386500e+00 2.726665e+00 2.686591e+00 2.947475e+00 5.661909e+00 2.025637e+00 3.373440e+00 1.977652e+00 1.687180e+00 1.265234e+00 4.285812e-01 3.222782e-01 1.666505e-01 2.767186e-01 3.669376e-01 2.990497e-01 2.864679e-01 3.806083e-01 4.182786e-01 4.539280e-01 4.248227e-01 3.550636e-01 2.126981e-01 1.444156e-01
<GCONST> 1.020609e+02
<TRANSP> 5
 0.000000e+00 1.000000e+00 0.000000e+00 0.000000e+00 0.000000e+00
 0.000000e+00 8.309737e-01 1.690263e-01 0.000000e+00 0.000000e+00
 0.000000e+00 0.000000e+00 7.451262e-01 2.548738e-01 0.000000e+00
 0.000000e+00 0.000000e+00 0.000000e+00 8.782905e-01 1.217094e-01
 0.000000e+00 0.000000e+00 0.000000e+00 0.000000e+00 0.000000e+00
<ENDHMM>
~h "iy"
<BEGINHMM>
<NUMSTATES> 5
<STATE> 2
<MEAN> 39
