~o
<STREAMINFO> 1 39
<VECSIZE> 39<NULLD><MFCC_D_A_0><DIAGC>
~h "b"
<BEGINHMM>
<NUMSTATES> 5
<STATE> 2
<MEAN> 39
 -1.676056e+00 4.984630e+00 6.239584e+00 1.182774e+00 6.470914e+00 -1.394506e+01 1.093535e-01 7.155306e+00 5.257140e+00 5.136869e-01 3.545959e+00 -4.046968e+00 6.480452e+01 -6.038415e-02 1.060122e-01 -1.171093e-01 1.776128e-01 5.936980e-01 -1.736746e-02 -1.938869e-01 -1.581898e-01 -6.277322e-01 2.308982e-01 1.109269e-01 6.539118e-02 -2.028952e-01 -1.070974e-01 9.918712e-02 -2.346640e-02 -1.783800e-02 4.699919e-02 8.670913e-02 1.442839e-02 -1.701238e-01 4.095661e-02 7.152183e-02 1.330844e-01 -5.623474e-03 -4.134677e-02
<VARIANCE> 39
 5.607468e+01 6.632791e+01 1.206845e+02 9.854515e+01 1.202765e+02 1.458646e+02 6.722251e+01 5.975384e+01 3.693718e+01 6.358258e+01 3.493139e+01 4.785469e+01 7.563946e+01 1.075765e+00 1.811035e+00 3.523674e+00 2.886195e+00 3.175560e+00 6.810994e+00 4.394125e+00 4.434058e+00 3.265463e+00 3.569542e+00 2.421942e+00 2.098568e+00 3.961589e+00 1.562639e-01 2.945535e-01 4.108486e-01 6.979975e-01 3.818392e-01 8.006561e-01 6.340092e-01 5.418642e-01 5.767471e-01 5.128980e-01 3.511986e-01 3.512880e-01 2.005315e-01
<GCONST> 1.298519e+02
<STATE> 3
<MEAN> 39
 -2.371315e+00 5.433454e+00 6.211381e+00 6.917728e-01 7.620900e+00 -1.298501e+01 -8.283353e-02 6.661201e+00 4.557808e+00 5.091894e-01 4.246336e+00 -4.150250e+00 6.411581e+01 -2.091730e-01 2.246447e-01 -3.338825e-01 3.925091e-02 5.226203e-01 4.160387e-01 -2.890383e-02 -3.650694e-01 -4.549760e-01 5.144051e-01 2.875594e-01 9.527750e-02 -3.458408e-01 -4.112657e-02 2.702048e-02 -7.508435e-02 -4.538176e-03 -1.012387e-01 6.161847e-02 8.403543e-02 -1.020539e-02 6.843931e-02 1.105415e-01 4.359060e-02 2.062752e-02 -6.991109e-02
<VARIANCE> 39
 6.360154e+01 8.338531e+01 1.249072e+02 9.578580e+01 1.225891e+02 1.352814e+02 7.860723e+01 6.495595e+01 3.520375e+01 6.347130e+01 4.012300e+01 4.768908e+01 7.234574e+01 8.867402e-01 2.112346e+00 2.626071e+00 3.251414e+00 2.322175e+00 4.879950e+00 3.960229e+00 4.002780e+00 2.519126e+00 3.444051e+00 2.371634e+00 2.200123e+00 3.840289e+00 1.467170e-01 2.778730e-01 4.907387e-01 6.431479e-01 4.098398e-01 7.241707e-01 5.952717e-01 6.018428e-01 5.069537e-01 5.300696e-01 4.077655e-01 3.213636e-01 2.067720e-01
<GCONST> 1.290518e+02
<STATE> 4
<MEAN> 39
 -3.145202e+00 5.801961e+00 4.062958e+00 -6.751764e-02 8.112085e+00 -1.179110e+01 -9.412313e-02 5.584089e+00 3.588948e+00 3.498504e-01 5.445566e+00 -4.652852e+00 6.333485e+01 -1.182382e-01 1.838517e-01 -5.258457e-01 1.572465e-01 1.494567e-01 5.757121e-01 3.594521e-01 -7.870188e-02 -4.026443e-01 7.388165e-01 -2.627635e-02 7.222702e-02 -5.809531e-01 1.348814e-03 -2.313113e-03 1.976765e-03 -4.488409e-02 -6.685930e-02 8.472624e-02 1.104374e-01 3.343505e-02 8.263643e-02 -2.754146e-02 -3.994279e-02 9.560040e-04 -2.343146e-02
<VARIANCE> 39
 6.002892e+01 8.481920e+01 1.104976e+02 6.837241e+01 9.958444e+01 1.106746e+02 7.770438e+01 6.563624e+01 3.213945e+01 7.143507e+01 4.572353e+01 4.193939e+01 7.905755e+01 8.371050e-01 2.054614e+00 2.610783e+00 3.246009e+00 2.357847e+00 3.146862e+00 2.913889e+00 3.280746e+00 2.049194e+00 2.857824e+00 2.672600e+00 2.400569e+00 2.538466e+00 1.531029e-01 3.212791e-01 3.410783e-01 4.464148e-01 4.169060e-01 6.456738e-01 6.214812e-01 7.353464e-01 4.094752e-01 4.883855e-01 3.739864e-01 3.084329e-01 3.565521e-01
<GCONST> 1.263637e+02
<TRANSP> 5
 0.000000e+00 1.000000e+00 0.000000e+00 0.000000e+00 0.000000e+00
 0.000000e+00 4.957769e-01 5.042231e-01 0.000000e+00 0.000000e+00
 0.000000e+00 0.000000e+00 4.545725e-01 5.454275e-01 0.000000e+00
 0.000000e+00 0.000000e+00 0.000000e+00 5.613699e-01 4.386301e-01
 0.000000e+00 0.000000e+00 0.000000e+00 0.000000e+00 0.000000e+00
<ENDHMM>
~h "d"
<BEGINHMM>
<NUMSTATES> 5
<STATE> 2
<MEAN> 39
 -2.622793e+00 3.182570e+00 -2.563307e-01 -1.799064e+00 7.678793e+00 -1.339965e+01 7.283085e+00 8.322540e+00 6.011127e+00 2.310310e+00 2.432174e+00 4.390098e-01 6.419191e+01 2.184779e-01 3.427041e-01 -1.333283e-01 2.793446e-01 1.650186e-01 -2.041778e-01 -2.207156e-01 7.238244e-01 -5.195404e-02 5.608044e-01 -7.161264e-02 1.790750e-01 -7.888594e-01 -3.602400e-02 -2.088010e-02 3.105841e-02 3.445461e-02 5.218103e-02 7.890581e-02 -9.543649e-02 -8.872865e-02 -1.371396e-02 -1.364983e-01 1.090194e-01 -4.477113e-02 2.406892e-02
<VARIANCE> 39
 8.658018e+01 4.618967e+01 4.388548e+01 5.111127e+01 4.590365e+01 1.969498e+02 3.816406e+01 7.069848e+01 1.177207e+02 9.187469e+01 2.972043e+01 3.975852e+01 1.072215e+02 8.985672e-01 9.875284e-01 1.109118e+00 1.645866e+00 1.357731e+00 3.658058e+00 2.453434e+00 2.358727e+00 2.492721e+00 4.847337e+00 1.183916e+00 1.441099e+00 1.744204e+00 1.252729e-01 2.316437e-01 1.575786e-01 2.717582e-01 2.412149e-01 4.247336e-01 3.975852e-01 4.107026e-01 4.308895e-01 6.322818e-01 2.489713e-01 2.564675e-01 2.427553e-01
<GCONST> 1.169095e+02
<STATE> 3
<MEAN> 39
 -4.696616e+00 3.645806e+00 1.446278e+00 2.910870e-01 7.684962e+00 -1.033510e+01 6.876998e+00 7.713358e+00 2.849068e+00 1.266004e+00 3.793927e+00 5.479667e-01 6.080140e+01 -3.261843e-02 2.336923e-01 -8.670283e-02 3.171092e-01 1.984171e-01 2.035694e-01 -1.772095e-01 4.797426e-01 -1.540796e-01 2.107137e-01 1.144108e-01 8.752669e-02 -7.753003e-01 -9.131946e-02 -1.468170e-01 -4.720263e-02 -1.089552e-01 1.070814e-01 4.784570e-02 1.815958e-02 -2.267425e-01 9.164257e-02 -1.999060e-01 5.935545e-02 -9.056707e-02 2.266216e-01
<VARIANCE> 39
 9.135379e+01 5.977197e+01 4.743707e+01 5.108776e+01 5.136689e+01 1.733431e+02 4.432387e+01 7.732677e+01 1.097745e+02 8.217500e+01 2.646979e+01 4.295863e+01 1.065145e+02 9.700866e-01 2.107901e+00 1.080711e+00 1.966794e+00 1.654143e+00 3.477547e+00 3.222255e+00 2.733620e+00 2.728510e+00 4.090022e+00 1.301585e+00 1.808901e+00 2.524468e+00 1.089902e-01 3.550262e-01 1.522581e-01 3.604614e-01 2.919470e-01 4.605816e-01 4.830527e-01 4.690711e-01 4.269885e-01 6.922206e-01 2.012917e-01 3.328474e-01 4.113705e-01
<GCONST> 1.212545e+02
<STATE> 4
<MEAN> 39
 -6.643163e+00 4.220071e-01 1.584901e+00 1.344727e+00 8.214842e+00 -7.219329e+00 6.750106e+00 4.075163e+00 1.789159e+00 -3.683380e-01 5.717806e+00 3.614146e+00 5.894087e+01 -3.526843e-01 -2.258573e-01 -2.520329e-01 -3.243951e-01 9.836029e-02 2.331287e-01 1.041953e-01 -3.171470e-01 -6.800999e-02 -1.925371e-01 1.243180e-01 -7.913308e-02 -8.496298e-02 1.525364e-02 -8.406793e-03 -3.701072e-02 -8.134224e-02 4.566511e-02 -7.453093e-03 -8.142155e-02 -4.879354e-02 8.652001e-03 -6.642271e-02 -7.222610e-02 -1.342306e-01 1.448397e-01
<VARIANCE> 39
 6.414877e+01 6.202138e+01 3.546109e+01 4.269192e+01 4.113694e+01 1.043081e+02 4.784520e+01 1.002752e+02 7.895573e+01 5.598951e+01 2.495502e+01 5.126749e+01 7.617003e+01 1.179504e+00 3.678714e+00 1.178338e+00 3.242382e+00 1.957520e+00 4.777436e+00 3.657363e+00 6.378039e+00 4.236235e+00 4.781930e+00 1.557365e+00 2.327767e+00 4.983790e+00 1.617052e-01 6.063423e-01 1.904176e-01 4.501626e-01 3.672794e-01 6.360335e-01 5.473763e-01 1.047226e+00 7.833636e-01 7.960265e-01 1.696493e-01 2.891294e-01 8.137278e-01
<GCONST> 1.276226e+02
<TRANSP> 5
 0.000000e+00 1.000000e+00 0.000000e+00 0.000000e+00 0.000000e+00
 0.000000e+00 5.673402e-01 4.326598e-01 0.000000e+00 0.000000e+00
 0.000000e+00 0.000000e+00 4.032194e-01 5.967807e-01 0.000000e+00
 0.000000e+00 0.000000e+00 0.000000e+00 6.086389e-01 3.913611e-01
 0.000000e+00 0.000000e+00 0.000000e+00 0.000000e+00 0.000000e+00
<ENDHMM>
~h "f"
<BEGINHMM>
<NUMSTATES> 5
<STATE> 2
<MEAN> 39
 -1.479228e+01 5.177593e+00 -1.271474e+00 -3.588780e+00 1.416116e+01 -7.853417e+00 8.830474e+00 3.653464e-01 5.230793e+00 7.270102e-01 6.837775e+00 -2.679374e+00 6.673653e+01 -1.781050e+00 2.687532e-01 -5.167023e-01 -8.966616e-01 2.539718e-01 3.331884e-01 1.065671e+00 -3.729537e-01 1.365161e-01 -2.808187e-01 -5.040865e-02 -2.641511e-02 4.330869e-01 3.799385e-02 -9.185494e-02 1.682742e-02 -1.411715e-02 -2.993192e-02 3.124607e-02 -1.427637e-01 3.175119e-02 -7.151877e-02 -8.488664e-02 -8.105738e-02 -5.746559e-02 5.069623e-02
<VARIANCE> 39
 1.510624e+02 4.915305e+01 3.932043e+01 6.485341e+01 8.817359e+01 5.497330e+01 6.480825e+01 5.182778e+01 3.679683e+01 3.527712e+01 3.003867e+01 3.717458e+01 4.457733e+01 5.498071e+00 3.096362e+00 1.941855e+00 2.203501e+00 4.523051e+00 3.912113e+00 4.547190e+00 4.586479e+00 2.756205e+00 3.250226e+00 2.185198e+00 2.490177e+00 1.444559e+00 8.035898e-01 5.657666e-01 2.617144e-01 4.057851e-01 5.992066e-01 6.468819e-01 7.667252e-01 8.344689e-01 5.288458e-01 6.897788e-01 4.239108e-01 3.747657e-01 2.659642e-01
<GCONST> 1.288793e+02
<STATE> 3
<MEAN> 39
 -1.962163e+01 5.144712e+00 -3.043173e+00 -6.791835e+00 1.501155e+01 -5.964153e+00 1.028786e+01 1.921892e-01 5.645242e+00 -7.495461e-01 6.099582e+00 -2.674396e+00 6.769463e+01 -5.124123e-01 4.817733e-02 -2.714567e-01 -7.382277e-01 -2.994134e-02 3.460329e-01 -3.812838e-03 4.196197e-02 -1.065095e-02 -3.154020e-01 -3.012864e-01 -1.124632e-01 1.574368e-01 3.885232e-01 1.611091e-02 5.116636e-02 1.427147e-02 -1.171172e-01 -1.639551e-02 -2.028181e-01 7.738349e-02 -6.120069e-02 -7.895106e-03 -6.133715e-02 -1.200367e-02 -5.905847e-02
<VARIANCE> 39
 1.391756e+02 4.698612e+01 2.451477e+01 5.262803e+01 6.272837e+01 5.643999e+01 4.610858e+01 4.254321e+01 3.072289e+01 2.756754e+01 2.968093e+01 2.518221e+01 3.149162e+01 8.977754e+00 3.356252e+00 1.512528e+00 1.948025e+00 3.125212e+00 2.971809e+00 3.669196e+00 3.433206e+00 2.650902e+00 2.663633e+00 1.737632e+00 1.586868e+00 1.004303e+00 6.767484e-01 6.156791e-01 2.251988e-01 3.858237e-01 4.279827e-01 4.761033e-01 5.304385e-01 6.271917e-01 4.753170e-01 5.067171e-01 3.577055e-01 3.290828e-01 1.459151e-01
<GCONST> 1.209106e+02
<STATE> 4
<MEAN> 39
 -1.286711e+01 5.196523e+00 -6.122847e+00 -1.055581e+01 1.527215e+01 -5.523626e+00 6.884731e+00 1.870188e+00 5.724066e+00 -4.069304e+00 4.389224e+00 -1.884334e+00 6.783728e+01 1.158091e+00 3.014287e-01 -5.460767e-02 -5.083103e-01 -1.869844e-01 1.646114e-02 -2.718825e-01 3.429595e-01 -1.404891e-01 -3.364963e-01 -2.480899e-01 1.543011e-02 2.359805e-02 1.351863e-01 7.985041e-02 4.995488e-02 1.833046e-02 -2.835345e-02 -1.357486e-02 3.679755e-02 5.045567e-02 -5.487315e-02 -3.848665e-02 1.215883e-03 3.952769e-02 -7.756159e-03
<VARIANCE> 39
 2.418170e+02 5.332394e+01 2.487761e+01 7.033147e+01 6.370973e+01 5.266130e+01 7.646651e+01 5.714874e+01 3.491441e+01 6.311982e+01 3.589744e+01 2.703993e+01 1.695499e+01 8.928137e+00 4.517199e+00 1.870428e+00 3.517253e+00 3.291763e+00 2.510619e+00 4.171312e+00 3.315314e+00 2.960873e+00 3.716784e+00 1.820518e+00 2.833587e+00 7.966678e-01 8.226594e-01 6.607951e-01 2.941282e-01 4.571550e-01 5.422119e-01 4.265340e-01 6.279465e-01 5.924587e-01 4.715273e-01 6.129711e-01 2.951829e-01 5.452374e-01 1.174508e-01
<GCONST> 1.263690e+02
<TRANSP> 5
 0.000000e+00 1.000000e+00 0.000000e+00 0.000000e+00 0.000000e+00
 0.000000e+00 7.373541e-01 2.626460e-01 0.000000e+00 0.000000e+00
 0.000000e+00 0.000000e+00 7.631183e-01 2.368816e-01 0.000000e+00
 0.000000e+00 0.000000e+00 0.000000e+00 9.253796e-01 7.462034e-02
 0.000000e+00 0.000000e+00 0.000000e+00 0.000000e+00 0.000000e+00
<ENDHMM>
~h "g"
<BEGINHMM>
<NUMSTATES> 5
<STATE> 2
<MEAN> 39
 -5.956633e+00 3.091348e+00 6.661962e+00 1.104817e+01 1.829902e+01 -1.463851e+01 -5.420357e+00 5.123928e-01 1.012309e+00 -5.151290e+00 8.318020e+00 -1.044391e+01 6.662185e+01 2.097039e-01 3.716903e-01 4.242706e-01 9.345118e-01 3.579451e-01 2.721494e-01 1.876528e-01 -2.649713e-01 -4.379708e-02 4.564449e-01 -1.837319e-01 2.603983e-02 -1.780824e-01 -1.356034e-01 -1.588983e-01 -8.268479e-02 -2.656885e-01 -1.909432e-01 1.720443e-01 2.163247e-01 2.230720e-02 -6.456467e-04 5.110419e-02 -1.714978e-01 7.809012e-02 -3.275625e-02
<VARIANCE> 39
 3.055520e+01 3.979633e+01 8.101425e+01 1.041136e+02 1.338101e+02 7.798469e+01 1.132934e+02 6.983699e+01 3.572553e+01 4.839304e+01 5.970161e+01 6.216763e+01 7.442847e+01 1.311367e+00 2.521526e+00 1.981015e+00 3.133193e+00 2.773223e+00 5.749362e+00 3.207816e+00 4.882651e+00 1.966243e+00 3.236456e+00 3.721548e+00 2.776892e+00 2.840655e+00 1.855057e-01 5.003101e-01 2.987118e-01 6.445324e-01 6.673046e-01 7.167829e-01 7.601567e-01 7.581750e-01 3.129293e-01 9.466805e-01 5.510126e-01 4.042979e-01 5.145205e-01
<GCONST> 1.311101e+02
<STATE> 3
<MEAN> 39
 -5.297747e+00 3.645677e+00 8.743883e+00 1.357706e+01 1.972601e+01 -1.338303e+01 -4.606195e+00 4.111285e-01 7.137992e-01 -3.401682e+00 5.892447e+00 -9.967238e+00 6.503751e+01 -1.050122e-01 9.799305e-02 1.781831e-01 3.812742e-01 1.994112e-01 7.635522e-01 3.611950e-01 -7.809347e-02 -9.829040e-02 3.783533e-01 -4.460149e-01 2.458807e-01 -4.466575e-01 -1.213307e-01 -2.834770e-01 -1.605128e-01 -4.043522e-01 -1.621616e-01 7.016341e-02 1.517595e-01 -5.859344e-02 -2.127348e-02 -1.327902e-01 -3.662825e-02 3.773621e-02 2.447727e-01
<VARIANCE> 39
 2.070320e+01 3.747952e+01 7.094487e+01 9.435170e+01 1.154668e+02 8.350482e+01 9.077472e+01 6.319528e+01 3.798600e+01 4.319924e+01 5.573256e+01 4.997293e+01 7.879266e+01 1.239242e+00 3.609455e+00 2.667297e+00 3.140118e+00 2.363145e+00 3.564368e+00 2.299796e+00 3.577467e+00 2.447331e+00 3.872635e+00 3.399687e+00 2.145034e+00 3.512810e+00 1.523887e-01 6.768409e-01 3.480317e-01 6.840971e-01 5.132117e-01 6.880927e-01 5.453974e-01 6.206440e-01 4.157857e-01 8.541294e-01 6.064324e-01 2.660168e-01 8.211625e-01
<GCONST> 1.291371e+02
<STATE> 4
<MEAN> 39
 -5.229545e+00 2.530122e+00 6.290293e+00 6.154892e+00 1.403462e+01 -8.452724e+00 2.460508e+00 1.066088e+00 2.318935e+00 -2.105392e+00 4.494271e+00 -5.587037e+00 6.473792e+01 -1.989396e-01 -5.556802e-01 -6.723211e-01 -1.416153e+00 -3.193854e-01 3.073429e-01 3.605828e-01 -2.571285e-01 -1.573186e-02 -3.763553e-01 2.553963e-01 3.491858e-01 9.780027e-01 6.848484e-02 3.401839e-02 2.223240e-02 -1.225213e-01 -5.635820e-02 -5.539573e-02 -3.312393e-02 1.893652e-03 5.395058e-02 -8.579732e-02 1.299918e-02 2.318092e-02 1.081494e-01
<VARIANCE> 39
 3.427334e+01 5.470098e+01 5.901422e+01 1.633024e+02 9.501788e+01 1.174081e+02 9.889721e+01 5.704621e+01 4.924350e+01 7.162997e+01 4.346876e+01 2.537978e+01 1.034147e+02 2.453744e+00 7.685340e+00 4.683893e+00 9.295260e+00 3.628901e+00 5.988744e+00 8.231752e+00 6.300893e+00 4.943088e+00 6.622613e+00 4.198316e+00 1.771691e+00 1.320173e+01 3.984742e-01 1.377409e+00 9.189457e-01 1.533882e+00 5.725876e-01 8.466985e-01 1.670007e+00 1.195659e+00 1.003424e+00 1.046891e+00 7.997087e-01 2.877451e-01 2.097087e+00
<GCONST> 1.470025e+02
<TRANSP> 5
 0.000000e+00 1.000000e+00 0.000000e+00 0.000000e+00 0.000000e+00
 0.000000e+00 6.010944e-01 3.989056e-01 0.000000e+00 0.000000e+00
 0.000000e+00 0.000000e+00 6.062552e-01 3.937449e-01 0.000000e+00
 0.000000e+00 0.000000e+00 0.000000e+00 9.042765e-01 9.572353e-02
 0.000000e+00 0.000000e+00 0.000000e+00 0.000000e+00 0.000000e+00
<ENDHMM>
~h "k"
<BEGINHMM>
<NUMSTATES> 5
<STATE> 2
<MEAN> 39
 -1.016687e+01 -2.241584e+00 -6.142288e-01 1.568496e-02 7.328268e+00 -7.746053e-01 5.215751e+00 9.238398e-01 -5.179678e+00 2.271413e+00 8.890989e+00 6.085083e+00 5.577885e+01 -1.240770e-01 4.307244e-01 -1.144405e-01 1.371752e-01 -3.125082e-02 4.000563e-01 -4.889704e-02 2.399640e-01 -9.372631e-02 5.732111e-02 -7.976374e-02 1.956386e-01 -6.508142e-01 -8.877734e-03 -3.847603e-02 3.384456e-02 -7.154449e-02 -1.524765e-02 -1.173637e-01 -8.732045e-02 -7.965714e-02 7.485475e-02 -1.068080e-02 5.877908e-02 -1.361319e-01 5.772217e-02
<VARIANCE> 39
 3.672572e+01 8.415588e+01 6.321464e+01 3.882524e+01 3.833496e+01 1.039266e+02 3.154407e+01 5.818796e+01 1.515742e+02 3.378175e+01 3.973779e+01 5.890098e+01 1.076884e+02 9.301111e-01 1.826233e+00 1.700806e+00 1.428142e+00 1.210046e+00 2.534044e+00 1.785748e+00 2.196563e+00 2.369354e+00 1.918983e+00 1.872702e+00 1.565621e+00 2.442880e+00 1.754999e-01 3.180432e-01 3.268100e-01 2.623377e-01 2.214859e-01 3.098865e-01 3.197759e-01 3.833974e-01 3.205654e-01 3.322869e-01 2.586845e-01 2.061155e-01 3.905281e-01
<GCONST> 1.154591e+02
<STATE> 3
<MEAN> 39
 -1.038645e+01 1.132098e+00 -3.279508e-01 1.678025e+00 8.256336e+00 -2.499186e+00 4.896284e+00 2.922016e+00 1.025707e+00 3.091808e+00 5.741431e+00 2.366320e+00 5.661555e+01 -3.433228e-01 -5.462879e-02 2.086138e-01 -2.219759e-01 -3.290267e-01 -2.162261e-01 -4.745124e-01 -1.941761e-01 3.448846e-01 1.350829e-02 9.593835e-02 -3.498312e-01 -1.516091e-01 -4.762989e-02 -1.961902e-01 -3.907957e-02 -1.848359e-01 -8.846234e-03 -2.302788e-01 -8.055826e-02 -1.105684e-01 3.744334e-02 -4.785701e-02 6.702084e-02 -2.279542e-01 2.718352e-01
<VARIANCE> 39
 5.472686e+01 8.990514e+01 6.557066e+01 4.919839e+01 4.311780e+01 1.550118e+02 4.408022e+01 6.655460e+01 1.347765e+02 4.319016e+01 4.121492e+01 5.092445e+01 1.384701e+02 1.166695e+00 3.867654e+00 2.371382e+00 2.180218e+00 1.628118e+00 4.192268e+00 2.270274e+00 2.876054e+00 3.084067e+00 2.602123e+00 2.916479e+00 1.834008e+00 5.720799e+00 2.455395e-01 7.365074e-01 5.593801e-01 4.321973e-01 3.480436e-01 8.321927e-01 4.434417e-01 5.075444e-01 5.486302e-01 5.469484e-01 4.361786e-01 2.848783e-01 8.513376e-01
<GCONST> 1.294376e+02
<STATE> 4
<MEAN> 39
 -1.302385e+01 -3.026294e+00 4.596188e-01 -5.080724e-02 7.834616e+00 -7.874070e+00 1.626035e+00 -2.050309e+00 4.698181e+00 5.921156e-01 6.199947e+00 -1.591657e+00 6.450560e+01 -8.081956e-02 -3.395750e-01 1.099913e-01 -3.697122e-01 -9.729509e-02 -7.000721e-01 -6.516265e-01 -3.286092e-01 2.965853e-01 -1.672166e-01 2.576410e-01 -5.747901e-01 8.667754e-01 8.313110e-02 1.045289e-01 -2.037440e-02 4.452614e-02 1.663305e-01 1.694167e-01 6.202021e-02 1.157221e-01 -4.869079e-02 3.721602e-02 3.384709e-03 -4.250464e-03 -1.117479e-01
<VARIANCE> 39
 3.683553e+01 7.754689e+01 3.259160e+01 5.634682e+01 4.437000e+01 1.156086e+02 4.970694e+01 6.914740e+01 7.557935e+01 4.908635e+01 4.732847e+01 3.773792e+01 1.563474e+02 1.871904e+00 5.786374e+00 3.496713e+00 4.776018e+00 2.847469e+00 5.533098e+00 2.651926e+00 3.642217e+00 3.747765e+00 3.804326e+00 3.811830e+00 1.775064e+00 9.554202e+00 2.712410e-01 9.751163e-01 5.466908e-01 8.564040e-01 5.572246e-01 1.080168e+00 4.572324e-01 8.147632e-01 6.459271e-01 7.686673e-01 6.796016e-01 3.351161e-01 1.900574e+00
<GCONST> 1.365216e+02
<TRANSP> 5
 0.000000e+00 1.000000e+00 0.000000e+00 0.000000e+00 0.000000e+00
 0.000000e+00 6.594651e-01 3.405349e-01 0.000000e+00 0.000000e+00
 0.000000e+00 0.000000e+00 4.287248e-01 5.712752e-01 0.000000e+00
 0.000000e+00 0.000000e+00 0.000000e+00 7.095240e-01 2.904760e-01
 0.000000e+00 0.000000e+00 0.000000e+00 0.000000e+00 0.000000e+00
<ENDHMM>
~h "l"
<BEGINHMM>
<NUMSTATES> 5
<STATE> 2
<MEAN> 39
 -4.272580e-01 7.338384e+00 6.811121e+00 1.086862e+00 2.357501e+00 -1.715315e+01 4.220517e+00 7.778788e+00 5.620987e+00 2.165034e+00 4.267343e+00 -3.546515e+00 6.355887e+01 9.437197e-02 1.591037e-01 -1.058941e-01 1.776289e-01 -4.926777e-02 -8.072662e-01 -3.002654e-01 3.045914e-01 1.497622e-01 -9.746412e-03 2.634158e-01 1.947699e-01 1.380245e-01 -7.809132e-02 -1.377300e-01 -2.952051e-02 -8.185098e-02 4.108129e-03 1.136068e-01 4.327388e-02 -6.970093e-02 -6.911795e-03 -2.295730e-01 8.442459e-02 1.614136e-02 1.789253e-01
<VARIANCE> 39
 4.875994e+01 4.412157e+01 8.162177e+01 7.192834e+01 1.133471e+02 1.579723e+02 6.423341e+01 9.074364e+01 5.303616e+01 5.962454e+01 3.730520e+01 3.428371e+01 9.873842e+01 1.793802e+00 2.262509e+00 2.457584e+00 3.032956e+00 3.703225e+00 7.423376e+00 3.567079e+00 4.820469e+00 2.575191e+00 3.629055e+00 2.692258e+00 3.319976e+00 2.133548e+00 2.239682e-01 3.476107e-01 2.891023e-01 3.847778e-01 5.042774e-01 7.524269e-01 5.459350e-01 7.408599e-01 4.516236e-01 5.477495e-01 5.583240e-01 4.842804e-01 4.356157e-01
<GCONST> 1.308896e+02
<STATE> 3
<MEAN> 39
 -8.196712e-01 7.558889e+00 7.389932e+00 2.081849e+00 1.832343e+00 -1.803848e+01 3.294368e+00 8.514420e+00 5.429017e+00 1.322225e+00 5.163161e+00 -3.077962e+00 6.352144e+01 -1.308891e-01 -1.677386e-01 -2.553686e-01 -7.547121e-02 1.033634e-01 -2.300227e-01 -1.120040e-01 -1.711459e-01 1.982499e-01 -4.504836e-01 4.196462e-01 1.855332e-01 5.016391e-01 -3.267851e-02 -1.710180e-01 -3.313693e-02 -1.227295e-01 -2.213559e-02 7.919997e-02 1.091691e-01 -7.779842e-02 3.360176e-02 -1.398397e-01 -2.661772e-02 2.749451e-02 1.700627e-01
<VARIANCE> 39
 6.384430e+01 5.081969e+01 8.372952e+01 7.566648e+01 1.250374e+02 1.635470e+02 6.676408e+01 9.598552e+01 5.992743e+01 6.667513e+01 4.351836e+01 3.854249e+01 9.549272e+01 2.331315e+00 3.036727e+00 2.965638e+00 3.035318e+00 4.186694e+00 6.469290e+00 3.971662e+00 5.736394e+00 3.251648e+00 3.655673e+00 3.281965e+00 2.886649e+00 3.971146e+00 3.208711e-01 5.012380e-01 3.269199e-01 4.744791e-01 5.156928e-01 6.912823e-01 5.687164e-01 8.283715e-01 4.995290e-01 6.112174e-01 5.596184e-01 4.335644e-01 6.476778e-01
<GCONST> 1.356545e+02
<STATE> 4
<MEAN> 39
 5.237603e-01 7.009148e+00 5.677186e+00 1.551583e-01 9.320154e-01 -2.118459e+01 4.424187e+00 1.098159e+01 7.437388e+00 -9.523402e-01 5.532269e+00 -3.149816e+00 6.620567e+01 -4.724596e-02 -3.386252e-01 -4.727108e-01 -4.346935e-01 2.739613e-01 2.076155e-01 2.515452e-01 -1.225206e-01 1.360554e-01 -1.311277e-01 6.265786e-02 6.193481e-02 3.361257e-01 1.266724e-02 2.895656e-02 9.541160e-03 4.212207e-03 5.008620e-02 7.335506e-02 -2.732353e-02 4.234874e-02 -5.975963e-02 4.239321e-02 -5.915610e-02 2.233995e-02 -9.357458e-02
<VARIANCE> 39
 6.007193e+01 4.162748e+01 8.159512e+01 7.563857e+01 1.134443e+02 1.494579e+02 6.742095e+01 1.211461e+02 5.407356e+01 8.954009e+01 4.466066e+01 5.147275e+01 5.533403e+01 2.190972e+00 2.856420e+00 2.811024e+00 3.880048e+00 4.466240e+00 5.641636e+00 3.579299e+00 6.833738e+00 3.313008e+00 3.941999e+00 3.218635e+00 2.803294e+00 3.700559e+00 3.384720e-01 4.466534e-01 3.454631e-01 5.236871e-01 7.032781e-01 7.162037e-01 6.351959e-01 1.067518e+00 5.298166e-01 6.859794e-01 5.193194e-01 4.845329e-01 5.773482e-01
<GCONST> 1.363244e+02
<TRANSP> 5
 0.000000e+00 1.000000e+00 0.000000e+00 0.000000e+00 0.000000e+00
 0.000000e+00 5.528749e-01 4.471251e-01 0.000000e+00 0.000000e+00
 0.000000e+00 0.000000e+00 5.406799e-01 4.593202e-01 0.000000e+00
 0.000000e+00 0.000000e+00 0.000000e+00 8.590028e-01 1.409972e-01
 0.000000e+00 0.000000e+00 0.000000e+00 0.000000e+00 0.000000e+00
<ENDHMM>
~h "m"
<BEGINHMM>
<NUMSTATES> 5
<STATE> 2
<MEAN> 39
 -4.616120e+00 2.580611e+00 -2.044640e-01 2.166819e+00 1.232415e+01 -1.031634e+01 3.071233e+00 3.716029e+00 4.759984e+00 -4.235801e-01 3.900761e+00 -5.960276e+00 6.634723e+01 5.478324e-02 -2.017385e-01 1.790076e-01 -1.766876e-01 -9.455435e-02 -1.957435e-01 -3.362740e-01 -7.760267e-01 5.013471e-01 -9.850528e-01 2.332184e-01 -3.497862e-01 6.516429e-01 6.232438e-03 6.309627e-02 1.182643e-01 -9.463916e-02 6.399138e-02 -4.185542e-03 1.943933e-02 2.298177e-02 3.159054e-02 8.193639e-02 7.312920e-02 -4.455144e-02 1.378395e-01
<VARIANCE> 39
 1.387216e+02 6.773367e+01 8.308578e+01 7.765430e+01 6.230419e+01 1.044897e+02 1.059647e+02 8.387897e+01 5.180003e+01 4.167027e+01 3.319022e+01 4.474000e+01 7.228815e+01 5.850626e+00 5.193686e+00 3.892257e+00 3.609826e+00 3.164329e+00 7.271844e+00 7.899472e+00 6.378430e+00 4.562221e+00 4.189557e+00 2.195460e+00 3.067964e+00 7.346645e+00 5.643856e-01 8.930467e-01 6.406386e-01 5.651389e-01 4.522339e-01 8.617932e-01 1.195763e+00 1.078097e+00 7.674680e-01 6.915919e-01 3.407212e-01 4.775871e-01 1.021130e+00
<GCONST> 1.418787e+02
<STATE> 3
<MEAN> 39
 -4.290772e+00 2.535911e+00 9.018384e-01 1.782810e+00 1.251576e+01 -1.151953e+01 1.368709e+00 2.121295e+00 6.192644e+00 -1.480625e+00 4.444916e+00 -6.590485e+00 6.805063e+01 3.346993e-01 3.290692e-01 4.188660e-01 -1.253336e-02 1.446882e-01 8.357558e-02 -3.432726e-01 -3.110319e-01 1.843967e-01 -2.903888e-01 2.113169e-01 -2.980411e-01 1.456994e-01 8.075825e-03 7.593729e-02 1.563328e-03 -4.180384e-02 3.530328e-02 5.579048e-03 9.596102e-02 1.799398e-01 -6.595907e-02 1.273654e-01 -2.061542e-02 9.432718e-03 -5.213775e-02
<VARIANCE> 39
 1.037516e+02 6.371836e+01 8.726906e+01 7.876192e+01 6.060968e+01 9.874513e+01 1.230559e+02 8.042058e+01 5.243198e+01 4.931130e+01 4.286866e+01 4.974926e+01 3.392804e+01 5.750652e+00 3.701114e+00 3.287084e+00 3.562761e+00 3.143225e+00 6.654295e+00 6.628468e+00 5.713217e+00 4.040064e+00 4.135376e+00 2.684797e+00 2.943357e+00 4.000386e+00 4.986277e-01 6.274041e-01 6.128036e-01 5.020921e-01 5.030271e-01 8.419846e-01 1.072747e+00 9.695208e-01 7.295176e-01 7.218294e-01 4.117183e-01 5.149909e-01 5.508629e-01
<GCONST> 1.387664e+02
<STATE> 4
<MEAN> 39
 -3.912518e+00 1.431378e+00 1.911630e+00 2.833547e+00 1.648270e+01 -1.056770e+01 -1.834219e+00 2.242768e+00 6.495262e+00 -1.977319e+00 5.038461e+00 -7.959785e+00 6.827402e+01 1.107200e-01 5.263018e-02 -8.450457e-02 -2.271983e-01 -8.448312e-03 1.439738e-01 2.467487e-01 1.632486e-01 -4.692214e-02 4.428963e-02 5.841308e-02 2.688212e-03 -5.965028e-03 -1.020016e-02 3.903689e-03 -2.322788e-02 -1.962478e-02 -1.115891e-02 -1.448837e-02 2.840833e-02 2.951658e-02 -5.415937e-03 1.998032e-02 -2.904463e-02 3.968830e-02 -1.766211e-02
<VARIANCE> 39
 8.968342e+01 7.948400e+01 6.097451e+01 8.926476e+01 6.191114e+01 9.571120e+01 1.047466e+02 7.040101e+01 8.117207e+01 6.655718e+01 5.004055e+01 4.132012e+01 3.493866e+01 4.066098e+00 4.674082e+00 3.157496e+00 3.712652e+00 3.377782e+00 4.393749e+00 4.000606e+00 4.686131e+00 4.712562e+00 3.956514e+00 2.854667e+00 2.452130e+00 2.691803e+00 4.813694e-01 6.497896e-01 5.192214e-01 5.054777e-01 5.348526e-01 6.380211e-01 6.231520e-01 7.505347e-01 7.395702e-01 6.719064e-01 4.282200e-01 4.179252e-01 4.203751e-01
<GCONST> 1.358012e+02
<TRANSP> 5
 0.000000e+00 1.000000e+00 0.000000e+00 0.000000e+00 0.000000e+00
 0.000000e+00 6.111678e-01 3.888321e-01 0.000000e+00 0.000000e+00
 0.000000e+00 0.000000e+00 6.307980e-01 3.692021e-01 0.000000e+00
 0.000000e+00 0.000000e+00 0.000000e+00 9.412277e-01 5.877233e-02
 0.000000e+00 0.000000e+00 0.000000e+00 0.000000e+00 0.000000e+00
<ENDHMM>
~h "n"
<BEGINHMM>
<NUMSTATES> 5
<STATE> 2
<MEAN> 39
 -7.728248e-01 3.346395e+00 -7.455148e-01 2.082175e+00 1.485057e+01 -9.970052e+00 3.629857e+00 4.766515e+00 3.145864e+00 1.889920e-01 4.961652e+00 -2.350944e+00 6.501998e+01 4.012475e-01 4.659925e-01 -1.686673e-02 9.641080e-01 2.261350e-01 7.510050e-01 -2.331057e-01 3.664709e-02 -2.507792e-01 2.143593e-01 -3.389667e-01 -2.199325e-01 -6.715277e-01 1.585603e-02 1.591600e-02 -2.365331e-02 6.286260e-02 -4.235623e-02 1.521564e-03 -5.760358e-02 5.871712e-03 6.095864e-02 9.775960e-02 -7.504843e-03 -3.584175e-02 -1.203040e-01
<VARIANCE> 39
 6.197470e+01 3.086186e+01 6.148226e+01 7.027218e+01 6.040413e+01 9.164830e+01 6.338063e+01 6.510783e+01 4.994982e+01 5.635960e+01 5.054387e+01 3.382684e+01 8.573291e+01 1.132465e+00 1.441549e+00 1.648991e+00 4.109482e+00 2.160255e+00 3.274252e+00 2.641847e+00 2.370644e+00 2.180653e+00 2.438153e+00 1.882772e+00 1.413011e+00 2.013019e+00 1.759330e-01 1.836549e-01 2.692479e-01 6.424434e-01 3.306828e-01 4.498350e-01 4.219325e-01 3.745897e-01 3.890393e-01 3.954777e-01 3.367155e-01 2.517042e-01 2.166367e-01
<GCONST> 1.191239e+02
<STATE> 3
<MEAN> 39
 2.492781e-01 4.439044e+00 -3.942221e-01 4.718369e+00 1.573905e+01 -8.346850e+00 2.716222e+00 4.563599e+00 2.644481e+00 1.222237e+00 4.379638e+00 -2.844954e+00 6.326031e+01 2.481712e-01 4.532622e-01 9.484307e-02 8.090516e-01 1.590896e-01 5.584174e-01 -2.492734e-01 -2.430166e-02 -1.131848e-01 3.948463e-01 -2.914089e-01 -2.541252e-01 -7.573317e-01 -9.450606e-02 -9.032479e-03 2.404564e-02 -1.147613e-01 -4.458760e-02 -9.316596e-02 4.876669e-02 -4.545516e-02 1.063223e-01 4.881422e-03 2.641905e-02 9.577483e-03 2.276922e-02
<VARIANCE> 39
 5.783482e+01 3.142339e+01 5.479777e+01 6.643008e+01 5.858754e+01 8.265037e+01 5.369264e+01 5.824249e+01 4.817817e+01 5.685450e+01 4.425402e+01 3.121965e+01 7.637544e+01 9.647597e-01 1.089617e+00 1.421561e+00 2.916185e+00 1.828611e+00 3.136662e+00 2.093252e+00 1.915339e+00 2.079101e+00 2.288462e+00 1.646172e+00 1.543484e+00 1.354874e+00 1.417473e-01 1.620542e-01 2.504459e-01 5.237802e-01 2.632844e-01 4.146258e-01 3.556711e-01 3.638355e-01 3.833329e-01 4.250115e-01 2.949811e-01 2.610350e-01 1.854700e-01
<GCONST> 1.146728e+02
<STATE> 4
<MEAN> 39
 2.875729e-01 5.708929e+00 1.376840e+00 7.398837e+00 1.760766e+01 -6.615614e+00 1.884238e+00 3.650136e+00 1.503000e+00 3.940881e+00 3.698794e+00 -3.507102e+00 6.074973e+01 -3.160056e-02 3.603570e-01 1.372003e-01 2.334422e-01 4.663293e-03 3.131935e-01 -4.750210e-02 -1.109797e-01 -1.528183e-02 2.852191e-01 -2.171582e-01 -1.169919e-01 -5.259026e-01 -1.030850e-01 -4.758898e-02 -4.604905e-02 -2.234242e-01 -3.137708e-02 -4.444917e-02 8.032690e-02 -3.977527e-02 1.211404e-01 -1.203352e-01 4.414527e-02 6.244279e-02 1.112365e-01
<VARIANCE> 39
 5.487578e+01 3.788660e+01 4.251822e+01 4.411202e+01 5.727898e+01 8.843164e+01 4.564923e+01 4.628934e+01 4.364962e+01 5.565067e+01 3.616645e+01 3.113386e+01 7.657655e+01 8.962842e-01 1.018991e+00 1.383497e+00 2.219795e+00 1.392885e+00 2.637013e+00 1.715417e+00 2.264575e+00 2.015462e+00 2.421598e+00 1.716926e+00 1.612973e+00 1.248100e+00 1.351153e-01 1.691173e-01 1.942636e-01 3.621317e-01 2.152130e-01 4.213269e-01 3.189570e-01 4.363038e-01 3.905602e-01 4.955624e-01 2.741726e-01 2.896089e-01 1.765086e-01
<GCONST> 1.119990e+02
<TRANSP> 5
 0.000000e+00 1.000000e+00 0.000000e+00 0.000000e+00 0.000000e+00
 0.000000e+00 5.220028e-01 4.779972e-01 0.000000e+00 0.000000e+00
 0.000000e+00 0.000000e+00 5.331452e-01 4.668548e-01 0.000000e+00
 0.000000e+00 0.000000e+00 0.000000e+00 7.069970e-01 2.930030e-01
 0.000000e+00 0.000000e+00 0.000000e+00 0.000000e+00 0.000000e+00
<ENDHMM>
~h "p"
<BEGINHMM>
<NUMSTATES> 5
<STATE> 2
<MEAN> 39
 -7.428403e-01 7.040759e+00 -5.530218e+00 -1.119551e+01 8.062321e+00 -1.002440e+01 1.275717e+01 6.083106e+00 5.413124e+00 1.893222e+00 3.959596e+00 8.761652e-01 6.404923e+01 -1.248712e-01 -2.506423e-01 -6.013991e-02 -2.047711e-02 -9.738198e-03 4.581439e-02 -6.875513e-02 -1.834806e-01 -1.377402e-01 -1.202319e-02 1.600835e-02 7.641207e-02 9.346120e-02 -1.312192e-02 -1.968993e-02 3.003517e-02 3.986418e-02 9.365747e-03 1.111433e-02 -5.431415e-02 -4.066364e-02 -2.628082e-02 8.299801e-03 2.221923e-02 -1.463676e-02 -1.091024e-02
<VARIANCE> 39
 3.919651e+01 8.841652e+01 4.456335e+01 9.777590e+01 5.435114e+01 1.331102e+02 1.102361e+02 6.532776e+01 1.252657e+02 5.279175e+01 3.739116e+01 3.241149e+01 4.290371e+01 1.613030e+00 5.857584e+00 2.355270e+00 3.628706e+00 3.364040e+00 5.214709e+00 4.894579e+00 3.752435e+00 4.419801e+00 5.096575e+00 2.434241e+00 2.105455e+00 5.113583e+00 2.158872e-01 7.977197e-01 4.259670e-01 4.608025e-01 4.860765e-01 5.941511e-01 6.390359e-01 6.328908e-01 5.607940e-01 8.929680e-01 4.382720e-01 3.431724e-01 8.763398e-01
<GCONST> 1.339266e+02
<STATE> 3
<MEAN> 39
 -4.282530e+00 1.574264e+00 -3.729834e+00 -5.059440e+00 1.070024e+01 -5.631231e+00 7.677793e+00 1.280607e+00 1.004956e+00 1.722480e+00 4.308575e+00 2.354834e-01 6.369962e+01 -3.328999e-01 -8.557530e-01 6.194769e-01 5.472711e-01 -3.186643e-01 1.734229e-01 -6.219629e-01 -6.102825e-01 -2.008716e-01 8.516526e-02 1.302919e-01 1.138342e-01 -1.785102e-01 7.217073e-02 7.453503e-02 4.442153e-02 -7.512635e-03 4.166570e-02 6.107848e-02 1.014310e-02 1.423583e-02 -1.360184e-01 -1.161362e-03 4.632482e-02 2.711888e-02 -1.019144e-01
<VARIANCE> 39
 5.558836e+01 1.372659e+02 4.422433e+01 8.618446e+01 3.567234e+01 6.187296e+01 7.234598e+01 9.338367e+01 8.196729e+01 4.188829e+01 3.411972e+01 3.147735e+01 6.267962e+01 1.441065e+00 6.146798e+00 1.848859e+00 2.698051e+00 1.481841e+00 4.052187e+00 3.658722e+00 3.468596e+00 3.753846e+00 5.152454e+00 1.982460e+00 2.079014e+00 6.579210e+00 2.779837e-01 1.087167e+00 3.549971e-01 4.029561e-01 2.826284e-01 7.352634e-01 5.274876e-01 5.943179e-01 5.427081e-01 9.245265e-01 4.446938e-01 3.519359e-01 1.488706e+00
<GCONST> 1.310045e+02
<STATE> 4
<MEAN> 39
 -7.082048e+00 -8.338195e+00 -2.217438e+00 -7.136345e-03 9.071938e+00 -3.624019e+00 2.429008e+00 -3.648106e+00 -1.652443e+00 2.939317e+00 7.565617e+00 1.137456e+00 6.242930e+01 1.524761e-01 5.056586e-02 3.183530e-01 3.993934e-01 -1.090040e-01 6.085533e-01 1.081691e-01 1.949962e-01 -7.199965e-01 1.913784e-01 1.840327e-01 4.883065e-01 -7.720311e-01 -4.491451e-02 1.321033e-01 -8.590610e-02 -7.032765e-02 4.710127e-02 -2.943358e-02 7.583062e-02 8.052798e-02 1.424219e-04 -5.667128e-02 2.249075e-02 -2.409531e-02 4.266893e-02
<VARIANCE> 39
 3.964502e+01 1.076504e+02 2.869922e+01 3.230420e+01 2.222840e+01 4.502078e+01 4.412887e+01 1.087380e+02 5.474264e+01 3.258510e+01 3.361800e+01 3.382251e+01 3.540046e+01 1.107799e+00 4.443590e+00 1.438871e+00 1.475485e+00 1.177331e+00 2.256730e+00 3.280644e+00 2.876770e+00 2.814791e+00 3.156879e+00 1.941952e+00 1.578714e+00 2.633983e+00 1.722249e-01 6.119241e-01 1.832728e-01 2.038353e-01 2.201386e-01 3.982735e-01 4.106037e-01 4.001276e-01 5.187795e-01 5.989484e-01 4.014443e-01 2.236648e-01 5.383511e-01
<GCONST> 1.162080e+02
<TRANSP> 5
 0.000000e+00 1.000000e+00 0.000000e+00 0.000000e+00 0.000000e+00
 0.000000e+00 9.517618e-01 4.823824e-02 0.000000e+00 0.000000e+00
 0.000000e+00 0.000000e+00 7.492127e-01 2.507873e-01 0.000000e+00
 0.000000e+00 0.000000e+00 0.000000e+00 8.246884e-01 1.753116e-01
 0.000000e+00 0.000000e+00 0.000000e+00 0.000000e+00 0.000000e+00
<ENDHMM>
~h "r"
<BEGINHMM>
<NUMSTATES> 5
<STATE> 2
<MEAN> 39
 -3.387926e+00 2.655879e+00 -3.606708e+00 -3.668431e+00 1.304254e+01 -6.161355e+00 3.287703e+00 4.265711e-01 -4.218231e-01 -2.464814e-01 8.858939e+00 2.706372e+00 6.321711e+01 4.160251e-02 2.755085e-01 -8.123050e-02 1.857724e-01 -3.555178e-01 7.124971e-01 8.034225e-01 4.045323e-01 -5.684357e-01 -3.085670e-01 9.938151e-02 2.114179e-01 -4.260425e-01 -4.923052e-02 2.232460e-03 4.126651e-02 6.613135e-02 7.137436e-02 -1.826682e-02 -5.534798e-03 4.324352e-02 2.260227e-02 -2.410237e-02 -6.821160e-02 -5.668900e-02 -5.143384e-02
<VARIANCE> 39
 6.140611e+01 7.184824e+01 2.766847e+01 1.074382e+02 5.627351e+01 9.082726e+01 5.636866e+01 7.509619e+01 1.138168e+02 7.139550e+01 3.821207e+01 6.288126e+01 1.090153e+02 6.660838e-01 1.154722e+00 1.185422e+00 2.592710e+00 1.660378e+00 2.881572e+00 2.722199e+00 3.851448e+00 3.419726e+00 3.453874e+00 1.912173e+00 2.065909e+00 1.540441e+00 8.090518e-02 1.616879e-01 1.527713e-01 2.934475e-01 2.471034e-01 3.574776e-01 3.526661e-01 4.945077e-01 4.896317e-01 3.616439e-01 3.026717e-01 3.602758e-01 1.071277e-01
<GCONST> 1.176902e+02
<STATE> 3
<MEAN> 39
 -3.510356e+00 3.696183e+00 -3.996981e+00 -3.694939e+00 1.197344e+01 -4.649974e+00 5.802537e+00 2.320711e+00 -1.443623e+00 -1.349061e+00 8.528777e+00 2.865570e+00 6.199445e+01 -4.937069e-02 1.897833e-01 8.740983e-02 3.742708e-01 -2.277850e-01 4.720768e-01 5.542268e-01 3.312033e-01 -3.411023e-01 -1.752586e-01 -1.501803e-01 7.647947e-02 -4.821231e-01 -3.275881e-02 -3.107602e-02 3.083199e-02 5.197410e-02 7.360137e-02 -7.297909e-02 -9.929936e-02 -4.251442e-02 7.493421e-02 8.118328e-02 -3.379872e-02 -2.390512e-02 -5.097834e-02
<VARIANCE> 39
 6.832199e+01 7.406479e+01 2.808056e+01 1.170608e+02 6.010803e+01 8.928541e+01 4.853146e+01 7.801219e+01 1.212530e+02 7.946979e+01 3.636986e+01 7.299258e+01 1.136976e+02 6.200167e-01 1.030619e+00 9.191034e-01 2.466874e+00 1.653301e+00 2.597614e+00 2.234944e+00 3.576358e+00 2.893453e+00 3.665609e+00 1.663087e+00 1.623634e+00 9.873399e-01 1.058514e-01 2.372462e-01 1.458167e-01 3.505671e-01 2.449389e-01 4.309216e-01 3.672650e-01 6.772254e-01 4.421384e-01 4.926670e-01 3.082735e-01 3.466574e-01 2.585433e-01
<GCONST> 1.187599e+02
<STATE> 4
<MEAN> 39
 -4.006923e+00 3.537437e+00 -3.276616e+00 -1.997147e+00 1.120564e+01 -3.661419e+00 7.239037e+00 2.904544e+00 -1.883291e+00 -1.175391e+00 8.323545e+00 3.868425e+00 5.987426e+01 -1.728013e-01 5.308847e-02 2.352244e-01 2.879832e-01 -1.218098e-01 1.137369e-01 1.817131e-01 1.113966e-01 3.074435e-02 -3.612660e-02 -1.504630e-01 1.258805e-01 -4.657619e-01 -2.579600e-02 -1.377991e-02 8.381590e-03 -6.055759e-04 7.563236e-02 -7.078484e-02 -1.241990e-01 -1.660084e-02 1.350805e-01 7.827123e-02 2.994019e-02 -5.137698e-02 6.830805e-03
<VARIANCE> 39
 6.735979e+01 6.110931e+01 2.850287e+01 1.193343e+02 6.123925e+01 8.701646e+01 4.114310e+01 6.987839e+01 1.448299e+02 9.161833e+01 3.324546e+01 7.154306e+01 1.095254e+02 8.784808e-01 1.085444e+00 9.031452e-01 3.501782e+00 1.738578e+00 3.285946e+00 2.248627e+00 3.124604e+00 4.182846e+00 4.653345e+00 2.067214e+00 1.783471e+00 1.034885e+00 1.351077e-01 2.340688e-01 1.725089e-01 4.731173e-01 2.438888e-01 4.793417e-01 4.199638e-01 6.302116e-01 5.872614e-01 8.578396e-01 3.757236e-01 3.836919e-01 2.995109e-01
<GCONST> 1.224807e+02
<TRANSP> 5
 0.000000e+00 1.000000e+00 0.000000e+00 0.000000e+00 0.000000e+00
 0.000000e+00 5.652447e-01 4.347553e-01 0.000000e+00 0.000000e+00
 0.000000e+00 0.000000e+00 5.111752e-01 4.888248e-01 0.000000e+00
 0.000000e+00 0.000000e+00 0.000000e+00 6.385745e-01 3.614254e-01
 0.000000e+00 0.000000e+00 0.000000e+00 0.000000e+00 0.000000e+00
<ENDHMM>
~h "s"
<BEGINHMM>
<NUMSTATES> 5
<STATE> 2
<MEAN> 39
 -2.024434e+01 -7.337108e+00 1.526077e+01 -6.129725e+00 8.120783e+00 -5.979301e+00 1.167565e+01 -5.152888e+00 2.621683e+00 -4.638658e+00 8.642835e+00 -3.692267e+00 7.394789e+01 -1.691616e+00 -9.287086e-01 8.294064e-01 -4.043630e-01 -7.828148e-01 4.870233e-02 8.775170e-01 -1.566619e-01 4.080489e-01 4.336201e-01 1.132936e-01 -1.669849e-01 3.800743e-01 1.813392e-01 9.284265e-02 -1.720059e-01 5.531359e-02 9.056425e-02 -7.842509e-03 -2.014902e-01 3.135243e-02 -8.482925e-02 4.944194e-03 -4.314620e-02 -5.259056e-03 -9.614144e-02
<VARIANCE> 39
 1.107985e+02 7.211618e+01 8.669672e+01 4.992940e+01 4.855229e+01 3.234812e+01 6.381810e+01 5.036615e+01 5.043109e+01 6.618858e+01 2.505989e+01 2.338653e+01 6.961258e+01 4.539927e+00 2.409250e+00 4.382440e+00 4.184588e+00 3.228580e+00 2.174295e+00 5.591342e+00 3.015327e+00 3.500052e+00 3.032045e+00 2.105734e+00 1.350972e+00 1.837322e+00 5.790784e-01 3.345403e-01 6.662607e-01 5.601340e-01 4.157902e-01 4.086792e-01 7.029186e-01 5.553375e-01 6.297252e-01 5.432515e-01 3.916900e-01 2.427070e-01 2.267523e-01
<GCONST> 1.270412e+02
<STATE> 3
<MEAN> 39
 -2.456786e+01 -1.083080e+01 1.576013e+01 -6.311495e+00 5.003468e+00 -6.715040e+00 1.264291e+01 -4.556035e+00 3.539324e+00 -3.320695e+00 8.220763e+00 -4.075385e+00 7.367159e+01 -3.025724e-01 -3.097214e-01 -1.645150e-01 2.850216e-02 -4.296817e-01 1.159451e-02 2.090925e-02 1.584984e-01 -8.321212e-02 2.450507e-01 -5.197434e-02 4.825854e-02 -3.103485e-01 2.756003e-01 1.105018e-01 -1.417838e-01 1.416796e-01 9.711219e-02 5.180832e-02 -1.779818e-01 6.495412e-02 -4.495378e-02 1.155062e-02 -1.162854e-02 5.553207e-02 -1.821425e-01
<VARIANCE> 39
 6.198880e+01 5.123751e+01 6.406198e+01 4.669965e+01 4.612154e+01 2.808103e+01 6.340012e+01 4.834303e+01 3.673733e+01 3.975534e+01 2.477091e+01 2.370868e+01 7.408699e+01 3.533587e+00 1.931235e+00 3.802212e+00 2.810876e+00 2.284065e+00 1.997533e+00 3.133355e+00 2.450636e+00 2.219131e+00 2.317451e+00 1.667482e+00 1.446366e+00 1.997440e+00 3.849707e-01 2.394607e-01 6.160494e-01 4.747322e-01 3.690057e-01 3.606578e-01 4.650809e-01 4.394046e-01 4.095509e-01 4.163228e-01 3.149705e-01 2.735750e-01 2.164289e-01
<GCONST> 1.189924e+02
<STATE> 4
<MEAN> 39
 -2.265595e+01 -1.107063e+01 1.296260e+01 -5.018846e+00 2.851988e+00 -6.243781e+00 1.124088e+01 -3.485650e+00 2.331992e+00 -2.357824e+00 8.434867e+00 -2.887148e+00 7.007619e+01 7.973944e-01 4.243183e-01 -2.968290e-01 5.167547e-01 -1.587213e-01 2.253511e-01 -5.201118e-01 4.601678e-01 -1.805361e-01 4.013954e-01 -9.092850e-02 2.090161e-01 -9.517960e-01 1.704262e-01 1.030670e-01 -4.848882e-02 4.467077e-02 3.518411e-02 3.057289e-02 -8.763987e-02 1.578484e-02 2.241330e-02 1.795919e-02 -6.190713e-02 1.393358e-03 -7.160696e-02
<VARIANCE> 39
 7.660783e+01 5.398096e+01 7.785563e+01 4.872665e+01 5.113549e+01 3.139632e+01 8.687820e+01 5.586086e+01 3.660590e+01 4.042604e+01 2.257705e+01 2.818316e+01 8.624785e+01 2.864986e+00 2.113737e+00 4.059528e+00 2.610682e+00 1.951325e+00 2.446537e+00 2.318340e+00 2.483326e+00 2.089929e+00 2.378669e+00 1.706677e+00 1.488508e+00 2.636576e+00 3.547370e-01 2.782582e-01 7.522160e-01 4.116054e-01 3.228095e-01 4.695389e-01 4.284758e-01 4.781179e-01 4.118322e-01 4.250534e-01 3.025120e-01 2.905325e-01 3.810672e-01
<GCONST> 1.212083e+02
<TRANSP> 5
 0.000000e+00 1.000000e+00 0.000000e+00 0.000000e+00 0.000000e+00
 0.000000e+00 8.041077e-01 1.958923e-01 0.000000e+00 0.000000e+00
 0.000000e+00 0.000000e+00 7.550589e-01 2.449411e-01 0.000000e+00
 0.000000e+00 0.000000e+00 0.000000e+00 8.588101e-01 1.411899e-01
 0.000000e+00 0.000000e+00 0.000000e+00 0.000000e+00 0.000000e+00
<ENDHMM>
~h "t"
<BEGINHMM>
<NUMSTATES> 5
<STATE> 2
<MEAN> 39
 -8.502852e+00 1.032403e+00 4.635276e+00 1.348630e+00 1.090731e+01 -6.279613e+00 3.927929e+00 1.345372e+00 3.178543e+00 1.320224e+00 6.815792e+00 -3.074597e+00 6.261623e+01 -2.432553e-01 -2.811126e-01 -6.441790e-02 -3.937244e-01 6.445085e-02 2.390248e-02 8.825053e-03 -8.896710e-01 2.560297e-01 -4.838125e-01 1.898924e-01 -7.918892e-02 3.947845e-01 -3.369815e-02 -1.792321e-01 2.202843e-02 -1.314034e-01 5.809443e-02 -2.198526e-01 -2.998687e-02 -9.810842e-02 1.411199e-01 -1.866534e-01 -2.600710e-02 -8.169483e-02 3.958520e-01
<VARIANCE> 39
 8.201665e+01 1.101757e+02 9.869414e+01 7.274907e+01 9.076621e+01 9.317229e+01 7.383953e+01 7.243366e+01 4.724615e+01 7.086181e+01 5.101293e+01 3.453716e+01 9.480723e+01 4.174202e+00 5.448740e+00 5.180800e+00 4.805583e+00 3.779746e+00 4.022286e+00 3.823674e+00 4.536986e+00 3.862615e+00 4.355070e+00 3.045645e+00 2.048561e+00 7.317312e+00 4.978497e-01 8.090310e-01 9.031125e-01 8.391283e-01 6.786171e-01 7.635505e-01 7.248463e-01 9.596118e-01 7.098274e-01 7.406639e-01 5.448306e-01 3.686090e-01 1.188739e+00
<GCONST> 1.417099e+02
<STATE> 3
<MEAN> 39
 -9.435741e+00 -9.941806e-01 4.927782e+00 -3.082981e-01 1.096254e+01 -7.111228e+00 3.697436e+00 -1.007620e+00 4.312469e+00 -9.960433e-01 7.373198e+00 -3.460653e+00 6.547927e+01 -3.988432e-02 -4.871343e-01 2.221407e-02 -3.079783e-01 1.756829e-01 -4.634225e-01 -3.695532e-01 -7.116266e-01 2.969263e-01 -6.631615e-01 1.487368e-01 -1.627356e-01 9.783499e-01 1.015806e-01 5.134851e-02 1.029834e-02 9.038883e-02 2.770721e-02 -7.250445e-02 -8.803037e-02 1.275722e-01 -3.886427e-02 6.312537e-02 -2.245948e-02 3.144083e-03 1.010519e-02
<VARIANCE> 39
 6.139290e+01 1.097814e+02 8.898212e+01 8.340321e+01 7.794881e+01 8.072251e+01 7.666405e+01 6.957361e+01 6.353825e+01 6.905143e+01 4.972238e+01 3.430745e+01 9.516590e+01 4.643984e+00 6.805761e+00 5.522903e+00 5.906678e+00 4.948882e+00 5.347678e+00 5.306571e+00 5.602774e+00 5.329832e+00 5.184363e+00 3.383394e+00 2.269464e+00 8.413735e+00 5.773328e-01 1.094145e+00 1.000609e+00 1.021880e+00 7.425632e-01 9.598700e-01 9.858037e-01 1.070755e+00 9.355602e-01 9.157080e-01 5.850727e-01 3.932685e-01 1.502553e+00
<GCONST> 1.462731e+02
<STATE> 4
<MEAN> 39
 -8.877465e+00 -2.221204e+00 4.742672e+00 1.184454e-01 1.202177e+01 -8.526668e+00 1.260949e+00 -2.898432e+00 3.606452e+00 -2.744942e+00 7.619896e+00 -3.052559e+00 6.748513e+01 2.410989e-01 -1.021305e-02 -2.580035e-01 -7.998288e-02 1.646503e-02 -2.342378e-01 -2.411990e-01 2.202515e-02 -5.018321e-02 -9.618887e-03 4.648425e-02 7.768908e-02 1.699814e-01 2.569216e-02 1.047994e-01 -2.391202e-02 3.488803e-02 -1.601373e-03 1.704580e-02 6.173085e-02 1.392789e-01 -1.119816e-02 1.256811e-01 -2.778793e-02 8.318567e-03 -1.360587e-01
<VARIANCE> 39
 6.086442e+01 9.239301e+01 6.500153e+01 9.644585e+01 8.982763e+01 9.088040e+01 7.472333e+01 6.725391e+01 8.685450e+01 5.699944e+01 5.383842e+01 4.182499e+01 8.448256e+01 2.837563e+00 5.044048e+00 3.569038e+00 5.206859e+00 3.710755e+00 4.655546e+00 5.121936e+00 5.458383e+00 4.958884e+00 4.128679e+00 2.856848e+00 1.888261e+00 6.937506e+00 3.964852e-01 8.467702e-01 5.884705e-01 8.533533e-01 5.018234e-01 6.400886e-01 8.617638e-01 1.014365e+00 8.777151e-01 7.430058e-01 4.533669e-01 3.030383e-01 1.135214e+00
<GCONST> 1.403171e+02
<TRANSP> 5
 0.000000e+00 1.000000e+00 0.000000e+00 0.000000e+00 0.000000e+00
 0.000000e+00 5.620531e-01 4.379469e-01 0.000000e+00 0.000000e+00
 0.000000e+00 0.000000e+00 6.284168e-01 3.715831e-01 0.000000e+00
 0.000000e+00 0.000000e+00 0.000000e+00 8.570142e-01 1.429859e-01
 0.000000e+00 0.000000e+00 0.000000e+00 0.000000e+00 0.000000e+00
<ENDHMM>
~h "v"
<BEGINHMM>
<NUMSTATES> 5
<STATE> 2
<MEAN> 39
 -6.387426e+00 5.159153e+00 3.110963e+00 6.563730e+00 2.628794e+01 -1.451796e+01 -6.389918e-01 -6.398041e+00 2.063452e+00 -5.551341e+00 1.065626e+01 -7.838771e+00 7.037547e+01 -4.536575e-01 8.447048e-02 9.006063e-01 6.687232e-01 8.876013e-01 -4.841438e-01 -7.608993e-02 -3.745323e-01 5.089920e-01 -4.366005e-01 -1.412893e-01 -7.305345e-01 -3.000207e-01 -7.835146e-03 -1.348072e-01 1.257882e-01 4.308841e-02 -1.665861e-01 2.131720e-02 -1.199122e-01 8.639430e-02 3.384753e-02 7.878536e-02 -4.685060e-02 -1.936384e-03 9.378812e-02
<VARIANCE> 39
 1.928832e+01 4.149434e+01 6.968052e+01 4.250766e+01 4.365048e+01 2.787181e+01 8.794120e+01 2.288451e+01 2.600001e+01 3.361541e+01 2.073967e+01 4.364253e+01 2.198052e+01 2.246717e+00 4.783622e+00 2.086585e+00 2.518025e+00 2.948219e+00 1.824644e+00 8.163784e+00 2.335356e+00 3.730562e+00 2.604546e+00 2.270144e+00 2.792067e+00 1.438699e+00 5.061252e-01 6.115213e-01 2.512690e-01 3.910372e-01 3.247808e-01 3.108732e-01 1.358543e+00 4.246750e-01 8.237762e-01 5.506272e-01 4.457843e-01 4.280960e-01 1.763895e-01
<GCONST> 1.203686e+02
<STATE> 3
<MEAN> 39
 -7.419696e+00 4.099901e+00 6.118428e+00 8.610407e+00 2.743199e+01 -1.540157e+01 -2.271591e+00 -6.542673e+00 2.999169e+00 -6.692027e+00 9.879727e+00 -9.329254e+00 7.028848e+01 -2.258590e-01 -3.586138e-01 9.852878e-01 6.576819e-01 3.559857e-01 -3.147862e-01 -3.876286e-01 1.288684e-02 3.230600e-01 -2.241980e-01 -2.656506e-01 -5.513666e-01 -1.102843e-01 6.874584e-02 -1.670185e-01 1.710881e-02 -8.214585e-03 -1.739755e-01 6.176734e-02 -7.831166e-02 1.184456e-01 -5.521302e-02 6.906627e-02 -6.424420e-03 2.446487e-02 8.155403e-02
<VARIANCE> 39
 1.617914e+01 4.198016e+01 8.289002e+01 5.223174e+01 3.141061e+01 3.773706e+01 7.102400e+01 2.632447e+01 2.489889e+01 4.463484e+01 2.228026e+01 4.919664e+01 1.703513e+01 2.058303e+00 4.200768e+00 2.491392e+00 3.029941e+00 3.762915e+00 2.642851e+00 6.542459e+00 2.399450e+00 3.084003e+00 3.496198e+00 2.149786e+00 2.836251e+00 1.370477e+00 4.073958e-01 5.724821e-01 2.909690e-01 4.157210e-01 3.475263e-01 4.704390e-01 1.140076e+00 4.490913e-01 6.619914e-01 5.848997e-01 4.328412e-01 4.792185e-01 1.845597e-01
<GCONST> 1.215008e+02
<STATE> 4
<MEAN> 39
 -7.069038e+00 -4.473672e-01 1.203694e+01 1.126443e+01 2.535429e+01 -1.477391e+01 -4.418519e+00 -3.426062e+00 4.255006e+00 -8.296495e+00 7.328812e+00 -1.253986e+01 6.955018e+01 6.994914e-02 -3.276824e-01 1.854960e-01 -2.786053e-01 -8.202603e-01 1.518047e-01 4.145487e-02 4.436237e-01 2.331537e-01 2.901886e-01 -2.249896e-01 -7.510091e-02 -1.893315e-01 1.025255e-02 7.097722e-02 -1.296512e-01 -1.327941e-01 -9.663402e-02 2.135060e-02 7.611139e-02 4.692930e-02 9.856785e-03 1.032480e-01 2.488166e-02 6.364942e-02 -3.049343e-02
<VARIANCE> 39
 1.829609e+01 3.333276e+01 6.544658e+01 7.585796e+01 9.600627e+01 6.937254e+01 7.693250e+01 5.326335e+01 3.425539e+01 6.181507e+01 3.632409e+01 3.409332e+01 3.172825e+01 1.136560e+00 2.705588e+00 3.861665e+00 5.458200e+00 4.300301e+00 5.588293e+00 6.297606e+00 2.907235e+00 2.832247e+00 3.809351e+00 3.135292e+00 2.734450e+00 2.145119e+00 1.749100e-01 3.300953e-01 3.419423e-01 5.134431e-01 5.324014e-01 8.224306e-01 1.015616e+00 5.312349e-01 5.362643e-01 5.924095e-01 5.705645e-01 4.279851e-01 2.887070e-01
<GCONST> 1.276748e+02
<TRANSP> 5
 0.000000e+00 1.000000e+00 0.000000e+00 0.000000e+00 0.000000e+00
 0.000000e+00 7.259005e-01 2.740995e-01 0.000000e+00 0.000000e+00
 0.000000e+00 0.000000e+00 6.821044e-01 3.178956e-01 0.000000e+00
 0.000000e+00 0.000000e+00 0.000000e+00 9.173895e-01 8.261061e-02
 0.000000e+00 0.000000e+00 0.000000e+00 0.000000e+00 0.000000e+00
<ENDHMM>
~h "w"
<BEGINHMM>
<NUMSTATES> 5
<STATE> 2
<MEAN> 39
 -2.907251e+00 6.773168e+00 6.256027e+00 2.133940e+00 1.030836e+01 -1.452017e+01 -6.092496e-01 1.616239e+00 6.922501e+00 -1.924975e+00 2.279527e+00 -6.239722e+00 6.444994e+01 5.980042e-01 3.618679e-01 -2.788391e-02 -1.250912e-01 -9.040052e-02 -9.109789e-01 -5.105577e-01 -2.223305e-01 4.285198e-01 -1.608182e-01 -3.217807e-01 -1.373727e-01 3.152962e-01 2.292678e-02 -1.923519e-02 -5.703004e-02 1.689996e-02 -1.918341e-02 -4.679782e-02 -2.886504e-02 6.714976e-02 -2.106204e-02 5.121148e-02 -3.004125e-03 5.733854e-03 6.114649e-03
<VARIANCE> 39
 6.854337e+01 9.177295e+01 7.367890e+01 9.951598e+01 1.108509e+02 1.491116e+02 1.294601e+02 8.041865e+01 7.082156e+01 6.667121e+01 5.189200e+01 5.326814e+01 6.801455e+01 2.853067e+00 4.997563e+00 4.119646e+00 5.555182e+00 3.616812e+00 6.659637e+00 7.676400e+00 5.769533e+00 4.819933e+00 5.136165e+00 3.797556e+00 2.511881e+00 5.119544e+00 4.290707e-01 7.491155e-01 7.113179e-01 9.413473e-01 4.946196e-01 7.889418e-01 1.131332e+00 1.050909e+00 7.915387e-01 9.051126e-01 6.067438e-01 4.923276e-01 6.196266e-01
<GCONST> 1.444250e+02
<STATE> 3
<MEAN> 39
 3.460107e-01 9.172884e+00 4.525918e+00 7.209867e-01 7.756427e+00 -2.018280e+01 -1.431209e+00 2.836113e+00 9.069235e+00 -5.748507e-01 1.027231e+00 -5.247513e+00 6.492184e+01 3.754513e-01 4.514342e-02 -4.144556e-01 -9.517813e-02 8.885095e-02 -5.911750e-01 -3.355941e-01 -3.941426e-02 1.881780e-01 -5.158743e-02 -2.200122e-02 -1.192760e-01 3.463337e-01 -4.217710e-02 -9.783266e-02 -7.023854e-02 -2.201979e-02 4.415313e-02 1.695229e-01 6.911454e-02 5.664667e-02 -8.998540e-02 -2.643978e-02 1.066219e-01 1.252080e-02 1.231744e-02
<VARIANCE> 39
 6.429788e+01 7.542255e+01 7.890834e+01 8.425400e+01 8.705156e+01 1.644945e+02 1.633002e+02 7.578224e+01 8.072998e+01 8.416230e+01 5.477203e+01 4.582933e+01 4.582468e+01 1.851789e+00 3.493412e+00 3.569225e+00 4.461426e+00 3.267329e+00 6.774104e+00 6.247008e+00 4.926107e+00 5.677895e+00 5.471521e+00 3.335417e+00 3.335646e+00 3.110707e+00 3.208168e-01 4.970970e-01 5.092499e-01 7.524519e-01 5.086238e-01 7.677809e-01 9.357973e-01 8.127679e-01 9.185697e-01 9.038753e-01 5.218997e-01 6.247916e-01 3.599233e-01
<GCONST> 1.402369e+02
<STATE> 4
<MEAN> 39
 -2.264095e+00 6.130761e+00 2.335947e+00 -2.222623e+00 1.160374e+01 -1.292131e+01 -1.053209e+00 2.192571e-01 7.094875e+00 -4.730073e+00 5.908045e+00 -5.888612e+00 6.701405e+01 -1.348715e-01 -4.287169e-01 -6.742854e-02 1.671532e-02 1.540522e-01 1.021542e-01 -6.124360e-03 -9.119023e-02 -3.871129e-02 -8.490910e-03 1.519755e-01 6.612762e-02 2.777119e-01 -3.765187e-02 -1.123876e-02 2.778355e-02 2.529000e-02 -6.692337e-03 -1.014488e-02 4.653024e-02 5.695412e-03 -2.542257e-02 7.029640e-02 6.733901e-03 2.545972e-02 -1.596572e-02
<VARIANCE> 39
 7.377708e+01 1.168754e+02 5.503320e+01 8.945554e+01 7.279021e+01 1.250039e+02 1.129049e+02 7.049598e+01 1.168711e+02 9.893368e+01 5.656503e+01 5.895248e+01 4.461723e+01 2.263292e+00 4.455735e+00 3.421553e+00 4.312144e+00 3.484649e+00 6.597396e+00 6.384042e+00 5.238451e+00 8.361582e+00 7.072062e+00 3.684822e+00 3.664706e+00 2.724046e+00 2.594470e-01 5.263113e-01 5.329384e-01 6.318523e-01 5.119646e-01 9.771492e-01 1.040266e+00 9.180562e-01 1.448480e+00 1.260748e+00 6.770643e-01 6.763454e-01 3.644593e-01
<GCONST> 1.429308e+02
<TRANSP> 5
 0.000000e+00 1.000000e+00 0.000000e+00 0.000000e+00 0.000000e+00
 0.000000e+00 8.248324e-01 1.751676e-01 0.000000e+00 0.000000e+00
 0.000000e+00 0.000000e+00 8.010766e-01 1.989234e-01 0.000000e+00
 0.000000e+00 0.000000e+00 0.000000e+00 9.576824e-01 4.231760e-02
 0.000000e+00 0.000000e+00 0.000000e+00 0.000000e+00 0.000000e+00
<ENDHMM>
~h "aa"
<BEGINHMM>
<NUMSTATES> 5
<STATE> 2
<MEAN> 39
 -2.251428e+00 1.785140e+00 -4.341542e+00 -7.823680e+00 7.773892e+00 -1.403285e+01 7.293253e+00 6.812481e+00 6.594944e+00 1.931905e+00 5.195205e+00 6.402531e-02 6.362240e+01 2.576114e-01 3.879312e-01 -4.152058e-01 -3.731070e-01 8.791107e-02 -9.793399e-02 4.209415e-01 4.516056e-01 -5.360414e-01 1.918884e-01 -1.491214e-01 2.399245e-01 -3.087730e-01 -5.110974e-02 -6.669533e-02 4.264152e-02 5.673777e-02 3.060966e-03 1.528158e-02 -7.054439e-03 -2.493592e-03 -6.921769e-02 -2.959918e-02 -2.568496e-02 -2.469408e-02 6.623169e-02
<VARIANCE> 39
 7.443906e+01 7.126070e+01 6.027958e+01 8.255826e+01 3.710314e+01 1.285852e+02 5.841483e+01 1.044467e+02 8.435352e+01 6.679173e+01 3.042158e+01 3.684534e+01 5.147433e+01 1.073005e+00 1.206759e+00 1.193151e+00 2.948154e+00 2.069164e+00 3.346891e+00 2.264392e+00 2.329952e+00 2.773438e+00 3.027952e+00 1.711732e+00 2.132555e+00 1.392120e+00 1.563327e-01 2.097676e-01 1.605485e-01 4.753701e-01 3.718573e-01 3.317557e-01 4.247551e-01 3.616002e-01 3.322673e-01 4.060282e-01 2.675540e-01 2.998094e-01 1.496313e-01
<GCONST> 1.180381e+02
<STATE> 3
<MEAN> 39
 -1.078049e+00 1.930986e+00 -5.622587e+00 -7.221281e+00 8.056299e+00 -1.466216e+01 8.441237e+00 7.392681e+00 4.538430e+00 2.577739e+00 4.700939e+00 1.211982e+00 6.346946e+01 1.940753e-01 1.909351e-01 -1.854239e-01 3.756028e-02 1.124627e-01 3.507272e-01 3.385419e-01 3.771119e-01 -7.730431e-01 6.839199e-02 -1.957562e-01 3.007808e-01 -1.796781e-01 -4.686543e-02 -4.411142e-02 8.167517e-02 1.027607e-01 -1.013826e-02 1.008338e-01 -1.474257e-02 -1.821423e-02 -1.033793e-02 -2.591194e-02 -3.060467e-03 -7.519293e-03 2.645549e-02
<VARIANCE> 39
 8.427846e+01 7.201523e+01 5.751933e+01 7.720309e+01 3.739761e+01 1.579884e+02 6.797569e+01 1.021284e+02 9.865698e+01 6.971133e+01 3.207129e+01 3.988992e+01 6.089172e+01 8.400090e-01 1.082688e+00 1.200024e+00 2.426068e+00 1.722384e+00 2.874732e+00 1.766650e+00 2.282120e+00 2.434996e+00 2.442149e+00 1.335892e+00 1.848565e+00 1.045242e+00 1.102953e-01 1.409905e-01 1.348760e-01 3.576581e-01 2.748493e-01 2.688592e-01 3.739906e-01 3.379284e-01 3.477739e-01 3.502502e-01 2.497469e-01 2.820288e-01 1.113159e-01
<GCONST> 1.142916e+02
<STATE> 4
<MEAN> 39
 -1.960924e+00 2.950986e+00 -5.182148e+00 -4.475720e+00 8.385235e+00 -1.077545e+01 1.082775e+01 9.299599e+00 3.341513e+00 4.971329e+00 2.737797e+00 2.688199e+00 6.003785e+01 -1.159476e-01 2.341903e-01 1.457493e-01 2.538822e-01 3.347520e-01 8.210340e-01 7.202045e-02 3.037592e-02 -3.814283e-01 -3.853275e-02 -1.186382e-01 6.364924e-02 -2.672226e-01 -3.573556e-02 4.036570e-03 6.294401e-02 9.874968e-02 2.878921e-02 7.137273e-02 -6.747855e-02 -9.649481e-02 4.276287e-02 -4.142584e-02 3.474371e-02 -1.913549e-02 -2.486164e-02
<VARIANCE> 39
 9.734016e+01 4.837090e+01 5.167442e+01 7.263468e+01 4.163597e+01 1.766912e+02 9.342822e+01 7.438893e+01 8.980067e+01 8.075182e+01 3.976100e+01 4.229483e+01 1.107818e+02 6.260927e-01 8.690023e-01 9.849917e-01 1.714156e+00 1.503277e+00 1.867258e+00 2.180205e+00 2.448926e+00 2.073940e+00 2.325213e+00 1.614206e+00 1.747076e+00 7.113286e-01 7.812624e-02 9.525862e-02 1.184814e-01 2.775010e-01 2.244819e-01 2.396278e-01 3.331008e-01 3.561112e-01 2.973893e-01 3.134288e-01 3.108709e-01 3.007849e-01 6.947026e-02
<GCONST> 1.112509e+02
<TRANSP> 5
 0.000000e+00 1.000000e+00 0.000000e+00 0.000000e+00 0.000000e+00
 0.000000e+00 6.028025e-01 3.971976e-01 0.000000e+00 0.000000e+00
 0.000000e+00 0.000000e+00 5.941385e-01 4.058615e-01 0.000000e+00
 0.000000e+00 0.000000e+00 0.000000e+00 7.926200e-01 2.073800e-01
 0.000000e+00 0.000000e+00 0.000000e+00 0.000000e+00 0.000000e+00
<ENDHMM>
~h "ae"
<BEGINHMM>
<NUMSTATES> 5
<STATE> 2
<MEAN> 39
 -5.417064e+00 1.580436e-01 -2.609659e+00 -2.109624e+00 1.070299e+01 -6.800201e+00 5.441339e+00 2.732281e+00 2.628096e+00 4.101676e+00 1.050201e+01 -1.748453e+00 6.531737e+01 2.571477e-01 2.577236e-01 -1.285816e-01 -2.837262e-01 -5.229815e-02 3.151897e-01 1.862062e-01 5.178379e-01 -2.586553e-01 2.121196e-01 -8.271304e-02 8.566736e-02 -3.780700e-01 -5.764749e-02 -2.262112e-02 1.900288e-02 -1.572261e-02 1.000031e-02 -6.890825e-02 -5.148616e-02 -1.267428e-01 4.441293e-03 -5.633748e-02 -8.404822e-03 3.559658e-02 -1.828929e-02
<VARIANCE> 39
 3.776883e+01 3.054354e+01 2.594949e+01 5.130774e+01 3.461381e+01 6.194897e+01 5.409853e+01 4.308052e+01 4.806253e+01 3.772265e+01 4.484217e+01 2.602101e+01 1.475674e+02 1.094016e+00 1.026672e+00 1.132030e+00 1.329463e+00 1.571557e+00 1.414545e+00 2.179086e+00 1.753769e+00 1.518171e+00 2.374166e+00 2.417014e+00 1.169040e+00 1.448211e+00 1.404152e-01 1.507162e-01 1.541067e-01 2.774862e-01 2.308985e-01 2.928303e-01 3.502001e-01 4.017939e-01 2.870108e-01 3.691189e-01 4.115611e-01 2.206345e-01 2.276152e-01
<GCONST> 1.084745e+02
<STATE> 3
<MEAN> 39
 -4.951268e+00 7.986197e-01 -2.831324e+00 -2.818757e+00 1.081206e+01 -7.025181e+00 5.120775e+00 4.065000e+00 3.082890e+00 3.114150e+00 9.588892e+00 -1.500068e+00 6.546196e+01 2.463350e-01 2.381601e-01 -2.188937e-02 -2.111944e-01 -8.892857e-03 -4.057205e-02 -1.900564e-02 -4.957221e-03 -1.449262e-01 -9.799905e-03 3.733586e-02 1.762727e-01 -2.012614e-01 -6.311010e-02 2.076758e-02 1.196971e-02 4.346640e-02 -1.339460e-02 -7.846057e-02 1.218998e-02 -1.672162e-01 5.617599e-02 -5.421690e-02 2.738523e-02 2.181932e-03 1.463784e-02
<VARIANCE> 39
 4.659470e+01 3.674320e+01 3.842088e+01 6.633804e+01 4.789620e+01 6.382133e+01 5.929650e+01 4.693850e+01 5.089632e+01 4.796297e+01 4.358510e+01 2.905289e+01 1.560108e+02 1.051653e+00 1.305089e+00 1.058767e+00 1.529600e+00 1.680603e+00 1.971403e+00 2.491925e+00 3.336958e+00 1.705831e+00 2.450979e+00 2.574475e+00 1.253307e+00 2.999841e+00 1.711207e-01 1.690311e-01 2.134267e-01 2.728942e-01 2.658991e-01 3.400498e-01 3.619104e-01 5.135841e-01 2.943798e-01 3.667898e-01 3.675828e-01 2.027779e-01 2.172380e-01
<GCONST> 1.139105e+02
<STATE> 4
<MEAN> 39
 -4.352942e+00 4.224759e-01 -3.795825e+00 -4.622374e+00 1.249914e+01 -8.997419e+00 3.244801e+00 2.589601e+00 3.925442e+00 5.897715e-01 1.136260e+01 -2.300742e+00 6.806969e+01 1.279735e-01 3.810701e-01 -2.238112e-02 1.519685e-01 -6.087742e-02 -4.996855e-02 1.560776e-01 -2.652422e-01 -1.045095e-01 -1.383841e-01 8.871730e-02 1.406997e-01 -1.908761e-01 -7.728299e-02 7.177660e-02 2.167935e-02 7.042168e-02 -9.488845e-03 4.836529e-02 4.508340e-02 -3.283016e-02 3.352454e-02 -3.662676e-02 -4.274642e-02 -2.990450e-02 -9.792169e-02
<VARIANCE> 39
 4.072455e+01 3.566775e+01 5.198693e+01 9.470810e+01 4.948450e+01 5.609555e+01 5.710366e+01 5.043837e+01 3.638385e+01 5.643083e+01 4.835454e+01 2.908522e+01 1.280110e+02 1.417295e+00 1.089023e+00 1.074632e+00 1.769412e+00 2.188569e+00 2.295368e+00 1.963990e+00 3.351215e+00 1.643839e+00 2.274270e+00 2.342152e+00 9.021341e-01 3.261895e+00 2.122309e-01 2.812742e-01 1.900162e-01 3.677494e-01 3.756654e-01 3.584951e-01 4.214768e-01 5.507790e-01 2.868869e-01 4.062668e-01 3.723669e-01 1.788711e-01 2.248138e-01
<GCONST> 1.156110e+02
<TRANSP> 5
 0.000000e+00 1.000000e+00 0.000000e+00 0.000000e+00 0.000000e+00
 0.000000e+00 7.115498e-01 2.884502e-01 0.000000e+00 0.000000e+00
 0.000000e+00 0.000000e+00 6.148661e-01 3.851339e-01 0.000000e+00
 0.000000e+00 0.000000e+00 0.000000e+00 7.580655e-01 2.419346e-01
 0.000000e+00 0.000000e+00 0.000000e+00 0.000000e+00 0.000000e+00
<ENDHMM>
~h "ah"
<BEGINHMM>
<NUMSTATES> 5
<STATE> 2
<MEAN> 39
 -3.003790e+00 5.899820e+00 2.135891e+00 1.930844e+00 1.012837e+01 -7.892446e+00 3.060181e+00 8.228085e+00 2.984511e+00 4.387436e+00 2.880794e+00 -3.735951e+00 5.935878e+01 3.220828e-01 3.906333e-01 6.545319e-02 6.556451e-01 2.655786e-01 1.966271e-01 -8.565248e-02 -2.364779e-01 -2.634463e-01 2.720565e-01 4.410124e-02 1.784029e-03 -2.600944e-01 -1.084962e-01 -8.173785e-02 1.264112e-01 -4.095676e-02 2.853149e-02 -1.874450e-01 -1.923892e-01 -2.290923e-01 -1.357826e-02 -1.954994e-01 9.584474e-02 4.591122e-03 1.060360e-01
<VARIANCE> 39
 8.929352e+01 3.933377e+01 6.682894e+01 6.198845e+01 8.820825e+01 1.214612e+02 4.670645e+01 4.481604e+01 4.131986e+01 4.752092e+01 3.119458e+01 2.709586e+01 1.371907e+02 1.026925e+00 1.244848e+00 1.647775e+00 1.581280e+00 1.755485e+00 3.690757e+00 2.463487e+00 3.064566e+00 1.881078e+00 2.877053e+00 2.040893e+00 1.819806e+00 2.708256e+00 1.635775e-01 1.884906e-01 1.974540e-01 3.656058e-01 3.065939e-01 5.394804e-01 4.057700e-01 4.421083e-01 3.466309e-01 3.938994e-01 3.898502e-01 2.873010e-01 2.535438e-01
<GCONST> 1.182521e+02
<STATE> 3
<MEAN> 39
 -2.269652e+00 6.558372e+00 2.109485e+00 2.996220e+00 1.065887e+01 -7.924601e+00 2.876825e+00 7.822375e+00 2.581131e+00 5.080285e+00 2.916637e+00 -3.895010e+00 5.886364e+01 8.317087e-02 2.063061e-01 2.105901e-01 5.224757e-01 1.889329e-01 1.902210e-02 -2.577349e-01 -4.221595e-01 -2.753149e-01 7.152789e-02 1.091017e-01 -3.293663e-03 -2.080137e-01 -1.319553e-01 -7.815879e-02 6.989512e-02 -1.047599e-01 4.298680e-03 -1.656929e-01 -1.093642e-01 -1.084445e-01 8.586460e-02 -1.471439e-01 1.029546e-01 -1.738735e-02 1.418649e-01
<VARIANCE> 39
 8.592814e+01 4.335441e+01 7.266410e+01 5.782145e+01 7.997375e+01 1.369110e+02 4.549213e+01 4.797382e+01 4.153691e+01 4.347434e+01 3.465526e+01 2.500187e+01 1.275588e+02 7.527774e-01 1.278410e+00 1.097017e+00 1.553729e+00 1.597024e+00 3.494720e+00 2.704014e+00 2.512702e+00 1.722508e+00 2.773234e+00 1.794000e+00 1.598225e+00 2.361928e+00 1.734345e-01 1.999255e-01 1.982481e-01 3.069693e-01 3.375855e-01 5.388713e-01 4.015143e-01 4.471954e-01 3.010972e-01 3.522622e-01 3.653417e-01 2.934380e-01 2.431742e-01
<GCONST> 1.164781e+02
<STATE> 4
<MEAN> 39
 -4.038824e+00 7.466918e+00 2.578115e+00 4.842478e+00 1.228134e+01 -5.747486e+00 5.519374e+00 1.044352e+01 3.010821e+00 8.376535e+00 3.401133e+00 -2.767016e+00 5.580700e+01 -1.350967e-01 1.024513e-01 2.514449e-01 2.545945e-01 5.381992e-02 2.402139e-02 -1.837923e-01 -2.453060e-01 -7.188788e-02 -1.991772e-01 9.072804e-02 4.959964e-02 -1.017297e-01 -8.290523e-02 -6.516758e-02 6.568156e-03 -1.113308e-01 1.308867e-03 -6.547374e-02 -4.269994e-02 -7.558685e-02 1.279226e-01 -1.737676e-01 9.295953e-02 1.093433e-02 1.441454e-01
<VARIANCE> 39
 9.902711e+01 3.567383e+01 7.466702e+01 5.146363e+01 5.694501e+01 2.401345e+02 5.429757e+01 6.233067e+01 3.456846e+01 5.198900e+01 3.463594e+01 2.961019e+01 1.600656e+02 6.965444e-01 1.174206e+00 1.074296e+00 1.626293e+00 1.640681e+00 3.165515e+00 2.277868e+00 1.821298e+00 1.567972e+00 2.555036e+00 1.686535e+00 1.339638e+00 1.540709e+00 1.129976e-01 1.855939e-01 1.412272e-01 1.849851e-01 2.420484e-01 4.427912e-01 3.902297e-01 3.870159e-01 2.812192e-01 3.238772e-01 2.986921e-01 2.626101e-01 2.185275e-01
<GCONST> 1.132207e+02
<TRANSP> 5
 0.000000e+00 1.000000e+00 0.000000e+00 0.000000e+00 0.000000e+00
 0.000000e+00 3.341573e-01 6.658427e-01 0.000000e+00 0.000000e+00
 0.000000e+00 0.000000e+00 4.028740e-01 5.971260e-01 0.000000e+00
 0.000000e+00 0.000000e+00 0.000000e+00 6.723108e-01 3.276893e-01
 0.000000e+00 0.000000e+00 0.000000e+00 0.000000e+00 0.000000e+00
<ENDHMM>
~h "ao"
<BEGINHMM>
<NUMSTATES> 5
<STATE> 2
<MEAN> 39
 5.356264e-01 4.281325e+00 1.714946e+00 4.259194e-01 8.615582e+00 -1.506996e+01 1.818473e+00 8.806768e+00 5.037486e+00 5.405365e+00 4.166739e+00 -5.346870e+00 6.476685e+01 2.667135e-01 1.341460e-03 -2.285725e-01 -3.848445e-02 4.365745e-01 1.674668e-01 1.759744e-01 -1.407607e-01 -1.538372e-01 4.760405e-02 1.870783e-01 -2.466509e-01 3.639839e-01 -4.815354e-02 9.112338e-02 7.710258e-02 1.989214e-02 -7.267521e-02 -5.562276e-02 3.789420e-02 -9.227319e-02 5.183813e-02 -5.702114e-02 -4.294965e-02 5.664994e-02 -2.209964e-02
<VARIANCE> 39
 9.947061e+01 6.683705e+01 6.933096e+01 7.714577e+01 7.347026e+01 2.134085e+02 8.024925e+01 1.060992e+02 4.668437e+01 1.171180e+02 4.345614e+01 4.584508e+01 5.880932e+01 1.790081e+00 2.499496e+00 2.518874e+00 3.265622e+00 2.204162e+00 4.296922e+00 5.647971e+00 3.142740e+00 3.601357e+00 4.113975e+00 3.236466e+00 3.538118e+00 3.381275e+00 2.381153e-01 2.311534e-01 3.225597e-01 4.138109e-01 4.034978e-01 6.035433e-01 7.373167e-01 5.177481e-01 6.995487e-01 5.173393e-01 6.936241e-01 7.312207e-01 2.832211e-01
<GCONST> 1.328879e+02
<STATE> 3
<MEAN> 39
 -5.927134e-01 4.736200e+00 2.091531e+00 -6.846088e-02 9.511531e+00 -1.301819e+01 2.442337e+00 6.738602e+00 4.980074e+00 3.934292e+00 4.350058e+00 -5.565268e+00 6.492849e+01 1.795952e-01 1.831693e-01 7.869236e-03 9.080420e-02 2.044179e-01 -4.328072e-02 1.630301e-02 -2.893491e-01 4.768533e-02 -3.167025e-01 8.612450e-02 -1.344718e-02 2.638774e-01 -9.771089e-02 3.800788e-02 5.358436e-02 -5.370220e-02 -7.867708e-02 -6.741652e-02 3.472306e-02 5.985647e-02 8.702228e-02 -4.297099e-02 3.825457e-02 9.934509e-02 -4.989929e-02
<VARIANCE> 39
 7.805051e+01 7.819062e+01 8.640316e+01 8.932386e+01 7.132354e+01 2.025000e+02 9.047812e+01 1.046223e+02 4.928424e+01 1.263149e+02 5.147449e+01 4.831502e+01 6.118642e+01 2.471990e+00 2.835169e+00 2.733995e+00 3.491457e+00 2.444929e+00 5.456374e+00 5.011196e+00 3.166268e+00 3.991203e+00 4.450656e+00 3.190372e+00 3.374977e+00 2.789869e+00 2.511280e-01 2.772180e-01 3.802236e-01 3.936125e-01 3.851019e-01 7.777389e-01 7.805431e-01 5.907870e-01 6.765981e-01 5.552077e-01 6.827922e-01 6.500556e-01 2.915819e-01
<GCONST> 1.350179e+02
<STATE> 4
<MEAN> 39
 -2.743511e+00 3.391576e+00 2.781911e+00 -1.931361e+00 1.037479e+01 -1.244533e+01 1.536976e+00 2.748751e+00 6.672895e+00 8.356664e-01 4.441033e+00 -4.600858e+00 6.631365e+01 1.090851e-01 -8.800833e-03 -2.568453e-01 -2.763629e-01 1.775272e-02 -1.564794e-01 3.805916e-02 -1.829670e-01 -2.753704e-02 -5.193581e-01 2.553070e-01 2.863203e-01 3.203842e-01 1.735326e-02 7.194621e-02 -3.755606e-02 -6.148146e-02 -4.939111e-02 3.503082e-02 4.455512e-02 1.353702e-01 -3.287923e-02 3.025695e-02 -2.289734e-04 4.192989e-02 -7.748438e-02
<VARIANCE> 39
 8.103937e+01 1.522649e+02 8.900587e+01 9.816988e+01 6.546755e+01 1.569192e+02 1.075600e+02 1.413483e+02 5.275387e+01 8.868310e+01 6.416998e+01 5.348984e+01 4.975043e+01 3.097781e+00 4.729892e+00 3.555407e+00 3.692839e+00 3.316254e+00 5.543977e+00 4.945228e+00 4.633380e+00 4.082081e+00 4.259842e+00 4.092865e+00 3.135866e+00 3.062455e+00 3.978991e-01 5.804580e-01 5.455625e-01 5.134743e-01 5.531802e-01 6.922271e-01 8.037053e-01 7.293670e-01 5.974624e-01 6.244336e-01 7.079244e-01 4.914748e-01 3.322667e-01
<GCONST> 1.399928e+02
<TRANSP> 5
 0.000000e+00 1.000000e+00 0.000000e+00 0.000000e+00 0.000000e+00
 0.000000e+00 5.630121e-01 4.369879e-01 0.000000e+00 0.000000e+00
 0.000000e+00 0.000000e+00 5.314338e-01 4.685662e-01 0.000000e+00
 0.000000e+00 0.000000e+00 0.000000e+00 7.788273e-01 2.211727e-01
 0.000000e+00 0.000000e+00 0.000000e+00 0.000000e+00 0.000000e+00
<ENDHMM>
~h "aw"
<BEGINHMM>
<NUMSTATES> 5
<STATE> 2
<MEAN> 39
 -2.703054e+00 2.897870e+00 -9.974916e+00 -1.077883e+01 1.003576e+01 -1.543787e+01 1.585405e+01 5.330049e+00 1.096895e+01 6.432858e+00 3.057860e+00 -3.544524e+00 7.082603e+01 -6.567030e-02 4.093149e-01 9.843341e-02 5.105144e-02 -1.820360e-01 -4.008746e-01 1.715912e-02 9.683415e-02 9.352719e-02 -2.411172e-03 -2.911159e-01 -5.287880e-02 -2.783752e-01 3.564519e-02 -2.606381e-02 1.263498e-03 -1.693741e-02 -1.952486e-02 -4.247209e-03 -8.926548e-02 1.771994e-02 -1.669561e-03 -3.521920e-02 -4.848009e-02 -3.045722e-02 -2.676170e-02
<VARIANCE> 39
 5.444124e+01 7.632752e+01 4.845281e+01 2.210224e+01 2.153928e+01 1.560302e+02 5.457036e+01 1.674061e+01 2.425563e+01 2.288997e+01 6.268319e+01 1.971148e+01 2.561014e+01 1.150135e+00 8.980133e-01 1.171278e+00 1.149969e+00 1.736899e+00 2.400415e+00 2.344137e+00 1.579407e+00 1.737654e+00 1.301537e+00 1.019888e+00 2.018478e+00 5.166137e-01 1.520780e-01 1.093919e-01 1.367621e-01 1.921214e-01 3.060387e-01 2.305839e-01 3.107598e-01 3.158920e-01 3.369795e-01 2.877532e-01 1.188417e-01 3.546042e-01 6.209149e-02
<GCONST> 1.015622e+02
<STATE> 3
<MEAN> 39
 -1.403067e+01 1.709618e+00 5.555879e+00 -9.878809e+00 4.557992e+00 -1.987235e+01 1.567034e+01 4.894605e+00 7.059145e+00 -5.692399e-01 3.642904e+00 -4.499874e+00 6.680630e+01 -1.069003e+00 -1.565897e+00 1.336726e-01 -7.535739e-01 -1.240801e+00 9.958179e-01 -5.818759e-01 -5.757843e-01 -7.648621e-01 -7.715036e-01 2.621515e-01 -3.112400e-01 3.450479e-01 1.552534e-01 -4.979747e-01 -7.742276e-02 -4.602380e-02 -1.210777e-01 1.608309e-01 -2.285777e-01 -5.662853e-01 -3.660872e-01 -5.503754e-01 2.539761e-01 3.922354e-01 1.970365e-01
<VARIANCE> 39
 1.807599e+02 2.170474e+02 5.347613e+01 1.371752e+01 1.833810e+01 9.967079e+01 2.965024e+01 7.167324e+01 3.217149e+01 4.235145e+01 1.360189e+02 2.985013e+01 7.027399e+01 9.101109e-01 3.149683e+00 1.713195e+00 3.402244e-01 2.049331e+00 1.610370e+00 1.185666e+00 5.399143e+00 2.026346e+00 4.298096e+00 2.438895e+00 4.210316e+00 8.992937e-01 4.979193e-01 2.731556e-01 3.438494e-01 1.109500e-01 3.777092e-01 2.428995e-01 2.271284e-01 1.171842e+00 3.404220e-01 6.471146e-01 7.574390e-01 9.287373e-01 2.062059e-01
<GCONST> 1.193374e+02
<STATE> 4
<MEAN> 39
 -1.752087e+01 -8.959203e+00 5.971013e+00 -9.084809e+00 -3.956627e+00 -8.215362e+00 1.031302e+01 1.491570e+00 -4.234383e+00 -3.922356e+00 1.077668e+01 1.688775e+00 6.222174e+01 1.124115e-01 7.991379e-02 -1.966238e-01 2.063405e-01 -8.584470e-02 3.077679e-01 -1.920228e-01 6.675329e-02 -3.027628e-01 -5.757064e-03 -6.793588e-04 2.881851e-01 -5.581169e-01 1.524905e-02 4.766277e-02 -7.303001e-03 3.056068e-02 4.170752e-02 -2.224396e-02 3.229081e-02 3.055101e-02 2.075668e-02 2.026744e-02 -1.632066e-02 4.353718e-03 -2.683529e-02
<VARIANCE> 39
 5.165022e+01 6.077700e+01 3.909032e+01 3.790491e+01 3.186001e+01 4.521682e+01 1.901852e+01 6.607278e+01 5.559763e+01 3.986237e+01 4.704224e+01 4.325039e+01 1.813036e+02 1.929478e+00 1.729308e+00 1.111079e+00 8.944302e-01 1.172910e+00 1.174698e+00 1.375247e+00 1.948650e+00 1.841426e+00 2.020958e+00 2.282645e+00 1.393775e+00 1.124473e+00 1.770708e-01 1.422294e-01 1.488905e-01 1.251605e-01 1.788463e-01 1.884857e-01 2.393533e-01 3.581519e-01 2.823964e-01 3.778188e-01 3.293231e-01 2.217879e-01 6.532355e-02
<GCONST> 1.059607e+02
<TRANSP> 5
 0.000000e+00 1.000000e+00 0.000000e+00 0.000000e+00 0.000000e+00
 0.000000e+00 9.435987e-01 5.640122e-02 0.000000e+00 0.000000e+00
 0.000000e+00 0.000000e+00 4.284455e-01 5.715545e-01 0.000000e+00
 0.000000e+00 0.000000e+00 0.000000e+00 9.745958e-01 2.540424e-02
 0.000000e+00 0.000000e+00 0.000000e+00 0.000000e+00 0.000000e+00
<ENDHMM>
~h "ay"
<BEGINHMM>
<NUMSTATES> 5
<STATE> 2
<MEAN> 39
 -1.060548e+00 2.924518e+00 -3.047998e-01 -2.885553e-01 1.020135e+01 -1.453077e+01 6.695557e+00 4.877407e+00 8.068088e+00 -3.629070e-01 3.104748e+00 -3.811869e+00 6.842190e+01 9.117675e-02 -3.823638e-01 -8.658994e-01 -8.560959e-01 -2.880879e-01 -1.008530e+00 5.697686e-01 -3.054115e-01 -8.733453e-02 1.862111e-01 1.944834e-01 -3.576880e-01 9.976116e-01 9.652680e-02 4.673978e-02 -4.023261e-03 9.650284e-03 1.148061e-02 2.721293e-02 -5.752719e-02 1.248933e-02 3.216719e-03 -3.272750e-02 -2.000923e-02 -3.398808e-02 3.196548e-02
<VARIANCE> 39
 6.449165e+01 4.807957e+01 1.080127e+02 5.512844e+01 5.013333e+01 1.540397e+02 1.050468e+02 7.430715e+01 5.909832e+01 5.446441e+01 6.374122e+01 2.853705e+01 5.747149e+01 3.210375e+00 2.817566e+00 4.943219e+00 4.898922e+00 4.974818e+00 1.007218e+01 7.209499e+00 6.023787e+00 4.858917e+00 3.931288e+00 3.457385e+00 2.077962e+00 4.023205e+00 5.132452e-01 5.207300e-01 4.440022e-01 7.817796e-01 7.828064e-01 1.746314e+00 1.168171e+00 1.350928e+00 7.701505e-01 8.701597e-01 6.418205e-01 3.720028e-01 7.999144e-01
<GCONST> 1.416809e+02
<STATE> 3
<MEAN> 39
 -4.926777e-01 1.499503e+00 -3.115923e+00 -1.463076e+00 1.045872e+01 -1.851369e+01 7.284801e+00 4.250333e+00 6.227985e+00 9.009367e-01 4.017581e+00 -4.927661e+00 7.169539e+01 -7.296652e-02 -1.270560e-01 -1.376987e-01 -1.832981e-02 3.783044e-01 1.223458e-01 5.634370e-02 -1.504325e-01 -5.458269e-01 1.969001e-01 4.332390e-01 -2.263311e-01 3.114583e-01 -1.992968e-02 6.304247e-02 1.386147e-01 1.129546e-01 1.031449e-01 2.499005e-01 -1.718793e-01 -1.063563e-01 -1.542386e-02 -1.171957e-01 1.127586e-01 6.502754e-02 -1.047396e-01
<VARIANCE> 39
 7.968509e+01 3.319350e+01 1.127582e+02 4.409024e+01 4.968553e+01 8.902026e+01 1.365289e+02 7.300875e+01 6.957792e+01 6.843048e+01 7.194070e+01 2.582010e+01 2.851064e+01 1.884114e+00 1.621761e+00 3.260897e+00 2.233539e+00 3.156806e+00 7.940794e+00 6.857889e+00 4.815604e+00 4.228251e+00 3.870756e+00 4.668626e+00 1.562697e+00 1.739380e+00 3.174388e-01 2.338011e-01 2.812131e-01 3.681644e-01 4.729095e-01 9.840271e-01 1.151895e+00 8.512154e-01 6.472882e-01 6.240499e-01 6.784315e-01 2.937232e-01 2.329459e-01
<GCONST> 1.305440e+02
<STATE> 4
<MEAN> 39
 -3.502589e+00 1.318313e+00 1.246903e+00 -1.280231e+00 1.105479e+01 -1.445047e+01 5.425434e+00 4.263892e+00 2.532596e+00 -3.422684e+00 8.075096e+00 -5.045493e+00 7.084991e+01 1.234948e-01 2.397429e-01 9.842838e-02 2.173658e-01 4.501265e-01 4.194142e-01 -7.185071e-01 -3.300130e-01 -4.124749e-01 -3.116065e-01 5.746605e-01 7.453220e-03 -1.169656e-01 -1.127273e-05 1.060063e-02 4.590048e-02 9.475153e-02 -5.835893e-03 -5.456500e-02 -6.394744e-02 -5.268683e-02 5.947109e-02 5.684105e-02 -6.516992e-02 1.450371e-02 -4.508840e-02
<VARIANCE> 39
 1.112889e+02 5.443333e+01 1.191014e+02 5.517259e+01 8.551001e+01 6.535153e+01 1.213558e+02 7.917201e+01 6.581210e+01 8.051434e+01 8.061201e+01 2.411168e+01 4.222799e+01 2.907955e+00 2.151321e+00 3.019891e+00 2.507681e+00 4.966060e+00 5.250633e+00 6.630804e+00 4.575893e+00 4.086970e+00 5.080676e+00 5.081583e+00 1.485618e+00 1.423476e+00 2.958461e-01 2.185494e-01 2.898894e-01 4.023099e-01 6.418124e-01 8.703281e-01 1.019052e+00 6.893482e-01 7.230427e-01 8.823857e-01 7.289531e-01 2.522642e-01 1.268612e-01
<GCONST> 1.327752e+02
<TRANSP> 5
 0.000000e+00 1.000000e+00 0.000000e+00 0.000000e+00 0.000000e+00
 0.000000e+00 7.312323e-01 2.687676e-01 0.000000e+00 0.000000e+00
 0.000000e+00 0.000000e+00 7.043058e-01 2.956941e-01 0.000000e+00
 0.000000e+00 0.000000e+00 0.000000e+00 8.565523e-01 1.434477e-01
 0.000000e+00 0.000000e+00 0.000000e+00 0.000000e+00 0.000000e+00
<ENDHMM>
~h "ch"
<BEGINHMM>
<NUMSTATES> 5
<STATE> 2
<MEAN> 39
 -1.209284e+00 3.099981e+00 -6.732306e+00 -1.190466e+01 2.141633e+01 1.771026e-01 1.205147e+00 -1.289905e+01 2.953748e+00 -2.554188e+00 1.038815e+01 9.884851e+00 6.653944e+01 -1.216537e-01 1.337682e-01 -3.768673e-01 -1.513296e-01 -1.610537e-01 1.062960e-01 3.389802e-01 3.268212e-01 -5.567929e-02 1.083535e-01 -2.447381e-01 2.456113e-01 -5.368805e-01 -2.881665e-02 3.963397e-03 4.891611e-02 1.419636e-02 -5.769461e-02 2.892497e-02 -7.819387e-03 5.409240e-02 -6.392224e-02 2.624129e-02 -1.059853e-02 -4.352853e-02 -4.369921e-02
<VARIANCE> 39
 8.471825e+00 3.441678e+01 1.703936e+01 6.924801e+01 2.052634e+01 3.641374e+01 9.081219e+01 5.230238e+01 5.535552e+01 4.260526e+01 6.229161e+01 2.087143e+01 2.716908e+01 4.695302e-01 1.570028e+00 8.237040e-01 3.072800e+00 1.856131e+00 2.463179e+00 4.630171e+00 3.284955e+00 3.478192e+00 2.622403e+00 2.384827e+00 1.626755e+00 2.312257e-01 8.656525e-02 1.528750e-01 1.277529e-01 2.719297e-01 3.385222e-01 4.530341e-01 4.897747e-01 4.793492e-01 4.848343e-01 5.008311e-01 3.767735e-01 2.777013e-01 2.547545e-02
<GCONST> 1.063621e+02
<STATE> 3
<MEAN> 39
 -3.842100e+00 8.303328e-01 -1.160945e+01 -5.699326e+00 1.555732e+01 -6.867504e-02 -1.442942e+00 1.543408e+00 -1.137249e+00 2.788831e+00 4.114500e+00 1.193089e+01 5.384333e+01 -4.481749e-01 9.560484e-01 4.673822e-01 -1.721746e-01 -8.286892e-01 4.859414e-01 7.177458e-01 3.252547e-01 -1.414412e+00 2.669093e-01 8.162608e-01 6.375392e-02 -1.089942e+00 -1.111259e-01 -3.658348e-03 2.638411e-01 -5.147780e-02 9.257273e-02 1.768505e-02 -1.528458e-01 -2.425461e-01 3.902441e-02 6.633414e-03 -8.369407e-02 -2.505728e-02 6.101005e-02
<VARIANCE> 39
 6.053535e+00 1.995572e+01 1.610526e+01 3.025084e+01 2.733500e+01 1.570453e+01 2.407961e+01 2.523023e+01 3.587504e+01 5.105768e+01 3.743795e+01 2.409496e+01 1.782825e+01 3.525556e-01 3.484969e-01 8.274871e-01 7.866793e-01 1.220062e+00 1.058178e+00 1.898464e+00 1.721988e+00 2.636723e+00 2.385263e+00 1.078104e+00 1.380870e+00 1.485353e-01 4.244228e-02 8.085738e-02 7.675949e-02 1.634334e-01 1.883207e-01 2.001606e-01 3.834669e-01 2.616571e-01 5.055922e-01 3.264500e-01 2.135238e-01 2.049598e-01 2.068225e-02
<GCONST> 8.713437e+01
<STATE> 4
<MEAN> 39
 -1.733981e+01 3.775044e+00 -7.225070e-01 -2.433944e-02 9.352246e+00 2.793989e+00 4.916423e+00 8.019347e+00 -3.436038e+00 8.500419e+00 2.771425e+00 4.481453e+00 4.111022e+01 -3.260643e-01 2.999746e-02 2.454714e-01 1.226680e-01 -8.747355e-02 6.786299e-02 1.288864e-01 1.558007e-01 5.690895e-03 1.113599e-01 -6.270478e-02 -2.302696e-01 -2.580487e-01 2.047460e-02 -2.933743e-02 -3.270055e-02 -6.082716e-03 4.274858e-03 -8.073557e-03 -2.913712e-02 -1.678954e-02 4.694771e-02 -2.373504e-02 -1.520496e-02 -1.956976e-03 3.552718e-02
<VARIANCE> 39
 2.588111e+01 5.507530e+00 1.491415e+01 1.355167e+01 1.236307e+01 7.667575e+00 1.242710e+01 1.948050e+01 2.544221e+01 2.580413e+01 1.386922e+01 2.442467e+01 1.479688e+01 1.947247e-01 2.373343e-01 3.943239e-01 5.506914e-01 4.261422e-01 5.821434e-01 6.903111e-01 7.417815e-01 1.326921e+00 8.987278e-01 9.562362e-01 7.386485e-01 1.236861e-01 2.594445e-02 4.192450e-02 4.294030e-02 9.677975e-02 6.861304e-02 1.023878e-01 1.239211e-01 1.194463e-01 1.979336e-01 1.372579e-01 1.944599e-01 1.421395e-01 1.230541e-02
<GCONST> 6.499664e+01
<TRANSP> 5
 0.000000e+00 1.000000e+00 0.000000e+00 0.000000e+00 0.000000e+00
 0.000000e+00 9.674135e-01 3.258649e-02 0.000000e+00 0.000000e+00
 0.000000e+00 0.000000e+00 5.905486e-01 4.094513e-01 0.000000e+00
 0.000000e+00 0.000000e+00 0.000000e+00 9.740609e-01 2.593908e-02
 0.000000e+00 0.000000e+00 0.000000e+00 0.000000e+00 0.000000e+00
<ENDHMM>
~h "dh"
<BEGINHMM>
<NUMSTATES> 5
<STATE> 2
<MEAN> 39
 -1.071478e+01 4.100099e+00 2.410196e+00 -1.322130e-01 1.229545e+01 6.604366e-01 3.385073e+00 1.369492e+00 3.077749e+00 1.043389e+00 3.871558e+00 -9.389509e-01 5.712925e+01 1.162385e+00 3.463519e-01 1.861162e-01 2.638931e-02 1.466753e-01 -7.008934e-02 2.362709e-01 -6.744543e-01 2.707233e-01 -6.905177e-01 1.560796e-01 -1.480019e-02 1.808599e+00 6.712548e-02 5.101937e-02 3.558976e-02 2.524039e-02 -5.692142e-02 -3.284705e-02 -3.779157e-02 -3.428709e-02 -1.561307e-01 -8.704748e-03 -4.666650e-02 7.516023e-02 -4.063448e-02
<VARIANCE> 39
 7.483707e+01 4.492231e+01 6.970108e+01 5.503344e+01 5.097876e+01 6.560870e+01 8.431632e+01 6.331088e+01 4.655662e+01 4.073713e+01 3.246278e+01 1.630931e+01 1.494374e+02 3.982357e+00 3.753686e+00 4.320911e+00 4.918990e+00 3.763164e+00 3.231457e+00 7.228534e+00 4.914048e+00 4.549580e+00 3.496562e+00 2.327644e+00 1.489208e+00 5.342075e+00 5.525873e-01 5.442114e-01 6.302857e-01 8.387467e-01 6.167371e-01 5.537767e-01 1.245878e+00 9.545112e-01 9.257519e-01 5.614752e-01 4.404315e-01 2.700089e-01 7.269926e-01
<GCONST> 1.352464e+02
<STATE> 3
<MEAN> 39
 -5.932127e+00 3.647629e+00 9.621168e-01 6.280107e-01 1.081167e+01 -3.026892e+00 4.348867e+00 7.358727e-01 3.255106e+00 1.570465e+00 4.001046e+00 -8.509141e-01 6.278291e+01 1.109168e+00 6.125894e-01 3.441679e-01 3.809537e-01 -8.011409e-02 2.391079e-02 -1.156519e-01 2.288722e-01 -3.032524e-01 -3.512567e-01 -2.630295e-01 4.650140e-02 4.885902e-01 -1.203381e-01 3.976411e-02 2.847227e-03 -1.130132e-02 6.707036e-02 6.123533e-02 1.113408e-01 9.722625e-02 2.317248e-02 5.364218e-02 -2.480593e-02 2.002484e-02 -2.201799e-01
<VARIANCE> 39
 6.998856e+01 4.483856e+01 6.977721e+01 6.753994e+01 4.084830e+01 8.418917e+01 8.406712e+01 4.730893e+01 5.446541e+01 3.841155e+01 4.606911e+01 2.392241e+01 1.278109e+02 2.668939e+00 2.227892e+00 2.637129e+00 2.328236e+00 1.816814e+00 2.582731e+00 4.156227e+00 2.719378e+00 2.813139e+00 2.938849e+00 1.750031e+00 1.453717e+00 3.711493e+00 2.614850e-01 2.409321e-01 3.406375e-01 4.477588e-01 2.112145e-01 3.515245e-01 6.893134e-01 4.817929e-01 5.444461e-01 3.550290e-01 3.136834e-01 2.724185e-01 3.796106e-01
<GCONST> 1.226257e+02
<STATE> 4
<MEAN> 39
 -9.484144e+00 1.256813e+00 -3.810356e+00 -1.508735e+00 8.752941e+00 -4.876378e-01 5.030425e+00 2.174001e+00 -1.918514e+00 5.107027e+00 3.157893e+00 4.906098e-01 5.448170e+01 2.482654e-01 3.669485e-01 2.608769e-01 2.079883e-01 5.658310e-02 1.164271e-01 8.360779e-02 3.620291e-01 9.230828e-02 1.400981e-02 -1.012867e-01 -9.706743e-02 -7.002503e-02 -9.452333e-02 -2.236421e-02 -3.941107e-02 -4.429107e-02 1.866606e-02 2.545620e-02 4.602022e-02 -6.671344e-02 6.067893e-02 1.497450e-02 5.071845e-02 -6.499706e-03 -4.794542e-02
<VARIANCE> 39
 7.363600e+01 6.475288e+01 8.679346e+01 6.000162e+01 3.411943e+01 5.484122e+01 5.035311e+01 4.136945e+01 6.675697e+01 4.082916e+01 3.074822e+01 2.474209e+01 1.447343e+02 1.627913e+00 1.550879e+00 1.660455e+00 1.780675e+00 1.635686e+00 1.611695e+00 2.534499e+00 2.146144e+00 2.316684e+00 1.887549e+00 1.651550e+00 1.508083e+00 1.834130e+00 1.565943e-01 1.571300e-01 1.988284e-01 3.118776e-01 2.563741e-01 1.991886e-01 4.653599e-01 3.439267e-01 4.343447e-01 2.556268e-01 3.334486e-01 2.921950e-01 1.646843e-01
<GCONST> 1.134458e+02
<TRANSP> 5
 0.000000e+00 1.000000e+00 0.000000e+00 0.000000e+00 0.000000e+00
 0.000000e+00 6.587193e-01 3.412806e-01 0.000000e+00 0.000000e+00
 0.000000e+00 0.000000e+00 3.726446e-01 6.273554e-01 0.000000e+00
 0.000000e+00 0.000000e+00 0.000000e+00 7.582490e-01 2.417510e-01
 0.000000e+00 0.000000e+00 0.000000e+00 0.000000e+00 0.000000e+00
<ENDHMM>
~h "eh"
<BEGINHMM>
<NUMSTATES> 5
<STATE> 2
<MEAN> 39
 -4.726933e+00 -3.779938e-01 4.190862e-02 2.057028e-01 1.965804e+01 -9.369896e+00 -5.387074e+00 -4.772180e+00 -1.250001e+00 -4.398414e+00 1.163584e+01 -5.632923e-01 7.024821e+01 1.611009e-01 4.015846e-01 -4.593187e-01 -3.561952e-01 6.750645e-01 -4.200861e-01 1.019766e-01 -4.764691e-01 1.126914e-01 -4.568716e-01 4.219582e-01 5.575216e-01 4.148671e-01 -1.805544e-02 5.796727e-03 6.548312e-02 -1.349335e-01 -1.198346e-01 6.647944e-02 2.527447e-01 4.887889e-02 9.844370e-02 -1.244444e-01 -1.339805e-01 -2.633090e-02 -1.061201e-02
<VARIANCE> 39
 4.970535e+01 2.845340e+01 2.848994e+01 6.519321e+01 5.539151e+01 5.172785e+01 6.318594e+01 4.283237e+01 3.749189e+01 6.204195e+01 3.326807e+01 3.636816e+01 1.050619e+02 1.306068e+00 1.903898e+00 1.481940e+00 2.763543e+00 1.488371e+00 4.114089e+00 3.704190e+00 3.173037e+00 2.932886e+00 3.008644e+00 2.670517e+00 1.940813e+00 3.338326e+00 1.683977e-01 3.133367e-01 1.397527e-01 3.318659e-01 2.021118e-01 5.160170e-01 6.082844e-01 5.374473e-01 5.352517e-01 3.704461e-01 4.378818e-01 3.489240e-01 2.895458e-01
<GCONST> 1.193248e+02
<STATE> 3
<MEAN> 39
 -4.844787e+00 1.234969e+00 -1.036105e+00 -1.785468e+00 2.018584e+01 -9.240760e+00 -2.877773e+00 -5.241252e+00 -6.312079e-01 -6.048016e+00 1.183519e+01 1.339755e+00 7.013236e+01 1.644706e-01 4.136091e-01 -1.481442e-01 -2.038177e-01 4.127524e-01 -1.405589e-01 5.371285e-01 -2.351940e-01 6.677560e-02 -4.242568e-01 -1.306871e-01 3.872150e-01 1.532015e-01 2.626387e-02 3.653985e-02 2.957859e-02 3.541829e-02 -7.724472e-02 1.590398e-01 1.198030e-01 8.123633e-02 2.196532e-02 3.383011e-02 -1.323922e-01 -5.400803e-02 -1.406909e-01
<VARIANCE> 39
 5.293136e+01 3.971877e+01 2.769918e+01 7.526515e+01 5.415448e+01 6.735181e+01 7.529084e+01 5.414481e+01 4.472869e+01 8.521788e+01 3.408706e+01 4.722673e+01 8.568263e+01 1.512764e+00 2.238049e+00 1.059872e+00 2.945674e+00 1.785934e+00 3.424097e+00 4.199368e+00 2.680330e+00 3.047365e+00 2.812776e+00 2.718473e+00 2.010513e+00 3.551364e+00 1.832772e-01 3.739319e-01 1.552000e-01 4.100784e-01 2.491878e-01 5.827345e-01 7.196661e-01 5.794454e-01 4.997324e-01 4.068840e-01 4.276558e-01 3.300149e-01 3.010371e-01
<GCONST> 1.222789e+02
<STATE> 4
<MEAN> 39
 -3.493038e+00 4.344774e+00 -1.861326e+00 -4.519406e+00 2.209992e+01 -4.480726e+00 1.215476e+00 -9.223425e+00 -1.688312e-01 -6.602968e+00 9.466282e+00 5.554523e+00 6.766740e+01 -6.933148e-02 8.464873e-02 1.949552e-02 1.918643e-01 -8.223728e-02 1.353368e-02 2.988408e-01 1.683516e-01 2.937570e-01 2.322158e-01 -3.096569e-01 -4.352055e-02 -4.116110e-01 1.122299e-03 -3.253145e-03 2.052958e-02 4.736258e-02 -6.977385e-02 2.806592e-02 3.892951e-03 8.494674e-02 5.930962e-03 6.285061e-02 1.832538e-02 -9.774958e-02 -7.471790e-02
<VARIANCE> 39
 2.727764e+01 6.590378e+01 1.983463e+01 7.634547e+01 4.575176e+01 8.845210e+01 8.611031e+01 9.494995e+01 7.632075e+01 8.948187e+01 3.156425e+01 5.214799e+01 5.189285e+01 1.147072e+00 3.562247e+00 1.008481e+00 3.848073e+00 2.882817e+00 3.572134e+00 4.461988e+00 4.868158e+00 6.070695e+00 4.996369e+00 2.167437e+00 2.087082e+00 2.539962e+00 1.588992e-01 5.055778e-01 1.787464e-01 5.117508e-01 4.000786e-01 5.679598e-01 6.583638e-01 8.781781e-01 1.053252e+00 8.617864e-01 3.983755e-01 3.273706e-01 3.780928e-01
<GCONST> 1.279711e+02
<TRANSP> 5
 0.000000e+00 1.000000e+00 0.000000e+00 0.000000e+00 0.000000e+00
 0.000000e+00 6.639919e-01 3.360082e-01 0.000000e+00 0.000000e+00
 0.000000e+00 0.000000e+00 5.898089e-01 4.101911e-01 0.000000e+00
 0.000000e+00 0.000000e+00 0.000000e+00 7.993593e-01 2.006407e-01
 0.000000e+00 0.000000e+00 0.000000e+00 0.000000e+00 0.000000e+00
<ENDHMM>
~h "er"
<BEGINHMM>
<NUMSTATES> 5
<STATE> 2
<MEAN> 39
 -5.233376e+00 7.808369e+00 3.527586e-01 -1.413549e+01 1.288374e+01 -2.045450e+00 7.518009e+00 2.701415e+00 -2.658107e-01 -1.154020e+01 4.244313e+00 -1.100196e+00 7.021341e+01 1.226455e+00 1.031849e+00 4.920365e-01 -1.441589e+00 -4.665510e-01 9.903935e-01 5.647373e-01 4.857712e-02 -8.327102e-01 -2.113342e+00 -7.294816e-02 9.177145e-01 3.081491e-01 -1.830258e-01 -1.179732e-01 9.549602e-03 3.510083e-01 1.281795e-01 4.864800e-02 -6.090038e-02 -3.361013e-02 -3.536878e-02 -7.031342e-03 5.967971e-02 2.398133e-02 -2.913522e-01
<VARIANCE> 39
 1.189159e+02 6.455385e+01 9.053896e+01 1.538628e+02 7.342905e+01 7.578417e+01 7.228167e+01 8.221154e+01 5.882914e+01 1.020494e+02 4.070428e+01 3.248003e+01 1.598496e+01 6.407666e+00 3.775256e+00 5.022823e+00 5.709519e+00 3.850921e+00 5.216686e+00 3.376018e+00 4.512524e+00 3.757463e+00 6.407614e+00 2.377827e+00 1.999046e+00 3.052910e+00 8.328231e-01 8.097149e-01 1.187721e+00 1.258992e+00 6.029718e-01 8.609357e-01 7.174096e-01 6.898562e-01 6.036068e-01 8.781727e-01 4.528803e-01 3.285065e-01 8.696985e-01
<GCONST> 1.402294e+02
<STATE> 3
<MEAN> 39
 -1.660312e+00 8.895063e+00 9.163127e-01 -1.714579e+01 1.177069e+01 -1.075830e-01 7.874161e+00 2.217766e+00 -1.866597e+00 -1.616827e+01 4.921502e+00 1.388460e+00 7.022945e+01 7.158331e-01 3.026047e-01 3.421818e-01 -6.196951e-01 -8.884538e-02 3.215528e-01 2.624073e-02 -5.265741e-02 -3.628364e-01 -1.466475e+00 2.655866e-01 6.905276e-01 1.711437e-01 -2.734605e-01 -1.881871e-01 -5.544615e-02 2.446376e-01 5.269850e-02 -1.728181e-01 -2.116940e-02 -5.182340e-02 1.044496e-01 2.543418e-01 1.236349e-01 -6.580345e-02 -6.291613e-02
<VARIANCE> 39
 7.337919e+01 6.522577e+01 6.415344e+01 1.017863e+02 6.275465e+01 8.783596e+01 7.881380e+01 8.556323e+01 8.364014e+01 1.003884e+02 4.698206e+01 3.233665e+01 9.375666e+00 4.455438e+00 3.634355e+00 4.741340e+00 5.153924e+00 3.703026e+00 3.548111e+00 3.808301e+00 3.405088e+00 5.123503e+00 7.145917e+00 1.979640e+00 1.704702e+00 1.212415e+00 5.285325e-01 5.681382e-01 8.012355e-01 8.710791e-01 6.495064e-01 5.239171e-01 6.926062e-01 6.212806e-01 7.543360e-01 9.240810e-01 3.528515e-01 2.782978e-01 3.601393e-01
<GCONST> 1.339067e+02
<STATE> 4
<MEAN> 39
 1.111253e+00 1.026745e+01 1.484288e+00 -1.617379e+01 1.020962e+01 -5.611557e+00 7.315352e+00 4.621747e+00 2.744000e+00 -1.782841e+01 6.500655e+00 3.248213e+00 6.967390e+01 -5.727737e-01 -5.910369e-01 3.825192e-01 7.635250e-01 2.119645e-01 -4.731207e-01 -1.551318e-01 -2.066905e-01 5.062295e-01 4.995219e-01 2.208084e-01 -2.605770e-01 2.116424e-01 -8.843425e-02 -5.836620e-02 2.453387e-02 5.247566e-02 -5.375117e-02 -8.430479e-02 1.131113e-02 3.435846e-02 4.012144e-02 9.921971e-02 -3.275087e-02 -6.618398e-02 1.011177e-02
<VARIANCE> 39
 3.900608e+01 7.635104e+01 6.317268e+01 1.000408e+02 6.679200e+01 1.100641e+02 6.553968e+01 9.472230e+01 1.190406e+02 1.216541e+02 4.435247e+01 6.271614e+01 2.264424e+01 2.639656e+00 3.155369e+00 2.587244e+00 5.208083e+00 3.449249e+00 4.207116e+00 3.661234e+00 4.084898e+00 5.874923e+00 7.265116e+00 3.014628e+00 3.573685e+00 1.132306e+00 2.519154e-01 2.923948e-01 3.501909e-01 6.352911e-01 4.520037e-01 4.346842e-01 5.814642e-01 6.574293e-01 9.282895e-01 1.115888e+00 5.492730e-01 5.653960e-01 1.346529e-01
<GCONST> 1.332117e+02
<TRANSP> 5
 0.000000e+00 1.000000e+00 0.000000e+00 0.000000e+00 0.000000e+00
 0.000000e+00 6.471900e-01 3.528099e-01 0.000000e+00 0.000000e+00
 0.000000e+00 0.000000e+00 6.807395e-01 3.192605e-01 0.000000e+00
 0.000000e+00 0.000000e+00 0.000000e+00 9.571783e-01 4.282171e-02
 0.000000e+00 0.000000e+00 0.000000e+00 0.000000e+00 0.000000e+00
<ENDHMM>
~h "ey"
<BEGINHMM>
<NUMSTATES> 5
<STATE> 2
<MEAN> 39
 -6.653288e+00 2.688141e+00 1.117917e+01 7.094177e+00 1.674430e+01 -1.057854e+01 -3.430770e+00 -2.526157e+00 2.337510e+00 1.450988e+00 7.011096e+00 -9.256367e+00 6.604642e+01 1.999526e-01 5.108395e-01 2.401368e-01 5.046893e-04 -1.733365e-01 -1.614441e-01 -6.546967e-03 4.290048e-01 2.303623e-01 1.190935e-01 -9.932918e-02 1.793741e-01 -2.266366e-01 4.102210e-03 3.333550e-03 1.525566e-02 -5.026989e-02 -1.014357e-01 -2.657627e-02 3.694187e-02 1.295871e-02 2.215031e-03 6.290737e-03 -2.949738e-02 4.356653e-02 2.100395e-02
<VARIANCE> 39
 3.059312e+01 6.555621e+01 5.642986e+01 6.509111e+01 1.083248e+02 6.086703e+01 6.922326e+01 5.946843e+01 4.393356e+01 3.750776e+01 2.886108e+01 5.285795e+01 5.512540e+01 2.068800e+00 3.850932e+00 3.665158e+00 5.663550e+00 4.989076e+00 5.337047e+00 5.741982e+00 2.773955e+00 3.515088e+00 3.463753e+00 1.884377e+00 2.610120e+00 5.085408e+00 3.855347e-01 6.575261e-01 6.396323e-01 1.019785e+00 5.698705e-01 9.118032e-01 1.046101e+00 4.812962e-01 7.128237e-01 6.614569e-01 3.143321e-01 4.064572e-01 8.678383e-01
<GCONST> 1.341385e+02
<STATE> 3
<MEAN> 39
 -5.820539e+00 7.248206e+00 1.415567e+01 2.657587e+00 8.475140e+00 -1.476008e+01 -6.180668e+00 2.850569e+00 7.341220e+00 3.226231e+00 6.058455e+00 -3.570009e+00 6.391779e+01 3.439343e-01 3.566006e-01 1.220436e-01 -2.199489e-01 -5.269471e-01 -1.869734e-01 -2.152056e-01 1.747470e-01 1.081253e-01 5.597259e-01 -1.735670e-01 1.812631e-01 -2.444847e-01 1.106771e-01 -1.227733e-01 -2.676134e-01 9.456067e-02 -1.023358e-02 -1.326316e-01 4.682617e-02 1.885901e-02 -1.725753e-01 3.476534e-02 -1.279186e-01 -8.664086e-02 1.422794e-02
<VARIANCE> 39
 3.803628e+01 7.455219e+01 1.355497e+02 4.350258e+01 8.877038e+01 6.414703e+01 7.497633e+01 4.863880e+01 5.855522e+01 5.559777e+01 3.187380e+01 5.745134e+01 6.217937e+01 1.991059e+00 3.650556e+00 3.635136e+00 3.114315e+00 5.192298e+00 5.918849e+00 4.045889e+00 3.185976e+00 3.636563e+00 2.606113e+00 2.181535e+00 2.441093e+00 2.293837e+00 3.211358e-01 5.486211e-01 5.859155e-01 6.260031e-01 5.961321e-01 8.564954e-01 8.303834e-01 5.782422e-01 6.999960e-01 5.038411e-01 3.848676e-01 4.541415e-01 4.030969e-01
<GCONST> 1.321927e+02
<STATE> 4
<MEAN> 39
 -5.144022e+00 2.355342e+00 5.804910e+00 3.843741e+00 1.306540e+01 -1.563796e+01 -8.995610e+00 2.952725e+00 9.838099e+00 2.902220e+00 4.249349e+00 -8.023795e+00 7.024965e+01 7.314752e-01 2.234025e-01 -7.095637e-01 2.374830e-01 1.413588e-01 -2.196427e-03 4.554810e-02 3.186510e-01 -2.839645e-01 1.666175e-01 -1.551892e-01 -2.756829e-01 -2.360387e-01 -1.514868e-02 -4.617425e-02 -1.363911e-01 -3.260967e-03 2.280109e-02 3.823664e-02 1.419966e-01 6.459066e-02 -3.429919e-02 -8.879741e-02 4.782679e-02 1.587807e-02 -1.891190e-02
<VARIANCE> 39
 3.816479e+01 4.944644e+01 9.538248e+01 4.933060e+01 6.539899e+01 4.151366e+01 6.452627e+01 2.196718e+01 4.379870e+01 4.539701e+01 2.162153e+01 4.484184e+01 6.936312e+01 9.657044e-01 1.731421e+00 2.609384e+00 1.278762e+00 1.780272e+00 3.037575e+00 2.590740e+00 1.757046e+00 2.001055e+00 1.477416e+00 1.263058e+00 1.549689e+00 9.127921e-01 1.955138e-01 3.055225e-01 2.835220e-01 2.402583e-01 3.404903e-01 3.503871e-01 3.889435e-01 3.472616e-01 3.022224e-01 3.088471e-01 2.325835e-01 2.794451e-01 1.882778e-01
<GCONST> 1.117304e+02
<TRANSP> 5
 0.000000e+00 1.000000e+00 0.000000e+00 0.000000e+00 0.000000e+00
 0.000000e+00 9.344149e-01 6.558503e-02 0.000000e+00 0.000000e+00
 0.000000e+00 0.000000e+00 6.918222e-01 3.081778e-01 0.000000e+00
 0.000000e+00 0.000000e+00 0.000000e+00 8.286721e-01 1.713279e-01
 0.000000e+00 0.000000e+00 0.000000e+00 0.000000e+00 0.000000e+00
<ENDHMM>
~h "hh"
<BEGINHMM>
<NUMSTATES> 5
<STATE> 2
<MEAN> 39
 -7.612700e+00 -4.150420e+00 -1.156127e+00 -3.547855e+00 1.215272e+01 -1.132186e+01 -1.867553e+00 1.512933e+00 6.818012e+00 2.493601e+00 1.301453e+01 -5.335012e+00 7.359927e+01 1.036426e-01 7.908153e-02 -2.290330e-01 -1.272102e-02 1.073410e-01 -8.088367e-02 -1.229343e-01 4.242325e-02 -1.365205e-01 2.023061e-01 -6.719451e-02 -1.689775e-01 -9.452835e-03 7.306775e-03 4.549256e-02 3.308441e-02 2.502996e-02 -3.412839e-03 6.236583e-03 5.590399e-02 -6.651726e-03 -1.313442e-02 -7.643927e-02 -1.801240e-02 5.035606e-03 -2.679410e-02
<VARIANCE> 39
 2.374047e+01 2.637418e+01 7.453505e+01 8.451964e+01 4.189683e+01 3.415326e+01 8.851601e+01 3.613379e+01 4.676577e+01 4.092756e+01 6.461430e+01 3.479430e+01 1.826953e+01 1.000043e+00 9.527167e-01 1.652721e+00 1.489811e+00 1.251438e+00 2.107453e+00 2.264498e+00 1.764936e+00 2.034990e+00 1.864057e+00 2.172858e+00 1.235360e+00 7.866392e-01 1.376138e-01 1.425838e-01 2.086818e-01 2.111912e-01 2.304920e-01 3.325288e-01 3.533066e-01 2.832221e-01 3.557808e-01 2.933297e-01 3.516591e-01 2.259524e-01 1.312066e-01
<GCONST> 1.069232e+02
<STATE> 3
<MEAN> 39
 -5.772904e+00 -2.287944e+00 -1.860375e+00 -3.845666e+00 1.310441e+01 -1.302451e+01 3.859000e-01 2.523242e+00 6.045097e+00 2.943934e+00 1.104859e+01 -6.003753e+00 7.207136e+01 4.842386e-01 4.923242e-01 -7.903759e-02 8.816822e-02 6.642742e-02 -3.279626e-01 7.497947e-02 1.628548e-01 -6.610893e-02 -3.334301e-01 -2.418659e-01 -8.326035e-02 5.965525e-02 -1.166392e-02 1.794291e-02 1.154534e-02 1.633437e-02 3.427375e-02 -1.554133e-02 8.342072e-02 -2.038141e-02 -1.183788e-02 -4.693970e-02 -3.882923e-02 7.188135e-02 -7.006912e-03
<VARIANCE> 39
 2.844114e+01 4.317168e+01 7.539925e+01 7.532883e+01 3.912489e+01 6.389566e+01 1.379403e+02 4.780958e+01 4.309418e+01 3.850028e+01 6.372421e+01 2.865958e+01 2.222853e+01 9.370501e-01 1.066396e+00 1.897205e+00 1.614092e+00 1.524203e+00 2.293549e+00 2.924420e+00 1.809563e+00 2.399591e+00 1.739609e+00 1.611609e+00 1.431401e+00 6.197718e-01 1.677852e-01 1.651142e-01 2.526042e-01 1.849380e-01 2.375974e-01 3.737124e-01 4.346330e-01 3.034206e-01 3.987481e-01 2.481319e-01 2.443387e-01 2.511071e-01 6.958310e-02
<GCONST> 1.090343e+02
<STATE> 4
<MEAN> 39
 -3.766837e+00 2.857367e+00 1.076653e-01 -5.586125e+00 1.157659e+01 -1.968944e+01 5.194398e+00 8.722742e+00 7.000160e+00 9.839861e-01 6.016903e+00 -7.245100e+00 6.833238e+01 -3.399897e-01 -1.919925e-01 3.550653e-01 -9.674647e-02 -6.103951e-02 2.589978e-01 2.424975e-01 -3.075837e-01 -2.824616e-01 -2.903231e-01 1.412934e-01 2.572384e-01 1.357988e-01 -1.026167e-01 3.199734e-03 9.139199e-03 2.748576e-02 6.705205e-03 2.894467e-02 4.699033e-02 -7.242718e-02 -7.428063e-03 4.460641e-02 5.197448e-02 2.008731e-02 7.751746e-03
<VARIANCE> 39
 4.260862e+01 7.657264e+01 7.181796e+01 8.785127e+01 4.555815e+01 9.763006e+01 1.313914e+02 1.118033e+02 4.406322e+01 5.803362e+01 7.465632e+01 4.343668e+01 4.472258e+01 2.942056e+00 4.344184e+00 2.913173e+00 1.815838e+00 2.047509e+00 3.680716e+00 5.552822e+00 4.753433e+00 3.016175e+00 3.150720e+00 4.417404e+00 2.449266e+00 2.030149e+00 3.028758e-01 4.393530e-01 4.248655e-01 2.140173e-01 3.718924e-01 5.026006e-01 7.477899e-01 7.273267e-01 5.799217e-01 4.323743e-01 7.335102e-01 4.732184e-01 2.070450e-01
<GCONST> 1.303745e+02
<TRANSP> 5
 0.000000e+00 1.000000e+00 0.000000e+00 0.000000e+00 0.000000e+00
 0.000000e+00 8.890173e-01 1.109827e-01 0.000000e+00 0.000000e+00
 0.000000e+00 0.000000e+00 7.022220e-01 2.977780e-01 0.000000e+00
 0.000000e+00 0.000000e+00 0.000000e+00 8.494516e-01 1.505484e-01
 0.000000e+00 0.000000e+00 0.000000e+00 0.000000e+00 0.000000e+00
<ENDHMM>
~h "ih"
<BEGINHMM>
<NUMSTATES> 5
<STATE> 2
<MEAN> 39
 -7.065815e+00 4.025941e+00 6.334406e+00 4.229747e+00 1.297231e+01 1.691201e+00 2.367265e+00 -4.547748e+00 4.648705e+00 -6.682643e-01 3.029954e+00 -8.739174e-01 6.236976e+01 -4.526273e-01 -5.395014e-01 1.149538e-01 2.838430e-02 2.044381e-01 1.870847e-01 1.361311e-01 -1.157345e+00 8.384168e-01 -2.047913e-01 5.656537e-01 -4.713918e-02 7.945111e-01 -7.252005e-02 -1.788374e-01 -9.317582e-03 1.224766e-02 -4.334109e-02 -1.349919e-01 6.120555e-02 -3.334260e-02 4.882479e-02 -9.095807e-02 -9.575637e-02 -1.132377e-01 2.515015e-01
<VARIANCE> 39
 8.968475e+01 1.612775e+02 2.999784e+01 4.344622e+01 4.208971e+01 9.192048e+01 8.001386e+01 5.307841e+01 1.038993e+02 3.220684e+01 3.327195e+01 2.034325e+01 7.046135e+01 3.630399e+00 4.713576e+00 2.197237e+00 3.622540e+00 3.844627e+00 4.912642e+00 5.472250e+00 3.958855e+00 8.541387e+00 3.533533e+00 2.437944e+00 1.952798e+00 3.635556e+00 5.903709e-01 9.920714e-01 4.038770e-01 7.485977e-01 7.316489e-01 7.833844e-01 1.164741e+00 7.645242e-01 1.867790e+00 8.437948e-01 4.616434e-01 3.275465e-01 7.647494e-01
<GCONST> 1.370127e+02
<STATE> 3
<MEAN> 39
 -7.743475e+00 1.193559e+00 7.139081e+00 4.160113e+00 1.353629e+01 2.814946e-01 1.129910e+00 -8.302763e+00 5.234252e+00 -2.738136e+00 4.095670e+00 -2.358539e+00 6.760938e+01 -1.258166e-01 -9.875652e-01 6.872339e-02 -2.502174e-02 2.220071e-01 -9.104927e-01 -7.069092e-01 -6.081098e-01 -3.855224e-01 -4.946100e-01 2.860419e-01 -4.452597e-01 1.467368e+00 1.473812e-01 3.509289e-02 -3.081799e-02 4.402177e-02 6.665744e-02 -1.753608e-01 -1.708236e-01 2.089124e-01 -3.411465e-01 8.973159e-03 -6.155482e-02 -7.546718e-02 -4.285946e-03
<VARIANCE> 39
 4.811240e+01 9.411224e+01 2.400458e+01 4.147929e+01 4.740110e+01 8.532283e+01 1.007571e+02 4.804247e+01 1.011935e+02 2.632948e+01 2.531791e+01 2.069159e+01 6.529399e+01 3.952177e+00 5.080971e+00 1.915195e+00 5.302815e+00 4.464983e+00 4.613434e+00 8.324560e+00 4.657349e+00 1.108397e+01 2.903857e+00 2.218495e+00 1.736825e+00 3.610230e+00 5.244688e-01 6.516274e-01 3.554702e-01 1.103386e+00 9.367348e-01 6.834324e-01 1.527048e+00 8.194688e-01 1.884916e+00 5.575551e-01 4.318275e-01 2.855389e-01 5.989057e-01
<GCONST> 1.354340e+02
<STATE> 4
<MEAN> 39
 -6.374465e+00 -2.949741e+00 8.465982e+00 4.915390e+00 1.619443e+01 -5.332602e+00 -5.127457e+00 -9.453259e+00 -2.477480e+00 -4.666998e+00 5.999082e+00 -5.760101e+00 7.303217e+01 -7.910305e-02 -3.051654e-01 2.672635e-01 -2.737096e-01 4.047619e-02 -4.553199e-01 1.084400e-01 1.227264e-01 -5.958223e-01 4.043316e-02 3.136441e-01 -2.367935e-01 4.063224e-01 -1.659711e-01 3.489433e-02 1.418588e-01 -1.657991e-01 -1.791252e-01 1.302971e-01 3.335157e-01 2.577717e-02 2.096547e-01 9.961675e-02 1.314087e-02 6.658869e-02 -8.131538e-02
<VARIANCE> 39
 3.569145e+01 4.609647e+01 2.312501e+01 2.612204e+01 3.303976e+01 6.032693e+01 8.846348e+01 3.133441e+01 8.446178e+01 2.449135e+01 2.332621e+01 2.344216e+01 2.552422e+01 2.449689e+00 2.032203e+00 1.533701e+00 3.132655e+00 2.610364e+00 2.728126e+00 8.032979e+00 2.522964e+00 5.868789e+00 1.864700e+00 1.741913e+00 1.367088e+00 1.651936e+00 4.034792e-01 2.785317e-01 2.768972e-01 5.812000e-01 4.536995e-01 3.697912e-01 9.535103e-01 4.981852e-01 9.633229e-01 3.605203e-01 3.545821e-01 2.449795e-01 2.345468e-01
<GCONST> 1.186056e+02
<TRANSP> 5
 0.000000e+00 1.000000e+00 0.000000e+00 0.000000e+00 0.000000e+00
 0.000000e+00 6.547970e-01 3.452029e-01 0.000000e+00 0.000000e+00
 0.000000e+00 0.000000e+00 7.388185e-01 2.611816e-01 0.000000e+00
 0.000000e+00 0.000000e+00 0.000000e+00 8.807293e-01 1.192706e-01
 0.000000e+00 0.000000e+00 0.000000e+00 0.000000e+00 0.000000e+00
<ENDHMM>
~h "iy"
<BEGINHMM>
<NUMSTATES> 5
<STATE> 2
<MEAN> 39
 -6.514454e+00 -8.443034e-01 5.034338e+00 5.475594e+00 1.613753e+01 -1.339826e+01 -2.610112e+00 4.002683e-01 5.156361e+00 -1.785665e+00 7.573021e+00 -6.769198e+00 6.644517e+01 -3.357209e-02 3.684214e-01 -8.965950e-02 -4.639280e-01 -2.828358e-01 -1.232628e-01 3.582868e-01 4.282629e-01 3.925633e-01 4.272000e-01 -3.917886e-01 -1.626555e-02 -2.527897e-01 5.531429e-02 6.491885e-02 7.218040e-02 1.291244e-01 2.267216e-01 1.080397e-01 -3.067602e-02 4.297080e-02 -1.544761e-01 6.346291e-02 -3.432536e-02 3.652560e-04 -1.358706e-01
<VARIANCE> 39
 6.397962e+01 2.868045e+01 8.853198e+01 1.187319e+02 9.766014e+01 6.557342e+01 7.361425e+01 5.113497e+01 7.417532e+01 8.585772e+01 3.424908e+01 5.238923e+01 8.661732e+01 1.248126e+00 2.230067e+00 3.035480e+00 3.166059e+00 2.812058e+00 4.462411e+00 3.085597e+00 1.617093e+00 4.756742e+00 2.840167e+00 2.538949e+00 1.855070e+00 1.767133e+00 2.131189e-01 2.856560e-01 2.808024e-01 5.869625e-01 4.590077e-01 7.235297e-01 4.829845e-01 2.358188e-01 6.477624e-01 5.680814e-01 4.311684e-01 3.449396e-01 2.642802e-01
<GCONST> 1.261965e+02
<STATE> 3
<MEAN> 39
