~o
<STREAMINFO> 1 39
<VECSIZE> 39<NULLD><MFCC_D_A_0><DIAGC>
~h "proto"
<BEGINHMM>
<NUMSTATES> 5
<STATE> 2
<MEAN> 39
 -9.655337e+00 2.685299e+00 1.942065e+00 -1.180146e+00 9.254634e+00 -7.099267e+00 3.670995e+00 3.901593e+00 2.479585e+00 1.336753e+00 4.751089e+00 -1.463522e+00 5.798517e+01 1.837236e-04 -1.950755e-03 2.419057e-03 -8.683878e-04 5.724246e-04 -2.748098e-03 -5.057245e-04 -3.854473e-03 -1.917637e-03 3.996080e-03 -1.344322e-03 3.099205e-03 1.928213e-03 -7.345856e-04 4.250630e-04 -1.836970e-04 1.717757e-03 7.757941e-04 -7.597659e-05 -1.864814e-03 -8.256282e-04 -2.907999e-03 2.475783e-03 -4.325819e-04 -7.051488e-05 -3.745594e-03
<VARIANCE> 39
 1.181285e+02 6.662140e+01 6.745251e+01 8.155464e+01 8.044506e+01 1.384346e+02 7.346785e+01 8.207201e+01 6.968726e+01 8.875105e+01 4.178636e+01 4.736081e+01 1.965903e+02 1.858649e+00 2.475145e+00 2.035827e+00 2.884602e+00 2.380374e+00 3.559629e+00 3.324100e+00 3.491683e+00 3.228676e+00 3.415945e+00 2.147941e+00 1.851355e+00 2.765442e+00 2.341331e-01 3.581943e-01 3.117127e-01 4.301395e-01 3.641312e-01 5.109487e-01 5.484915e-01 6.095698e-01 5.453383e-01 5.760645e-01 3.741373e-01 3.238693e-01 4.186771e-01
<GCONST> 1.301633e+02
<STATE> 3
<MEAN> 39
 -9.655337e+00 2.685299e+00 1.942065e+00 -1.180146e+00 9.254634e+00 -7.099267e+00 3.670995e+00 3.901593e+00 2.479585e+00 1.336753e+00 4.751089e+00 -1.463522e+00 5.798517e+01 1.837236e-04 -1.950755e-03 2.419057e-03 -8.683878e-04 5.724246e-04 -2.748098e-03 -5.057245e-04 -3.854473e-03 -1.917637e-03 3.996080e-03 -1.344322e-03 3.099205e-03 1.928213e-03 -7.345856e-04 4.250630e-04 -1.836970e-04 1.717757e-03 7.757941e-04 -7.597659e-05 -1.864814e-03 -8.256282e-04 -2.907999e-03 2.475783e-03 -4.325819e-04 -7.051488e-05 -3.745594e-03
<VARIANCE> 39
 1.181285e+02 6.662140e+01 6.745251e+01 8.155464e+01 8.044506e+01 1.384346e+02 7.346785e+01 8.207201e+01 6.968726e+01 8.875105e+01 4.178636e+01 4.736081e+01 1.965903e+02 1.858649e+00 2.475145e+00 2.035827e+00 2.884602e+00 2.380374e+00 3.559629e+00 3.324100e+00 3.491683e+00 3.228676e+00 3.415945e+00 2.147941e+00 1.851355e+00 2.765442e+00 2.341331e-01 3.581943e-01 3.117127e-01 4.301395e-01 3.641312e-01 5.109487e-01 5.484915e-01 6.095698e-01 5.453383e-01 5.760645e-01 3.741373e-01 3.238693e-01 4.186771e-01
<GCONST> 1.301633e+02
<STATE> 4
<MEAN> 39
 -9.655337e+00 2.685299e+00 1.942065e+00 -1.180146e+00 9.254634e+00 -7.099267e+00 3.670995e+00 3.901593e+00 2.479585e+00 1.336753e+00 4.751089e+00 -1.463522e+00 5.798517e+01 1.837236e-04 -1.950755e-03 2.419057e-03 -8.683878e-04 5.724246e-04 -2.748098e-03 -5.057245e-04 -3.854473e-03 -1.917637e-03 3.996080e-03 -1.344322e-03 3.099205e-03 1.928213e-03 -7.345856e-04 4.250630e-04 -1.836970e-04 1.717757e-03 7.757941e-04 -7.597659e-05 -1.864814e-03 -8.256282e-04 -2.907999e-03 2.475783e-03 -4.325819e-04 -7.051488e-05 -3.745594e-03
<VARIANCE> 39
 1.181285e+02 6.662140e+01 6.745251e+01 8.155464e+01 8.044506e+01 1.384346e+02 7.346785e+01 8.207201e+01 6.968726e+01 8.875105e+01 4.178636e+01 4.736081e+01 1.965903e+02 1.858649e+00 2.475145e+00 2.035827e+00 2.884602e+00 2.380374e+00 3.559629e+00 3.324100e+00 3.491683e+00 3.228676e+00 3.415945e+00 2.147941e+00 1.851355e+00 2.765442e+00 2.341331e-01 3.581943e-01 3.117127e-01 4.301395e-01 3.641312e-01 5.109487e-01 5.484915e-01 6.095698e-01 5.453383e-01 5.760645e-01 3.741373e-01 3.238693e-01 4.186771e-01
<GCONST> 1.301633e+02
<TRANSP> 5
 0.000000e+00 1.000000e+00 0.000000e+00 0.000000e+00 0.000000e+00
 0.000000e+00 6.000000e-01 4.000000e-01 0.000000e+00 0.000000e+00
 0.000000e+00 0.000000e+00 6.000000e-01 4.000000e-01 0.000000e+00
 0.000000e+00 0.000000e+00 0.000000e+00 7.000000e-01 3.000000e-01
 0.000000e+00 0.000000e+00 0.000000e+00 0.000000e+00 0.000000e+00
<ENDHMM>
