~o
<STREAMINFO> 1 39
<VECSIZE> 39<NULLD><MFCC_D_A_0><DIAGC>
~h "b"
<BEGINHMM>
<NUMSTATES> 5
<STATE> 2
<MEAN> 39
 -7.254376e+00 4.526668e+00 3.769862e+00 1.347534e+00 9.587748e+00 -8.667489e+00 1.904610e+00 5.134318e+00 2.901539e+00 2.631153e+00 4.499034e+00 -2.541649e+00 5.784433e+01 -3.000581e-02 -2.662779e-02 -1.354974e-02 1.953041e-03 8.922528e-03 4.459358e-02 2.472580e-02 1.205007e-02 -4.187043e-03 3.168622e-02 5.651642e-03 1.625464e-02 -1.725474e-02 -4.483154e-04 -1.560878e-04 6.631901e-04 -1.103958e-03 -1.336255e-03 -1.493265e-03 8.002173e-04 -1.155661e-03 1.079532e-03 -1.753310e-03 1.746032e-04 -7.567611e-04 1.749110e-03
<VARIANCE> 39
 1.114446e+02 5.937716e+01 7.515119e+01 7.391534e+01 8.788750e+01 1.451443e+02 6.164935e+01 6.749533e+01 5.808341e+01 8.008657e+01 3.717622e+01 4.574006e+01 1.880473e+02 1.471027e+00 2.423934e+00 2.087676e+00 3.020395e+00 2.489642e+00 4.222467e+00 3.364693e+00 3.058858e+00 3.170195e+00 3.172946e+00 1.987357e+00 1.832683e+00 2.340704e+00 2.136516e-01 3.417558e-01 2.883928e-01 4.441087e-01 3.750586e-01 5.894133e-01 5.567416e-01 5.418735e-01 5.549789e-01 5.388301e-01 3.341097e-01 3.241013e-01 3.375711e-01
<GCONST> 1.283569e+02
<STATE> 3
<MEAN> 39
 -7.368774e+00 4.424964e+00 3.728784e+00 1.342919e+00 9.597836e+00 -8.499287e+00 2.017865e+00 5.191247e+00 2.906796e+00 2.742562e+00 4.532425e+00 -2.478335e+00 5.779701e+01 -3.141775e-02 -2.654087e-02 -9.792518e-03 -1.536305e-03 3.860777e-03 3.808152e-02 2.707250e-02 7.987824e-03 -6.915211e-04 2.441824e-02 6.077727e-03 1.350574e-02 -1.029496e-02 1.467415e-06 2.625553e-04 1.017330e-03 -8.762628e-04 -1.391245e-03 -1.981905e-03 3.991765e-04 -7.317865e-04 8.246501e-04 -1.846167e-03 -1.171298e-04 -6.773487e-04 1.678169e-03
<VARIANCE> 39
 1.119210e+02 5.878634e+01 7.510567e+01 7.296947e+01 8.650129e+01 1.464170e+02 6.161847e+01 6.857812e+01 5.715563e+01 7.926183e+01 3.635880e+01 4.492182e+01 1.900281e+02 1.485265e+00 2.421344e+00 2.073248e+00 2.992868e+00 2.490643e+00 4.221777e+00 3.378635e+00 3.055882e+00 3.157919e+00 3.136448e+00 1.973042e+00 1.812755e+00 2.376212e+00 2.150225e-01 3.432140e-01 2.848579e-01 4.392346e-01 3.775637e-01 5.931338e-01 5.617740e-01 5.436504e-01 5.548185e-01 5.331426e-01 3.333670e-01 3.203858e-01 3.435244e-01
<GCONST> 1.282723e+02
<STATE> 4
<MEAN> 39
 -7.361754e+00 4.399358e+00 3.648509e+00 1.214405e+00 9.601521e+00 -8.288438e+00 2.134292e+00 5.219997e+00 2.923120e+00 2.712644e+00 4.581087e+00 -2.558223e+00 5.794606e+01 -2.098009e-02 -1.610785e-02 2.633796e-03 -2.376786e-03 -4.467461e-03 1.907943e-02 2.382959e-02 6.596656e-03 8.600032e-03 5.021544e-03 6.722782e-03 7.725614e-03 6.079754e-03 5.093734e-04 5.551977e-04 1.070034e-03 -4.451424e-04 -8.394258e-04 -2.024248e-03 -9.479176e-05 -6.139743e-04 5.533865e-04 -2.113617e-03 -3.167507e-04 -5.466645e-04 1.675868e-03
<VARIANCE> 39
 1.114937e+02 5.938634e+01 7.502567e+01 7.129766e+01 8.312715e+01 1.495381e+02 6.170325e+01 7.046304e+01 5.599355e+01 7.800584e+01 3.558249e+01 4.433514e+01 1.915303e+02 1.519278e+00 2.472342e+00 2.055296e+00 2.949177e+00 2.492399e+00 4.239929e+00 3.434742e+00 3.072281e+00 3.159390e+00 3.140636e+00 1.968925e+00 1.793433e+00 2.541327e+00 2.196982e-01 3.546128e-01 2.810046e-01 4.363928e-01 3.857807e-01 6.013610e-01 5.818693e-01 5.472763e-01 5.573429e-01 5.333505e-01 3.335527e-01 3.155614e-01 3.651970e-01
<GCONST> 1.284666e+02
<TRANSP> 5
 0.000000e+00 1.000000e+00 0.000000e+00 0.000000e+00 0.000000e+00
 0.000000e+00 7.772934e-01 2.227066e-01 0.000000e+00 0.000000e+00
 0.000000e+00 0.000000e+00 7.772934e-01 2.227065e-01 0.000000e+00
 0.000000e+00 0.000000e+00 0.000000e+00 9.081044e-01 9.189568e-02
 0.000000e+00 0.000000e+00 0.000000e+00 0.000000e+00 0.000000e+00
<ENDHMM>
~h "d"
<BEGINHMM>
<NUMSTATES> 5
<STATE> 2
<MEAN> 39
 -9.319962e+00 3.820065e+00 2.144245e+00 1.395094e-01 8.046603e+00 -8.813591e+00 3.689356e+00 5.618260e+00 2.238524e+00 1.553131e+00 3.714851e+00 -1.193222e+00 5.540114e+01 -5.369420e-03 -2.260279e-02 8.555064e-03 3.859630e-03 -7.230545e-03 4.482815e-03 -3.175945e-03 -5.501528e-02 1.373813e-02 -2.445619e-02 8.216023e-03 -3.753871e-02 3.769939e-02 -4.557760e-04 -1.452127e-03 1.223110e-03 -2.213392e-03 4.946756e-04 1.267456e-03 1.073051e-03 -4.167832e-03 2.029522e-04 -1.459738e-03 6.820966e-04 2.394556e-03 3.636249e-03
<VARIANCE> 39
 1.208456e+02 5.360654e+01 6.195033e+01 6.956989e+01 7.867179e+01 2.003093e+02 6.969052e+01 7.791206e+01 7.514530e+01 9.428149e+01 3.861518e+01 4.947129e+01 1.878219e+02 1.340697e+00 2.270346e+00 1.596241e+00 2.818379e+00 2.116024e+00 3.571848e+00 2.956532e+00 3.666112e+00 3.000126e+00 3.454427e+00 1.901055e+00 1.780040e+00 2.837679e+00 1.722293e-01 3.654773e-01 2.468307e-01 4.174705e-01 3.023422e-01 4.894702e-01 4.835612e-01 6.341032e-01 5.039735e-01 6.019391e-01 3.351505e-01 3.231434e-01 4.481337e-01
<GCONST> 1.280170e+02
<STATE> 3
<MEAN> 39
 -9.345950e+00 3.709401e+00 2.177358e+00 1.250641e-01 8.020895e+00 -8.773349e+00 3.691916e+00 5.356549e+00 2.309226e+00 1.432344e+00 3.759472e+00 -1.347627e+00 5.560015e+01 -7.354769e-03 -2.826003e-02 1.408664e-02 -4.823938e-03 -3.822616e-03 8.715785e-03 1.174596e-03 -7.252579e-02 1.520962e-02 -3.055024e-02 1.093793e-02 -2.681058e-02 5.353144e-02 -5.406328e-04 -2.878396e-04 1.810379e-03 -1.281359e-03 3.735678e-04 9.832459e-04 6.898404e-04 -2.576611e-03 -2.424798e-04 -3.861885e-04 -9.014803e-04 2.625525e-03 2.589451e-03
<VARIANCE> 39
 1.199259e+02 5.474439e+01 6.217050e+01 6.965276e+01 7.726609e+01 1.987087e+02 6.977110e+01 7.892635e+01 7.343302e+01 9.198373e+01 3.888212e+01 4.821987e+01 1.860609e+02 1.374194e+00 2.352624e+00 1.621040e+00 2.831242e+00 2.115222e+00 3.610997e+00 3.011091e+00 3.833343e+00 3.037385e+00 3.533928e+00 1.969361e+00 1.782577e+00 3.094262e+00 1.783490e-01 3.813691e-01 2.501726e-01 4.186072e-01 3.034300e-01 5.015853e-01 4.940526e-01 6.639087e-01 5.147846e-01 6.184543e-01 3.466760e-01 3.227272e-01 4.978515e-01
<GCONST> 1.286344e+02
<STATE> 4
<MEAN> 39
 -9.740163e+00 3.399927e+00 2.222969e+00 2.335670e-01 8.219064e+00 -8.243662e+00 3.649126e+00 4.795430e+00 2.136116e+00 1.449413e+00 3.780647e+00 -1.337983e+00 5.557037e+01 -1.058656e-02 -3.170937e-02 2.381986e-02 -1.316336e-02 3.158252e-03 1.157696e-02 5.753943e-03 -8.363219e-02 2.190999e-02 -3.640797e-02 7.813855e-03 -1.894191e-02 7.480082e-02 -1.776856e-04 1.418923e-03 2.208405e-03 -3.184187e-04 5.545095e-06 6.132300e-04 1.210768e-04 4.527742e-04 -1.289925e-03 1.698299e-03 -2.385705e-03 1.752411e-03 5.865507e-04
<VARIANCE> 39
 1.159811e+02 5.532786e+01 5.989746e+01 7.071799e+01 7.407313e+01 1.913544e+02 7.057315e+01 8.002271e+01 7.114026e+01 8.677576e+01 3.894809e+01 4.844991e+01 1.862351e+02 1.388986e+00 2.448242e+00 1.603385e+00 2.762771e+00 2.092440e+00 3.583552e+00 3.134228e+00 4.001472e+00 3.058048e+00 3.638858e+00 2.077467e+00 1.795351e+00 3.418099e+00 1.838287e-01 3.984780e-01 2.471424e-01 4.086291e-01 3.063478e-01 5.041755e-01 5.164304e-01 6.962577e-01 5.237992e-01 6.372191e-01 3.619679e-01 3.194093e-01 5.599483e-01
<GCONST> 1.290701e+02
<TRANSP> 5
 0.000000e+00 1.000000e+00 0.000000e+00 0.000000e+00 0.000000e+00
 0.000000e+00 7.738698e-01 2.261302e-01 0.000000e+00 0.000000e+00
 0.000000e+00 0.000000e+00 7.738705e-01 2.261295e-01 0.000000e+00
 0.000000e+00 0.000000e+00 0.000000e+00 9.042545e-01 9.574549e-02
 0.000000e+00 0.000000e+00 0.000000e+00 0.000000e+00 0.000000e+00
<ENDHMM>
~h "f"
<BEGINHMM>
<NUMSTATES> 5
<STATE> 2
<MEAN> 39
 -9.819013e+00 2.865859e+00 1.580711e+00 -3.820171e+00 1.036121e+01 -7.286757e+00 4.961304e+00 4.253971e+00 3.037563e+00 -7.878526e-01 4.364770e+00 -1.990994e+00 6.234577e+01 3.892908e-03 1.326996e-03 -2.113262e-02 -4.391413e-02 -9.260532e-03 6.455161e-03 4.529383e-02 1.677490e-02 1.137857e-02 -5.158582e-02 1.881545e-02 1.270167e-02 4.475806e-02 1.611852e-03 -3.293684e-04 1.181785e-03 1.485071e-03 -6.887556e-04 -9.859931e-04 -2.042956e-03 2.328553e-04 1.163149e-03 9.410358e-04 6.938668e-04 5.216694e-04 -1.168424e-03
<VARIANCE> 39
 1.662225e+02 7.031465e+01 8.418341e+01 9.804467e+01 7.838680e+01 1.128237e+02 7.459122e+01 8.685661e+01 6.475706e+01 1.056834e+02 3.766316e+01 3.927016e+01 1.676443e+02 3.792128e+00 2.952750e+00 2.334498e+00 3.391221e+00 2.626942e+00 3.394197e+00 3.577712e+00 3.597053e+00 3.441927e+00 3.564139e+00 2.074641e+00 2.203793e+00 1.903650e+00 3.813094e-01 4.171818e-01 3.607742e-01 4.705342e-01 3.896347e-01 4.905140e-01 5.488862e-01 6.235774e-01 5.734938e-01 5.814512e-01 3.625469e-01 3.892845e-01 2.717240e-01
<GCONST> 1.323778e+02
<STATE> 3
<MEAN> 39
 -9.778893e+00 2.883882e+00 1.499387e+00 -4.007793e+00 1.031802e+01 -7.283073e+00 5.135431e+00 4.337265e+00 3.093223e+00 -1.008206e+00 4.439787e+00 -1.925233e+00 6.252364e+01 1.243585e-02 8.167801e-04 -1.514380e-02 -3.688653e-02 -1.166734e-02 4.107580e-04 3.515869e-02 1.677543e-02 1.635492e-02 -4.738349e-02 2.123342e-02 1.467854e-02 4.051626e-02 2.021602e-03 -3.847116e-05 1.305579e-03 1.914515e-03 -5.008942e-04 -1.741097e-03 -2.539573e-03 -6.892660e-06 1.186275e-03 1.030954e-03 5.990242e-04 3.639117e-04 -1.016984e-03
<VARIANCE> 39
 1.689312e+02 7.161702e+01 8.425387e+01 9.886863e+01 7.869229e+01 1.132316e+02 7.338084e+01 8.737609e+01 6.411347e+01 1.074504e+02 3.704900e+01 3.921364e+01 1.646654e+02 3.878930e+00 2.951729e+00 2.356066e+00 3.400831e+00 2.624176e+00 3.430123e+00 3.539546e+00 3.613032e+00 3.449164e+00 3.570613e+00 2.068062e+00 2.233629e+00 1.861526e+00 3.867849e-01 4.161192e-01 3.662348e-01 4.717886e-01 3.913314e-01 4.943690e-01 5.462064e-01 6.300316e-01 5.776915e-01 5.806432e-01 3.630034e-01 3.943052e-01 2.657888e-01
<GCONST> 1.324636e+02
<STATE> 4
<MEAN> 39
 -9.712089e+00 3.097028e+00 1.014634e+00 -4.476740e+00 1.018183e+01 -7.279140e+00 5.144940e+00 4.743475e+00 3.254217e+00 -1.239461e+00 4.426091e+00 -1.696495e+00 6.225425e+01 3.213650e-02 6.364908e-03 3.490394e-04 -1.909398e-02 -8.552083e-03 -1.747812e-02 1.420708e-02 1.655697e-02 1.970632e-02 -5.112389e-02 2.028630e-02 1.272208e-02 3.866662e-02 2.075833e-03 1.482182e-04 1.570340e-03 2.824958e-03 2.256095e-04 -2.270797e-03 -2.773215e-03 -4.850763e-04 7.290298e-04 3.855205e-04 6.078634e-04 -4.588529e-04 -2.950726e-04
<VARIANCE> 39
 1.716756e+02 7.136191e+01 7.983263e+01 1.042909e+02 7.814882e+01 1.108030e+02 7.128642e+01 8.756125e+01 6.222375e+01 1.124488e+02 3.639701e+01 4.019446e+01 1.661910e+02 3.903985e+00 2.857392e+00 2.288336e+00 3.330499e+00 2.547804e+00 3.419951e+00 3.428399e+00 3.691289e+00 3.362093e+00 3.493543e+00 2.047728e+00 2.277189e+00 1.819832e+00 3.856305e-01 4.044884e-01 3.625039e-01 4.643997e-01 3.867725e-01 4.953091e-01 5.354146e-01 6.570049e-01 5.719184e-01 5.694891e-01 3.579808e-01 4.029289e-01 2.593147e-01
<GCONST> 1.321806e+02
<TRANSP> 5
 0.000000e+00 1.000000e+00 0.000000e+00 0.000000e+00 0.000000e+00
 0.000000e+00 7.706853e-01 2.293147e-01 0.000000e+00 0.000000e+00
 0.000000e+00 0.000000e+00 7.706852e-01 2.293148e-01 0.000000e+00
 0.000000e+00 0.000000e+00 0.000000e+00 9.015422e-01 9.845779e-02
 0.000000e+00 0.000000e+00 0.000000e+00 0.000000e+00 0.000000e+00
<ENDHMM>
~h "g"
<BEGINHMM>
<NUMSTATES> 5
<STATE> 2
<MEAN> 39
 -6.968517e+00 3.790636e+00 3.735545e+00 1.696193e+00 9.830715e+00 -9.437703e+00 5.601947e-01 3.373133e+00 3.233288e+00 -1.391229e+00 5.551929e+00 -3.651788e+00 6.132307e+01 5.557502e-02 -1.946364e-02 2.807718e-02 5.182475e-03 7.679983e-02 2.374948e-02 2.927328e-02 -5.721202e-02 1.136055e-02 -4.561921e-02 2.460787e-02 -1.304116e-02 1.327749e-01 8.524178e-04 4.579192e-04 -8.695124e-04 -2.532435e-03 -1.319180e-03 -4.271847e-04 1.306534e-03 2.065675e-03 4.317232e-04 5.613249e-04 -2.882232e-04 6.667068e-04 -4.982669e-04
<VARIANCE> 39
 8.938364e+01 5.182689e+01 6.071970e+01 9.323766e+01 9.753555e+01 1.739684e+02 7.381654e+01 8.374639e+01 6.074226e+01 1.018906e+02 4.861131e+01 5.229540e+01 1.923141e+02 1.716634e+00 2.717884e+00 2.056962e+00 3.280125e+00 2.629555e+00 4.085631e+00 4.331862e+00 3.900636e+00 3.131559e+00 4.181742e+00 2.462502e+00 1.995585e+00 3.493988e+00 2.540758e-01 4.266348e-01 2.999827e-01 5.010695e-01 4.113323e-01 5.384010e-01 7.756971e-01 6.562259e-01 5.670077e-01 6.630131e-01 4.330887e-01 3.280138e-01 5.052589e-01
<GCONST> 1.332123e+02
<STATE> 3
<MEAN> 39
 -6.702596e+00 3.699710e+00 3.850540e+00 1.679433e+00 1.013362e+01 -9.352834e+00 7.220364e-01 3.141253e+00 3.299733e+00 -1.591831e+00 5.670109e+00 -3.705901e+00 6.193523e+01 5.852616e-02 -1.744859e-02 2.341780e-02 -8.458794e-03 6.759033e-02 2.114483e-02 3.510289e-02 -4.807966e-02 1.333224e-02 -4.219354e-02 2.270405e-02 -9.271868e-03 1.292844e-01 8.314768e-04 6.361095e-04 -9.180966e-04 -2.910753e-03 -2.276243e-03 -8.792247e-04 1.084950e-03 2.194457e-03 5.750959e-04 7.255141e-04 -5.312909e-04 7.547973e-04 -7.239818e-04
<VARIANCE> 39
 8.737186e+01 5.301456e+01 6.059090e+01 9.714241e+01 9.733987e+01 1.688264e+02 7.496811e+01 8.411537e+01 6.014705e+01 1.013216e+02 4.837647e+01 5.158884e+01 1.866899e+02 1.733219e+00 2.830534e+00 2.090062e+00 3.428286e+00 2.603261e+00 4.121526e+00 4.435780e+00 3.898223e+00 3.204050e+00 4.241211e+00 2.475308e+00 1.997473e+00 3.658823e+00 2.549319e-01 4.491511e-01 3.051240e-01 5.249971e-01 4.066924e-01 5.400317e-01 7.974116e-01 6.550370e-01 5.836704e-01 6.638711e-01 4.364843e-01 3.257814e-01 5.310113e-01
<GCONST> 1.336136e+02
<STATE> 4
<MEAN> 39
 -6.159632e+00 3.462123e+00 4.133256e+00 1.506626e+00 1.036109e+01 -9.341932e+00 1.236246e+00 2.947003e+00 3.540283e+00 -1.801381e+00 5.926802e+00 -3.798344e+00 6.306401e+01 5.569772e-02 -1.760080e-02 1.182862e-02 -4.225310e-02 3.182897e-02 9.259727e-03 4.666438e-02 -3.351923e-02 1.786338e-02 -3.053920e-02 2.086356e-02 1.391942e-03 1.170511e-01 1.881976e-04 7.400931e-04 -9.317504e-04 -2.768989e-03 -2.759700e-03 -1.286231e-03 2.631692e-04 1.927874e-03 4.638636e-04 1.195297e-03 -9.387707e-04 9.745228e-04 -1.642353e-03
<VARIANCE> 39
 8.625777e+01 5.589322e+01 6.103964e+01 1.070049e+02 9.792726e+01 1.617041e+02 7.744631e+01 8.429253e+01 5.922876e+01 1.020385e+02 4.859841e+01 5.091871e+01 1.724680e+02 1.742744e+00 2.972033e+00 2.145083e+00 3.681898e+00 2.638878e+00 4.335539e+00 4.630002e+00 3.954654e+00 3.351434e+00 4.500769e+00 2.545961e+00 2.028928e+00 3.976338e+00 2.486522e-01 4.808277e-01 3.184089e-01 5.672466e-01 4.102737e-01 5.588918e-01 8.390580e-01 6.663181e-01 6.180560e-01 6.871830e-01 4.488262e-01 3.255478e-01 5.787331e-01
<GCONST> 1.346429e+02
<TRANSP> 5
 0.000000e+00 1.000000e+00 0.000000e+00 0.000000e+00 0.000000e+00
 0.000000e+00 7.807006e-01 2.192994e-01 0.000000e+00 0.000000e+00
 0.000000e+00 0.000000e+00 7.807007e-01 2.192993e-01 0.000000e+00
 0.000000e+00 0.000000e+00 0.000000e+00 9.113749e-01 8.862517e-02
 0.000000e+00 0.000000e+00 0.000000e+00 0.000000e+00 0.000000e+00
<ENDHMM>
~h "k"
<BEGINHMM>
<NUMSTATES> 5
<STATE> 2
<MEAN> 39
 -1.014728e+01 2.278503e+00 4.620795e-01 -1.131085e+00 8.260463e+00 -5.695817e+00 3.472735e+00 3.868714e+00 1.469230e+00 3.095933e+00 5.260368e+00 -6.550547e-01 5.662948e+01 -5.406493e-02 -1.400107e-02 1.262284e-02 -9.425157e-03 -2.074534e-02 -3.927642e-02 1.188451e-02 -1.574831e-02 4.597009e-02 -7.789227e-03 -1.388577e-02 -3.453199e-02 -1.543446e-03 -1.439998e-03 -2.282684e-03 2.349490e-03 -2.211160e-03 -1.105277e-03 -2.691355e-03 1.110481e-03 -4.131963e-03 3.867597e-03 -8.503005e-04 9.132414e-04 -8.158152e-04 4.094132e-03
<VARIANCE> 39
 9.759950e+01 6.642612e+01 6.406145e+01 5.926490e+01 5.290477e+01 1.498927e+02 6.670310e+01 7.402381e+01 9.156371e+01 7.541889e+01 4.096587e+01 5.162444e+01 2.022363e+02 1.648667e+00 2.628653e+00 2.148625e+00 2.450596e+00 2.094212e+00 3.268737e+00 3.090693e+00 3.087890e+00 3.081425e+00 2.856783e+00 2.023315e+00 1.787429e+00 3.358878e+00 2.243074e-01 4.078462e-01 3.411364e-01 3.887759e-01 3.529549e-01 4.985089e-01 5.044945e-01 5.463882e-01 5.240402e-01 4.773561e-01 3.516300e-01 3.128030e-01 5.462152e-01
<GCONST> 1.283289e+02
<STATE> 3
<MEAN> 39
 -1.039891e+01 2.198332e+00 5.403419e-01 -1.172368e+00 8.176426e+00 -5.879432e+00 3.523367e+00 3.779046e+00 1.677691e+00 3.045969e+00 5.207214e+00 -8.144130e-01 5.664106e+01 -5.776627e-02 -2.351208e-02 2.230266e-02 -1.792952e-02 -2.472080e-02 -5.040738e-02 1.651632e-02 -3.343150e-02 6.122714e-02 -1.210868e-02 -9.927600e-03 -3.640945e-02 1.713978e-02 -7.565339e-04 -2.881742e-03 1.838404e-03 -1.686709e-03 -1.949624e-04 -8.895768e-04 8.068022e-04 -4.237081e-03 2.382159e-03 -1.105801e-03 5.461212e-04 -4.143163e-05 4.228620e-03
<VARIANCE> 39
 9.948424e+01 6.438101e+01 6.263992e+01 5.692988e+01 5.332063e+01 1.454178e+02 6.714312e+01 7.277408e+01 8.955273e+01 7.507474e+01 4.134383e+01 5.107998e+01 2.046416e+02 1.680258e+00 2.669553e+00 2.159780e+00 2.421185e+00 2.152386e+00 3.335391e+00 3.096382e+00 3.213474e+00 3.108872e+00 2.942582e+00 2.065700e+00 1.814600e+00 3.514188e+00 2.294027e-01 4.203065e-01 3.448428e-01 3.871176e-01 3.625810e-01 5.175469e-01 5.049514e-01 5.734558e-01 5.314099e-01 4.967236e-01 3.599045e-01 3.202062e-01 5.834717e-01
<GCONST> 1.287802e+02
<STATE> 4
<MEAN> 39
 -1.098516e+01 1.878636e+00 5.510138e-01 -1.127945e+00 8.233767e+00 -5.931117e+00 3.516326e+00 3.589255e+00 1.894131e+00 2.982114e+00 5.250637e+00 -1.084595e+00 5.661430e+01 -5.222793e-02 -3.323499e-02 3.483901e-02 -1.520141e-02 -1.803391e-02 -5.476769e-02 1.653169e-02 -5.031313e-02 6.901796e-02 -2.112354e-02 -8.915743e-03 -3.566062e-02 4.253164e-02 1.069509e-03 -1.533317e-03 1.505301e-03 -2.210139e-04 1.309367e-03 1.076342e-03 4.702376e-04 -2.419305e-03 8.096080e-04 -2.232930e-04 -1.015218e-03 3.320300e-05 4.044312e-03
<VARIANCE> 39
 1.001068e+02 6.163720e+01 6.086575e+01 5.521217e+01 5.366939e+01 1.348017e+02 6.592181e+01 7.023844e+01 8.266314e+01 7.144479e+01 4.172573e+01 5.041292e+01 2.104542e+02 1.717028e+00 2.688002e+00 2.199153e+00 2.388345e+00 2.220245e+00 3.432129e+00 3.068379e+00 3.345970e+00 3.103886e+00 3.038381e+00 2.146189e+00 1.846324e+00 3.748012e+00 2.336990e-01 4.314970e-01 3.529798e-01 3.870037e-01 3.689390e-01 5.459212e-01 5.047238e-01 6.043987e-01 5.383098e-01 5.219423e-01 3.727517e-01 3.274270e-01 6.261513e-01
<GCONST> 1.291102e+02
<TRANSP> 5
 0.000000e+00 1.000000e+00 0.000000e+00 0.000000e+00 0.000000e+00
 0.000000e+00 7.774063e-01 2.225938e-01 0.000000e+00 0.000000e+00
 0.000000e+00 0.000000e+00 7.774059e-01 2.225941e-01 0.000000e+00
 0.000000e+00 0.000000e+00 0.000000e+00 9.085531e-01 9.144689e-02
 0.000000e+00 0.000000e+00 0.000000e+00 0.000000e+00 0.000000e+00
<ENDHMM>
~h "l"
<BEGINHMM>
<NUMSTATES> 5
<STATE> 2
<MEAN> 39
 -6.697468e+00 4.265115e+00 4.265291e+00 -1.163195e-01 7.652768e+00 -1.034299e+01 3.110609e+00 5.100821e+00 3.960393e+00 3.211950e-01 4.827765e+00 -2.468174e+00 6.004798e+01 3.678010e-02 -1.893564e-03 -1.635165e-02 -3.090984e-02 -1.678791e-02 -2.591790e-02 5.995597e-03 -1.023553e-02 2.285281e-02 -3.042219e-02 1.177929e-02 -6.323082e-03 4.680852e-02 6.990604e-04 -5.279025e-04 1.079634e-03 6.767738e-04 -7.537840e-04 -6.405178e-04 -1.507169e-03 -2.020841e-03 -3.586793e-04 -2.527419e-04 8.243034e-05 -8.823770e-04 1.558585e-03
<VARIANCE> 39
 1.178333e+02 6.598714e+01 8.214231e+01 9.477419e+01 1.073031e+02 1.968523e+02 7.810613e+01 9.895846e+01 6.387623e+01 9.411199e+01 3.992370e+01 4.721362e+01 1.683530e+02 1.727569e+00 2.509312e+00 2.288435e+00 3.428839e+00 2.842411e+00 4.301595e+00 3.501316e+00 3.522648e+00 3.092708e+00 3.457537e+00 2.347822e+00 2.048335e+00 2.694016e+00 2.279842e-01 3.598153e-01 3.409697e-01 4.861803e-01 4.253994e-01 5.861793e-01 5.847324e-01 6.057376e-01 5.097944e-01 5.605134e-01 4.133001e-01 3.583463e-01 4.017534e-01
<GCONST> 1.325509e+02
<STATE> 3
<MEAN> 39
 -6.527905e+00 4.250026e+00 4.200857e+00 -2.523651e-01 7.578724e+00 -1.045152e+01 3.126270e+00 5.039842e+00 4.062573e+00 1.926872e-01 4.874867e+00 -2.494077e+00 6.027102e+01 3.865012e-02 -4.274867e-03 -1.130791e-02 -2.803406e-02 -1.964766e-02 -2.783347e-02 2.135146e-03 -1.768266e-02 2.147162e-02 -2.957290e-02 1.054840e-02 -8.451782e-03 5.196114e-02 1.943222e-04 -5.327689e-04 1.528135e-03 9.320664e-04 -5.647229e-04 -1.099164e-04 -1.097266e-03 -1.773616e-03 -6.894728e-04 7.369216e-04 -1.011562e-03 -5.462125e-04 7.580854e-04
<VARIANCE> 39
 1.163031e+02 6.688472e+01 8.361291e+01 9.555609e+01 1.084293e+02 1.974959e+02 7.970889e+01 1.000408e+02 6.523036e+01 9.285326e+01 4.022158e+01 4.809275e+01 1.636563e+02 1.747283e+00 2.578427e+00 2.292765e+00 3.468397e+00 2.873214e+00 4.328621e+00 3.511063e+00 3.608057e+00 3.099766e+00 3.526085e+00 2.398418e+00 2.072230e+00 2.798758e+00 2.313163e-01 3.730616e-01 3.423895e-01 4.915490e-01 4.290398e-01 5.908456e-01 5.838045e-01 6.195740e-01 5.076088e-01 5.724247e-01 4.217276e-01 3.620938e-01 4.184178e-01
<GCONST> 1.330072e+02
<STATE> 4
<MEAN> 39
 -6.072109e+00 4.337252e+00 4.189171e+00 -4.198054e-01 7.407084e+00 -1.075123e+01 3.038413e+00 5.055091e+00 4.309193e+00 -2.610934e-02 4.934422e+00 -2.571379e+00 6.064861e+01 3.492668e-02 -7.911365e-03 -6.550139e-03 -2.706444e-02 -1.930213e-02 -1.988911e-02 7.008151e-03 -2.274100e-02 1.807074e-02 -1.802074e-02 6.631811e-04 -1.698089e-03 4.828231e-02 -7.059500e-04 -9.003116e-05 1.339538e-03 5.971910e-04 -1.981016e-04 8.701753e-04 9.360467e-05 -7.540348e-05 -1.120069e-03 2.108021e-03 -1.718130e-03 4.051739e-04 -1.086421e-03
<VARIANCE> 39
 1.119822e+02 6.857225e+01 8.515871e+01 9.782763e+01 1.108104e+02 1.996831e+02 8.131096e+01 1.010596e+02 6.699721e+01 9.217719e+01 4.098956e+01 5.003186e+01 1.546425e+02 1.747967e+00 2.688908e+00 2.283959e+00 3.536313e+00 2.930066e+00 4.372937e+00 3.463138e+00 3.755034e+00 3.101837e+00 3.632217e+00 2.471806e+00 2.109578e+00 2.920450e+00 2.313350e-01 3.901991e-01 3.414206e-01 5.023957e-01 4.345882e-01 5.930081e-01 5.732974e-01 6.451924e-01 5.004851e-01 5.931879e-01 4.331407e-01 3.679490e-01 4.363081e-01
<GCONST> 1.335637e+02
<TRANSP> 5
 0.000000e+00 1.000000e+00 0.000000e+00 0.000000e+00 0.000000e+00
 0.000000e+00 7.697477e-01 2.302524e-01 0.000000e+00 0.000000e+00
 0.000000e+00 0.000000e+00 7.697472e-01 2.302528e-01 0.000000e+00
 0.000000e+00 0.000000e+00 0.000000e+00 8.988842e-01 1.011158e-01
 0.000000e+00 0.000000e+00 0.000000e+00 0.000000e+00 0.000000e+00
<ENDHMM>
~h "m"
<BEGINHMM>
<NUMSTATES> 5
<STATE> 2
<MEAN> 39
 -7.140826e+00 2.472897e+00 1.528679e+00 -1.509106e+00 1.145660e+01 -9.142967e+00 3.253112e+00 3.647163e+00 3.746192e+00 -8.690318e-01 5.311054e+00 -3.925406e+00 6.484823e+01 5.078366e-02 -3.284103e-03 1.195985e-02 1.298290e-02 3.735146e-02 -5.926745e-02 2.593904e-03 -1.645096e-03 3.795275e-02 -2.520491e-02 1.919409e-03 -1.616626e-02 8.081984e-02 -4.537868e-04 3.446787e-04 -1.309897e-03 -1.357354e-03 -2.126760e-04 2.540794e-03 1.793672e-03 1.437634e-03 -1.060888e-04 8.906951e-04 -9.882626e-04 1.176587e-03 -3.222035e-03
<VARIANCE> 39
 1.226824e+02 8.068326e+01 7.334951e+01 1.017779e+02 8.074006e+01 1.182446e+02 8.417041e+01 8.194822e+01 6.438628e+01 9.034806e+01 4.303155e+01 4.574112e+01 1.363062e+02 3.103463e+00 3.286951e+00 2.536798e+00 3.223932e+00 2.769755e+00 3.909666e+00 3.911144e+00 3.642636e+00 3.370600e+00 3.670316e+00 2.420292e+00 2.147709e+00 3.216538e+00 3.691097e-01 5.081385e-01 4.052943e-01 4.769670e-01 4.441923e-01 5.709429e-01 6.652918e-01 6.041856e-01 5.844697e-01 5.828244e-01 4.101551e-01 3.763760e-01 4.577940e-01
<GCONST> 1.344343e+02
<STATE> 3
<MEAN> 39
 -6.915565e+00 2.451716e+00 1.558528e+00 -1.460363e+00 1.161853e+01 -9.379425e+00 3.288504e+00 3.652831e+00 3.912071e+00 -9.661413e-01 5.313355e+00 -3.984268e+00 6.517221e+01 4.904832e-02 -9.869491e-04 6.022225e-03 6.820695e-03 3.469441e-02 -4.706939e-02 1.081117e-02 5.188521e-03 3.707350e-02 -2.241233e-02 -1.554523e-03 -1.009128e-02 6.592868e-02 -2.886163e-04 5.719118e-04 -1.410052e-03 -1.444621e-03 -6.844882e-04 2.563198e-03 1.951384e-03 1.489919e-03 -2.021536e-04 3.994303e-04 -7.549645e-04 1.238101e-03 -3.144788e-03
<VARIANCE> 39
 1.231631e+02 8.265489e+01 7.315176e+01 1.018763e+02 8.042294e+01 1.173333e+02 8.626347e+01 8.150172e+01 6.549999e+01 8.973466e+01 4.316957e+01 4.632370e+01 1.291200e+02 3.129842e+00 3.346110e+00 2.536867e+00 3.250702e+00 2.766742e+00 3.910674e+00 3.888596e+00 3.634012e+00 3.402586e+00 3.704771e+00 2.406547e+00 2.141049e+00 3.147019e+00 3.717411e-01 5.111172e-01 4.057585e-01 4.782676e-01 4.420158e-01 5.690240e-01 6.607844e-01 5.996866e-01 5.837567e-01 5.896550e-01 4.065718e-01 3.746307e-01 4.510561e-01
<GCONST> 1.344302e+02
<STATE> 4
<MEAN> 39
 -6.351822e+00 2.433807e+00 1.389066e+00 -1.443414e+00 1.202868e+01 -9.935331e+00 3.390511e+00 3.757416e+00 4.341849e+00 -1.312717e+00 5.334880e+00 -4.087939e+00 6.583974e+01 4.694161e-02 3.230070e-03 -4.003161e-03 -4.365230e-03 2.231346e-02 -2.438049e-02 2.602686e-02 1.497303e-02 3.021779e-02 -2.022156e-02 -2.056119e-03 4.799538e-03 3.900415e-02 -4.030881e-04 9.301326e-04 -9.982862e-04 -1.640766e-03 -1.599201e-03 2.402371e-03 1.737613e-03 1.262077e-03 -5.852571e-04 -2.511346e-04 -2.711751e-04 1.490541e-03 -2.962711e-03
<VARIANCE> 39
 1.226783e+02 8.551790e+01 7.308314e+01 1.046544e+02 7.969716e+01 1.169918e+02 8.851975e+01 8.122425e+01 6.787533e+01 9.159514e+01 4.378814e+01 4.901634e+01 1.135982e+02 3.139660e+00 3.461377e+00 2.552624e+00 3.347749e+00 2.785793e+00 3.974259e+00 3.805225e+00 3.656360e+00 3.478795e+00 3.818245e+00 2.389030e+00 2.174664e+00 3.063097e+00 3.735928e-01 5.164880e-01 4.091702e-01 4.826582e-01 4.401968e-01 5.740880e-01 6.469420e-01 5.994294e-01 5.840613e-01 6.116711e-01 4.027649e-01 3.778957e-01 4.448802e-01
<GCONST> 1.346479e+02
<TRANSP> 5
 0.000000e+00 1.000000e+00 0.000000e+00 0.000000e+00 0.000000e+00
 0.000000e+00 7.761284e-01 2.238716e-01 0.000000e+00 0.000000e+00
 0.000000e+00 0.000000e+00 7.761286e-01 2.238713e-01 0.000000e+00
 0.000000e+00 0.000000e+00 0.000000e+00 9.067613e-01 9.323866e-02
 0.000000e+00 0.000000e+00 0.000000e+00 0.000000e+00 0.000000e+00
<ENDHMM>
~h "n"
<BEGINHMM>
<NUMSTATES> 5
<STATE> 2
<MEAN> 39
 -8.457610e+00 3.707433e+00 1.708464e+00 1.814214e-01 1.062677e+01 -7.694126e+00 3.661980e+00 4.913781e+00 2.817008e+00 1.338863e+00 3.999877e+00 -1.694100e+00 5.726526e+01 -3.850451e-06 -2.802068e-04 3.583032e-03 4.919166e-02 1.424771e-02 1.523001e-03 -1.756524e-02 5.810370e-04 5.761832e-03 1.628882e-02 -2.310965e-03 -1.354759e-02 -1.890173e-02 -7.031237e-04 -8.176890e-04 -6.504061e-04 8.048036e-05 -5.051568e-04 -2.380425e-04 -6.504758e-04 -1.084021e-03 4.423547e-04 1.717834e-04 1.135312e-04 -6.870083e-04 1.274270e-04
<VARIANCE> 39
 1.265747e+02 6.161320e+01 6.051992e+01 7.728561e+01 7.532447e+01 1.378868e+02 6.565868e+01 6.934265e+01 6.213586e+01 8.489258e+01 3.976842e+01 4.568359e+01 1.978460e+02 1.556615e+00 2.118041e+00 1.919282e+00 3.086544e+00 2.378489e+00 3.784850e+00 3.013468e+00 3.097288e+00 3.047199e+00 3.357446e+00 1.919170e+00 1.794231e+00 2.244015e+00 2.175862e-01 3.021360e-01 3.048781e-01 4.685281e-01 3.726891e-01 5.341711e-01 5.106245e-01 5.389764e-01 5.365746e-01 5.685034e-01 3.348782e-01 3.159357e-01 3.126384e-01
<GCONST> 1.277289e+02
<STATE> 3
<MEAN> 39
 -8.468974e+00 3.706422e+00 1.719190e+00 3.990525e-01 1.068839e+01 -7.682871e+00 3.588154e+00 4.913731e+00 2.842294e+00 1.414071e+00 3.980196e+00 -1.761640e+00 5.716662e+01 -3.817871e-03 -3.520187e-03 2.405898e-03 4.644944e-02 1.196796e-02 -3.365621e-04 -1.820274e-02 -5.314862e-03 7.290245e-03 1.758407e-02 -2.638431e-03 -1.616717e-02 -1.713737e-02 -9.457825e-04 -8.004018e-04 -3.516404e-04 -1.154567e-03 -4.384200e-04 -3.119700e-04 2.293810e-04 -1.527729e-03 4.621381e-04 9.610155e-05 5.140144e-06 -4.815329e-04 7.014526e-04
<VARIANCE> 39
 1.271842e+02 6.076228e+01 6.031837e+01 7.597945e+01 7.666509e+01 1.393310e+02 6.519288e+01 6.931693e+01 6.085510e+01 8.301028e+01 3.980643e+01 4.510034e+01 1.976644e+02 1.544025e+00 2.126099e+00 1.893519e+00 3.030839e+00 2.394150e+00 3.836125e+00 3.001518e+00 3.081404e+00 3.056071e+00 3.364477e+00 1.909194e+00 1.788350e+00 2.220675e+00 2.172215e-01 3.038786e-01 3.007622e-01 4.581484e-01 3.746454e-01 5.410517e-01 5.083200e-01 5.371900e-01 5.388049e-01 5.740702e-01 3.327945e-01 3.153933e-01 3.087195e-01
<GCONST> 1.275964e+02
<STATE> 4
<MEAN> 39
 -8.698562e+00 3.628182e+00 1.701963e+00 6.835294e-01 1.078401e+01 -7.413102e+00 3.490399e+00 4.759991e+00 2.739418e+00 1.551766e+00 4.018278e+00 -1.812803e+00 5.679202e+01 -1.361977e-02 -6.624109e-03 2.648126e-03 3.584386e-02 5.119129e-03 3.066079e-04 -1.341890e-02 -1.192548e-02 8.720743e-03 1.921172e-02 -5.906834e-03 -1.650628e-02 -1.872309e-02 -8.744927e-04 -7.366178e-04 1.334987e-05 -2.039983e-03 -7.438289e-04 -2.746414e-04 5.787960e-04 -1.933986e-03 5.299440e-04 -2.842180e-04 2.581000e-04 4.539450e-05 1.421988e-03
<VARIANCE> 39
 1.276057e+02 5.930258e+01 5.840887e+01 7.264473e+01 7.757286e+01 1.385398e+02 6.302273e+01 6.931834e+01 5.889405e+01 8.038958e+01 3.968697e+01 4.475513e+01 1.983611e+02 1.533635e+00 2.149838e+00 1.855104e+00 2.928711e+00 2.369903e+00 3.854914e+00 2.948249e+00 3.008567e+00 3.048704e+00 3.369871e+00 1.879245e+00 1.760569e+00 2.214890e+00 2.163293e-01 3.068232e-01 2.969370e-01 4.426990e-01 3.710491e-01 5.451558e-01 5.005131e-01 5.277019e-01 5.373113e-01 5.817584e-01 3.281170e-01 3.098143e-01 3.058493e-01
<GCONST> 1.271584e+02
<TRANSP> 5
 0.000000e+00 1.000000e+00 0.000000e+00 0.000000e+00 0.000000e+00
 0.000000e+00 7.764124e-01 2.235875e-01 0.000000e+00 0.000000e+00
 0.000000e+00 0.000000e+00 7.764128e-01 2.235872e-01 0.000000e+00
 0.000000e+00 0.000000e+00 0.000000e+00 9.071002e-01 9.289981e-02
 0.000000e+00 0.000000e+00 0.000000e+00 0.000000e+00 0.000000e+00
<ENDHMM>
~h "p"
<BEGINHMM>
<NUMSTATES> 5
<STATE> 2
<MEAN> 39
 -5.668126e+00 1.958777e+00 -9.092686e-01 -2.416050e+00 1.015458e+01 -6.685232e+00 6.677144e+00 4.359706e+00 1.736430e+00 2.173147e+00 4.359923e+00 1.879658e-01 6.041485e+01 -1.256580e-01 -4.598121e-02 -7.419563e-03 4.329572e-02 1.843560e-02 1.688981e-01 -2.005378e-02 6.177957e-03 -6.542676e-02 2.878235e-02 1.309158e-02 6.050665e-02 -1.643783e-01 -1.654705e-03 1.681438e-03 1.179443e-03 3.203255e-03 2.810123e-04 1.311650e-03 -7.796877e-04 2.967946e-03 2.180537e-03 1.520635e-03 -8.735920e-04 -8.560480e-04 -3.647507e-03
<VARIANCE> 39
 8.845722e+01 9.507873e+01 5.794321e+01 9.500628e+01 6.183507e+01 1.249044e+02 9.415932e+01 8.410065e+01 1.020842e+02 6.099145e+01 4.001357e+01 3.819275e+01 1.326320e+02 1.758303e+00 4.283431e+00 2.061400e+00 2.834785e+00 2.391311e+00 3.545050e+00 3.489896e+00 3.796112e+00 3.611918e+00 3.828762e+00 2.188399e+00 1.760602e+00 3.355106e+00 2.287567e-01 6.047764e-01 3.338940e-01 3.924378e-01 3.944675e-01 4.566394e-01 5.481844e-01 5.678967e-01 5.369192e-01 6.440819e-01 3.868074e-01 3.099947e-01 5.373427e-01
<GCONST> 1.312093e+02
<STATE> 3
<MEAN> 39
 -6.246258e+00 1.763379e+00 -9.362555e-01 -2.220397e+00 1.023253e+01 -5.915809e+00 6.589343e+00 4.399625e+00 1.460368e+00 2.309029e+00 4.416621e+00 4.506037e-01 5.966409e+01 -1.324093e-01 -3.735296e-02 -2.101170e-03 5.638409e-02 1.938470e-02 1.737085e-01 -2.256454e-02 1.921893e-02 -5.574406e-02 3.557675e-02 9.026156e-03 5.632617e-02 -1.795968e-01 -1.319034e-03 2.203285e-03 1.282427e-03 2.533257e-03 2.090358e-04 5.913612e-04 -5.076478e-04 2.809202e-03 2.278887e-03 1.814899e-03 -1.147676e-03 -1.403842e-03 -3.181100e-03
<VARIANCE> 39
 9.061279e+01 9.450159e+01 5.586761e+01 9.135912e+01 5.845838e+01 1.227681e+02 9.045786e+01 8.398814e+01 1.010084e+02 6.020460e+01 3.937572e+01 3.873370e+01 1.405073e+02 1.745686e+00 4.218261e+00 2.026286e+00 2.761807e+00 2.282506e+00 3.397275e+00 3.316643e+00 3.745292e+00 3.561255e+00 3.668949e+00 2.124223e+00 1.724670e+00 3.223210e+00 2.258579e-01 5.880146e-01 3.323271e-01 3.816552e-01 3.790407e-01 4.390929e-01 5.216444e-01 5.545237e-01 5.304528e-01 6.192979e-01 3.746646e-01 3.017980e-01 5.164810e-01
<GCONST> 1.303267e+02
<STATE> 4
<MEAN> 39
 -6.991349e+00 1.522156e+00 -9.661572e-01 -1.907613e+00 1.043309e+01 -4.997271e+00 6.409378e+00 4.535080e+00 1.259251e+00 2.507093e+00 4.450112e+00 6.252835e-01 5.873940e+01 -1.398238e-01 -2.206035e-02 4.956199e-03 6.222078e-02 1.652280e-02 1.738479e-01 -2.081928e-02 3.245249e-02 -4.372725e-02 4.370081e-02 4.219227e-03 4.702902e-02 -1.918373e-01 -8.092627e-04 2.428700e-03 1.369805e-03 1.622396e-03 -1.267344e-04 -8.318484e-04 -2.152142e-04 2.279310e-03 1.957856e-03 1.625023e-03 -1.222287e-03 -1.974173e-03 -2.146179e-03
<VARIANCE> 39
 9.398609e+01 9.255401e+01 5.441276e+01 8.715057e+01 5.521841e+01 1.187421e+02 8.323419e+01 8.306898e+01 9.953933e+01 5.903328e+01 3.786185e+01 3.929184e+01 1.498069e+02 1.788521e+00 4.118710e+00 2.006075e+00 2.716955e+00 2.161544e+00 3.216865e+00 3.071111e+00 3.671280e+00 3.519679e+00 3.453580e+00 2.034093e+00 1.709109e+00 3.051579e+00 2.297548e-01 5.653394e-01 3.342016e-01 3.743055e-01 3.592523e-01 4.195324e-01 4.877273e-01 5.392111e-01 5.292034e-01 5.904364e-01 3.598154e-01 2.973065e-01 4.909064e-01
<GCONST> 1.292911e+02
<TRANSP> 5
 0.000000e+00 1.000000e+00 0.000000e+00 0.000000e+00 0.000000e+00
 0.000000e+00 7.768782e-01 2.231218e-01 0.000000e+00 0.000000e+00
 0.000000e+00 0.000000e+00 7.768779e-01 2.231220e-01 0.000000e+00
 0.000000e+00 0.000000e+00 0.000000e+00 9.054862e-01 9.451380e-02
 0.000000e+00 0.000000e+00 0.000000e+00 0.000000e+00 0.000000e+00
<ENDHMM>
~h "r"
<BEGINHMM>
<NUMSTATES> 5
<STATE> 2
<MEAN> 39
 -9.054162e+00 2.796841e+00 4.002887e-01 -2.079438e+00 1.040527e+01 -5.676958e+00 4.152894e+00 3.411069e+00 1.617663e+00 1.133836e+00 5.372353e+00 -1.839468e-01 5.790216e+01 -2.449129e-02 1.563347e-02 -6.264968e-03 1.432092e-02 -2.403105e-02 -1.049507e-02 1.741623e-02 2.498779e-02 1.944740e-02 -1.571237e-02 -2.277993e-02 -1.814742e-02 -4.083290e-02 -4.235114e-04 -1.572492e-03 7.582256e-04 -1.228781e-03 -4.360080e-05 -1.439837e-03 5.905868e-04 -2.016117e-03 1.262012e-03 -1.368499e-03 -1.384798e-05 -5.135725e-04 3.110089e-03
<VARIANCE> 39
 1.130269e+02 6.964611e+01 6.743386e+01 9.949345e+01 8.524052e+01 1.238222e+02 7.504822e+01 8.775550e+01 8.011511e+01 9.646788e+01 4.222080e+01 5.157620e+01 1.907644e+02 1.884633e+00 2.285664e+00 1.908983e+00 2.894194e+00 2.345438e+00 3.259950e+00 3.270579e+00 3.383841e+00 3.205668e+00 3.372728e+00 2.153412e+00 1.882271e+00 2.341559e+00 2.145602e-01 3.243990e-01 2.834321e-01 4.194161e-01 3.453303e-01 4.648205e-01 4.951430e-01 5.928595e-01 5.216903e-01 5.487369e-01 3.687155e-01 3.194601e-01 3.314885e-01
<GCONST> 1.293015e+02
<STATE> 3
<MEAN> 39
 -9.184011e+00 2.854210e+00 3.753581e-01 -2.023356e+00 1.028595e+01 -5.723127e+00 4.240279e+00 3.521261e+00 1.706431e+00 1.061787e+00 5.266162e+00 -2.683583e-01 5.771227e+01 -2.681327e-02 8.172730e-03 -3.468991e-03 8.334396e-03 -2.422575e-02 -1.609497e-02 2.048141e-02 1.633730e-02 2.478159e-02 -2.093886e-02 -2.265312e-02 -1.940698e-02 -2.794422e-02 -3.273260e-04 -1.707605e-03 1.159677e-03 -9.359706e-04 -9.820942e-05 -1.223504e-03 7.210989e-04 -2.327644e-03 9.343573e-04 -1.093761e-03 -1.347530e-04 1.188835e-04 3.300181e-03
<VARIANCE> 39
 1.142732e+02 6.878137e+01 6.591750e+01 9.826073e+01 8.357466e+01 1.226744e+02 7.428474e+01 8.550874e+01 7.942110e+01 9.554775e+01 4.198340e+01 5.113634e+01 1.924735e+02 1.880415e+00 2.289088e+00 1.906227e+00 2.882764e+00 2.314660e+00 3.248041e+00 3.244591e+00 3.403966e+00 3.201513e+00 3.387361e+00 2.143926e+00 1.888230e+00 2.424951e+00 2.145948e-01 3.285815e-01 2.841262e-01 4.197331e-01 3.426746e-01 4.674152e-01 4.941337e-01 5.995151e-01 5.231006e-01 5.521816e-01 3.664439e-01 3.209037e-01 3.490850e-01
<GCONST> 1.292699e+02
<STATE> 4
<MEAN> 39
 -9.451880e+00 2.827688e+00 4.037606e-01 -1.998690e+00 1.018213e+01 -5.748887e+00 4.378217e+00 3.512935e+00 1.640662e+00 8.758282e-01 5.160803e+00 -3.421472e-01 5.743499e+01 -3.632617e-02 -3.412084e-03 -2.131738e-03 8.596444e-04 -2.894677e-02 -1.557571e-02 2.821179e-02 1.037171e-02 2.723177e-02 -1.960153e-02 -2.283607e-02 -1.442748e-02 -2.524711e-02 -2.223441e-04 -1.728933e-03 1.129088e-03 -7.941520e-04 -3.308005e-04 -7.488387e-04 8.092297e-04 -2.751711e-03 8.399338e-04 -6.364335e-04 -1.935711e-04 8.343915e-04 3.110033e-03
<VARIANCE> 39
 1.153362e+02 6.790726e+01 6.315858e+01 9.762833e+01 8.132902e+01 1.189792e+02 7.411464e+01 8.394028e+01 7.988326e+01 9.457977e+01 4.241763e+01 5.233321e+01 1.943911e+02 1.859524e+00 2.291943e+00 1.927278e+00 2.877035e+00 2.288302e+00 3.200075e+00 3.262603e+00 3.417914e+00 3.191522e+00 3.432317e+00 2.149923e+00 1.919091e+00 2.457507e+00 2.114447e-01 3.289087e-01 2.883304e-01 4.190444e-01 3.403001e-01 4.659324e-01 4.981944e-01 6.072460e-01 5.200900e-01 5.606118e-01 3.672983e-01 3.261409e-01 3.606474e-01
<GCONST> 1.292728e+02
<TRANSP> 5
 0.000000e+00 1.000000e+00 0.000000e+00 0.000000e+00 0.000000e+00
 0.000000e+00 7.788255e-01 2.211745e-01 0.000000e+00 0.000000e+00
 0.000000e+00 0.000000e+00 7.788253e-01 2.211747e-01 0.000000e+00
 0.000000e+00 0.000000e+00 0.000000e+00 9.103724e-01 8.962759e-02
 0.000000e+00 0.000000e+00 0.000000e+00 0.000000e+00 0.000000e+00
<ENDHMM>
~h "s"
<BEGINHMM>
<NUMSTATES> 5
<STATE> 2
<MEAN> 39
 -1.171962e+01 1.683407e-01 2.825033e+00 -3.423286e+00 8.551183e+00 -6.496680e+00 5.273398e+00 1.456777e+00 1.405351e+00 7.543933e-02 5.403801e+00 -7.918441e-01 6.018171e+01 2.045627e-02 -2.278145e-03 1.612463e-02 5.639396e-03 -2.163591e-02 -1.244405e-03 -1.763652e-02 -2.061813e-02 -6.590519e-03 -3.763586e-02 2.917304e-02 2.627273e-02 -1.902389e-03 5.001816e-04 2.816209e-03 -1.211802e-03 7.603163e-04 1.101861e-04 -7.779719e-04 -1.668790e-05 4.020382e-03 -3.850225e-04 1.710062e-03 -2.161299e-03 1.847057e-03 -3.771716e-03
<VARIANCE> 39
 1.373718e+02 8.948756e+01 9.024995e+01 8.144155e+01 7.582092e+01 1.228962e+02 8.077213e+01 8.905112e+01 7.018512e+01 1.008311e+02 4.581878e+01 4.078825e+01 1.959375e+02 2.717527e+00 2.567041e+00 2.581643e+00 2.836211e+00 2.410122e+00 3.243222e+00 3.922304e+00 3.449253e+00 3.401428e+00 3.547025e+00 2.215344e+00 1.822113e+00 2.220947e+00 2.901258e-01 3.229215e-01 3.929495e-01 4.223755e-01 3.646222e-01 4.808221e-01 6.392329e-01 6.078637e-01 5.911295e-01 5.839796e-01 4.007866e-01 3.169945e-01 3.221502e-01
<GCONST> 1.318609e+02
<STATE> 3
<MEAN> 39
 -1.163277e+01 1.707840e-01 2.882569e+00 -3.396236e+00 8.457154e+00 -6.486333e+00 5.201294e+00 1.388369e+00 1.346711e+00 -7.524979e-02 5.528476e+00 -6.538419e-01 6.013350e+01 2.209676e-02 9.142721e-03 8.895175e-03 9.507650e-03 -1.770368e-02 -2.508610e-03 -1.702952e-02 -4.135767e-03 -8.435734e-03 -2.996767e-02 1.897218e-02 3.284569e-02 -1.803957e-02 -4.803349e-05 2.500052e-03 -7.304695e-04 7.516752e-04 9.594990e-04 -3.771955e-04 -4.160067e-05 3.519128e-03 -5.869351e-04 1.518373e-03 -2.574804e-03 1.110174e-03 -3.193377e-03
<VARIANCE> 39
 1.352996e+02 8.919988e+01 8.885197e+01 7.990455e+01 7.666578e+01 1.222317e+02 7.981359e+01 8.934023e+01 7.108673e+01 1.024625e+02 4.518460e+01 4.120022e+01 1.941501e+02 2.645917e+00 2.540969e+00 2.583087e+00 2.846033e+00 2.393924e+00 3.227226e+00 3.892775e+00 3.424778e+00 3.432513e+00 3.585014e+00 2.191978e+00 1.817644e+00 2.254163e+00 2.812444e-01 3.196601e-01 3.956500e-01 4.227137e-01 3.605354e-01 4.788432e-01 6.321840e-01 6.022366e-01 5.954830e-01 5.895643e-01 3.977736e-01 3.187239e-01 3.299572e-01
<GCONST> 1.317521e+02
<STATE> 4
<MEAN> 39
 -1.143569e+01 1.833153e-01 3.105386e+00 -3.353302e+00 8.165149e+00 -6.648593e+00 5.247607e+00 1.443649e+00 1.221577e+00 -1.896698e-01 5.666960e+00 -4.501376e-01 6.016954e+01 1.784388e-02 1.599977e-02 -1.888431e-03 1.742035e-02 -3.199312e-03 6.692352e-03 -1.379185e-02 3.324802e-03 -1.666473e-02 -1.975365e-02 5.509517e-03 3.557083e-02 -3.427440e-02 -4.714771e-04 1.512173e-03 8.697939e-05 8.481315e-04 1.470492e-03 -2.684715e-04 -2.014404e-04 1.518272e-03 -4.239893e-05 1.108638e-03 -2.947554e-03 -3.231083e-04 -1.226175e-03
<VARIANCE> 39
 1.333814e+02 8.926759e+01 8.464466e+01 7.834715e+01 7.934702e+01 1.232008e+02 8.091920e+01 9.183689e+01 7.201814e+01 1.046670e+02 4.478584e+01 4.163816e+01 1.929318e+02 2.522957e+00 2.495151e+00 2.576847e+00 2.855190e+00 2.368420e+00 3.183385e+00 3.882966e+00 3.407012e+00 3.475872e+00 3.652021e+00 2.147298e+00 1.806886e+00 2.275141e+00 2.641305e-01 3.118223e-01 4.005731e-01 4.260273e-01 3.548167e-01 4.688708e-01 6.209775e-01 5.986483e-01 6.022048e-01 5.943070e-01 3.890496e-01 3.200609e-01 3.303056e-01
<GCONST> 1.315744e+02
<TRANSP> 5
 0.000000e+00 1.000000e+00 0.000000e+00 0.000000e+00 0.000000e+00
 0.000000e+00 7.730062e-01 2.269938e-01 0.000000e+00 0.000000e+00
 0.000000e+00 0.000000e+00 7.730059e-01 2.269941e-01 0.000000e+00
 0.000000e+00 0.000000e+00 0.000000e+00 9.044347e-01 9.556525e-02
 0.000000e+00 0.000000e+00 0.000000e+00 0.000000e+00 0.000000e+00
<ENDHMM>
~h "t"
<BEGINHMM>
<NUMSTATES> 5
<STATE> 2
<MEAN> 39
 -8.398232e+00 1.715926e+00 2.593943e+00 -1.180023e+00 1.038721e+01 -8.664379e+00 2.474470e+00 2.598128e+00 3.014120e+00 -1.553798e-02 6.072759e+00 -2.284704e+00 6.194306e+01 -1.413313e-02 -9.423491e-03 -7.841607e-03 -7.605907e-03 1.894738e-02 8.274835e-03 2.273382e-04 -2.842451e-02 1.029532e-02 -2.030827e-02 1.510484e-02 3.427381e-03 8.742150e-03 7.383009e-04 6.842681e-04 -6.791019e-04 -1.043359e-03 -8.178126e-04 2.787498e-04 1.905613e-03 1.500495e-05 3.285445e-04 -4.096820e-04 -6.456765e-04 6.295771e-04 7.556365e-04
<VARIANCE> 39
 1.182176e+02 8.583386e+01 7.705020e+01 8.346265e+01 8.944205e+01 1.400686e+02 7.898850e+01 9.188349e+01 8.246191e+01 8.879437e+01 4.715291e+01 5.161810e+01 1.613092e+02 2.408562e+00 3.314459e+00 2.585126e+00 3.166472e+00 2.787189e+00 3.986994e+00 3.772371e+00 3.809434e+00 3.873891e+00 3.764395e+00 2.420736e+00 2.024565e+00 3.164914e+00 2.919273e-01 4.681220e-01 4.075207e-01 4.837742e-01 4.149279e-01 5.708715e-01 6.216636e-01 6.540051e-01 6.556655e-01 6.418539e-01 4.174378e-01 3.548968e-01 4.786268e-01
<GCONST> 1.349840e+02
<STATE> 3
<MEAN> 39
 -8.453726e+00 1.686608e+00 2.562270e+00 -1.209731e+00 1.047037e+01 -8.634213e+00 2.486757e+00 2.474702e+00 3.063201e+00 -1.034247e-01 6.128709e+00 -2.272795e+00 6.199171e+01 -1.070915e-02 -6.333008e-03 -1.107976e-02 -1.230301e-02 1.513215e-02 9.909986e-03 8.878132e-03 -2.737418e-02 1.177372e-02 -2.160539e-02 1.169480e-02 6.428671e-03 1.154500e-02 6.298632e-04 9.512620e-04 -5.582608e-04 -6.693618e-04 -7.851711e-04 6.673561e-04 1.787076e-03 3.789373e-04 -1.223113e-04 4.614787e-04 -1.043355e-03 6.595229e-04 1.093689e-04
<VARIANCE> 39
 1.176892e+02 8.510181e+01 7.764217e+01 8.416099e+01 9.003448e+01 1.388728e+02 7.861513e+01 9.269255e+01 8.203729e+01 8.802563e+01 4.667479e+01 5.203515e+01 1.599349e+02 2.430792e+00 3.289064e+00 2.582728e+00 3.181480e+00 2.802722e+00 4.009193e+00 3.784852e+00 3.852553e+00 3.915434e+00 3.775389e+00 2.432226e+00 2.041547e+00 3.238982e+00 2.969945e-01 4.665170e-01 4.066182e-01 4.866388e-01 4.160643e-01 5.761883e-01 6.215921e-01 6.634737e-01 6.612963e-01 6.471143e-01 4.195590e-01 3.587447e-01 4.949288e-01
<GCONST> 1.351550e+02
<STATE> 4
<MEAN> 39
 -8.663240e+00 1.636002e+00 2.421724e+00 -1.185898e+00 1.070735e+01 -8.332294e+00 2.518048e+00 2.268459e+00 3.046555e+00 -1.712446e-01 6.193633e+00 -2.275803e+00 6.194318e+01 -5.632172e-04 1.121300e-03 -1.437953e-02 -1.830850e-02 1.082384e-02 1.111886e-02 1.924838e-02 -2.367743e-02 1.435934e-02 -2.186085e-02 4.238394e-03 9.223571e-03 1.658385e-02 8.043764e-04 1.018607e-03 -3.185487e-04 -6.129877e-04 -5.540721e-04 9.421590e-04 1.361997e-03 1.007456e-03 -4.495594e-04 9.391361e-04 -1.241216e-03 5.411625e-04 -7.048401e-04
<VARIANCE> 39
 1.159798e+02 8.375544e+01 7.690788e+01 8.602322e+01 8.923997e+01 1.362309e+02 7.664111e+01 9.286419e+01 8.102841e+01 8.555827e+01 4.573629e+01 5.262925e+01 1.622025e+02 2.440701e+00 3.223422e+00 2.527306e+00 3.165069e+00 2.770724e+00 3.971273e+00 3.730048e+00 3.846931e+00 3.937540e+00 3.763065e+00 2.402765e+00 2.025047e+00 3.415395e+00 3.031864e-01 4.577638e-01 3.966224e-01 4.846193e-01 4.122110e-01 5.772736e-01 6.107562e-01 6.633152e-01 6.634316e-01 6.499011e-01 4.115765e-01 3.551922e-01 5.264564e-01
<GCONST> 1.349921e+02
<TRANSP> 5
 0.000000e+00 1.000000e+00 0.000000e+00 0.000000e+00 0.000000e+00
 0.000000e+00 7.780619e-01 2.219381e-01 0.000000e+00 0.000000e+00
 0.000000e+00 0.000000e+00 7.780613e-01 2.219387e-01 0.000000e+00
 0.000000e+00 0.000000e+00 0.000000e+00 9.100791e-01 8.992093e-02
 0.000000e+00 0.000000e+00 0.000000e+00 0.000000e+00 0.000000e+00
<ENDHMM>
~h "v"
<BEGINHMM>
<NUMSTATES> 5
<STATE> 2
<MEAN> 39
 -7.073621e+00 1.573572e+00 3.570169e+00 -1.711555e+00 1.022897e+01 -1.150972e+01 3.198405e+00 3.299730e+00 4.471182e+00 -3.248147e+00 6.855672e+00 -4.223372e+00 6.625233e+01 2.183219e-02 -4.309824e-02 -1.572053e-02 -4.321979e-02 -4.952260e-02 4.746658e-02 1.662891e-02 -2.312414e-02 -3.580223e-02 -1.790446e-02 2.070046e-03 4.027013e-02 4.058737e-02 -2.930279e-03 -1.245058e-03 1.089477e-04 3.126468e-03 4.758006e-03 1.100304e-03 -3.792972e-03 -1.658912e-03 -2.838532e-03 5.042027e-03 2.579671e-04 -3.495140e-04 -3.192202e-03
<VARIANCE> 39
 9.481931e+01 8.129768e+01 8.328851e+01 1.211788e+02 1.217051e+02 1.762388e+02 9.511741e+01 8.742695e+01 6.775395e+01 9.360928e+01 5.426323e+01 5.038433e+01 1.174885e+02 2.337556e+00 2.819474e+00 2.667692e+00 3.211359e+00 3.038638e+00 4.585862e+00 3.726193e+00 3.770642e+00 3.045771e+00 3.876946e+00 2.743574e+00 2.249427e+00 2.656946e+00 2.889994e-01 3.895265e-01 3.846778e-01 3.940856e-01 3.998724e-01 5.542732e-01 5.969164e-01 6.129313e-01 4.828113e-01 6.380804e-01 4.671762e-01 3.880873e-01 3.848194e-01
<GCONST> 1.344347e+02
<STATE> 3
<MEAN> 39
 -6.995090e+00 1.382885e+00 3.511651e+00 -1.879447e+00 1.006630e+01 -1.130737e+01 3.249150e+00 3.180801e+00 4.298745e+00 -3.280123e+00 6.865308e+00 -4.060545e+00 6.642375e+01 9.899978e-03 -4.777421e-02 -1.351396e-02 -2.770799e-02 -2.696837e-02 5.137791e-02 -5.097492e-04 -3.103513e-02 -4.760856e-02 2.766323e-03 2.969406e-03 3.709193e-02 2.834231e-02 -2.944221e-03 -8.740944e-04 8.191697e-04 3.960848e-03 5.620501e-03 5.794653e-04 -4.271450e-03 -1.905211e-03 -2.266495e-03 4.969023e-03 2.404034e-04 -1.162669e-03 -2.941913e-03
<VARIANCE> 39
 9.388913e+01 8.475412e+01 8.363647e+01 1.209572e+02 1.216920e+02 1.746388e+02 9.799498e+01 8.695915e+01 7.067879e+01 9.324682e+01 5.435339e+01 5.059875e+01 1.136774e+02 2.311870e+00 2.878542e+00 2.654056e+00 3.186262e+00 3.057649e+00 4.533077e+00 3.714430e+00 3.774115e+00 3.053294e+00 3.924603e+00 2.768333e+00 2.253451e+00 2.663013e+00 2.853069e-01 3.944769e-01 3.803431e-01 3.915685e-01 4.013978e-01 5.452132e-01 5.880569e-01 6.138314e-01 4.817206e-01 6.433282e-01 4.714957e-01 3.863501e-01 3.881962e-01
<GCONST> 1.344875e+02
<STATE> 4
<MEAN> 39
 -6.688075e+00 1.185266e+00 3.551713e+00 -1.864863e+00 1.036388e+01 -1.101137e+01 2.993246e+00 2.895653e+00 4.135698e+00 -3.249935e+00 6.945787e+00 -3.943069e+00 6.687386e+01 -2.860476e-03 -5.064958e-02 -4.963836e-03 1.331469e-03 1.338555e-02 5.239821e-02 -2.233676e-02 -4.600681e-02 -6.087900e-02 3.261207e-02 4.965909e-03 2.791358e-02 1.876896e-02 -2.589717e-03 -3.695257e-04 1.407515e-03 4.683101e-03 5.384936e-03 1.012013e-04 -4.024283e-03 -1.837355e-03 -1.477473e-03 4.120946e-03 4.842076e-04 -1.485649e-03 -2.788686e-03
<VARIANCE> 39
 8.916629e+01 8.650463e+01 8.394390e+01 1.226893e+02 1.235078e+02 1.709546e+02 1.037047e+02 8.687061e+01 7.363792e+01 9.433020e+01 5.396865e+01 5.067875e+01 1.053691e+02 2.229061e+00 2.922333e+00 2.627743e+00 3.178174e+00 3.122597e+00 4.501867e+00 3.749034e+00 3.788739e+00 3.070938e+00 4.026409e+00 2.831015e+00 2.271685e+00 2.675064e+00 2.782576e-01 3.947161e-01 3.716438e-01 3.892124e-01 4.117086e-01 5.377389e-01 5.803987e-01 6.163540e-01 4.881744e-01 6.493242e-01 4.878541e-01 3.851871e-01 3.893955e-01
<GCONST> 1.345599e+02
<TRANSP> 5
 0.000000e+00 1.000000e+00 0.000000e+00 0.000000e+00 0.000000e+00
 0.000000e+00 7.645459e-01 2.354542e-01 0.000000e+00 0.000000e+00
 0.000000e+00 0.000000e+00 7.645459e-01 2.354541e-01 0.000000e+00
 0.000000e+00 0.000000e+00 0.000000e+00 8.924298e-01 1.075703e-01
 0.000000e+00 0.000000e+00 0.000000e+00 0.000000e+00 0.000000e+00
<ENDHMM>
~h "w"
<BEGINHMM>
<NUMSTATES> 5
<STATE> 2
<MEAN> 39
 -5.445260e+00 4.071419e+00 2.892542e+00 -1.219045e+00 9.515631e+00 -1.087199e+01 1.520082e+00 2.459966e+00 4.539662e+00 -2.255193e+00 4.788598e+00 -3.053001e+00 6.371076e+01 4.008505e-02 -2.171023e-03 -2.868664e-02 -3.914450e-03 1.668773e-02 7.449330e-03 -2.399521e-02 -1.033074e-02 -1.394817e-02 -5.117849e-03 2.676918e-02 1.809423e-02 1.387852e-02 -1.852104e-03 -7.911716e-05 -1.512995e-03 -8.344871e-04 -4.815774e-04 1.445096e-03 1.393353e-03 1.942082e-04 -1.227628e-03 1.801972e-03 9.526871e-04 5.844448e-04 -2.391750e-03
<VARIANCE> 39
 1.115339e+02 8.436063e+01 7.057657e+01 1.010308e+02 8.809712e+01 1.420975e+02 9.575638e+01 8.131512e+01 8.528899e+01 1.014183e+02 4.733054e+01 5.387377e+01 1.287808e+02 2.143625e+00 3.212060e+00 2.950226e+00 3.691991e+00 2.922623e+00 4.568603e+00 4.438458e+00 4.034563e+00 4.333665e+00 4.408088e+00 2.703745e+00 2.333546e+00 2.960012e+00 2.593714e-01 4.497382e-01 4.518605e-01 5.567592e-01 4.339063e-01 6.327552e-01 7.368574e-01 7.452628e-01 7.221513e-01 7.236443e-01 4.779798e-01 4.038877e-01 4.068521e-01
<GCONST> 1.369189e+02
<STATE> 3
<MEAN> 39
 -5.281838e+00 4.044584e+00 2.747924e+00 -1.238214e+00 9.591129e+00 -1.084300e+01 1.425914e+00 2.407421e+00 4.478662e+00 -2.251526e+00 4.918374e+00 -2.967221e+00 6.376596e+01 2.922389e-02 -4.120700e-03 -3.412580e-02 -6.793347e-03 1.564956e-02 1.389300e-02 -1.867886e-02 -9.638816e-03 -2.042959e-02 2.827013e-03 2.981537e-02 2.009071e-02 2.541144e-03 -2.388318e-03 -1.519927e-04 -1.289487e-03 -4.973970e-04 -1.438113e-04 1.439804e-03 1.404260e-03 2.671335e-04 -1.262800e-03 1.834633e-03 4.763127e-04 3.224582e-04 -2.460990e-03
<VARIANCE> 39
 1.097989e+02 8.682236e+01 6.982732e+01 1.002088e+02 8.648610e+01 1.420900e+02 9.581816e+01 8.186683e+01 8.785225e+01 1.016118e+02 4.781238e+01 5.481269e+01 1.247203e+02 2.138923e+00 3.254268e+00 2.904034e+00 3.687001e+00 2.905461e+00 4.553772e+00 4.420038e+00 4.040570e+00 4.397654e+00 4.448266e+00 2.702149e+00 2.355154e+00 2.935342e+00 2.585667e-01 4.530927e-01 4.460584e-01 5.561776e-01 4.344646e-01 6.313226e-01 7.316359e-01 7.454722e-01 7.336830e-01 7.320395e-01 4.774098e-01 4.085425e-01 4.036900e-01
<GCONST> 1.369472e+02
<STATE> 4
<MEAN> 39
 -5.084147e+00 4.023034e+00 2.387331e+00 -1.380257e+00 9.946602e+00 -1.052040e+01 1.290807e+00 2.221584e+00 4.425161e+00 -1.994002e+00 5.291180e+00 -2.848178e+00 6.380545e+01 1.941112e-03 -1.817925e-02 -3.432821e-02 -3.881417e-03 1.754022e-02 2.063566e-02 -1.051238e-02 -1.444472e-02 -2.825613e-02 1.433907e-02 3.264349e-02 1.901130e-02 -1.102030e-02 -2.945962e-03 -4.406041e-04 -2.399040e-04 3.806350e-05 -1.484464e-05 1.414312e-03 1.154803e-03 -5.512265e-06 -1.224138e-03 1.112585e-03 3.385407e-05 -2.637636e-04 -2.133454e-03
<VARIANCE> 39
 1.069163e+02 9.280318e+01 6.796043e+01 9.820720e+01 8.140072e+01 1.381084e+02 9.676617e+01 8.177583e+01 8.913667e+01 1.056976e+02 4.830080e+01 5.720998e+01 1.191577e+02 2.148271e+00 3.416115e+00 2.822906e+00 3.645467e+00 2.816700e+00 4.500766e+00 4.427547e+00 4.057436e+00 4.580851e+00 4.572012e+00 2.724278e+00 2.385907e+00 2.939545e+00 2.596857e-01 4.685856e-01 4.402048e-01 5.533787e-01 4.301643e-01 6.290330e-01 7.320343e-01 7.444986e-01 7.724886e-01 7.581905e-01 4.816724e-01 4.142438e-01 4.013400e-01
<GCONST> 1.370970e+02
<TRANSP> 5
 0.000000e+00 1.000000e+00 0.000000e+00 0.000000e+00 0.000000e+00
 0.000000e+00 7.811309e-01 2.188691e-01 0.000000e+00 0.000000e+00
 0.000000e+00 0.000000e+00 7.811307e-01 2.188692e-01 0.000000e+00
 0.000000e+00 0.000000e+00 0.000000e+00 9.140157e-01 8.598428e-02
 0.000000e+00 0.000000e+00 0.000000e+00 0.000000e+00 0.000000e+00
<ENDHMM>
~h "aa"
<BEGINHMM>
<NUMSTATES> 5
<STATE> 2
<MEAN> 39
 -7.876539e+00 2.500695e+00 2.819681e-02 -2.848522e+00 8.912713e+00 -6.424994e+00 5.648744e+00 4.840084e+00 2.382876e+00 2.449369e+00 4.592360e+00 -2.979838e-01 5.845610e+01 -5.694005e-02 4.964425e-03 1.278744e-02 5.480050e-02 -4.270282e-04 5.849949e-02 -7.664050e-03 4.555756e-02 -8.490257e-03 2.104295e-02 1.706078e-03 1.026570e-02 -9.795453e-02 7.175923e-04 1.718774e-03 1.224100e-03 5.265314e-04 3.823102e-04 -2.485198e-03 -3.731765e-04 -2.477900e-06 7.681807e-04 -8.164945e-04 -7.765003e-04 -1.538794e-03 5.646031e-04
<VARIANCE> 39
 1.120839e+02 7.537258e+01 6.932091e+01 9.098043e+01 7.437318e+01 1.365428e+02 7.132983e+01 8.691618e+01 8.126046e+01 7.880589e+01 3.787655e+01 4.242568e+01 1.730461e+02 1.655769e+00 2.619322e+00 1.943560e+00 2.881530e+00 2.316913e+00 3.485180e+00 2.931219e+00 3.401663e+00 2.956300e+00 3.205393e+00 2.074066e+00 1.765980e+00 2.443149e+00 2.135710e-01 3.714962e-01 2.974240e-01 4.117116e-01 3.684387e-01 4.500504e-01 4.539440e-01 5.743272e-01 4.676999e-01 5.362341e-01 3.646448e-01 3.046174e-01 3.689376e-01
<GCONST> 1.283923e+02
<STATE> 3
<MEAN> 39
 -8.112021e+00 2.536595e+00 9.825921e-02 -2.601382e+00 8.933072e+00 -6.180167e+00 5.612362e+00 5.032146e+00 2.352647e+00 2.515696e+00 4.592057e+00 -2.631365e-01 5.804686e+01 -5.434691e-02 1.135848e-02 1.851139e-02 5.721628e-02 1.801011e-03 4.735002e-02 -8.857375e-03 4.385211e-02 -5.512037e-03 1.672252e-02 -1.626941e-03 2.748756e-03 -9.359106e-02 6.389004e-04 9.809770e-04 1.020171e-03 -2.302055e-05 3.225440e-04 -2.917677e-03 -3.103319e-04 -9.166403e-04 4.922019e-04 -1.442936e-03 -7.309238e-04 -1.663459e-03 1.554482e-03
<VARIANCE> 39
 1.123734e+02 7.416264e+01 6.856136e+01 9.053375e+01 7.334244e+01 1.383691e+02 7.092696e+01 8.669664e+01 7.974614e+01 7.906898e+01 3.799673e+01 4.327970e+01 1.764327e+02 1.633230e+00 2.516071e+00 1.889000e+00 2.799449e+00 2.236370e+00 3.449005e+00 2.889407e+00 3.353002e+00 2.893574e+00 3.137449e+00 2.057305e+00 1.768139e+00 2.405989e+00 2.088572e-01 3.562080e-01 2.895326e-01 4.022801e-01 3.543226e-01 4.478239e-01 4.466694e-01 5.689422e-01 4.601987e-01 5.276284e-01 3.585410e-01 3.042296e-01 3.566967e-01
<GCONST> 1.278616e+02
<STATE> 4
<MEAN> 39
 -8.437076e+00 2.711046e+00 1.283590e-01 -2.449473e+00 9.085470e+00 -6.003618e+00 5.465496e+00 5.454417e+00 2.300590e+00 2.331915e+00 4.534786e+00 -3.575824e-01 5.749407e+01 -4.759229e-02 1.410005e-02 2.680630e-02 5.741312e-02 1.184032e-02 2.986544e-02 -6.212143e-03 2.815846e-02 -2.252848e-03 6.279314e-04 -5.471095e-03 -9.352798e-03 -6.946097e-02 3.805115e-04 -2.871089e-04 6.152018e-04 -7.166821e-04 1.492166e-04 -3.057702e-03 1.493681e-04 -2.245271e-03 2.471521e-04 -1.643387e-03 -5.464829e-04 -1.518380e-03 2.721397e-03
<VARIANCE> 39
 1.133192e+02 7.257507e+01 6.629549e+01 9.552130e+01 7.249840e+01 1.391210e+02 7.139972e+01 8.646912e+01 7.729010e+01 8.487247e+01 3.862076e+01 4.682985e+01 1.811146e+02 1.601041e+00 2.368889e+00 1.807049e+00 2.709563e+00 2.132046e+00 3.439498e+00 2.865590e+00 3.318456e+00 2.780549e+00 3.090796e+00 2.082947e+00 1.831680e+00 2.390305e+00 2.030059e-01 3.355559e-01 2.762902e-01 3.889128e-01 3.332655e-01 4.542422e-01 4.455028e-01 5.706410e-01 4.434502e-01 5.244058e-01 3.586225e-01 3.136125e-01 3.428588e-01
<GCONST> 1.275196e+02
<TRANSP> 5
 0.000000e+00 1.000000e+00 0.000000e+00 0.000000e+00 0.000000e+00
 0.000000e+00 7.734619e-01 2.265382e-01 0.000000e+00 0.000000e+00
 0.000000e+00 0.000000e+00 7.734617e-01 2.265383e-01 0.000000e+00
 0.000000e+00 0.000000e+00 0.000000e+00 9.033506e-01 9.664938e-02
 0.000000e+00 0.000000e+00 0.000000e+00 0.000000e+00 0.000000e+00
<ENDHMM>
~h "ae"
<BEGINHMM>
<NUMSTATES> 5
<STATE> 2
<MEAN> 39
 -1.162237e+01 2.556018e+00 -1.634490e-01 -1.814482e+00 8.400295e+00 -5.971662e+00 3.994064e+00 4.391896e+00 1.833574e+00 3.196898e+00 4.890095e+00 -5.442641e-01 5.525679e+01 5.253659e-03 -3.810548e-02 -6.760274e-03 1.007317e-02 5.821154e-02 -9.668664e-03 -3.155608e-02 -2.289211e-02 1.274789e-03 -2.652721e-02 1.960295e-02 -2.113169e-04 6.779166e-02 2.809599e-03 -4.118559e-04 -1.643331e-03 -1.310770e-03 -5.388888e-04 1.532958e-03 1.987584e-03 -3.740612e-03 4.008302e-03 -6.610637e-03 2.157581e-03 -2.466489e-03 4.425676e-03
<VARIANCE> 39
 1.037019e+02 4.988519e+01 5.336838e+01 6.737806e+01 6.069862e+01 1.121690e+02 6.248259e+01 6.473499e+01 6.381520e+01 7.278617e+01 4.690928e+01 3.597610e+01 2.333722e+02 1.390566e+00 2.033858e+00 1.741243e+00 2.300043e+00 1.901613e+00 2.925220e+00 2.799084e+00 2.870690e+00 2.557965e+00 2.710873e+00 2.003910e+00 1.584617e+00 2.513263e+00 1.805780e-01 3.147928e-01 2.717695e-01 3.653034e-01 2.954493e-01 4.477392e-01 4.769518e-01 4.978581e-01 4.517227e-01 4.590714e-01 3.425159e-01 2.841239e-01 3.678967e-01
<GCONST> 1.235741e+02
<STATE> 3
<MEAN> 39
 -1.155219e+01 2.402670e+00 -2.073066e-01 -1.784226e+00 8.634962e+00 -6.021429e+00 3.875963e+00 4.251512e+00 1.912715e+00 2.997730e+00 5.002861e+00 -5.852854e-01 5.562752e+01 1.841890e-02 -3.698273e-02 -1.090603e-02 5.786045e-03 5.571846e-02 -5.236765e-03 -2.674914e-02 -3.819064e-02 1.578303e-02 -4.839922e-02 2.951670e-02 -8.173623e-03 8.585639e-02 2.924040e-03 3.857131e-04 -8.957335e-04 -1.144977e-03 -6.488209e-04 9.763367e-04 8.737957e-04 -3.532433e-03 2.954586e-03 -4.692730e-03 2.318318e-03 -1.553334e-03 3.893639e-03
<VARIANCE> 39
 1.044385e+02 5.106924e+01 5.478698e+01 6.907420e+01 6.289386e+01 1.147624e+02 6.303152e+01 6.787997e+01 6.369132e+01 7.282190e+01 4.732925e+01 3.685487e+01 2.357913e+02 1.397657e+00 2.067376e+00 1.798010e+00 2.340591e+00 1.995337e+00 2.990623e+00 2.851821e+00 2.902942e+00 2.622504e+00 2.718315e+00 2.016930e+00 1.607955e+00 2.557634e+00 1.803868e-01 3.205975e-01 2.814888e-01 3.702269e-01 3.114018e-01 4.543944e-01 4.848593e-01 5.056994e-01 4.670497e-01 4.616579e-01 3.440726e-01 2.892230e-01 3.736952e-01
<GCONST> 1.242916e+02
<STATE> 4
<MEAN> 39
 -1.150848e+01 2.310633e+00 -3.549974e-01 -1.591082e+00 9.137074e+00 -5.699509e+00 3.554516e+00 3.993223e+00 1.907492e+00 2.590293e+00 5.288406e+00 -7.317088e-01 5.595625e+01 3.846771e-02 -1.720514e-02 -2.072523e-03 1.130021e-03 5.156118e-02 -1.971963e-02 -2.405530e-02 -4.265676e-02 3.400943e-02 -6.466697e-02 2.827278e-02 -2.325730e-02 1.070695e-01 1.845322e-03 1.326697e-03 3.852157e-04 -7.664389e-04 -1.755170e-04 -4.796448e-04 4.406029e-05 -9.549209e-04 7.165747e-04 -1.213792e-03 4.788054e-04 -7.929897e-04 1.514739e-03
<VARIANCE> 39
 1.019286e+02 5.072726e+01 5.749233e+01 7.374709e+01 6.450244e+01 1.170259e+02 6.178210e+01 7.016572e+01 6.287968e+01 7.078656e+01 4.671722e+01 3.797518e+01 2.374165e+02 1.446560e+00 2.094315e+00 1.870061e+00 2.413725e+00 2.088460e+00 3.087436e+00 2.890551e+00 2.838599e+00 2.628159e+00 2.704691e+00 2.023329e+00 1.616175e+00 2.618553e+00 1.854445e-01 3.236092e-01 2.913314e-01 3.781976e-01 3.265387e-01 4.682626e-01 4.924459e-01 4.961721e-01 4.695849e-01 4.582114e-01 3.422332e-01 2.926225e-01 3.761076e-01
<GCONST> 1.248070e+02
<TRANSP> 5
 0.000000e+00 1.000000e+00 0.000000e+00 0.000000e+00 0.000000e+00
 0.000000e+00 7.790952e-01 2.209048e-01 0.000000e+00 0.000000e+00
 0.000000e+00 0.000000e+00 7.790951e-01 2.209049e-01 0.000000e+00
 0.000000e+00 0.000000e+00 0.000000e+00 9.111148e-01 8.888526e-02
 0.000000e+00 0.000000e+00 0.000000e+00 0.000000e+00 0.000000e+00
<ENDHMM>
~h "ah"
<BEGINHMM>
<NUMSTATES> 5
<STATE> 2
<MEAN> 39
 -9.952334e+00 3.771926e+00 2.082992e+00 -8.209455e-02 9.481871e+00 -6.452377e+00 3.760607e+00 5.280132e+00 2.025633e+00 3.832791e+00 3.881788e+00 -1.589627e+00 5.538678e+01 -1.886789e-02 -3.226262e-03 -1.470624e-02 2.708876e-02 1.797565e-02 6.166901e-04 1.601446e-04 2.870516e-02 -4.788278e-02 4.543477e-02 -1.738445e-02 6.505007e-03 -4.352302e-02 1.431008e-03 5.241141e-04 -1.036063e-03 3.629240e-03 1.019962e-04 1.828199e-03 -2.876617e-03 3.744954e-03 -1.737301e-04 -5.310288e-03 -1.917390e-03 -2.446121e-03 -2.476991e-03
<VARIANCE> 39
 1.160936e+02 4.944371e+01 6.375943e+01 7.466506e+01 7.630155e+01 1.292072e+02 5.809922e+01 7.023552e+01 5.317546e+01 7.740581e+01 3.414167e+01 4.309625e+01 1.970558e+02 1.594040e+00 2.072343e+00 1.782065e+00 2.824963e+00 2.301217e+00 3.615404e+00 3.012617e+00 3.156872e+00 2.809434e+00 2.763480e+00 1.883817e+00 1.662507e+00 2.298767e+00 2.036501e-01 3.077857e-01 2.697689e-01 4.258664e-01 3.614124e-01 5.203408e-01 5.191452e-01 5.489097e-01 4.849826e-01 4.575228e-01 3.271298e-01 2.943579e-01 3.405058e-01
<GCONST> 1.256333e+02
<STATE> 3
<MEAN> 39
 -1.000766e+01 3.766869e+00 1.998700e+00 7.304060e-02 9.553717e+00 -6.431729e+00 3.732151e+00 5.447814e+00 1.827608e+00 3.950532e+00 3.794915e+00 -1.603417e+00 5.518368e+01 -1.123662e-02 -2.444928e-03 -1.797235e-02 2.986180e-02 1.309963e-02 2.260383e-03 -5.595929e-03 3.554017e-02 -3.859097e-02 1.865616e-02 -1.862857e-02 -3.970778e-03 -4.061566e-02 1.834615e-03 -8.663628e-07 -4.841841e-04 -7.458450e-05 -1.544692e-03 -7.483983e-05 -1.083321e-03 7.291347e-04 2.162209e-03 -5.980839e-03 2.217375e-04 -2.140734e-03 1.419408e-03
<VARIANCE> 39
 1.167661e+02 4.939579e+01 6.508099e+01 7.252670e+01 7.599372e+01 1.340819e+02 5.742620e+01 6.991225e+01 5.322766e+01 7.708232e+01 3.412817e+01 4.313859e+01 1.994808e+02 1.552942e+00 2.062478e+00 1.781314e+00 2.651437e+00 2.296986e+00 3.586256e+00 2.915766e+00 2.991902e+00 2.699762e+00 2.712024e+00 1.881968e+00 1.656486e+00 2.170733e+00 1.968932e-01 3.054553e-01 2.692114e-01 3.947266e-01 3.613597e-01 5.134038e-01 5.017615e-01 5.183575e-01 4.672632e-01 4.497295e-01 3.278876e-01 2.937551e-01 3.173624e-01
<GCONST> 1.249957e+02
<STATE> 4
<MEAN> 39
 -1.009876e+01 3.670671e+00 1.689207e+00 1.460072e-01 9.581149e+00 -6.399495e+00 3.568331e+00 5.685912e+00 1.551959e+00 3.996509e+00 3.688613e+00 -1.679343e+00 5.484669e+01 9.876532e-03 -3.143400e-03 -1.252666e-02 7.837762e-03 -4.175354e-03 -1.522190e-02 -9.987636e-03 2.001744e-02 -1.130718e-02 -1.063464e-02 -4.962591e-03 -1.180132e-02 -2.978105e-03 1.875737e-03 -4.333283e-04 8.814193e-04 -2.453172e-03 -1.979459e-03 -1.939700e-03 -4.935816e-04 -2.022329e-03 2.620809e-03 -3.134256e-03 1.469082e-03 -4.665313e-04 3.935758e-03
<VARIANCE> 39
 1.160661e+02 4.938056e+01 6.717926e+01 7.085809e+01 7.583630e+01 1.411440e+02 5.794210e+01 6.957588e+01 5.505632e+01 7.638042e+01 3.432371e+01 4.386963e+01 2.020030e+02 1.508288e+00 2.074529e+00 1.764803e+00 2.483514e+00 2.332646e+00 3.532305e+00 2.811642e+00 2.867443e+00 2.592281e+00 2.707892e+00 1.922740e+00 1.667730e+00 2.097039e+00 1.933012e-01 3.055485e-01 2.665269e-01 3.645881e-01 3.738614e-01 5.034761e-01 4.835233e-01 4.916562e-01 4.501286e-01 4.492860e-01 3.360695e-01 2.951283e-01 3.002485e-01
<GCONST> 1.246382e+02
<TRANSP> 5
 0.000000e+00 1.000000e+00 0.000000e+00 0.000000e+00 0.000000e+00
 0.000000e+00 7.802581e-01 2.197420e-01 0.000000e+00 0.000000e+00
 0.000000e+00 0.000000e+00 7.802575e-01 2.197425e-01 0.000000e+00
 0.000000e+00 0.000000e+00 0.000000e+00 9.109257e-01 8.907427e-02
 0.000000e+00 0.000000e+00 0.000000e+00 0.000000e+00 0.000000e+00
<ENDHMM>
~h "ao"
<BEGINHMM>
<NUMSTATES> 5
<STATE> 2
<MEAN> 39
 -7.893301e+00 3.237803e+00 2.895686e+00 -5.954862e-01 8.677946e+00 -8.871967e+00 2.313005e+00 4.428599e+00 2.752256e+00 1.272991e+00 4.760604e+00 -2.473331e+00 5.979518e+01 7.938994e-02 3.481103e-03 2.366467e-02 1.830853e-03 2.793208e-02 -1.337330e-02 -2.109719e-02 -2.844471e-02 2.078258e-02 -4.091486e-02 1.495241e-02 -2.833628e-02 1.209333e-01 -2.767068e-04 1.085930e-03 1.917428e-04 -9.102584e-04 -8.306549e-04 -7.986146e-04 1.972936e-03 1.380785e-04 1.708197e-03 4.439848e-04 -6.980455e-04 -4.394686e-04 4.513655e-06
<VARIANCE> 39
 1.175811e+02 7.487926e+01 7.140684e+01 8.402081e+01 8.170649e+01 1.607331e+02 8.358287e+01 9.278128e+01 7.974697e+01 8.348494e+01 4.435156e+01 5.497564e+01 1.838967e+02 2.018118e+00 2.690150e+00 2.348034e+00 2.897916e+00 2.583728e+00 3.793031e+00 4.075124e+00 3.625281e+00 3.455754e+00 3.405683e+00 2.654148e+00 2.083472e+00 2.800068e+00 2.592474e-01 3.752833e-01 3.507912e-01 4.353143e-01 3.952151e-01 5.199842e-01 6.578698e-01 6.081667e-01 5.760682e-01 5.545276e-01 4.668187e-01 3.675697e-01 3.791941e-01
<GCONST> 1.329243e+02
<STATE> 3
<MEAN> 39
 -7.546470e+00 3.250492e+00 3.000564e+00 -6.050332e-01 8.791529e+00 -8.947142e+00 2.245887e+00 4.308836e+00 2.864954e+00 1.090880e+00 4.824346e+00 -2.592357e+00 6.033583e+01 7.576789e-02 7.560874e-03 2.284179e-02 -2.621009e-03 2.356780e-02 -1.699986e-02 -1.169893e-02 -2.616685e-02 2.692371e-02 -3.750112e-02 1.264552e-02 -2.828430e-02 1.171332e-01 -8.512592e-04 9.766271e-04 -8.128728e-05 -1.432560e-03 -1.457983e-03 -1.274977e-03 2.417612e-03 6.824040e-04 1.759837e-03 6.250533e-04 -5.990878e-04 4.651005e-05 -6.384067e-04
<VARIANCE> 39
 1.148649e+02 7.595225e+01 7.232915e+01 8.570358e+01 8.276796e+01 1.587855e+02 8.437633e+01 9.283677e+01 8.107440e+01 8.219025e+01 4.535117e+01 5.621122e+01 1.784159e+02 2.049049e+00 2.765401e+00 2.366412e+00 2.948623e+00 2.614857e+00 3.826316e+00 4.097671e+00 3.635518e+00 3.468066e+00 3.442669e+00 2.656828e+00 2.094856e+00 2.839227e+00 2.621924e-01 3.855187e-01 3.485978e-01 4.421399e-01 3.961058e-01 5.236371e-01 6.623957e-01 6.095349e-01 5.781740e-01 5.577532e-01 4.642043e-01 3.676741e-01 3.860634e-01
<GCONST> 1.331933e+02
<STATE> 4
<MEAN> 39
 -6.951697e+00 3.158544e+00 3.301304e+00 -7.188652e-01 8.936276e+00 -9.350845e+00 2.237225e+00 4.117620e+00 3.195199e+00 7.405878e-01 4.956929e+00 -2.823310e+00 6.156618e+01 6.047265e-02 5.112296e-03 1.215447e-02 -1.119951e-02 1.489584e-02 -2.289381e-02 4.080371e-03 -1.759748e-02 2.832374e-02 -2.917030e-02 1.411733e-02 -1.905770e-02 9.726427e-02 -1.680784e-03 3.303708e-04 -9.894538e-04 -1.209173e-03 -1.517033e-03 -1.273544e-03 2.111118e-03 1.256987e-03 8.077321e-04 9.081253e-04 1.806873e-05 6.332293e-04 -1.961530e-03
<VARIANCE> 39
 1.116557e+02 7.939283e+01 7.458000e+01 9.141393e+01 8.512649e+01 1.539375e+02 8.860281e+01 9.432446e+01 8.173390e+01 8.138737e+01 4.767871e+01 5.688024e+01 1.655767e+02 2.133911e+00 2.943826e+00 2.457222e+00 3.086221e+00 2.684463e+00 3.870470e+00 4.276818e+00 3.723939e+00 3.558853e+00 3.589782e+00 2.686650e+00 2.131969e+00 2.916475e+00 2.668798e-01 4.102047e-01 3.536942e-01 4.624681e-01 4.037589e-01 5.313447e-01 6.916882e-01 6.285458e-01 5.950475e-01 5.730590e-01 4.647010e-01 3.685513e-01 4.012434e-01
<GCONST> 1.341108e+02
<TRANSP> 5
 0.000000e+00 1.000000e+00 0.000000e+00 0.000000e+00 0.000000e+00
 0.000000e+00 7.753408e-01 2.246592e-01 0.000000e+00 0.000000e+00
 0.000000e+00 0.000000e+00 7.753415e-01 2.246585e-01 0.000000e+00
 0.000000e+00 0.000000e+00 0.000000e+00 9.065441e-01 9.345585e-02
 0.000000e+00 0.000000e+00 0.000000e+00 0.000000e+00 0.000000e+00
<ENDHMM>
~h "aw"
<BEGINHMM>
<NUMSTATES> 5
<STATE> 2
<MEAN> 39
 -1.516157e+01 3.651145e-01 -2.935367e-01 -5.377910e+00 5.061269e+00 -7.636308e+00 8.971793e+00 5.780437e+00 1.477898e+00 3.384605e+00 3.634191e+00 -8.992553e-03 5.419464e+01 -1.863231e-01 -6.956060e-02 1.112113e-01 -4.485248e-03 -5.408622e-02 9.378164e-02 -1.873037e-02 -9.776003e-02 -2.259971e-02 -7.119418e-02 5.416287e-02 3.647146e-03 -8.663392e-02 6.246511e-03 -7.475034e-03 -2.733564e-03 2.365021e-03 -4.896159e-03 2.865272e-03 -2.963191e-04 -4.099184e-03 -4.784492e-03 -5.558334e-03 7.419797e-03 1.960189e-03 4.512337e-03
<VARIANCE> 39
 1.089340e+02 7.600764e+01 5.709621e+01 4.877113e+01 5.306508e+01 1.332602e+02 5.213098e+01 4.386079e+01 6.540720e+01 4.859737e+01 5.263156e+01 2.888477e+01 2.456229e+02 1.966349e+00 1.829521e+00 1.195380e+00 1.533061e+00 1.480872e+00 1.691384e+00 1.645592e+00 2.359258e+00 1.945418e+00 2.305128e+00 2.079438e+00 1.634783e+00 1.169614e+00 2.514996e-01 1.805897e-01 1.834972e-01 2.475310e-01 2.700753e-01 2.119144e-01 2.613709e-01 4.627666e-01 3.583364e-01 4.577730e-01 3.239628e-01 2.945302e-01 1.381655e-01
<GCONST> 1.158723e+02
<STATE> 3
<MEAN> 39
 -1.603242e+01 -3.321290e-02 2.596085e-01 -5.383165e+00 4.723391e+00 -7.151924e+00 8.876706e+00 5.319412e+00 1.276827e+00 3.029031e+00 3.939689e+00 2.808750e-02 5.378876e+01 -1.566029e-01 -9.865050e-02 9.540449e-02 7.449688e-03 -7.279259e-02 1.092653e-01 -2.076514e-02 -1.135110e-01 -4.470682e-02 -9.290329e-02 8.572881e-02 1.391459e-02 -7.319468e-02 8.678445e-03 -4.320670e-03 -6.180648e-03 3.363327e-03 -3.839916e-03 2.526319e-03 7.983716e-04 -2.648482e-03 -4.128530e-03 -2.927489e-03 5.702100e-03 3.878488e-03 1.527907e-03
<VARIANCE> 39
 1.026850e+02 7.882363e+01 5.395026e+01 5.085165e+01 5.385232e+01 1.284223e+02 4.813014e+01 4.967999e+01 6.025058e+01 5.090391e+01 5.495002e+01 2.695500e+01 2.464059e+02 1.988835e+00 1.840909e+00 1.215584e+00 1.581560e+00 1.486015e+00 1.635116e+00 1.639173e+00 2.472549e+00 1.930741e+00 2.378179e+00 2.093315e+00 1.620128e+00 1.325459e+00 2.567378e-01 1.942760e-01 1.897748e-01 2.541484e-01 2.716962e-01 2.100447e-01 2.701366e-01 4.809080e-01 3.644431e-01 4.789458e-01 3.307012e-01 2.909318e-01 1.702942e-01
<GCONST> 1.165248e+02
<STATE> 4
<MEAN> 39
 -1.629069e+01 -1.019888e+00 9.276575e-01 -5.863303e+00 3.688170e+00 -7.407612e+00 9.214461e+00 4.488397e+00 9.646183e-01 2.288216e+00 4.718206e+00 3.605747e-02 5.488646e+01 -1.239016e-01 -1.169602e-01 7.116187e-02 3.065669e-02 -9.887546e-02 1.458830e-01 -2.155838e-02 -1.094443e-01 -9.715650e-02 -1.021883e-01 1.146751e-01 4.393423e-02 -1.034785e-01 8.771013e-03 2.239949e-03 -9.015892e-03 3.695374e-03 1.014897e-03 2.433334e-03 1.782564e-03 1.650877e-03 -2.500355e-03 6.313401e-04 1.067342e-03 5.416058e-03 -4.277943e-03
<VARIANCE> 39
 9.566898e+01 8.843205e+01 5.416865e+01 5.254878e+01 5.871496e+01 1.250628e+02 4.409714e+01 5.746693e+01 5.961239e+01 5.615435e+01 6.248262e+01 2.711704e+01 2.487628e+02 1.944058e+00 1.878470e+00 1.209956e+00 1.415359e+00 1.424708e+00 1.633504e+00 1.696920e+00 2.483487e+00 1.916816e+00 2.391868e+00 2.153852e+00 1.694004e+00 1.438182e+00 2.385790e-01 1.995185e-01 1.835067e-01 2.216283e-01 2.508574e-01 2.137149e-01 2.848945e-01 4.822266e-01 3.674481e-01 4.783116e-01 3.409319e-01 3.047729e-01 1.818723e-01
<GCONST> 1.169121e+02
<TRANSP> 5
 0.000000e+00 1.000000e+00 0.000000e+00 0.000000e+00 0.000000e+00
 0.000000e+00 7.816100e-01 2.183900e-01 0.000000e+00 0.000000e+00
 0.000000e+00 0.000000e+00 7.816099e-01 2.183901e-01 0.000000e+00
 0.000000e+00 0.000000e+00 0.000000e+00 9.141612e-01 8.583882e-02
 0.000000e+00 0.000000e+00 0.000000e+00 0.000000e+00 0.000000e+00
<ENDHMM>
~h "ay"
<BEGINHMM>
<NUMSTATES> 5
<STATE> 2
<MEAN> 39
 -5.447540e+00 3.084988e+00 2.427359e+00 -2.842786e-01 9.027895e+00 -1.065174e+01 1.720737e+00 4.250213e+00 3.899309e+00 3.876045e-01 4.977372e+00 -2.719756e+00 6.153851e+01 -7.607646e-02 -1.697421e-02 3.346562e-02 -6.903806e-03 1.026150e-02 1.967561e-03 -1.970423e-02 -1.522928e-02 -1.642355e-02 -1.573578e-02 3.228486e-02 -1.256956e-02 -1.393459e-02 -1.680023e-03 5.267271e-04 6.251271e-04 -5.809979e-04 7.362769e-04 -1.186371e-03 1.407522e-03 -8.557498e-04 -4.751887e-04 -1.293555e-03 1.467732e-05 -1.252249e-03 1.189696e-03
<VARIANCE> 39
 1.119743e+02 7.512948e+01 8.662150e+01 7.547454e+01 8.571645e+01 1.438971e+02 8.275274e+01 8.817619e+01 8.536655e+01 7.729476e+01 4.895929e+01 4.625203e+01 1.482272e+02 2.095721e+00 3.086472e+00 2.559741e+00 3.285877e+00 2.885450e+00 4.832001e+00 4.242039e+00 3.930395e+00 3.916005e+00 3.739645e+00 2.617467e+00 2.042721e+00 2.658340e+00 2.912835e-01 4.401418e-01 3.362699e-01 4.639344e-01 4.564331e-01 7.135456e-01 6.856605e-01 6.932060e-01 6.158062e-01 6.739721e-01 4.409243e-01 3.668995e-01 3.988938e-01
<GCONST> 1.347196e+02
<STATE> 3
<MEAN> 39
 -5.790030e+00 3.021515e+00 2.602375e+00 -3.061302e-01 9.075631e+00 -1.067716e+01 1.637834e+00 4.182405e+00 3.829526e+00 2.985147e-01 5.120575e+00 -2.789362e+00 6.149847e+01 -8.166596e-02 -1.456059e-02 3.644855e-02 -8.473072e-03 1.345613e-02 -4.270607e-03 -1.376441e-02 -1.856162e-02 -1.754853e-02 -2.221777e-02 3.188603e-02 -1.862681e-02 -7.420977e-03 -8.041037e-04 4.581526e-04 5.815005e-04 -2.675671e-04 6.966425e-04 -1.187333e-03 1.466081e-03 -8.952689e-04 -2.487828e-04 -1.483022e-03 -2.193972e-04 -1.107162e-03 1.641959e-03
<VARIANCE> 39
 1.138646e+02 7.579148e+01 8.644670e+01 7.432621e+01 8.450912e+01 1.439989e+02 8.409454e+01 8.879888e+01 8.470244e+01 7.748554e+01 5.032393e+01 4.689778e+01 1.488344e+02 2.138029e+00 3.045467e+00 2.523185e+00 3.224499e+00 2.830105e+00 4.904222e+00 4.310957e+00 3.938135e+00 3.951504e+00 3.773783e+00 2.632638e+00 2.046408e+00 2.625279e+00 2.965851e-01 4.364097e-01 3.284633e-01 4.579641e-01 4.506438e-01 7.236001e-01 6.920138e-01 6.911775e-01 6.240934e-01 6.819994e-01 4.410599e-01 3.670984e-01 3.893080e-01
<GCONST> 1.347600e+02
<STATE> 4
<MEAN> 39
 -6.522144e+00 2.832014e+00 2.892408e+00 -4.828043e-01 9.297551e+00 -1.066057e+01 1.549408e+00 3.855355e+00 3.700330e+00 2.458994e-01 5.404590e+00 -3.127802e+00 6.145251e+01 -7.248431e-02 -6.298224e-03 4.468009e-02 -6.559209e-03 1.667336e-02 -2.313820e-02 -6.636915e-03 -2.097701e-02 -1.324364e-02 -3.688993e-02 2.836594e-02 -2.800318e-02 1.430819e-02 9.659283e-04 4.895274e-04 -1.165939e-04 -1.649269e-04 7.200587e-04 -8.816894e-04 1.435720e-03 -8.545978e-04 1.471094e-04 -1.318998e-03 -6.196134e-04 -5.986775e-04 2.138271e-03
<VARIANCE> 39
 1.168945e+02 7.921144e+01 8.516408e+01 7.369727e+01 8.092441e+01 1.424097e+02 8.852686e+01 9.085696e+01 8.443848e+01 7.716920e+01 5.254031e+01 4.895304e+01 1.521812e+02 2.226637e+00 3.065981e+00 2.502415e+00 3.142684e+00 2.755589e+00 5.034720e+00 4.487239e+00 3.952462e+00 4.077933e+00 3.845215e+00 2.669838e+00 2.056452e+00 2.617295e+00 3.138174e-01 4.431457e-01 3.240196e-01 4.549490e-01 4.487785e-01 7.335258e-01 7.079439e-01 6.855561e-01 6.477787e-01 6.969284e-01 4.414305e-01 3.649314e-01 3.743872e-01
<GCONST> 1.351409e+02
<TRANSP> 5
 0.000000e+00 1.000000e+00 0.000000e+00 0.000000e+00 0.000000e+00
 0.000000e+00 7.753837e-01 2.246163e-01 0.000000e+00 0.000000e+00
 0.000000e+00 0.000000e+00 7.753841e-01 2.246159e-01 0.000000e+00
 0.000000e+00 0.000000e+00 0.000000e+00 9.056400e-01 9.436005e-02
 0.000000e+00 0.000000e+00 0.000000e+00 0.000000e+00 0.000000e+00
<ENDHMM>
~h "ch"
<BEGINHMM>
<NUMSTATES> 5
<STATE> 2
<MEAN> 39
 -1.112238e+01 1.701721e+00 -3.018406e+00 -3.806714e+00 1.323709e+01 1.757610e+00 2.994448e+00 -4.937117e-01 2.576139e-01 4.466209e+00 5.315502e+00 6.611395e+00 5.194619e+01 -1.759795e-01 8.176250e-02 -1.303315e-02 9.027776e-02 -9.309554e-02 7.128659e-02 5.631343e-02 2.635745e-01 -6.786920e-02 2.137382e-01 -9.731805e-02 -3.900710e-02 -3.808792e-01 -4.873254e-03 -2.258410e-03 9.405781e-03 5.222590e-03 -2.186561e-03 -4.046118e-03 2.502806e-04 3.574867e-03 -1.781921e-03 -2.526095e-03 -4.480238e-04 -4.657466e-03 5.935589e-04
<VARIANCE> 39
 7.589964e+01 4.434872e+01 4.109071e+01 7.220361e+01 4.801442e+01 2.948008e+01 5.511029e+01 1.391483e+02 5.103335e+01 5.000993e+01 4.042089e+01 3.472130e+01 1.634843e+02 6.476851e-01 1.242487e+00 7.501566e-01 1.656556e+00 1.448736e+00 1.586122e+00 2.481218e+00 2.090264e+00 2.680095e+00 1.672246e+00 1.789701e+00 1.252012e+00 4.987599e-01 6.521217e-02 1.396028e-01 9.784359e-02 1.860796e-01 2.441055e-01 2.761669e-01 3.073987e-01 3.134742e-01 3.872465e-01 3.010862e-01 2.724979e-01 2.177633e-01 4.912860e-02
<GCONST> 1.065430e+02
<STATE> 3
<MEAN> 39
 -1.192759e+01 2.055156e+00 -3.030828e+00 -3.380855e+00 1.281269e+01 2.065190e+00 3.245062e+00 6.932690e-01 -4.798198e-02 5.401824e+00 4.884201e+00 6.422478e+00 5.025092e+01 -1.963376e-01 7.169746e-02 2.807250e-02 1.121770e-01 -1.022750e-01 5.393837e-02 5.799673e-02 2.765895e-01 -7.378648e-02 2.002463e-01 -9.843997e-02 -5.913243e-02 -3.759024e-01 -3.232625e-03 -2.362968e-03 8.108130e-03 2.839787e-03 -1.204932e-03 -3.938424e-03 3.489503e-04 -1.153842e-04 -3.051972e-04 -4.597642e-03 3.284982e-04 -4.029342e-03 3.609516e-03
<VARIANCE> 39
 7.296908e+01 3.576569e+01 3.735359e+01 6.614316e+01 4.454956e+01 2.521996e+01 4.846065e+01 1.309807e+02 4.727273e+01 4.665211e+01 3.700650e+01 3.326416e+01 1.521306e+02 5.647875e-01 1.061768e+00 7.020196e-01 1.536938e+00 1.361971e+00 1.457848e+00 2.200269e+00 1.943537e+00 2.527215e+00 1.576213e+00 1.696749e+00 1.169951e+00 4.367857e-01 5.828712e-02 1.208168e-01 8.974814e-02 1.774580e-01 2.311005e-01 2.548428e-01 2.750605e-01 2.903891e-01 3.707913e-01 2.807997e-01 2.611850e-01 2.068922e-01 4.158920e-02
<GCONST> 1.031034e+02
<STATE> 4
<MEAN> 39
 -1.315839e+01 2.536589e+00 -2.762036e+00 -2.711020e+00 1.218269e+01 2.295379e+00 3.536971e+00 2.411991e+00 -5.963907e-01 6.558312e+00 4.222967e+00 6.030748e+00 4.799674e+01 -2.052529e-01 5.633325e-02 6.799658e-02 1.231956e-01 -1.068012e-01 3.559693e-02 5.799823e-02 2.630554e-01 -6.610629e-02 1.654829e-01 -9.189002e-02 -7.711750e-02 -3.439449e-01 -7.869196e-04 -2.754534e-03 5.369223e-03 -2.776599e-05 -5.928650e-04 -3.962494e-03 -4.855846e-05 -4.404700e-03 1.748053e-03 -6.601441e-03 1.045611e-03 -3.237817e-03 7.045534e-03
<VARIANCE> 39
 6.870770e+01 2.638998e+01 3.342419e+01 5.717958e+01 4.024623e+01 2.017195e+01 4.052367e+01 1.161333e+02 4.243697e+01 4.092157e+01 3.231812e+01 3.199337e+01 1.327853e+02 4.826684e-01 8.609801e-01 6.435977e-01 1.379476e+00 1.234467e+00 1.298434e+00 1.821072e+00 1.766217e+00 2.322918e+00 1.455962e+00 1.574779e+00 1.074376e+00 3.892681e-01 5.242546e-02 1.018012e-01 8.140385e-02 1.676608e-01 2.096291e-01 2.294204e-01 2.293585e-01 2.621856e-01 3.454766e-01 2.529899e-01 2.492035e-01 1.933480e-01 3.743351e-02
<GCONST> 9.849667e+01
<TRANSP> 5
 0.000000e+00 1.000000e+00 0.000000e+00 0.000000e+00 0.000000e+00
 0.000000e+00 7.771462e-01 2.228537e-01 0.000000e+00 0.000000e+00
 0.000000e+00 0.000000e+00 7.771465e-01 2.228535e-01 0.000000e+00
 0.000000e+00 0.000000e+00 0.000000e+00 9.077498e-01 9.225015e-02
 0.000000e+00 0.000000e+00 0.000000e+00 0.000000e+00 0.000000e+00
<ENDHMM>
~h "dh"
<BEGINHMM>
<NUMSTATES> 5
<STATE> 2
<MEAN> 39
 -1.164360e+01 2.638474e+00 1.375065e+00 -1.789878e+00 8.849810e+00 -4.564013e+00 4.533999e+00 2.999323e+00 2.393371e+00 3.163377e+00 3.728774e+00 -5.959996e-01 5.544643e+01 -2.799390e-02 -1.226700e-02 1.367811e-02 3.143733e-02 4.759512e-02 -2.352330e-03 -3.161562e-02 1.247938e-02 -1.113102e-01 1.311521e-01 -1.312447e-02 4.967947e-02 -5.898178e-02 1.153119e-03 -1.164204e-03 -4.995237e-03 2.082292e-03 3.315276e-03 6.818418e-03 -4.266619e-03 1.243312e-02 -1.394878e-03 -1.317008e-02 -6.159343e-03 -5.665632e-03 -3.506630e-03
<VARIANCE> 39
 1.104214e+02 5.679548e+01 5.537621e+01 6.897390e+01 6.785864e+01 8.814078e+01 7.593608e+01 7.235091e+01 6.587432e+01 7.046953e+01 3.549283e+01 3.910435e+01 1.971771e+02 1.651452e+00 2.118292e+00 1.727250e+00 2.932464e+00 2.085875e+00 3.238279e+00 3.420912e+00 3.444570e+00 3.412229e+00 2.909770e+00 1.897351e+00 1.731428e+00 2.527585e+00 2.067475e-01 3.069521e-01 2.813526e-01 4.768250e-01 3.303504e-01 4.799948e-01 5.729033e-01 6.286365e-01 5.754102e-01 5.064675e-01 3.409102e-01 3.174244e-01 3.898363e-01
<GCONST> 1.265754e+02
<STATE> 3
<MEAN> 39
 -1.176413e+01 2.553586e+00 1.364206e+00 -1.597269e+00 9.071642e+00 -4.465083e+00 4.349681e+00 3.189812e+00 1.940903e+00 3.520960e+00 3.670563e+00 -4.712526e-01 5.517733e+01 -2.700549e-02 -2.059956e-02 -5.121226e-03 4.363088e-02 4.886935e-02 2.302935e-02 -4.368025e-02 4.536315e-02 -1.022813e-01 7.567775e-02 -1.295930e-02 2.434179e-02 -6.217895e-02 3.172117e-04 -1.776034e-03 -4.024413e-03 2.531472e-03 -8.615496e-05 5.736196e-03 -2.262842e-03 6.401494e-03 2.545535e-03 -1.220512e-02 6.916830e-04 -5.604553e-03 -3.386510e-04
<VARIANCE> 39
 1.114626e+02 5.683730e+01 5.720292e+01 6.594833e+01 6.511214e+01 8.999274e+01 7.390585e+01 7.188184e+01 6.582761e+01 7.053864e+01 3.655045e+01 3.969165e+01 2.030558e+02 1.624480e+00 2.051758e+00 1.715734e+00 2.651087e+00 2.052481e+00 3.157499e+00 3.318330e+00 3.230248e+00 3.256803e+00 2.761239e+00 1.844424e+00 1.666626e+00 2.222688e+00 1.998053e-01 2.938695e-01 2.753725e-01 4.204733e-01 3.214349e-01 4.648167e-01 5.517263e-01 5.902317e-01 5.463407e-01 4.825504e-01 3.307988e-01 3.038705e-01 3.293877e-01
<GCONST> 1.252793e+02
<STATE> 4
<MEAN> 39
 -1.209269e+01 2.337520e+00 9.834204e-01 -1.291329e+00 9.336059e+00 -3.923052e+00 3.915264e+00 3.618833e+00 1.257758e+00 3.754249e+00 3.811181e+00 -3.031453e-01 5.449396e+01 -1.498794e-02 -2.078484e-02 -1.368744e-02 2.854007e-02 1.755900e-02 2.282966e-02 -3.144658e-02 2.422498e-02 -5.523756e-02 9.197928e-03 1.621393e-02 -8.946299e-04 -2.278782e-02 1.208783e-03 2.735505e-04 -4.757449e-04 -1.556627e-03 -2.931417e-03 -3.573524e-04 1.056622e-03 -2.270855e-03 4.755056e-03 -5.929513e-03 2.585475e-03 -2.498748e-03 3.588165e-03
<VARIANCE> 39
 1.105441e+02 5.597480e+01 5.967743e+01 6.108487e+01 5.912357e+01 9.446854e+01 6.944299e+01 7.312410e+01 6.678036e+01 6.839812e+01 3.835687e+01 3.986562e+01 2.131689e+02 1.567963e+00 1.951758e+00 1.707008e+00 2.315120e+00 2.001533e+00 3.030460e+00 3.155908e+00 2.984257e+00 3.025709e+00 2.528895e+00 1.795826e+00 1.585105e+00 1.852704e+00 1.910762e-01 2.765908e-01 2.708069e-01 3.560220e-01 3.154925e-01 4.495975e-01 5.219284e-01 5.411098e-01 5.088506e-01 4.442509e-01 3.233321e-01 2.880552e-01 2.607679e-01
<GCONST> 1.234247e+02
<TRANSP> 5
 0.000000e+00 1.000000e+00 0.000000e+00 0.000000e+00 0.000000e+00
 0.000000e+00 7.771913e-01 2.228086e-01 0.000000e+00 0.000000e+00
 0.000000e+00 0.000000e+00 7.771919e-01 2.228082e-01 0.000000e+00
 0.000000e+00 0.000000e+00 0.000000e+00 9.085256e-01 9.147435e-02
 0.000000e+00 0.000000e+00 0.000000e+00 0.000000e+00 0.000000e+00
<ENDHMM>
~h "eh"
<BEGINHMM>
<NUMSTATES> 5
<STATE> 2
<MEAN> 39
 -9.247500e+00 2.263676e+00 1.820899e+00 -1.952446e+00 1.212183e+01 -7.650080e+00 3.047539e+00 2.539672e+00 2.230373e+00 -2.093965e-01 5.972654e+00 -1.072334e+00 6.010788e+01 6.471302e-03 8.215784e-03 7.800518e-04 6.854631e-04 -2.249719e-02 6.910838e-03 4.390037e-02 3.443459e-02 -1.308139e-02 -1.101591e-02 -2.847924e-02 4.508517e-03 -3.314245e-02 -4.415711e-04 -2.525586e-04 7.585296e-05 1.488688e-04 -1.605256e-03 3.947854e-05 4.894866e-04 -1.254928e-03 1.337959e-03 1.431331e-03 7.385856e-04 -2.020496e-04 9.136032e-04
<VARIANCE> 39
 1.132671e+02 7.004543e+01 6.723195e+01 9.411498e+01 9.140057e+01 1.291250e+02 7.280737e+01 9.045766e+01 6.324269e+01 1.101821e+02 4.434907e+01 5.983259e+01 1.967818e+02 1.832023e+00 2.231608e+00 2.172031e+00 3.174421e+00 2.490571e+00 3.436388e+00 3.333514e+00 3.405041e+00 3.265715e+00 3.626795e+00 2.170541e+00 1.839350e+00 2.399540e+00 2.178190e-01 3.095169e-01 3.320642e-01 4.497361e-01 3.590322e-01 4.927080e-01 5.398208e-01 5.883132e-01 5.664715e-01 6.024033e-01 3.850458e-01 3.139839e-01 3.448827e-01
<GCONST> 1.305089e+02
<STATE> 3
<MEAN> 39
 -9.232063e+00 2.297985e+00 1.812066e+00 -1.914010e+00 1.201463e+01 -7.602697e+00 3.225130e+00 2.687437e+00 2.170730e+00 -2.322654e-01 5.867307e+00 -1.050735e+00 5.993609e+01 2.526075e-03 4.607420e-03 -1.056584e-03 6.145392e-03 -3.016902e-02 9.283733e-03 3.823140e-02 3.075703e-02 -9.639660e-03 -5.829825e-03 -2.436762e-02 2.534560e-03 -3.415588e-02 -8.619657e-04 -1.031548e-03 -6.774920e-04 1.621697e-03 -1.374057e-03 6.261943e-04 -1.985328e-03 -1.277442e-03 7.664424e-04 1.227035e-03 1.194414e-03 -3.775193e-04 -1.624408e-04
<VARIANCE> 39
 1.129240e+02 7.036688e+01 6.599672e+01 9.419168e+01 9.148978e+01 1.296997e+02 7.258907e+01 8.959586e+01 6.440550e+01 1.109171e+02 4.428234e+01 5.866138e+01 1.965798e+02 1.812043e+00 2.255734e+00 2.166356e+00 3.195542e+00 2.491576e+00 3.427971e+00 3.299945e+00 3.423994e+00 3.283404e+00 3.638150e+00 2.158501e+00 1.823161e+00 2.422869e+00 2.167800e-01 3.140156e-01 3.329920e-01 4.555677e-01 3.584182e-01 4.897340e-01 5.364087e-01 5.926997e-01 5.684176e-01 6.060519e-01 3.843153e-01 3.107941e-01 3.518440e-01
<GCONST> 1.305251e+02
<STATE> 4
<MEAN> 39
 -9.077451e+00 2.374546e+00 1.813381e+00 -1.649195e+00 1.198844e+01 -7.240720e+00 3.206307e+00 2.494946e+00 1.959700e+00 -2.133876e-01 5.885489e+00 -8.524494e-01 5.967505e+01 -1.531298e-02 -6.792894e-03 -9.895263e-03 2.249384e-02 -3.900701e-02 1.840094e-02 2.569464e-02 2.406092e-02 -1.347561e-02 7.720762e-03 -1.788716e-02 9.886604e-04 -5.338714e-02 -1.700066e-03 -1.520388e-03 -8.032115e-04 1.546789e-03 -7.701475e-04 7.756170e-04 -2.046905e-03 -1.502748e-03 3.217834e-04 1.183792e-03 6.552089e-04 -5.919461e-04 -8.058124e-04
<VARIANCE> 39
 1.100018e+02 7.290219e+01 6.223518e+01 9.124991e+01 9.178487e+01 1.278304e+02 7.179284e+01 9.052741e+01 6.773501e+01 1.098147e+02 4.362121e+01 5.843700e+01 1.934997e+02 1.738514e+00 2.345290e+00 2.173001e+00 3.070343e+00 2.477635e+00 3.402178e+00 3.208998e+00 3.433076e+00 3.432636e+00 3.725971e+00 2.131403e+00 1.804149e+00 2.432833e+00 2.135363e-01 3.261693e-01 3.420349e-01 4.412018e-01 3.578403e-01 4.867655e-01 5.234321e-01 5.998778e-01 5.980279e-01 6.268830e-01 3.833132e-01 3.056558e-01 3.506977e-01
<GCONST> 1.304686e+02
<TRANSP> 5
 0.000000e+00 1.000000e+00 0.000000e+00 0.000000e+00 0.000000e+00
 0.000000e+00 7.746786e-01 2.253215e-01 0.000000e+00 0.000000e+00
 0.000000e+00 0.000000e+00 7.746789e-01 2.253211e-01 0.000000e+00
 0.000000e+00 0.000000e+00 0.000000e+00 9.065039e-01 9.349606e-02
 0.000000e+00 0.000000e+00 0.000000e+00 0.000000e+00 0.000000e+00
<ENDHMM>
~h "er"
<BEGINHMM>
<NUMSTATES> 5
<STATE> 2
<MEAN> 39
 -7.300568e+00 3.498563e+00 3.181811e+00 -2.964147e+00 1.077780e+01 -8.749102e+00 4.343205e+00 2.542364e+00 3.482908e+00 -5.147184e+00 6.781385e+00 -1.635688e+00 6.567281e+01 3.866591e-02 -3.174363e-04 1.532479e-02 -3.606938e-02 1.487207e-02 1.882467e-02 2.357184e-02 -3.226245e-02 -7.557484e-03 -2.650408e-02 7.685293e-03 3.804613e-02 2.611887e-02 7.164717e-05 1.009204e-03 2.006521e-05 -6.412996e-04 -3.424942e-03 -1.177297e-03 -1.727837e-03 1.541516e-03 7.883853e-04 1.788311e-03 -1.221834e-03 7.468220e-04 -3.408342e-03
<VARIANCE> 39
 1.395797e+02 8.146207e+01 8.286979e+01 1.327385e+02 9.542015e+01 1.367950e+02 9.166977e+01 8.550958e+01 7.109244e+01 1.203000e+02 4.516705e+01 5.508603e+01 1.056615e+02 3.410650e+00 2.965567e+00 2.552590e+00 4.185061e+00 2.708323e+00 4.126728e+00 3.885813e+00 3.741752e+00 3.486861e+00 4.353005e+00 2.317803e+00 2.338654e+00 2.623567e+00 3.628798e-01 4.091332e-01 3.986147e-01 6.109673e-01 3.858093e-01 5.796458e-01 6.422432e-01 6.772223e-01 5.982127e-01 6.807558e-01 4.093749e-01 3.741058e-01 3.960388e-01
<GCONST> 1.360955e+02
<STATE> 3
<MEAN> 39
 -7.144947e+00 3.506209e+00 3.249996e+00 -3.144578e+00 1.078614e+01 -8.664942e+00 4.443721e+00 2.422268e+00 3.445909e+00 -5.230916e+00 6.806016e+00 -1.444377e+00 6.572788e+01 3.795436e-02 3.880677e-03 1.562418e-02 -3.826969e-02 -5.329511e-05 1.294076e-02 1.482392e-02 -2.566206e-02 -4.110496e-03 -1.902284e-02 2.546114e-03 4.063989e-02 1.108144e-02 -2.238160e-05 1.112982e-03 -3.987823e-04 -4.181361e-04 -3.242410e-03 -1.617104e-03 -1.892982e-03 1.632314e-03 9.126558e-04 1.802124e-03 -1.061505e-03 5.535723e-04 -3.317914e-03
<VARIANCE> 39
 1.384811e+02 8.326743e+01 8.425292e+01 1.324943e+02 9.375670e+01 1.368490e+02 9.097579e+01 8.432590e+01 7.348314e+01 1.210930e+02 4.433239e+01 5.551610e+01 1.039307e+02 3.367295e+00 2.962347e+00 2.581503e+00 4.231998e+00 2.699931e+00 4.167364e+00 3.889250e+00 3.678887e+00 3.547736e+00 4.371417e+00 2.294459e+00 2.340509e+00 2.605088e+00 3.572429e-01 4.033750e-01 4.043991e-01 6.171807e-01 3.857890e-01 5.800402e-01 6.428251e-01 6.645160e-01 6.067600e-01 6.829417e-01 4.063071e-01 3.752339e-01 3.960984e-01
<GCONST> 1.360924e+02
<STATE> 4
<MEAN> 39
 -6.794723e+00 3.759165e+00 3.181081e+00 -3.586884e+00 1.049282e+01 -8.544701e+00 4.682137e+00 2.506382e+00 3.465925e+00 -5.316495e+00 6.896368e+00 -9.273081e-01 6.536159e+01 2.497057e-02 8.397578e-03 1.738637e-02 -3.869205e-02 -2.637988e-02 6.814222e-03 1.162631e-03 -1.411047e-02 -2.591107e-03 8.327779e-04 -4.959563e-03 4.480066e-02 -2.433384e-02 -4.564291e-04 8.859367e-04 -6.518691e-04 6.561944e-04 -1.990137e-03 -1.813015e-03 -2.141505e-03 1.443819e-03 1.069973e-03 1.911870e-03 -9.142180e-04 -2.337102e-04 -2.961664e-03
<VARIANCE> 39
 1.354925e+02 8.297702e+01 8.381948e+01 1.335618e+02 9.173936e+01 1.382619e+02 8.629169e+01 8.207499e+01 7.957897e+01 1.255148e+02 4.431422e+01 5.819754e+01 1.079369e+02 3.144711e+00 2.806800e+00 2.533249e+00 4.255639e+00 2.683594e+00 4.217048e+00 3.803158e+00 3.619531e+00 3.614383e+00 4.433290e+00 2.261412e+00 2.363860e+00 2.508559e+00 3.337354e-01 3.756343e-01 3.994219e-01 6.178352e-01 3.853873e-01 5.766513e-01 6.316324e-01 6.525753e-01 6.141522e-01 6.948705e-01 3.989222e-01 3.798427e-01 3.842085e-01
<GCONST> 1.358000e+02
<TRANSP> 5
 0.000000e+00 1.000000e+00 0.000000e+00 0.000000e+00 0.000000e+00
 0.000000e+00 7.722948e-01 2.277052e-01 0.000000e+00 0.000000e+00
 0.000000e+00 0.000000e+00 7.722945e-01 2.277055e-01 0.000000e+00
 0.000000e+00 0.000000e+00 0.000000e+00 9.032930e-01 9.670701e-02
 0.000000e+00 0.000000e+00 0.000000e+00 0.000000e+00 0.000000e+00
<ENDHMM>
~h "ey"
<BEGINHMM>
<NUMSTATES> 5
<STATE> 2
<MEAN> 39
 -7.946889e+00 4.161051e+00 5.995767e+00 7.046692e-01 1.009694e+01 -8.360060e+00 5.168724e-01 2.969815e+00 3.086435e+00 2.488359e+00 5.705003e+00 -4.118302e+00 6.093986e+01 -5.093061e-02 -2.121508e-03 -6.516457e-02 -2.092895e-02 -2.743403e-02 3.941162e-02 3.319410e-02 6.517573e-02 2.376950e-03 5.901258e-02 -1.411228e-03 4.980664e-02 -9.199118e-02 -1.924717e-03 -1.429836e-03 -3.220976e-03 2.535989e-03 2.335568e-03 3.895256e-03 7.658566e-04 6.856013e-04 -1.198752e-05 1.206365e-03 -4.281771e-04 -7.186619e-04 -2.606474e-03
<VARIANCE> 39
 7.949863e+01 6.144912e+01 8.658368e+01 7.384797e+01 8.843745e+01 1.231630e+02 7.100768e+01 7.499324e+01 5.377863e+01 8.749509e+01 3.716800e+01 5.162136e+01 1.735158e+02 2.100243e+00 2.855426e+00 3.133707e+00 3.516155e+00 3.005478e+00 4.456942e+00 3.705034e+00 2.790531e+00 3.008353e+00 3.007312e+00 2.124664e+00 1.941419e+00 3.502884e+00 2.887626e-01 4.422189e-01 4.829248e-01 5.742167e-01 4.349164e-01 6.396540e-01 5.951937e-01 4.672781e-01 5.368562e-01 5.014709e-01 3.597101e-01 3.150376e-01 5.641761e-01
<GCONST> 1.320151e+02
<STATE> 3
<MEAN> 39
 -8.171486e+00 4.138695e+00 5.698991e+00 6.445010e-01 9.997865e+00 -8.188720e+00 6.555712e-01 3.251708e+00 3.100694e+00 2.744248e+00 5.690191e+00 -3.920340e+00 6.054136e+01 -5.945015e-02 -7.955100e-03 -7.763671e-02 -8.597140e-03 -1.684071e-02 5.576149e-02 3.607529e-02 6.772882e-02 2.769574e-03 6.304497e-02 -3.758427e-03 4.548248e-02 -1.031545e-01 -1.871549e-03 -1.473764e-03 -2.528774e-03 3.039846e-03 2.892602e-03 3.352329e-03 6.544488e-04 -2.444499e-04 5.079387e-05 6.766948e-04 -7.550048e-04 -1.525822e-03 -1.856270e-03
<VARIANCE> 39
 8.014761e+01 5.973855e+01 8.551952e+01 7.044350e+01 8.382332e+01 1.226718e+02 7.002659e+01 7.110952e+01 5.293171e+01 8.717434e+01 3.702297e+01 5.095915e+01 1.791659e+02 2.105857e+00 2.740619e+00 3.086702e+00 3.329964e+00 2.898808e+00 4.270967e+00 3.565006e+00 2.710055e+00 2.921938e+00 2.934555e+00 2.101821e+00 1.895673e+00 3.359815e+00 2.883436e-01 4.252006e-01 4.723114e-01 5.457790e-01 4.237953e-01 6.136420e-01 5.717404e-01 4.564648e-01 5.185859e-01 4.882893e-01 3.583057e-01 3.090123e-01 5.397388e-01
<GCONST> 1.310485e+02
<STATE> 4
<MEAN> 39
 -8.537193e+00 3.787469e+00 4.929813e+00 6.005970e-01 9.955714e+00 -8.196493e+00 8.801649e-01 3.445900e+00 3.294611e+00 2.995836e+00 5.688530e+00 -3.889356e+00 6.046728e+01 -6.312164e-02 -1.299008e-02 -7.909337e-02 1.675139e-02 2.237829e-03 6.082039e-02 3.371868e-02 6.390687e-02 5.398437e-03 5.564968e-02 -1.172401e-02 2.841151e-02 -1.057394e-01 -1.200464e-03 -7.425253e-04 -1.142782e-03 2.879750e-03 2.825765e-03 2.123956e-03 5.641943e-04 -4.748747e-04 1.827639e-04 -3.193961e-04 -1.121611e-03 -1.932339e-03 -1.147145e-03
<VARIANCE> 39
 8.290482e+01 5.978899e+01 8.515713e+01 6.509747e+01 7.841039e+01 1.231077e+02 6.799297e+01 6.434480e+01 5.182185e+01 8.467702e+01 3.730693e+01 4.948779e+01 1.874763e+02 2.191178e+00 2.621229e+00 3.039330e+00 3.008880e+00 2.780465e+00 3.975207e+00 3.352982e+00 2.560026e+00 2.795582e+00 2.904290e+00 2.064484e+00 1.855069e+00 3.383111e+00 2.984522e-01 4.068741e-01 4.635292e-01 4.950405e-01 4.126401e-01 5.794794e-01 5.374474e-01 4.335251e-01 4.908721e-01 4.846922e-01 3.548181e-01 3.066316e-01 5.382844e-01
<GCONST> 1.299343e+02
<TRANSP> 5
 0.000000e+00 1.000000e+00 0.000000e+00 0.000000e+00 0.000000e+00
 0.000000e+00 7.761172e-01 2.238828e-01 0.000000e+00 0.000000e+00
 0.000000e+00 0.000000e+00 7.761169e-01 2.238830e-01 0.000000e+00
 0.000000e+00 0.000000e+00 0.000000e+00 9.059614e-01 9.403861e-02
 0.000000e+00 0.000000e+00 0.000000e+00 0.000000e+00 0.000000e+00
<ENDHMM>
~h "hh"
<BEGINHMM>
<NUMSTATES> 5
<STATE> 2
<MEAN> 39
 -1.076709e+01 1.803010e+00 2.221654e+00 -1.523469e+00 9.882965e+00 -9.912559e+00 3.705980e+00 4.379335e+00 3.021322e+00 1.132425e+00 5.717856e+00 -3.138306e+00 5.991171e+01 4.928639e-02 3.825369e-02 3.169722e-02 -1.622629e-03 -9.673628e-03 -3.172275e-02 1.968961e-02 -1.017896e-02 2.710887e-02 -5.958799e-02 -3.352512e-02 -1.164229e-02 5.203439e-02 -4.751253e-04 -2.310762e-03 1.943841e-03 -1.988563e-03 -2.207833e-03 1.352234e-03 1.107715e-03 -1.370737e-03 5.380523e-04 -2.610848e-03 1.457765e-03 7.199631e-04 2.891962e-03
<VARIANCE> 39
 1.097115e+02 5.715030e+01 7.009301e+01 8.059736e+01 9.091129e+01 1.532544e+02 8.291841e+01 7.471500e+01 6.430705e+01 8.175761e+01 5.086655e+01 4.804758e+01 2.219500e+02 2.084542e+00 2.046423e+00 1.912947e+00 2.461648e+00 2.224198e+00 3.530107e+00 3.239064e+00 3.014601e+00 2.842745e+00 2.898027e+00 2.148334e+00 1.930923e+00 1.940682e+00 2.572123e-01 2.750112e-01 2.703931e-01 3.293060e-01 3.416620e-01 4.900104e-01 5.212563e-01 5.219642e-01 4.686487e-01 5.033379e-01 3.713470e-01 3.399748e-01 2.403981e-01
<GCONST> 1.275432e+02
<STATE> 3
<MEAN> 39
 -1.054358e+01 1.949221e+00 2.382905e+00 -1.558331e+00 9.806140e+00 -1.005053e+01 3.820469e+00 4.319902e+00 3.140374e+00 8.468381e-01 5.579799e+00 -3.171312e+00 6.018198e+01 4.525883e-02 2.679629e-02 3.932550e-02 -1.083057e-02 -2.007868e-02 -2.519811e-02 2.333007e-02 -1.611168e-02 2.849834e-02 -6.956070e-02 -2.564768e-02 -8.962450e-03 6.368846e-02 -6.738181e-04 -3.031095e-03 1.296872e-03 -2.019409e-03 -2.540428e-03 1.694421e-03 7.151798e-04 -1.483604e-03 -4.599662e-05 -2.287863e-03 2.040312e-03 7.988370e-04 2.795216e-03
<VARIANCE> 39
 1.112628e+02 5.897357e+01 7.132287e+01 8.438828e+01 9.201749e+01 1.581059e+02 8.428022e+01 7.562968e+01 6.468705e+01 8.369047e+01 5.126897e+01 4.782647e+01 2.183345e+02 2.165869e+00 2.092847e+00 1.969662e+00 2.535053e+00 2.276077e+00 3.577829e+00 3.286664e+00 3.114513e+00 2.878303e+00 2.979275e+00 2.202219e+00 1.955120e+00 2.005983e+00 2.657417e-01 2.773606e-01 2.794991e-01 3.387935e-01 3.459518e-01 4.900607e-01 5.265573e-01 5.398981e-01 4.728245e-01 5.149513e-01 3.801492e-01 3.451558e-01 2.508371e-01
<GCONST> 1.283251e+02
<STATE> 4
<MEAN> 39
 -9.863031e+00 2.028061e+00 2.774833e+00 -1.965695e+00 9.487334e+00 -1.036332e+01 4.099977e+00 3.971545e+00 3.449970e+00 1.456573e-01 5.449292e+00 -3.234478e+00 6.136425e+01 3.310410e-02 2.292903e-03 4.670962e-02 -3.098084e-02 -4.509178e-02 -1.531874e-02 2.829365e-02 -2.465277e-02 2.246903e-02 -7.745237e-02 -6.778943e-03 -7.588137e-05 7.732374e-02 -1.019144e-03 -3.385783e-03 1.018741e-04 -1.602121e-03 -2.457819e-03 2.069269e-03 -1.876066e-04 -1.368182e-03 -9.001312e-04 -1.274144e-03 2.742685e-03 7.847496e-04 1.512892e-03
<VARIANCE> 39
 1.132623e+02 6.636676e+01 7.603040e+01 9.370295e+01 9.404388e+01 1.615668e+02 9.015572e+01 7.784834e+01 6.853978e+01 8.690977e+01 5.320341e+01 4.717380e+01 2.043872e+02 2.336244e+00 2.230153e+00 2.108374e+00 2.652732e+00 2.382346e+00 3.662835e+00 3.489374e+00 3.318590e+00 3.069049e+00 3.145709e+00 2.324950e+00 2.020400e+00 2.101199e+00 2.798486e-01 2.836843e-01 3.002110e-01 3.557198e-01 3.597873e-01 4.954150e-01 5.448078e-01 5.790622e-01 4.985385e-01 5.369387e-01 4.011144e-01 3.554153e-01 2.653359e-01
<GCONST> 1.301020e+02
<TRANSP> 5
 0.000000e+00 1.000000e+00 0.000000e+00 0.000000e+00 0.000000e+00
 0.000000e+00 7.748846e-01 2.251153e-01 0.000000e+00 0.000000e+00
 0.000000e+00 0.000000e+00 7.748846e-01 2.251154e-01 0.000000e+00
 0.000000e+00 0.000000e+00 0.000000e+00 9.061326e-01 9.386747e-02
 0.000000e+00 0.000000e+00 0.000000e+00 0.000000e+00 0.000000e+00
<ENDHMM>
~h "ih"
<BEGINHMM>
<NUMSTATES> 5
<STATE> 2
<MEAN> 39
 -1.157866e+01 5.418508e-01 1.559009e+00 -9.470086e-01 1.105529e+01 -4.076154e+00 2.848060e+00 -1.595666e-01 1.717749e+00 1.232289e+00 3.976923e+00 -1.074478e+00 5.849724e+01 4.828103e-03 -1.484297e-02 -3.145876e-02 -6.006840e-03 2.416744e-02 5.894883e-02 -1.099112e-02 -4.639892e-02 -3.018603e-02 -4.571582e-03 1.625514e-02 6.040379e-03 -1.917252e-03 -8.204879e-04 1.214522e-03 3.070246e-03 -8.616210e-04 -4.393544e-03 -2.556919e-03 2.745060e-03 -1.122221e-03 5.494213e-03 -3.256710e-03 1.184305e-03 -7.556803e-04 3.684055e-03
<VARIANCE> 39
 1.273642e+02 8.164492e+01 8.267747e+01 6.262915e+01 6.627316e+01 9.856780e+01 9.741740e+01 7.958123e+01 8.246942e+01 8.261146e+01 3.924605e+01 4.569994e+01 2.065149e+02 2.194850e+00 2.482503e+00 2.087440e+00 2.597162e+00 2.563716e+00 3.613570e+00 4.272655e+00 3.444053e+00 4.202217e+00 3.189537e+00 2.037445e+00 1.938043e+00 2.017798e+00 2.617784e-01 3.390180e-01 3.287403e-01 4.126761e-01 3.939019e-01 5.416240e-01 7.035124e-01 6.379457e-01 7.071419e-01 5.783911e-01 3.744419e-01 3.476283e-01 2.733677e-01
<GCONST> 1.308442e+02
<STATE> 3
<MEAN> 39
 -1.155328e+01 4.896617e-01 1.471737e+00 -9.882367e-01 1.111055e+01 -3.864974e+00 2.816587e+00 -3.804424e-01 1.641851e+00 1.183390e+00 4.064013e+00 -1.034372e+00 5.854634e+01 4.189535e-03 -7.879596e-03 -1.829685e-02 -8.153678e-03 7.367171e-03 4.653585e-02 -2.593654e-03 -4.524083e-02 -1.426416e-02 -1.148835e-02 1.801577e-02 6.518893e-03 8.591520e-03 -4.728834e-04 1.306252e-03 3.321636e-03 2.232525e-04 -3.959362e-03 -3.330161e-03 1.633664e-03 1.155934e-03 3.799731e-03 -1.050604e-03 -3.146482e-05 -2.265231e-04 1.925900e-03
<VARIANCE> 39
 1.289969e+02 8.220679e+01 8.393939e+01 6.481304e+01 6.589295e+01 9.705016e+01 9.899998e+01 8.037672e+01 8.188211e+01 8.100026e+01 3.951288e+01 4.536022e+01 2.054141e+02 2.244444e+00 2.486951e+00 2.103457e+00 2.630522e+00 2.578552e+00 3.608589e+00 4.360254e+00 3.499393e+00 4.192859e+00 3.197564e+00 2.060458e+00 1.926892e+00 2.011514e+00 2.680840e-01 3.347894e-01 3.295207e-01 4.137556e-01 3.994138e-01 5.465751e-01 7.172449e-01 6.468117e-01 7.075164e-01 5.796509e-01 3.798624e-01 3.452976e-01 2.746138e-01
<GCONST> 1.310602e+02
<STATE> 4
<MEAN> 39
 -1.152865e+01 5.461199e-01 1.551322e+00 -8.460646e-01 1.109697e+01 -3.676018e+00 2.589941e+00 -4.609015e-01 1.735781e+00 1.135939e+00 4.120564e+00 -1.010562e+00 5.850356e+01 1.763993e-02 2.767405e-03 -3.937539e-03 -9.211695e-03 -8.362964e-03 2.953705e-02 6.518026e-04 -2.851731e-02 -1.111571e-02 -1.556494e-02 2.001842e-02 1.484167e-02 2.260007e-02 4.021043e-04 1.159741e-03 1.936907e-03 1.034377e-03 -2.392353e-03 -2.327326e-03 4.799680e-04 3.684401e-03 6.847999e-04 1.688963e-04 -7.090594e-04 -4.690004e-05 -4.369929e-05
<VARIANCE> 39
 1.291985e+02 8.478245e+01 8.093770e+01 6.759935e+01 6.419497e+01 9.213940e+01 9.982407e+01 8.301330e+01 7.843562e+01 7.687262e+01 3.897470e+01 4.543725e+01 2.055254e+02 2.257218e+00 2.526366e+00 2.024175e+00 2.638213e+00 2.506299e+00 3.475270e+00 4.285319e+00 3.472092e+00 4.099381e+00 3.086911e+00 2.044330e+00 1.889783e+00 2.087702e+00 2.679561e-01 3.303567e-01 3.197983e-01 4.051977e-01 3.928034e-01 5.320364e-01 6.955325e-01 6.325677e-01 6.833528e-01 5.546356e-01 3.766464e-01 3.384719e-01 2.869241e-01
<GCONST> 1.305760e+02
<TRANSP> 5
 0.000000e+00 1.000000e+00 0.000000e+00 0.000000e+00 0.000000e+00
 0.000000e+00 7.735254e-01 2.264745e-01 0.000000e+00 0.000000e+00
 0.000000e+00 0.000000e+00 7.735255e-01 2.264745e-01 0.000000e+00
 0.000000e+00 0.000000e+00 0.000000e+00 9.042230e-01 9.577695e-02
 0.000000e+00 0.000000e+00 0.000000e+00 0.000000e+00 0.000000e+00
<ENDHMM>
~h "iy"
<BEGINHMM>
<NUMSTATES> 5
<STATE> 2
<MEAN> 39
 -1.038682e+01 1.420403e+00 1.941139e+00 -1.165777e+00 1.028720e+01 -8.337039e+00 3.312248e+00 3.826875e+00 2.212602e+00 3.490881e-01 5.688107e+00 -2.242818e+00 5.953694e+01 -4.263159e-02 -3.670614e-02 -5.184042e-03 2.022800e-02 -5.952277e-03 2.570000e-02 -2.029963e-02 -3.186303e-02 -7.671720e-03 2.572899e-02 1.572671e-02 4.347675e-03 5.976213e-03 2.524154e-04 -3.014649e-03 1.138902e-03 1.185666e-03 1.817373e-03 1.564720e-04 -8.195726e-04 -3.936770e-03 -1.858864e-04 9.959963e-04 2.517779e-03 -6.052985e-04 3.527779e-03
<VARIANCE> 39
 1.080069e+02 6.378126e+01 6.763237e+01 8.761772e+01 1.024187e+02 1.418440e+02 8.120860e+01 7.312071e+01 7.269591e+01 8.893299e+01 4.633250e+01 4.601482e+01 2.063088e+02 1.817050e+00 2.322896e+00 2.000116e+00 2.621565e+00 2.631628e+00 3.650588e+00 3.054941e+00 3.219585e+00 3.074258e+00 3.501246e+00 2.276239e+00 1.874019e+00 2.841534e+00 2.506647e-01 3.349696e-01 2.850007e-01 3.520728e-01 3.830242e-01 4.989024e-01 4.948539e-01 5.381231e-01 5.023196e-01 6.035405e-01 3.981932e-01 3.217249e-01 4.557881e-01
<GCONST> 1.299711e+02
<STATE> 3
<MEAN> 39
