~o
<STREAMINFO> 1 39
<VECSIZE> 39<NULLD><MFCC_D_A_0><DIAGC>
~s "silst"
<MEAN> 39
 -1.827065e+01 -1.484265e-01 -3.432973e-01 -4.736485e+00 4.440941e+00 -1.305710e+00 8.008224e+00 1.155363e-01 2.987448e+00 2.057659e+00 3.663522e+00 1.406058e+00 4.972659e+01 1.210247e-01 2.650636e-02 6.846062e-02 -2.380847e-01 -1.411839e-01 -2.942424e-01 -2.349803e-02 -4.088634e-01 1.070659e-01 -7.879303e-02 1.766542e-02 -3.732192e-03 3.995297e-01 4.118687e-03 5.128041e-02 4.143307e-03 1.084276e-01 5.938452e-02 5.517388e-03 -1.144126e-01 1.665189e-01 -1.001895e-01 1.568746e-01 2.197908e-03 1.454085e-02 -1.597901e-01
<VARIANCE> 39
 2.931185e+01 4.094671e+01 3.476317e+01 5.300897e+01 4.091462e+01 3.279064e+01 4.876422e+01 7.845473e+01 5.808527e+01 6.170071e+01 3.253878e+01 2.273491e+01 8.271511e+01 2.204774e+00 3.547209e+00 2.580156e+00 4.711675e+00 3.373826e+00 3.847531e+00 4.959254e+00 8.736961e+00 4.907648e+00 6.133436e+00 2.789990e+00 1.978267e+00 9.132376e+00 4.166836e-01 6.640517e-01 4.761041e-01 8.036931e-01 5.701299e-01 7.171636e-01 8.896499e-01 1.602131e+00 8.856421e-01 1.131131e+00 5.005950e-01 3.446887e-01 1.669957e+00
<GCONST> 1.351273e+02
~h "b"
<BEGINHMM>
<NUMSTATES> 5
<STATE> 2
<MEAN> 39
 -8.352931e-01 6.387608e+00 3.801982e+00 5.006490e+00 1.567007e+01 -1.851328e+01 -8.741934e+00 -1.063591e+00 7.186524e+00 -4.921083e+00 4.211522e-01 -6.588723e+00 6.726325e+01 2.153654e-01 -1.365357e-01 -5.002566e-02 2.144878e-01 9.752952e-02 -2.508663e-01 -1.184963e-01 6.635967e-02 -2.533832e-01 -2.857589e-01 2.234923e-02 -5.853854e-02 1.908953e-01 -5.476829e-02 8.018097e-03 2.729271e-02 -3.512909e-02 -4.523142e-02 6.183440e-02 1.109339e-01 9.079268e-02 -6.437837e-02 1.399388e-02 3.750646e-02 6.138835e-02 -7.536249e-02
<VARIANCE> 39
 4.666745e+01 6.956227e+01 4.320507e+01 9.723906e+01 1.186886e+02 1.324364e+02 6.970874e+01 5.018628e+01 1.211292e+02 6.586819e+01 6.037843e+01 3.541896e+01 4.993093e+01 1.457375e+00 3.019953e+00 2.781383e+00 6.117624e+00 3.254719e+00 9.166356e+00 4.614779e+00 3.344219e+00 5.983632e+00 3.785728e+00 3.145375e+00 1.886827e+00 3.549234e+00 2.256702e-01 4.698180e-01 4.464342e-01 8.779923e-01 4.746906e-01 1.114650e+00 8.370496e-01 6.168276e-01 8.188519e-01 6.293823e-01 3.905438e-01 3.262933e-01 4.455760e-01
<GCONST> 1.350976e+02
<STATE> 3
<MEAN> 39
 1.278016e+00 7.228152e+00 1.232696e+01 6.556149e+00 -1.245522e-01 -2.298858e+01 -7.257441e-01 1.010897e+01 2.575517e+00 -4.091395e+00 3.654571e+00 -5.463999e+00 6.353879e+01 -1.351390e-01 7.026308e-01 2.144363e-01 -1.397133e-03 -8.412158e-02 9.446970e-01 3.686358e-01 6.182733e-01 -3.936072e-01 2.963824e-01 3.956693e-01 2.718181e-01 -8.829113e-01 -1.419909e-01 8.963305e-02 -1.381278e-01 -1.638775e-01 2.844253e-01 4.167367e-01 8.952966e-02 -1.644536e-01 2.328542e-01 2.903090e-01 6.990343e-02 1.356482e-01 -1.279352e-01
<VARIANCE> 39
 1.879250e+01 3.849111e+01 1.282405e+02 6.185278e+01 1.452190e+02 2.069789e+02 7.338677e+01 4.909612e+01 4.392716e+01 6.722169e+01 4.176217e+01 4.434063e+01 2.764384e+01 6.999113e-01 1.358061e+00 2.641631e+00 3.480196e+00 3.248618e+00 5.646949e+00 4.167678e+00 2.887362e+00 3.267156e+00 2.611614e+00 4.031555e+00 2.006586e+00 9.802114e-01 8.489937e-02 1.375041e-01 3.717932e-01 5.660250e-01 3.959917e-01 1.037766e+00 6.274645e-01 6.294781e-01 4.845057e-01 4.658500e-01 5.265096e-01 4.651598e-01 6.439189e-02
<GCONST> 1.228879e+02
<STATE> 4
<MEAN> 39
 -6.655446e-01 1.046264e+01 9.317249e+00 3.068802e+00 3.691935e+00 -1.536211e+01 -1.585665e-02 9.817561e+00 3.420329e+00 1.445810e+00 4.496648e+00 -2.597352e+00 5.883311e+01 -3.041188e-01 1.964640e-01 -7.602140e-01 -1.319042e-01 2.739717e-01 1.456128e+00 1.049271e+00 4.134391e-01 -1.719935e-01 1.090077e+00 -5.396828e-01 5.092721e-01 -1.171177e+00 -3.234094e-02 -2.200888e-01 -1.826212e-01 -7.075248e-02 1.304753e-01 -3.203317e-02 -1.884655e-02 -2.715349e-01 -2.229854e-02 -1.413355e-01 -3.970053e-02 -1.717095e-01 2.281878e-01
<VARIANCE> 39
 2.317689e+01 6.317081e+01 7.816889e+01 7.668393e+01 1.310827e+02 1.354786e+02 8.452135e+01 5.767104e+01 3.823581e+01 7.582694e+01 4.625750e+01 4.742225e+01 4.153761e+01 5.689127e-01 2.167552e+00 3.189196e+00 2.318276e+00 2.730266e+00 3.544408e+00 3.140903e+00 2.884921e+00 1.376096e+00 3.145257e+00 2.532881e+00 2.816794e+00 1.061080e+00 1.128167e-01 4.069159e-01 4.094486e-01 6.156722e-01 5.189991e-01 7.222960e-01 4.556485e-01 9.773480e-01 4.921787e-01 5.742422e-01 6.721985e-01 3.813126e-01 3.874626e-01
<GCONST> 1.256843e+02
<TRANSP> 5
 0.000000e+00 1.000000e+00 0.000000e+00 0.000000e+00 0.000000e+00
 0.000000e+00 8.861602e-01 1.138398e-01 0.000000e+00 0.000000e+00
 0.000000e+00 0.000000e+00 5.528196e-01 4.471804e-01 0.000000e+00
 0.000000e+00 0.000000e+00 0.000000e+00 3.929161e-01 6.070839e-01
 0.000000e+00 0.000000e+00 0.000000e+00 0.000000e+00 0.000000e+00
<ENDHMM>
~h "d"
<BEGINHMM>
<NUMSTATES> 5
<STATE> 2
<MEAN> 39
 1.634267e+00 3.392311e+00 -2.758476e+00 -4.112071e+00 7.269505e+00 -1.928671e+01 6.820597e+00 1.203694e+01 8.145921e+00 2.957708e+00 -2.564698e-01 -1.464587e+00 6.937006e+01 3.036292e-01 4.438525e-01 5.262163e-02 3.861488e-01 1.226351e-01 -1.968375e-01 -2.287023e-01 8.679542e-01 6.322302e-02 7.533195e-01 -3.511537e-01 6.762293e-02 -8.003196e-01 -8.469495e-02 1.386829e-02 1.580974e-01 1.305573e-01 6.094530e-02 9.184621e-02 -5.776467e-02 -1.274040e-01 -6.787760e-02 -3.710299e-02 1.555892e-01 6.099829e-02 -5.686605e-02
<VARIANCE> 39
 4.580313e+01 2.268136e+01 2.988535e+01 3.949233e+01 4.321615e+01 1.848122e+02 4.197285e+01 7.034647e+01 5.847137e+01 8.696249e+01 1.919071e+01 2.625867e+01 5.801191e+01 5.402928e-01 7.338773e-01 1.531489e+00 1.037756e+00 1.262203e+00 5.243243e+00 2.755709e+00 2.492038e+00 3.356534e+00 6.979402e+00 1.742819e+00 1.250742e+00 1.034868e+00 5.093352e-02 1.491981e-01 1.771729e-01 1.428988e-01 2.540987e-01 4.447874e-01 3.988034e-01 4.624297e-01 5.419981e-01 8.074943e-01 2.795610e-01 2.293616e-01 9.543920e-02
<GCONST> 1.104626e+02
<STATE> 3
<MEAN> 39
 -4.413526e+00 6.752829e+00 4.821759e+00 3.951297e+00 1.002969e+01 -4.087553e+00 6.622193e+00 8.020557e+00 2.443332e+00 2.519434e+00 3.289687e+00 8.625045e-01 5.757603e+01 -2.997428e-01 8.462241e-01 4.015475e-01 3.859606e-01 2.339719e-02 5.127441e-01 1.462217e-01 9.403504e-01 7.301608e-02 7.741569e-01 2.693439e-01 3.138512e-01 -1.418257e+00 -2.154676e-01 -6.400365e-01 -2.866332e-01 -5.106366e-01 -1.820580e-02 -2.773217e-01 1.931036e-01 -4.224376e-01 2.237245e-01 -5.970651e-01 8.468079e-02 -1.347001e-01 7.612233e-01
<VARIANCE> 39
 5.780965e+01 5.064634e+01 3.606145e+01 5.350959e+01 4.127098e+01 7.231954e+01 3.455022e+01 7.220155e+01 5.670847e+01 4.571378e+01 2.627453e+01 2.695662e+01 4.950589e+01 9.754629e-01 1.387597e+00 1.638971e+00 1.270479e+00 1.428285e+00 2.662732e+00 2.206414e+00 1.939578e+00 2.379467e+00 2.665174e+00 1.056751e+00 1.366612e+00 1.497970e+00 7.137348e-02 6.412756e-01 2.462722e-01 4.153362e-01 3.193730e-01 6.826758e-01 6.223800e-01 5.346084e-01 6.839353e-01 7.934943e-01 3.363523e-01 2.691654e-01 4.764148e-01
<GCONST> 1.160750e+02
<STATE> 4
<MEAN> 39
 -7.031459e+00 -3.499833e+00 5.014177e+00 5.458553e-01 8.463680e+00 -6.764450e+00 4.691908e+00 8.318841e-01 -1.283717e+00 -2.256215e+00 6.501509e+00 2.976238e+00 6.177845e+01 -2.212662e-01 -8.253667e-01 -4.749153e-01 -5.231741e-01 -5.929263e-01 -5.387392e-01 -2.535871e-02 -2.233122e-01 -4.176622e-01 -5.335464e-01 4.954246e-01 7.786693e-02 5.478848e-01 5.857210e-02 1.824287e-01 -1.004516e-01 -4.206413e-02 -1.903151e-02 2.156457e-02 7.990732e-02 9.788668e-02 7.407324e-02 1.436716e-01 -1.247787e-01 -8.760180e-02 -6.877858e-02
<VARIANCE> 39
 2.836555e+01 7.913097e+01 2.582222e+01 4.115535e+01 2.837850e+01 5.263058e+01 6.662467e+01 7.184524e+01 6.870618e+01 5.228041e+01 2.228215e+01 4.189246e+01 7.422828e+01 1.519265e+00 8.763999e+00 1.633078e+00 3.747076e+00 2.437165e+00 5.817372e+00 5.875912e+00 5.808298e+00 4.717360e+00 7.073988e+00 2.000117e+00 1.825697e+00 8.296653e+00 1.920605e-01 1.433252e+00 1.920462e-01 5.510211e-01 3.576256e-01 1.021414e+00 1.162191e+00 8.585358e-01 9.333622e-01 1.143747e+00 3.417523e-01 2.559653e-01 1.243023e+00
<GCONST> 1.322791e+02
<TRANSP> 5
 0.000000e+00 1.000000e+00 0.000000e+00 0.000000e+00 0.000000e+00
 0.000000e+00 7.100083e-01 2.899917e-01 0.000000e+00 0.000000e+00
 0.000000e+00 0.000000e+00 4.491668e-01 5.508332e-01 0.000000e+00
 0.000000e+00 0.000000e+00 0.000000e+00 7.833068e-01 2.166933e-01
 0.000000e+00 0.000000e+00 0.000000e+00 0.000000e+00 0.000000e+00
<ENDHMM>
~h "f"
<BEGINHMM>
<NUMSTATES> 5
<STATE> 2
<MEAN> 39
 -1.322373e+01 4.145617e+00 1.962350e+00 3.304031e+00 2.203749e+01 -1.236642e+01 4.940429e-01 -2.638443e+00 2.073673e+00 -1.548394e+00 7.203625e+00 -9.700995e+00 6.919424e+01 -2.084479e+00 7.870010e-01 4.568400e-02 -5.017579e-01 5.997497e-01 7.519693e-01 1.000244e+00 -4.180848e-01 3.986092e-01 -5.255666e-01 -1.008163e-01 5.043159e-01 7.073388e-01 -1.100055e-01 -1.906725e-01 1.245393e-02 1.204592e-01 -3.124176e-01 2.203331e-01 -6.542700e-02 4.633495e-02 -1.368253e-02 -8.086406e-02 -1.527200e-01 9.372556e-02 -7.785071e-02
<VARIANCE> 39
 6.379601e+01 5.236872e+01 3.631667e+01 9.992355e+01 4.181879e+01 6.855683e+01 1.369935e+02 5.970732e+01 3.449720e+01 4.718788e+01 3.503801e+01 6.518826e+01 2.656819e+01 7.309472e+00 2.235147e+00 1.672900e+00 2.971946e+00 2.786643e+00 5.039393e+00 4.526481e+00 4.240990e+00 2.974967e+00 2.794148e+00 2.517312e+00 3.447995e+00 2.647422e+00 7.068990e-01 5.195400e-01 3.082999e-01 4.008207e-01 5.661054e-01 7.981689e-01 1.052910e+00 1.273216e+00 4.425206e-01 6.286024e-01 4.118159e-01 5.854485e-01 2.921370e-01
<GCONST> 1.310867e+02
<STATE> 3
<MEAN> 39
 -2.906855e+01 4.537113e+00 -3.069608e+00 -6.661463e+00 1.731516e+01 -2.683084e+00 1.134564e+01 -2.099370e+00 6.907992e+00 -1.537369e+00 5.653538e+00 -2.289597e+00 6.834895e+01 -4.412346e-01 -8.442547e-01 -3.807707e-01 -3.972366e-01 -3.444839e-01 4.346904e-01 4.392274e-02 1.838351e-01 3.681048e-02 -1.736203e-01 -4.491151e-01 -2.677910e-01 -2.032852e-01 6.211070e-01 -1.686438e-03 4.408624e-02 -1.170034e-01 -1.394154e-01 -1.714426e-01 -1.417474e-01 9.708066e-02 -7.342942e-02 -4.631179e-03 -5.326725e-02 -4.307934e-02 -7.255863e-02
<VARIANCE> 39
 1.280402e+01 2.773425e+01 2.182470e+01 2.700460e+01 3.225739e+01 3.826251e+01 1.924562e+01 2.072489e+01 2.304682e+01 1.984483e+01 2.061087e+01 1.238690e+01 6.603324e+00 1.781172e+00 1.335355e+00 5.140304e-01 9.322832e-01 1.170782e+00 1.314622e+00 1.755574e+00 1.304972e+00 1.124308e+00 9.546824e-01 1.161717e+00 9.082943e-01 3.475030e-01 2.794053e-01 3.346936e-01 1.205904e-01 2.086322e-01 2.195524e-01 2.075113e-01 3.685816e-01 3.130274e-01 2.768688e-01 2.048600e-01 1.867251e-01 2.050004e-01 6.561391e-02
<GCONST> 9.089268e+01
<STATE> 4
<MEAN> 39
 -1.192003e+01 4.751773e+00 -4.842784e+00 -1.359447e+01 1.174891e+01 -4.626183e+00 5.958677e+00 2.665657e+00 6.287086e+00 -3.610142e+00 1.296272e+00 -3.030964e+00 6.700301e+01 4.539228e+00 1.347891e+00 -7.344211e-02 -6.752560e-01 -9.812477e-01 -1.296622e+00 -1.852948e+00 1.094178e+00 2.931377e-01 2.605541e-01 -3.801024e-01 -1.002323e-01 1.286455e-01 1.504869e-01 2.924652e-01 7.119065e-02 1.755110e-01 1.675926e-01 2.080655e-02 9.091575e-02 2.626712e-01 2.960284e-02 3.700536e-02 1.467345e-01 6.312414e-02 1.116503e-01
<VARIANCE> 39
 1.696536e+02 4.677567e+01 2.532038e+01 2.867912e+01 4.017595e+01 4.661812e+01 4.638551e+01 3.587102e+01 3.078890e+01 4.013955e+01 1.611085e+01 1.989246e+01 7.235868e+00 5.318302e+00 4.727963e+00 2.683805e+00 5.216102e+00 4.149627e+00 2.658443e+00 3.160066e+00 4.450132e+00 4.728909e+00 4.553271e+00 1.636658e+00 3.010838e+00 9.296007e-01 1.500175e+00 1.346680e+00 4.956632e-01 8.024691e-01 7.332055e-01 5.405579e-01 7.079084e-01 8.210369e-01 7.121387e-01 8.179649e-01 2.415809e-01 6.724008e-01 1.913815e-01
<GCONST> 1.268658e+02
<TRANSP> 5
 0.000000e+00 1.000000e+00 0.000000e+00 0.000000e+00 0.000000e+00
 0.000000e+00 8.091314e-01 1.908685e-01 0.000000e+00 0.000000e+00
 0.000000e+00 0.000000e+00 8.999180e-01 1.000821e-01 0.000000e+00
 0.000000e+00 0.000000e+00 0.000000e+00 7.908112e-01 2.091887e-01
 0.000000e+00 0.000000e+00 0.000000e+00 0.000000e+00 0.000000e+00
<ENDHMM>
~h "g"
<BEGINHMM>
<NUMSTATES> 5
<STATE> 2
<MEAN> 39
 -4.151702e+00 3.388515e+00 6.309574e+00 1.037392e+01 2.070424e+01 -1.371394e+01 -4.824284e+00 2.393277e-01 2.596929e+00 -5.958869e+00 6.145950e+00 -8.597239e+00 6.743994e+01 2.807765e-01 7.304207e-01 6.250657e-01 1.025814e+00 2.438014e-01 3.928732e-01 -4.003764e-01 2.448339e-01 4.681870e-01 1.111501e+00 -5.285540e-01 3.159282e-02 -1.318415e+00 4.526215e-02 -4.196163e-02 -8.963464e-02 -1.934565e-01 -3.397835e-01 1.153189e-01 2.022040e-01 2.739121e-01 1.382606e-01 2.494480e-01 -2.269801e-01 -1.009846e-02 -1.145310e-01
<VARIANCE> 39
 3.126922e+01 3.991254e+01 3.912399e+01 1.026403e+02 7.733160e+01 6.063279e+01 6.372998e+01 8.696442e+01 3.453208e+01 4.395893e+01 2.249348e+01 4.291485e+01 4.403967e+01 5.841020e-01 1.462253e+00 1.497702e+00 1.083233e+00 2.826931e+00 2.459436e+00 4.738026e+00 3.452267e+00 1.276968e+00 3.696849e+00 2.040839e+00 3.511736e+00 1.144017e+00 1.115083e-01 2.789284e-01 2.438838e-01 2.121232e-01 5.754757e-01 5.194917e-01 1.027544e+00 6.079005e-01 5.026202e-01 7.245915e-01 4.972831e-01 5.252591e-01 9.368956e-02
<GCONST> 1.180458e+02
<STATE> 3
<MEAN> 39
 -2.860777e+00 8.539566e+00 1.030826e+01 1.486217e+01 1.952558e+01 -7.308231e+00 -4.564542e+00 6.644038e+00 4.380650e+00 -6.482241e-02 1.854814e+00 -7.079180e+00 5.583229e+01 -1.424535e-01 1.222668e+00 -2.535148e-01 -2.417214e-01 -9.249775e-01 1.324581e+00 1.154379e+00 3.746856e-01 -1.536039e-02 9.151984e-01 -1.170544e+00 5.033374e-01 -1.727243e+00 -2.451315e-01 -5.374255e-01 -3.309016e-01 -8.716675e-01 -1.738726e-02 9.595522e-02 3.838622e-01 -2.882579e-01 -2.250125e-01 -4.502441e-01 2.389025e-01 3.211141e-02 6.660233e-01
<VARIANCE> 39
 2.388968e+01 2.292958e+01 2.346959e+01 1.388691e+02 8.192221e+01 1.745589e+01 7.081581e+01 8.193042e+01 2.883153e+01 3.704852e+01 1.428969e+01 9.747268e+00 1.767753e+01 7.234858e-01 1.236109e+00 1.415906e+00 1.768065e+00 8.506854e-01 1.098580e+00 2.702888e+00 1.833290e+00 1.756566e+00 2.762635e+00 1.525694e+00 1.059940e+00 4.613453e-01 9.166834e-02 3.729122e-01 3.069182e-01 6.122321e-01 2.674401e-01 4.438386e-01 4.705873e-01 6.421636e-01 4.830291e-01 4.680328e-01 4.910043e-01 3.199683e-01 4.027419e-01
<GCONST> 1.077887e+02
<STATE> 4
<MEAN> 39
 -7.731453e+00 5.448744e+00 3.564384e+00 -2.871870e+00 1.286169e+01 -3.453924e+00 6.160136e+00 3.276634e+00 1.789092e+00 -2.614287e+00 4.570518e+00 -4.304606e+00 6.197762e+01 -8.313143e-01 -1.723822e+00 -2.128816e+00 -4.564027e+00 -1.850236e-01 -3.631456e-02 1.359874e+00 -8.505105e-01 7.430803e-02 -1.098897e+00 1.143945e+00 8.191644e-01 3.452267e+00 1.485395e-01 1.005582e-01 4.746266e-01 3.374894e-01 3.195694e-01 1.599254e-02 -5.510224e-01 -3.326156e-01 -6.227665e-02 -2.727633e-01 1.716146e-01 3.657167e-02 2.402506e-01
<VARIANCE> 39
 2.722595e+01 9.284820e+01 8.881579e+01 2.188031e+02 5.357935e+01 8.524189e+01 9.068585e+01 8.153310e+01 9.071346e+01 5.416013e+01 4.188660e+01 1.445550e+01 1.115869e+02 2.040605e+00 4.532892e+00 7.002813e+00 9.828904e+00 5.233664e+00 5.951519e+00 1.044448e+01 5.819159e+00 6.870153e+00 4.810665e+00 4.252767e+00 1.466416e+00 1.100596e+01 5.701143e-01 1.472678e+00 2.310460e+00 3.865699e+00 7.454823e-01 1.400218e+00 1.838690e+00 1.089523e+00 1.348337e+00 1.117448e+00 1.032889e+00 2.237110e-01 3.416492e+00
<GCONST> 1.509977e+02
<TRANSP> 5
 0.000000e+00 1.000000e+00 0.000000e+00 0.000000e+00 0.000000e+00
 0.000000e+00 6.221302e-01 3.778698e-01 0.000000e+00 0.000000e+00
 0.000000e+00 0.000000e+00 6.358286e-01 3.641714e-01 0.000000e+00
 0.000000e+00 0.000000e+00 0.000000e+00 7.135200e-01 2.864799e-01
 0.000000e+00 0.000000e+00 0.000000e+00 0.000000e+00 0.000000e+00
<ENDHMM>
~h "k"
<BEGINHMM>
<NUMSTATES> 5
<STATE> 2
<MEAN> 39
 -1.064473e+01 -1.122335e+00 -2.424144e+00 -1.635171e+00 6.879846e+00 2.054814e+00 6.245303e+00 1.317838e+00 -9.518508e+00 1.892861e+00 9.979514e+00 7.641382e+00 5.130129e+01 -1.180290e-01 8.217775e-01 1.485538e-01 9.378412e-02 -9.552093e-02 3.817590e-01 7.582393e-02 5.252964e-01 -6.827327e-02 2.254080e-02 -4.207838e-01 3.357681e-02 -8.756959e-01 -5.515734e-02 -9.860478e-02 5.246295e-02 -1.074303e-02 -3.310705e-02 -7.685093e-02 3.196485e-02 -1.458862e-02 1.693785e-01 4.623287e-03 -4.666040e-02 -1.270093e-01 1.363907e-01
<VARIANCE> 39
 2.180309e+01 5.896836e+01 6.405643e+01 3.690159e+01 3.415125e+01 7.246465e+01 2.762008e+01 4.761304e+01 9.219763e+01 3.100957e+01 2.330977e+01 5.208028e+01 6.385851e+01 7.734250e-01 7.016787e-01 1.197792e+00 9.444293e-01 1.322083e+00 1.146210e+00 1.399796e+00 1.455744e+00 2.062958e+00 1.440724e+00 1.268419e+00 1.329715e+00 5.730919e-01 8.047333e-02 1.329149e-01 1.868093e-01 1.807630e-01 2.354269e-01 2.319947e-01 2.863395e-01 3.246468e-01 2.662951e-01 2.979761e-01 2.263575e-01 1.925984e-01 8.469392e-02
<GCONST> 1.011668e+02
<STATE> 3
<MEAN> 39
 -7.843923e+00 8.509856e+00 1.440201e+00 2.230222e+00 7.572643e+00 -4.008347e+00 4.748016e+00 6.700135e+00 3.717552e+00 5.912384e+00 5.289908e+00 -8.269593e-01 5.285196e+01 -1.059961e+00 -4.052833e-01 -1.927630e-01 -2.744652e-01 -4.810575e-01 9.053847e-02 6.688218e-01 -2.449677e-01 5.718132e-01 1.495489e-01 8.675253e-02 -2.228427e-01 -1.506958e-01 -4.257712e-01 -1.318896e+00 -2.901128e-01 -3.231379e-01 1.018811e-01 -6.238899e-01 1.069607e-01 -5.375732e-01 2.847839e-01 -7.746678e-01 2.231878e-02 -1.309288e-01 1.513907e+00
<VARIANCE> 39
 3.709666e+01 5.861509e+01 6.407089e+01 8.419669e+01 8.662793e+01 8.110175e+01 5.434514e+01 7.562782e+01 1.032659e+02 5.031599e+01 4.351546e+01 3.203400e+01 3.840816e+01 1.796679e+00 4.940599e+00 3.110346e+00 1.747263e+00 2.691577e+00 2.115184e+00 5.099826e+00 3.051101e+00 3.005762e+00 3.483063e+00 2.552334e+00 1.941998e+00 3.102798e+00 4.211636e-01 7.152605e-01 6.212615e-01 5.704656e-01 8.654728e-01 6.982353e-01 9.940121e-01 7.767429e-01 8.089535e-01 7.724045e-01 5.947327e-01 3.786864e-01 9.827493e-01
<GCONST> 1.330410e+02
<STATE> 4
<MEAN> 39
 -1.621633e+01 -6.716815e+00 -5.895433e-01 -1.062963e+00 6.492980e+00 -1.145175e+01 2.878214e+00 -1.889071e+00 6.795258e+00 -9.990115e-01 4.898714e+00 -3.097133e+00 7.074606e+01 -3.920683e-01 -1.263523e+00 -3.819465e-02 -8.087112e-01 -2.909520e-01 -8.496138e-01 -6.564163e-01 -8.246694e-01 6.706319e-01 -3.955833e-01 3.964584e-01 -1.548909e-01 1.875700e+00 2.873693e-01 3.302568e-01 1.587207e-01 8.903784e-02 1.773548e-01 1.640364e-01 -1.345787e-01 9.043114e-02 -5.377843e-02 2.065214e-01 1.155896e-01 -4.180409e-02 -3.251821e-01
<VARIANCE> 39
 2.083173e+01 5.263707e+01 2.266285e+01 3.239907e+01 3.172761e+01 5.579496e+01 4.499656e+01 4.900360e+01 3.823689e+01 4.273093e+01 4.267101e+01 2.565440e+01 1.249021e+02 3.047605e+00 7.594521e+00 4.359258e+00 3.578776e+00 4.530293e+00 5.354157e+00 4.145962e+00 4.770380e+00 3.540178e+00 6.304526e+00 4.229908e+00 2.109070e+00 1.453085e+01 3.455946e-01 1.093097e+00 7.554055e-01 5.687839e-01 6.938407e-01 8.675255e-01 7.503739e-01 8.530653e-01 5.650629e-01 9.761245e-01 7.168348e-01 3.665361e-01 2.616244e+00
<GCONST> 1.359685e+02
<TRANSP> 5
 0.000000e+00 1.000000e+00 0.000000e+00 0.000000e+00 0.000000e+00
 0.000000e+00 7.710212e-01 2.289787e-01 0.000000e+00 0.000000e+00
 0.000000e+00 0.000000e+00 5.000836e-01 4.999163e-01 0.000000e+00
 0.000000e+00 0.000000e+00 0.000000e+00 8.191630e-01 1.808370e-01
 0.000000e+00 0.000000e+00 0.000000e+00 0.000000e+00 0.000000e+00
<ENDHMM>
~h "l"
<BEGINHMM>
<NUMSTATES> 5
<STATE> 2
<MEAN> 39
 2.227774e+00 1.074816e+01 1.453373e+01 3.738433e+00 -5.169149e+00 -2.344251e+01 2.210023e+00 9.979657e+00 5.301352e+00 -2.378286e+00 4.898305e+00 -3.583668e+00 6.241273e+01 3.675016e-02 3.337758e-01 5.221493e-01 5.373382e-01 -2.461406e-01 6.276995e-02 -2.997053e-01 3.306710e-02 -1.870874e-01 3.615678e-01 1.812374e-01 2.634184e-01 -5.129769e-01 -1.082931e-01 -1.603181e-01 -1.496693e-01 -1.938817e-01 9.800703e-02 1.857303e-01 1.818732e-02 -1.739399e-01 8.117145e-02 -1.008685e-01 4.758698e-02 4.730976e-02 1.363605e-01
<VARIANCE> 39
 1.411981e+01 3.208901e+01 5.402501e+01 8.048335e+01 7.796820e+01 1.183405e+02 4.624099e+01 4.548881e+01 7.215614e+01 7.816507e+01 3.940165e+01 4.613486e+01 5.014515e+01 5.404306e-01 8.970157e-01 1.065616e+00 2.023101e+00 2.421830e+00 4.861226e+00 2.261004e+00 2.456125e+00 2.472641e+00 2.840387e+00 2.067299e+00 2.111030e+00 5.929878e-01 7.175495e-02 2.044957e-01 2.156179e-01 3.100918e-01 3.264963e-01 5.948353e-01 3.419568e-01 5.319657e-01 4.992914e-01 4.554387e-01 4.441245e-01 3.717069e-01 1.297173e-01
<GCONST> 1.145397e+02
<STATE> 3
<MEAN> 39
 -1.643569e+00 1.126641e+01 1.285551e+01 7.348491e+00 1.320895e+00 -1.299997e+01 3.230402e+00 7.763971e+00 3.837107e+00 1.579791e+00 2.982514e+00 -1.413590e+00 5.696943e+01 -1.602493e+00 -1.881100e+00 -1.257466e+00 -1.322521e+00 1.400936e+00 1.135054e+00 3.733889e-01 -2.156530e+00 1.000813e+00 -7.728828e-01 6.566325e-01 6.887148e-02 1.918635e+00 -2.905634e-01 -6.259913e-01 -2.426596e-01 -4.222130e-01 -9.933850e-02 -5.504807e-01 3.746840e-01 2.753944e-02 1.814095e-01 -5.639874e-01 5.922017e-02 -3.414832e-01 8.876386e-01
<VARIANCE> 39
 4.387778e+01 5.287828e+01 6.108099e+01 4.304411e+01 7.658768e+01 9.072005e+01 6.764034e+01 7.198285e+01 5.308844e+01 4.695563e+01 4.122260e+01 4.335578e+01 4.407339e+01 3.172143e+00 5.908637e+00 4.270043e+00 4.558280e+00 5.540083e+00 1.366817e+01 6.785717e+00 1.131746e+01 5.485337e+00 6.914098e+00 5.596078e+00 4.236656e+00 6.777588e+00 3.836336e-01 9.401283e-01 7.701768e-01 4.802528e-01 6.750458e-01 9.134408e-01 9.586591e-01 1.540248e+00 8.748455e-01 1.012655e+00 7.326800e-01 5.163196e-01 7.208698e-01
<GCONST> 1.434874e+02
<STATE> 4
<MEAN> 39
 -4.453291e+00 3.708093e+00 9.878146e+00 -3.227822e-01 1.268635e+00 -1.669019e+01 5.285324e+00 4.723639e+00 8.549468e+00 -4.587116e+00 3.849259e+00 -6.083473e+00 6.834657e+01 -1.639959e-01 -5.835418e-01 -8.906278e-01 -8.498823e-01 4.288970e-01 -2.343355e-01 5.305251e-01 1.160498e-02 -1.132813e-02 -1.077240e-01 1.603272e-01 -9.605173e-02 8.521478e-01 3.208748e-01 3.483272e-01 -1.829006e-02 3.061983e-01 3.573290e-02 1.259104e-02 -2.219296e-01 2.855151e-01 -2.134309e-01 3.067923e-01 -7.156838e-02 8.258291e-02 -4.859310e-01
<VARIANCE> 39
 6.986228e+01 5.375545e+01 4.836963e+01 6.271440e+01 1.511868e+02 1.488956e+02 1.092790e+02 1.125605e+02 6.046648e+01 6.188567e+01 6.011626e+01 5.057109e+01 4.621275e+01 3.743029e+00 3.415646e+00 4.924556e+00 4.520277e+00 7.043413e+00 8.492430e+00 5.905931e+00 7.770675e+00 4.280696e+00 4.815482e+00 4.646608e+00 2.422723e+00 4.561825e+00 6.010299e-01 6.230124e-01 6.520642e-01 7.580930e-01 1.068765e+00 1.222971e+00 1.174153e+00 1.496904e+00 8.234997e-01 8.772453e-01 9.754713e-01 5.566813e-01 8.355917e-01
<GCONST> 1.460079e+02
<TRANSP> 5
 0.000000e+00 1.000000e+00 0.000000e+00 0.000000e+00 0.000000e+00
 0.000000e+00 8.112521e-01 1.887479e-01 0.000000e+00 0.000000e+00
 0.000000e+00 0.000000e+00 5.710236e-01 4.289763e-01 0.000000e+00
 0.000000e+00 0.000000e+00 0.000000e+00 7.547693e-01 2.452307e-01
 0.000000e+00 0.000000e+00 0.000000e+00 0.000000e+00 0.000000e+00
<ENDHMM>
~h "m"
<BEGINHMM>
<NUMSTATES> 5
<STATE> 2
<MEAN> 39
 5.491725e+00 5.304129e+00 4.231842e-02 5.358415e+00 1.088521e+01 -2.586448e+00 6.745924e+00 8.666947e+00 1.190648e-01 -2.741218e-02 2.737029e+00 -8.584759e+00 6.336612e+01 -2.804709e-01 6.852621e-01 -3.195422e-01 -6.406439e-01 1.088260e-02 -4.297747e-01 2.068662e-01 -7.227292e-01 1.227540e+00 -4.276322e-01 8.533562e-02 -5.674798e-01 1.130362e-01 -5.817144e-01 1.325446e-01 -1.126581e-01 -6.930016e-01 9.004389e-02 -6.149599e-01 1.205817e-01 -4.271325e-01 6.150440e-01 -1.891470e-01 3.232597e-01 3.335182e-01 3.224154e-01
<VARIANCE> 39
 1.743052e+01 2.213063e+01 7.458633e+01 4.743104e+01 3.303630e+01 7.455019e+01 3.082309e+01 4.599822e+01 2.699245e+01 6.702680e+01 2.038914e+01 1.025073e+02 8.547504e+00 3.092324e+00 1.121023e+00 3.389474e+00 2.644843e+00 1.812044e+00 5.186084e+00 2.795760e+00 4.139928e+00 3.937496e+00 3.430027e+00 2.432747e+00 4.273308e+00 8.977969e-01 1.612365e-01 2.113488e-01 3.967857e-01 3.611923e-01 4.528157e-01 9.187981e-01 5.249780e-01 6.106702e-01 6.274815e-01 4.497930e-01 4.368300e-01 8.473931e-01 1.264358e-01
<GCONST> 1.194600e+02
<STATE> 3
<MEAN> 39
 1.237490e+00 7.769144e+00 -3.616060e+00 2.042897e+00 1.469536e+01 -1.010708e+01 7.160369e+00 4.527388e+00 5.956479e+00 -2.234640e+00 5.941463e+00 -5.381876e+00 6.528179e+01 -1.231299e+00 4.486603e-01 3.550891e-01 -8.375272e-01 7.396904e-02 -7.911409e-01 -6.083565e-02 -9.315941e-01 1.260389e+00 -2.293429e-01 9.448302e-01 5.837529e-01 2.216903e-01 9.764419e-02 -9.567050e-02 1.276628e-01 -7.806510e-02 -2.107843e-01 7.111690e-02 6.264689e-02 4.043349e-01 -1.807851e-01 1.611865e-01 -6.262381e-02 1.157860e-01 -9.128401e-02
<VARIANCE> 39
 2.148334e+01 2.951107e+01 3.188863e+01 5.092580e+01 3.950963e+01 5.754986e+01 4.227958e+01 5.688516e+01 4.151453e+01 5.161375e+01 2.492151e+01 4.803314e+01 1.354483e+01 2.809923e+00 2.985640e+00 2.552513e+00 5.602467e+00 3.153660e+00 1.069095e+01 4.531577e+00 6.541165e+00 4.515381e+00 4.085427e+00 2.444973e+00 6.288315e+00 2.272040e+00 3.417103e-01 4.706777e-01 3.222242e-01 7.467856e-01 4.885420e-01 6.388903e-01 9.131982e-01 1.097655e+00 8.751777e-01 7.638660e-01 4.930483e-01 8.515869e-01 2.886541e-01
<GCONST> 1.296357e+02
<STATE> 4
<MEAN> 39
 -3.561634e+00 3.287129e+00 -1.326735e-01 5.460327e-01 1.505828e+01 -7.971940e+00 4.361088e+00 3.413949e+00 1.048717e+01 -3.313367e-01 6.682103e+00 -4.662140e+00 6.626115e+01 -6.743529e-01 -2.448754e-01 2.630420e-02 -1.181302e+00 -2.412320e-01 -4.969526e-01 2.979901e-01 -6.417985e-02 3.998670e-01 -3.934402e-01 1.321848e-01 1.401495e-01 7.036468e-01 3.304438e-02 -1.909793e-01 3.427310e-02 -4.738890e-03 1.604025e-02 9.184971e-02 2.382035e-02 2.456891e-01 -2.500291e-01 -9.214812e-02 -1.069153e-01 8.820367e-02 6.900630e-02
<VARIANCE> 39
 6.701469e+01 8.922601e+01 4.359572e+01 7.369827e+01 4.054794e+01 5.592171e+01 3.965388e+01 6.851916e+01 4.458501e+01 5.492550e+01 4.928989e+01 2.397422e+01 3.650220e+01 5.669419e+00 6.953226e+00 4.224797e+00 5.450028e+00 4.009900e+00 5.949075e+00 3.531338e+00 6.271518e+00 5.497609e+00 3.080465e+00 3.232990e+00 2.676139e+00 3.132569e+00 6.114669e-01 9.320289e-01 7.471318e-01 5.935102e-01 6.443170e-01 5.909554e-01 3.709604e-01 1.187074e+00 1.064459e+00 5.719312e-01 5.565953e-01 6.523488e-01 4.382259e-01
<GCONST> 1.362714e+02
<TRANSP> 5
 0.000000e+00 1.000000e+00 0.000000e+00 0.000000e+00 0.000000e+00
 0.000000e+00 6.786646e-01 3.213353e-01 0.000000e+00 0.000000e+00
 0.000000e+00 0.000000e+00 5.105658e-01 4.894342e-01 0.000000e+00
 0.000000e+00 0.000000e+00 0.000000e+00 6.612850e-01 3.387150e-01
 0.000000e+00 0.000000e+00 0.000000e+00 0.000000e+00 0.000000e+00
<ENDHMM>
~h "n"
<BEGINHMM>
<NUMSTATES> 5
<STATE> 2
<MEAN> 39
 7.246169e-02 2.715000e+00 -2.680946e+00 -8.687906e-01 1.841918e+01 -1.219581e+01 4.229468e+00 4.448271e+00 6.336795e+00 -2.667573e+00 4.070028e+00 -1.616240e+00 6.971665e+01 4.387053e-01 9.718731e-01 2.099075e-01 1.625180e+00 3.246668e-01 1.832743e+00 -4.073461e-01 -6.158525e-01 6.524932e-02 1.454259e-01 -3.376446e-01 2.253741e-02 -1.591440e+00 3.186305e-01 1.040454e-01 -3.781912e-02 5.805972e-01 -1.842505e-01 1.258392e-01 -6.842284e-02 7.641606e-02 -1.931695e-01 4.631612e-01 3.728336e-02 -3.217688e-01 -4.256543e-01
<VARIANCE> 39
 2.132635e+01 1.652917e+01 5.446824e+01 6.312004e+01 5.355951e+01 5.674029e+01 1.092736e+02 5.135387e+01 3.624000e+01 3.431323e+01 4.610938e+01 4.112808e+01 2.868814e+01 1.285917e+00 1.387689e+00 1.949866e+00 3.073498e+00 1.728340e+00 2.854632e+00 3.158287e+00 3.906667e+00 2.663034e+00 2.847171e+00 2.251055e+00 1.933866e+00 1.421836e+00 1.180428e-01 1.741757e-01 3.124488e-01 4.506631e-01 3.275899e-01 3.855564e-01 6.304632e-01 5.781438e-01 5.524717e-01 4.495796e-01 4.304618e-01 3.381432e-01 1.312450e-01
<GCONST> 1.164202e+02
<STATE> 3
<MEAN> 39
 2.933688e+00 5.657709e+00 -1.752909e+00 7.805231e+00 1.858672e+01 -7.113666e+00 3.368114e+00 3.685125e+00 2.855771e+00 8.559586e-01 3.717475e+00 -3.123791e+00 6.300947e+01 9.886756e-01 7.698485e-01 1.734564e-01 1.856183e+00 -5.342870e-02 1.338205e+00 -2.244386e-01 -9.612593e-02 -7.464788e-01 1.272390e+00 -6.251970e-01 -7.611656e-01 -1.710286e+00 -1.671810e-01 -1.564266e-01 2.884921e-03 -4.753306e-01 -9.365420e-02 -3.840269e-01 5.592930e-02 2.537864e-02 1.324850e-01 1.852474e-02 8.203117e-02 -1.021327e-01 3.729930e-01
<VARIANCE> 39
 1.819073e+01 7.884781e+00 3.579451e+01 2.390254e+01 3.087698e+01 3.241734e+01 5.218282e+01 2.383643e+01 2.456954e+01 3.382127e+01 3.410102e+01 3.191126e+01 1.361220e+01 5.845308e-01 1.077821e+00 1.440530e+00 1.807636e+00 1.715429e+00 1.935622e+00 2.003439e+00 1.809662e+00 2.362935e+00 2.242648e+00 1.264767e+00 1.576019e+00 9.226027e-01 6.308465e-02 9.198594e-02 1.646739e-01 2.363361e-01 1.538949e-01 2.584758e-01 3.100541e-01 2.147756e-01 3.109358e-01 2.916527e-01 2.583770e-01 2.347308e-01 5.848006e-02
<GCONST> 9.664391e+01
<STATE> 4
<MEAN> 39
 3.830662e+00 8.617861e+00 7.235683e-01 9.724107e+00 1.699358e+01 -4.288644e+00 1.912321e+00 4.540503e+00 1.712987e+00 5.592793e+00 1.656540e+00 -4.550917e+00 5.820145e+01 4.638729e-02 5.710886e-01 2.335025e-01 7.342879e-02 -3.013208e-01 3.522929e-01 -2.229675e-01 5.544091e-02 -1.657590e-02 3.903807e-01 -2.003900e-01 2.685014e-02 -6.368958e-01 -2.241039e-01 -8.567461e-02 3.490699e-02 -3.404811e-01 3.746287e-02 -1.133255e-01 2.665973e-02 -5.567447e-02 1.755632e-01 -2.811826e-01 1.174463e-01 1.580140e-01 2.130977e-01
<VARIANCE> 39
 2.504352e+01 1.560131e+01 3.112313e+01 1.875764e+01 2.725636e+01 3.445876e+01 3.253549e+01 2.912444e+01 2.476223e+01 3.047950e+01 3.679329e+01 2.483794e+01 1.923648e+01 4.234786e-01 6.336100e-01 8.232208e-01 8.677149e-01 1.022730e+00 1.145385e+00 1.613137e+00 1.141492e+00 1.276514e+00 1.625141e+00 1.233895e+00 1.296177e+00 2.521746e-01 9.303196e-02 1.540505e-01 1.145916e-01 2.578089e-01 1.999054e-01 3.480043e-01 3.682506e-01 2.920376e-01 2.808203e-01 3.984703e-01 2.264606e-01 2.293582e-01 1.213678e-01
<GCONST> 9.313371e+01
<TRANSP> 5
 0.000000e+00 1.000000e+00 0.000000e+00 0.000000e+00 0.000000e+00
 0.000000e+00 5.550444e-01 4.449556e-01 0.000000e+00 0.000000e+00
 0.000000e+00 0.000000e+00 5.471064e-01 4.528936e-01 0.000000e+00
 0.000000e+00 0.000000e+00 0.000000e+00 7.949442e-01 2.050558e-01
 0.000000e+00 0.000000e+00 0.000000e+00 0.000000e+00 0.000000e+00
<ENDHMM>
~h "p"
<BEGINHMM>
<NUMSTATES> 5
<STATE> 2
<MEAN> 39
 -6.177875e-01 8.444303e+00 -6.124708e+00 -1.554381e+01 6.607675e+00 -8.573305e+00 1.344282e+01 4.440459e+00 4.033429e+00 1.418292e+00 4.698671e+00 1.227009e+00 6.403570e+01 -2.967493e-02 1.781793e-01 -4.504710e-03 -2.166338e-01 -7.030916e-02 2.195801e-01 1.813759e-01 2.146981e-01 -2.133582e-01 2.513344e-01 5.967345e-02 2.139636e-01 -3.963382e-01 -6.157443e-02 -9.642111e-02 1.887753e-02 1.706136e-01 1.118475e-01 -1.623672e-02 1.948874e-03 -7.486849e-02 -2.955373e-02 2.912986e-02 3.473032e-02 -2.731068e-02 9.986972e-03
<VARIANCE> 39
 2.515581e+01 9.421898e+01 2.745823e+01 7.759053e+01 5.553357e+01 1.219469e+02 1.382790e+02 3.204516e+01 1.686812e+02 5.131570e+01 4.346521e+01 4.563009e+01 3.408548e+01 1.410884e+00 3.626664e+00 1.947903e+00 3.879373e+00 3.193771e+00 4.482308e+00 4.977896e+00 3.380867e+00 5.538405e+00 4.144620e+00 3.082402e+00 1.950873e+00 1.996782e+00 2.140665e-01 5.829175e-01 3.457526e-01 3.915002e-01 5.406229e-01 5.288175e-01 5.498157e-01 6.494321e-01 6.587918e-01 6.649235e-01 5.912076e-01 3.854178e-01 4.659547e-01
<GCONST> 1.298439e+02
<STATE> 3
<MEAN> 39
 -9.945975e+00 -1.979560e+00 -7.999647e+00 -6.034152e+00 1.014576e+01 -6.078693e+00 6.153729e+00 1.181764e-01 3.687984e+00 1.306549e+00 7.971870e+00 -3.387994e+00 6.690844e+01 -1.148167e+00 -2.871203e+00 -5.634581e-01 2.539920e-01 4.824290e-02 -1.034393e+00 -1.132562e+00 -1.981443e+00 9.402600e-01 -4.627810e-01 -9.041727e-02 -9.490503e-01 2.829616e+00 3.126566e-01 3.268460e-01 3.695094e-01 -1.548964e-01 -2.599232e-01 2.997286e-01 2.692607e-02 -3.186791e-02 -4.194642e-01 6.950442e-02 -5.360853e-02 3.173440e-01 -5.089451e-01
<VARIANCE> 39
 2.825326e+01 7.251678e+01 3.450518e+01 3.383567e+01 2.987108e+01 3.962373e+01 4.395628e+01 6.618934e+01 4.667595e+01 3.444582e+01 2.925810e+01 2.675985e+01 1.092757e+02 2.390798e+00 5.743887e+00 4.212513e+00 5.182552e+00 4.150486e+00 5.275059e+00 3.896824e+00 3.851185e+00 2.885626e+00 5.284982e+00 3.654937e+00 3.739969e+00 1.189517e+01 4.224106e-01 1.185634e+00 8.493575e-01 1.159721e+00 5.983387e-01 9.631198e-01 6.377234e-01 8.863186e-01 3.737891e-01 1.227788e+00 6.404675e-01 4.939989e-01 3.445883e+00
<GCONST> 1.369495e+02
<STATE> 4
<MEAN> 39
 -9.642205e+00 -1.330747e+01 -3.802317e+00 -1.535100e+00 8.371200e+00 -3.836500e+00 -7.028279e-01 -8.901171e+00 -7.843248e-01 3.608845e+00 9.265447e+00 -5.658399e-01 6.468803e+01 5.838370e-01 -1.283009e-01 2.839284e-01 6.744502e-01 -1.944634e-01 5.021254e-01 2.707693e-01 4.567870e-01 -7.521659e-01 7.274712e-01 3.284237e-01 8.684373e-01 -1.393677e+00 1.461685e-02 2.855550e-01 -9.124044e-02 1.753830e-02 4.087367e-02 -3.737645e-02 1.633279e-01 2.675845e-01 -4.472242e-02 -1.002779e-01 2.670787e-02 5.390739e-02 1.265716e-02
<VARIANCE> 39
 1.413500e+01 3.250300e+01 1.140634e+01 1.941232e+01 1.817836e+01 1.743281e+01 2.479708e+01 5.430368e+01 4.067951e+01 1.871762e+01 2.009648e+01 2.620528e+01 1.889442e+01 4.162539e-01 1.699332e+00 9.580631e-01 8.084272e-01 9.196712e-01 1.210174e+00 2.059396e+00 2.198491e+00 1.500228e+00 1.718964e+00 1.572781e+00 1.131972e+00 7.707821e-01 1.149876e-01 3.365796e-01 2.339194e-01 2.006804e-01 1.999468e-01 2.292507e-01 3.173479e-01 2.872429e-01 3.405394e-01 3.703464e-01 3.823338e-01 2.437854e-01 1.848331e-01
<GCONST> 9.637072e+01
<TRANSP> 5
 0.000000e+00 1.000000e+00 0.000000e+00 0.000000e+00 0.000000e+00
 0.000000e+00 9.343956e-01 6.560451e-02 0.000000e+00 0.000000e+00
 0.000000e+00 0.000000e+00 7.012495e-01 2.987505e-01 0.000000e+00
 0.000000e+00 0.000000e+00 0.000000e+00 8.071043e-01 1.928957e-01
 0.000000e+00 0.000000e+00 0.000000e+00 0.000000e+00 0.000000e+00
<ENDHMM>
~h "r"
<BEGINHMM>
<NUMSTATES> 5
<STATE> 2
<MEAN> 39
 1.585063e-01 5.468060e+00 -3.989431e+00 -9.520255e+00 1.197467e+01 -7.652194e+00 4.103260e+00 2.031598e-01 1.646962e+00 -3.745305e+00 6.986136e+00 2.811635e+00 6.421152e+01 7.456562e-02 7.875305e-01 -1.273060e-01 -6.773740e-01 -9.963747e-01 7.546753e-01 1.571128e+00 7.351058e-01 -1.249310e+00 -6.226061e-01 3.514722e-01 7.016046e-01 -5.543365e-01 -7.126061e-02 5.821935e-02 1.171025e-01 1.580358e-01 5.905274e-03 -1.494209e-02 -1.216827e-01 6.426188e-02 -8.082109e-02 -5.833402e-02 -7.744263e-02 -6.634235e-02 -6.781450e-02
<VARIANCE> 39
 4.751287e+01 9.400766e+01 2.829961e+01 9.391829e+01 8.526390e+01 9.071649e+01 4.797223e+01 7.485853e+01 8.355851e+01 6.686021e+01 3.609387e+01 5.744522e+01 5.019685e+01 6.328145e-01 1.039830e+00 1.171207e+00 3.560355e+00 1.723533e+00 3.233495e+00 4.480109e+00 2.609926e+00 3.177050e+00 5.664064e+00 1.734924e+00 2.539787e+00 1.099308e+00 5.793063e-02 1.686758e-01 2.229686e-01 2.785068e-01 2.426177e-01 3.968918e-01 4.703225e-01 5.184731e-01 4.683990e-01 5.935716e-01 3.561067e-01 3.693260e-01 6.274436e-02
<GCONST> 1.177055e+02
<STATE> 3
<MEAN> 39
 2.724377e+00 1.281078e+01 -4.186860e+00 -1.405025e+01 9.033474e+00 -5.717976e+00 1.096793e+01 6.930974e+00 -2.379009e+00 -1.012124e+01 6.235899e+00 3.919998e+00 6.405802e+01 4.517044e-02 6.516301e-01 2.835627e-01 3.938167e-01 -1.953144e-01 5.771347e-01 4.460037e-01 3.652884e-01 -1.036150e+00 -7.150698e-01 -7.638505e-02 2.958373e-01 -5.331071e-01 -2.696770e-02 -1.783384e-01 -5.371818e-02 1.743627e-01 2.827805e-01 5.149556e-02 -2.427171e-01 -2.336403e-01 1.885482e-01 -1.507719e-02 6.408691e-02 2.329733e-03 5.563346e-02
<VARIANCE> 39
 3.044877e+01 7.436803e+01 3.578908e+01 1.054782e+02 8.622073e+01 8.268427e+01 3.654858e+01 9.490979e+01 8.557967e+01 1.123321e+02 2.984455e+01 5.037846e+01 6.500282e+01 4.222862e-01 7.874537e-01 9.236884e-01 2.098706e+00 1.419063e+00 2.576906e+00 1.745198e+00 2.336354e+00 1.794761e+00 4.127696e+00 1.701406e+00 1.625661e+00 6.873900e-01 5.877063e-02 1.503621e-01 1.175759e-01 3.723051e-01 2.241117e-01 3.812334e-01 2.327317e-01 3.822925e-01 3.051367e-01 4.257509e-01 3.468480e-01 2.675897e-01 1.042967e-01
<GCONST> 1.108154e+02
<STATE> 4
<MEAN> 39
 1.464624e+00 1.058761e+01 -6.003290e+00 -1.262411e+01 1.383678e+01 -4.037201e+00 6.257098e+00 1.749550e+00 -1.428149e+00 -1.373717e+01 8.039982e+00 4.484513e+00 6.666478e+01 -4.801192e-01 -1.103433e+00 -1.726840e-02 1.769197e+00 1.401765e+00 -1.617624e-01 -1.385185e+00 -9.552720e-01 4.000881e-01 9.543564e-01 6.358452e-01 -1.020319e-01 4.117870e-01 -1.263906e-01 -2.559201e-01 1.806528e-01 3.127168e-01 -2.010549e-02 -2.248093e-01 -1.038525e-01 3.293763e-02 4.042457e-01 4.103128e-01 -1.485469e-01 -2.738925e-01 2.186745e-02
<VARIANCE> 39
 3.001484e+01 6.545068e+01 3.305888e+01 1.074397e+02 1.001033e+02 6.336086e+01 1.005650e+02 9.627691e+01 9.463807e+01 1.449853e+02 5.668370e+01 3.724036e+01 6.218081e+01 1.142804e+00 3.608499e+00 1.981324e+00 5.957675e+00 5.847929e+00 5.620344e+00 6.474392e+00 5.646326e+00 4.914963e+00 9.694229e+00 4.564599e+00 4.184377e+00 2.042775e+00 2.202266e-01 3.788454e-01 3.538451e-01 9.231251e-01 8.426057e-01 8.473251e-01 9.169734e-01 8.457538e-01 7.958543e-01 1.597020e+00 8.696851e-01 7.179486e-01 2.320189e-01
<GCONST> 1.392987e+02
<TRANSP> 5
 0.000000e+00 1.000000e+00 0.000000e+00 0.000000e+00 0.000000e+00
 0.000000e+00 5.245484e-01 4.754516e-01 0.000000e+00 0.000000e+00
 0.000000e+00 0.000000e+00 6.641603e-01 3.358397e-01 0.000000e+00
 0.000000e+00 0.000000e+00 0.000000e+00 7.224450e-01 2.775550e-01
 0.000000e+00 0.000000e+00 0.000000e+00 0.000000e+00 0.000000e+00
<ENDHMM>
~h "s"
<BEGINHMM>
<NUMSTATES> 5
<STATE> 2
<MEAN> 39
 -1.344746e+01 -6.172567e+00 1.237703e+01 -2.488587e+00 1.466989e+01 -6.078347e+00 7.046301e+00 -6.098912e+00 4.641353e+00 -5.960636e+00 9.239710e+00 -2.372303e+00 7.367882e+01 -4.022912e+00 -2.348370e+00 2.706062e+00 2.060990e-01 -1.463593e+00 -8.841357e-01 2.089993e+00 2.553754e-01 2.055739e+00 7.834311e-01 3.898219e-02 -5.780944e-01 1.406455e+00 -3.815360e-02 4.496887e-01 -3.001628e-01 -5.916207e-01 -3.337200e-01 1.098106e-02 2.491375e-01 3.363749e-01 -7.430606e-01 -5.337666e-01 1.150193e-01 4.883670e-02 7.328726e-03
<VARIANCE> 39
 6.523388e+01 2.731322e+01 7.208278e+01 2.420319e+01 6.013895e+01 2.755477e+01 5.085697e+01 5.669802e+01 7.020718e+01 4.302127e+01 1.733205e+01 2.488106e+01 3.040925e+01 2.397793e+00 3.921849e+00 3.845043e+00 6.557828e+00 2.944200e+00 3.628936e+00 6.305560e+00 5.086176e+00 8.218898e+00 4.865304e+00 2.484768e+00 2.006733e+00 9.245654e-01 8.372119e-01 3.977646e-01 8.233569e-01 5.214431e-01 5.490506e-01 5.511622e-01 1.196508e+00 8.463839e-01 1.039343e+00 1.018728e+00 4.548994e-01 2.750211e-01 2.547120e-01
<GCONST> 1.295063e+02
<STATE> 3
<MEAN> 39
 -2.797949e+01 -1.255571e+01 1.831524e+01 -8.896056e+00 3.584251e+00 -7.414132e+00 1.519448e+01 -5.244816e+00 4.050606e+00 -3.343876e+00 9.302312e+00 -5.326070e+00 7.765748e+01 -5.452856e-01 -3.127938e-01 -4.591072e-02 -1.172922e-01 -5.614277e-01 -1.451084e-01 2.022130e-01 3.568419e-01 -2.118942e-01 1.664334e-01 -5.407354e-03 7.024195e-02 -3.018965e-01 3.660809e-01 1.046056e-01 -1.648455e-01 2.787387e-01 2.096919e-01 3.358919e-02 -2.637128e-01 4.405076e-02 2.975785e-02 1.691818e-02 -8.245966e-03 1.314539e-01 -2.710435e-01
<VARIANCE> 39
 1.381375e+01 1.228883e+01 2.602856e+01 2.611390e+01 3.105646e+01 2.023755e+01 2.856568e+01 3.509478e+01 2.347057e+01 3.026179e+01 1.663082e+01 1.490898e+01 1.058140e+01 9.287271e-01 5.014778e-01 1.908044e+00 1.672971e+00 1.533699e+00 1.431083e+00 1.704167e+00 1.238353e+00 1.418652e+00 1.671440e+00 9.526027e-01 1.007509e+00 5.209427e-01 2.248108e-01 7.995731e-02 3.396383e-01 1.860040e-01 2.306245e-01 3.020336e-01 3.202682e-01 2.860474e-01 2.713668e-01 3.555349e-01 2.132040e-01 1.884922e-01 9.722384e-02
<GCONST> 9.350614e+01
<STATE> 4
<MEAN> 39
 -2.094871e+01 -1.163509e+01 1.439936e+01 -9.507139e-01 2.961037e+00 -5.462091e+00 9.291083e+00 -1.018883e+00 2.549309e+00 -9.267014e-01 8.069533e+00 -2.208149e+00 6.673284e+01 1.958767e+00 9.825364e-01 -5.339445e-01 9.403880e-01 -2.684454e-01 1.020786e+00 -9.303336e-01 3.915597e-01 -5.643680e-01 4.814494e-01 -2.723722e-01 1.522224e-01 -1.693343e+00 1.548259e-01 9.866313e-02 -5.727085e-02 -2.144419e-01 -4.071285e-03 -1.376300e-02 2.126165e-02 -1.240648e-01 -1.314294e-02 -9.138100e-02 -1.343684e-01 -2.124487e-01 2.183167e-01
<VARIANCE> 39
 5.812949e+01 6.429674e+01 6.069703e+01 3.531702e+01 5.027265e+01 3.154281e+01 7.116216e+01 5.994782e+01 4.599216e+01 2.997027e+01 2.638987e+01 2.112931e+01 5.094081e+01 2.443887e+00 3.089894e+00 5.593216e+00 2.770081e+00 2.674318e+00 3.236342e+00 2.383055e+00 3.106402e+00 2.317725e+00 2.047143e+00 2.588011e+00 2.021500e+00 3.095207e+00 4.348255e-01 4.395140e-01 1.153249e+00 5.189713e-01 4.645666e-01 7.410607e-01 5.732893e-01 5.765248e-01 5.306144e-01 4.528969e-01 4.869189e-01 3.626707e-01 5.492793e-01
<GCONST> 1.259471e+02
<TRANSP> 5
 0.000000e+00 1.000000e+00 0.000000e+00 0.000000e+00 0.000000e+00
 0.000000e+00 7.451293e-01 2.548707e-01 0.000000e+00 0.000000e+00
 0.000000e+00 0.000000e+00 8.833907e-01 1.166093e-01 0.000000e+00
 0.000000e+00 0.000000e+00 0.000000e+00 8.394952e-01 1.605048e-01
 0.000000e+00 0.000000e+00 0.000000e+00 0.000000e+00 0.000000e+00
<ENDHMM>
~h "t"
<BEGINHMM>
<NUMSTATES> 5
<STATE> 2
<MEAN> 39
 -6.397574e+00 6.911128e+00 3.531833e+00 3.851176e+00 1.196557e+01 -1.906011e+00 3.875687e+00 3.807919e+00 1.310535e+00 5.774811e+00 6.113879e+00 -2.300946e+00 5.459196e+01 -5.898666e-01 -7.318389e-01 -7.516332e-02 -1.073041e+00 -2.519221e-01 2.075846e-01 6.108225e-01 -8.148901e-01 6.141182e-01 -7.850010e-01 -2.117191e-01 8.908163e-02 7.390059e-01 -3.309214e-01 -6.720703e-01 2.521604e-01 -3.845644e-01 -4.381370e-02 -4.517451e-01 3.967276e-02 -4.285884e-01 3.128123e-01 -5.792052e-01 9.218127e-02 -2.259363e-01 1.108728e+00
<VARIANCE> 39
 5.132419e+01 7.326345e+01 8.147848e+01 6.318998e+01 7.857679e+01 5.352169e+01 4.902054e+01 4.966294e+01 4.291525e+01 4.549537e+01 3.637047e+01 3.322366e+01 4.393268e+01 2.939441e+00 8.016392e+00 6.186204e+00 4.698114e+00 3.346900e+00 3.291087e+00 3.383570e+00 5.257043e+00 4.553294e+00 4.098747e+00 3.535141e+00 2.211464e+00 7.022621e+00 4.271448e-01 9.404394e-01 9.191213e-01 6.479788e-01 6.814940e-01 6.743044e-01 5.019769e-01 1.049380e+00 6.217553e-01 6.092343e-01 5.485245e-01 3.064961e-01 1.059761e+00
<GCONST> 1.362485e+02
<STATE> 3
<MEAN> 39
 -1.418268e+01 -7.178556e+00 6.270284e+00 -6.395314e+00 6.913972e+00 -6.872226e+00 7.842064e+00 -2.457033e+00 7.990259e+00 -3.600428e+00 7.533721e+00 -4.083567e+00 6.945740e+01 -1.032370e+00 -1.949260e+00 1.313957e+00 -9.030333e-01 -2.362473e-02 -1.624437e+00 -5.534297e-01 -1.989711e+00 4.184417e-01 -1.863095e+00 7.622465e-02 -4.987102e-01 3.411661e+00 5.345631e-01 8.470539e-01 -7.680952e-02 8.855855e-01 3.661447e-01 1.256514e-01 -6.078416e-01 4.507344e-01 -6.645406e-01 6.305951e-01 -3.034446e-02 2.310284e-01 -8.735232e-01
<VARIANCE> 39
 4.339362e+01 1.090654e+02 8.373370e+01 5.405283e+01 5.751648e+01 5.177237e+01 2.996448e+01 5.229765e+01 5.367294e+01 4.788041e+01 3.952004e+01 3.132755e+01 8.316519e+01 7.116678e+00 1.138554e+01 5.589992e+00 8.861961e+00 6.828950e+00 6.103726e+00 4.910107e+00 6.298680e+00 4.962059e+00 5.225469e+00 3.856811e+00 2.600653e+00 1.110614e+01 8.625067e-01 1.520802e+00 1.417516e+00 9.994320e-01 7.530353e-01 9.697897e-01 1.069177e+00 1.117757e+00 9.334173e-01 8.445274e-01 7.320104e-01 4.131425e-01 1.986114e+00
<GCONST> 1.464704e+02
<STATE> 4
<MEAN> 39
 -1.274449e+01 -8.236885e+00 6.409753e+00 -3.203720e+00 8.965673e+00 -5.738647e+00 3.051050e+00 -5.613939e+00 2.754420e+00 -3.360838e+00 8.312700e+00 -2.512536e+00 6.918007e+01 1.054564e+00 1.052104e+00 -4.238986e-01 6.396121e-01 2.256975e-01 1.975531e-01 -9.611266e-01 6.640675e-01 -8.857536e-01 3.187818e-01 -1.803533e-01 2.339917e-01 -1.010243e+00 3.320876e-02 1.504302e-01 -6.522536e-02 -3.176919e-02 -1.668425e-01 -4.207914e-02 2.386772e-01 3.896488e-01 1.025574e-01 2.413391e-01 -5.059406e-03 5.974066e-03 -2.338155e-01
<VARIANCE> 39
 4.126911e+01 8.366379e+01 5.512956e+01 4.573913e+01 5.581689e+01 6.638916e+01 4.876921e+01 5.976103e+01 5.145309e+01 4.287567e+01 3.878803e+01 2.468261e+01 3.716175e+01 3.472116e+00 3.898419e+00 4.153579e+00 4.112096e+00 4.506318e+00 2.929469e+00 5.860147e+00 4.142674e+00 3.658579e+00 2.680884e+00 2.358084e+00 1.556274e+00 2.990140e+00 4.255255e-01 5.269105e-01 5.710552e-01 7.423073e-01 5.141420e-01 5.729996e-01 7.038782e-01 6.853207e-01 6.154490e-01 5.926180e-01 4.707629e-01 2.688607e-01 5.612801e-01
<GCONST> 1.299644e+02
<TRANSP> 5
 0.000000e+00 1.000000e+00 0.000000e+00 0.000000e+00 0.000000e+00
 0.000000e+00 6.136621e-01 3.863379e-01 0.000000e+00 0.000000e+00
 0.000000e+00 0.000000e+00 5.384489e-01 4.615511e-01 0.000000e+00
 0.000000e+00 0.000000e+00 0.000000e+00 6.831540e-01 3.168460e-01
 0.000000e+00 0.000000e+00 0.000000e+00 0.000000e+00 0.000000e+00
<ENDHMM>
~h "v"
<BEGINHMM>
<NUMSTATES> 5
<STATE> 2
<MEAN> 39
 -7.708867e+00 1.189710e+01 -1.857729e+00 2.390881e+00 2.742256e+01 -1.254773e+01 6.918925e+00 -7.124940e+00 3.416878e+00 -3.515815e+00 8.763772e+00 -2.750626e+00 6.843430e+01 -5.124074e-01 1.016609e-01 6.599316e-01 6.101713e-01 1.637482e+00 -1.715549e-02 -4.141144e-01 -3.100448e-01 -2.209535e-01 -7.296384e-02 2.490491e-02 -7.824911e-01 -3.138211e-01 4.148211e-01 -9.478580e-01 2.538152e-01 4.817993e-01 -3.068545e-01 -1.735767e-01 -1.088487e+00 3.496713e-02 -3.403088e-01 -3.096137e-01 1.943974e-01 -4.947800e-01 4.364580e-01
<VARIANCE> 39
 1.490499e+01 1.206730e+01 1.150710e+01 8.380173e+00 2.037833e+01 2.173487e+01 3.916478e+01 2.170582e+01 1.605348e+01 2.654559e+01 1.326187e+01 1.303962e+01 7.851278e+00 3.560232e+00 6.364737e+00 1.106011e+00 2.356838e+00 9.377415e-01 1.283330e+00 9.954432e+00 1.501442e+00 4.288117e+00 2.360892e+00 1.322113e+00 2.370548e+00 7.558885e-01 4.684240e-01 2.558601e-01 1.778811e-01 3.328005e-01 2.084909e-01 4.000510e-01 5.651413e-01 3.838919e-01 7.587537e-01 4.605064e-01 2.902319e-01 2.156162e-01 2.302662e-02
<GCONST> 1.011366e+02
<STATE> 3
<MEAN> 39
 -4.983144e+00 1.718785e+00 4.758713e+00 1.355123e+01 3.079255e+01 -1.750712e+01 -6.351098e+00 -8.173519e+00 1.062169e+00 -8.856096e+00 1.025736e+01 -1.278098e+01 7.193929e+01 -2.441360e-01 -1.787349e+00 2.432149e+00 2.063959e+00 -5.994934e-01 -1.537180e+00 -1.388691e+00 3.315553e-01 1.278404e+00 -1.367478e+00 7.760082e-02 -1.875071e+00 9.429936e-01 -3.533452e-01 4.605134e-01 2.111174e-01 -3.960771e-01 -3.310066e-01 1.660159e-01 7.237099e-01 2.972373e-01 3.238438e-01 2.102433e-01 -2.338964e-01 5.044877e-01 -2.312261e-01
<VARIANCE> 39
 4.978171e+00 1.149158e+01 3.287579e+01 3.075744e+01 7.574747e+00 3.237558e+01 2.016276e+01 2.176622e+01 2.588793e+01 2.443718e+01 2.366281e+01 2.521153e+01 5.470399e+00 1.386009e+00 1.787754e+00 1.026621e+00 1.724968e+00 1.807738e+00 1.858634e+00 3.040686e+00 2.024899e+00 2.605000e+00 1.753600e+00 1.497420e+00 1.756365e+00 5.926949e-01 2.018381e-01 1.575703e-01 2.430206e-01 1.505351e-01 2.407245e-01 4.373953e-01 3.166088e-01 3.660662e-01 7.429960e-01 3.352593e-01 2.716927e-01 3.722365e-01 1.069654e-01
<GCONST> 9.816215e+01
<STATE> 4
<MEAN> 39
 -7.627570e+00 -2.723710e+00 1.662933e+01 1.603258e+01 2.770957e+01 -1.803155e+01 -8.475661e+00 -5.453341e+00 5.463175e+00 -1.141637e+01 9.470989e+00 -1.552072e+01 7.215282e+01 -1.714181e-01 -1.636528e-01 8.192817e-01 1.477361e-01 5.315764e-02 7.523504e-01 -3.950092e-02 2.329820e-01 -1.705021e-01 6.624532e-01 -2.685171e-01 2.633722e-01 -6.793492e-01 2.652694e-02 2.035439e-01 -3.643306e-01 -2.180112e-01 1.178261e-01 3.099475e-01 1.441545e-01 -1.699085e-02 -2.451373e-01 3.162838e-01 -6.373401e-02 1.485025e-01 -2.103832e-01
<VARIANCE> 39
 5.525627e+00 1.174618e+01 1.417371e+01 1.652723e+01 1.089213e+01 3.351376e+01 2.718165e+01 2.337826e+01 1.399104e+01 3.120846e+01 1.508811e+01 1.735984e+01 9.444001e+00 2.898066e-01 4.683295e-01 1.882552e+00 1.224758e+00 9.957229e-01 2.452180e+00 2.250281e+00 1.994925e+00 1.195098e+00 2.191020e+00 1.505261e+00 1.354005e+00 6.962612e-01 5.546481e-02 7.707394e-02 2.303678e-01 1.938941e-01 2.398746e-01 3.056651e-01 5.202864e-01 4.177440e-01 2.677298e-01 3.748473e-01 3.611297e-01 2.541278e-01 1.082043e-01
<GCONST> 9.048478e+01
<TRANSP> 5
 0.000000e+00 1.000000e+00 0.000000e+00 0.000000e+00 0.000000e+00
 0.000000e+00 8.337175e-01 1.662826e-01 0.000000e+00 0.000000e+00
 0.000000e+00 0.000000e+00 7.589208e-01 2.410792e-01 0.000000e+00
 0.000000e+00 0.000000e+00 0.000000e+00 8.521258e-01 1.478742e-01
 0.000000e+00 0.000000e+00 0.000000e+00 0.000000e+00 0.000000e+00
<ENDHMM>
~h "w"
<BEGINHMM>
<NUMSTATES> 5
<STATE> 2
<MEAN> 39
 -1.014015e+01 7.414800e-01 5.998580e+00 4.355577e+00 1.645133e+01 -1.336178e+01 -5.459496e-01 -3.376071e+00 3.203126e+00 -4.437276e+00 7.921240e+00 -9.324122e+00 6.660164e+01 1.088192e+00 5.549691e-01 1.979483e-01 4.269990e-01 -2.411963e-01 -4.480616e-01 -6.438175e-01 -4.257424e-01 3.703293e-01 -1.177340e-01 -3.757240e-01 -5.614656e-01 4.398867e-01 2.357657e-01 2.235439e-01 -3.541978e-02 1.241400e-01 -1.662613e-01 -7.245764e-02 -1.802304e-01 1.193834e-01 7.769924e-02 9.891313e-02 -2.001868e-01 6.052538e-02 -1.853650e-01
<VARIANCE> 39
 8.479867e+01 1.067670e+02 3.885900e+01 9.290907e+01 8.222218e+01 1.525937e+02 1.237911e+02 8.701010e+01 5.136864e+01 4.129623e+01 6.161010e+01 5.314935e+01 6.633218e+01 3.814150e+00 6.697124e+00 2.777871e+00 4.889353e+00 3.751657e+00 9.435239e+00 6.770702e+00 5.440835e+00 6.250551e+00 5.696455e+00 3.494842e+00 2.807676e+00 5.898338e+00 8.112360e-01 1.042276e+00 6.483536e-01 9.560624e-01 5.610183e-01 9.898433e-01 8.974728e-01 9.504704e-01 7.347802e-01 1.139556e+00 4.929525e-01 5.943370e-01 6.596065e-01
<GCONST> 1.450886e+02
<STATE> 3
<MEAN> 39
 3.364073e+00 1.727610e+01 8.043177e+00 3.207340e+00 5.650466e+00 -1.853907e+01 -6.066576e+00 2.116018e+00 9.045223e+00 1.802004e+00 2.957849e-01 -4.364285e+00 5.893539e+01 8.644307e-01 -8.492423e-02 -6.908888e-01 8.146506e-02 -2.372201e-01 -1.749753e+00 -8.530906e-01 5.896748e-01 1.006757e+00 6.050602e-01 -4.908113e-01 -2.242912e-01 3.887192e-01 -1.300350e-01 -3.896952e-01 -3.064737e-01 -2.581095e-01 1.757972e-01 8.971137e-02 5.102997e-01 2.674281e-01 -2.248050e-02 -1.937208e-01 5.538207e-02 -9.423579e-02 2.678503e-01
<VARIANCE> 39
 1.274300e+01 2.881218e+01 2.455580e+01 2.461385e+01 3.287046e+01 8.247749e+01 6.452159e+01 4.460734e+01 7.885622e+01 3.600159e+01 2.979461e+01 2.702175e+01 1.372592e+01 8.211964e-01 2.228860e+00 3.342238e+00 2.531531e+00 2.069670e+00 3.694882e+00 4.957829e+00 4.094806e+00 5.691370e+00 4.073630e+00 2.129071e+00 4.476539e+00 1.528161e+00 1.348263e-01 2.029977e-01 3.082168e-01 2.910169e-01 4.064168e-01 6.535191e-01 6.919551e-01 5.579273e-01 1.204042e+00 5.792266e-01 3.562005e-01 6.817110e-01 5.507986e-02
<GCONST> 1.177639e+02
<STATE> 4
<MEAN> 39
 2.286318e+00 8.102486e+00 1.208753e+00 3.108105e-01 1.466079e+01 -1.450375e+01 -5.013664e+00 2.301773e+00 7.134434e+00 -7.261215e+00 6.144318e+00 -9.943269e+00 6.787643e+01 -2.331921e-01 -1.411223e+00 -4.172000e-01 7.434221e-02 7.609460e-01 6.687400e-01 5.662450e-01 -2.102050e-01 -9.616938e-01 -2.691386e-02 2.335686e-01 5.975232e-01 9.334025e-01 -1.463168e-01 6.232894e-02 2.628060e-01 1.737387e-01 -4.958320e-02 2.340551e-01 5.350139e-02 -2.337733e-01 -2.749687e-01 4.416082e-01 1.701174e-01 2.875678e-01 -1.598687e-01
<VARIANCE> 39
 1.624311e+01 6.125232e+01 2.781950e+01 3.487675e+01 6.643204e+01 1.054059e+02 4.925516e+01 5.878377e+01 1.218154e+02 1.190840e+02 7.146616e+01 4.566114e+01 3.380124e+01 7.880904e-01 4.084617e+00 3.776942e+00 3.713256e+00 4.554359e+00 6.175709e+00 6.857701e+00 6.451150e+00 1.032568e+01 1.204944e+01 3.911334e+00 4.294247e+00 2.292571e+00 1.233477e-01 4.269024e-01 4.278634e-01 6.234161e-01 6.435882e-01 1.285615e+00 1.137994e+00 1.243449e+00 2.551737e+00 2.022483e+00 7.144083e-01 9.898721e-01 1.533881e-01
<GCONST> 1.381985e+02
<TRANSP> 5
 0.000000e+00 1.000000e+00 0.000000e+00 0.000000e+00 0.000000e+00
 0.000000e+00 7.757925e-01 2.242075e-01 0.000000e+00 0.000000e+00
 0.000000e+00 0.000000e+00 8.689283e-01 1.310718e-01 0.000000e+00
 0.000000e+00 0.000000e+00 0.000000e+00 8.205866e-01 1.794134e-01
 0.000000e+00 0.000000e+00 0.000000e+00 0.000000e+00 0.000000e+00
<ENDHMM>
~h "aa"
<BEGINHMM>
<NUMSTATES> 5
<STATE> 2
<MEAN> 39
 8.567202e-02 4.246432e+00 -5.479231e+00 -1.123057e+01 5.598398e+00 -1.810743e+01 5.807600e+00 1.151986e+01 1.215267e+01 3.763074e+00 3.834654e+00 -2.886496e+00 6.521950e+01 1.175836e+00 5.506153e-01 -7.285384e-01 6.485465e-02 3.981650e-01 -1.179048e+00 6.858490e-01 9.347116e-01 -2.001998e-01 3.986751e-02 -2.406039e-02 4.763243e-01 2.557159e-01 -7.645480e-02 -7.783478e-02 -2.831499e-02 7.474790e-02 7.690124e-02 7.330938e-02 2.336486e-02 -1.540959e-01 -8.628048e-02 -2.781937e-01 2.414204e-03 8.506365e-02 8.117308e-02
<VARIANCE> 39
 2.934379e+01 3.944883e+01 2.948689e+01 7.503590e+01 4.240371e+01 9.771663e+01 8.250731e+01 5.698577e+01 4.493527e+01 4.968633e+01 2.901625e+01 2.991779e+01 2.340372e+01 1.748175e+00 3.107447e+00 2.362666e+00 5.480964e+00 3.464082e+00 3.750489e+00 2.922180e+00 3.326416e+00 2.151988e+00 3.806246e+00 1.697790e+00 2.207440e+00 1.177492e+00 3.523778e-01 3.712799e-01 2.817183e-01 6.168426e-01 4.638398e-01 4.200997e-01 5.456386e-01 5.434924e-01 3.921949e-01 5.571416e-01 2.461603e-01 4.348961e-01 1.669074e-01
<GCONST> 1.213474e+02
<STATE> 3
<MEAN> 39
 6.811047e+00 6.147443e+00 -9.675355e+00 -1.071700e+01 9.127110e+00 -2.321995e+01 7.640068e+00 1.383482e+01 1.092996e+01 -1.755124e-01 4.839668e+00 2.134730e-01 6.876762e+01 1.922407e-01 2.280383e-01 -5.368221e-01 -7.086879e-01 6.974425e-01 5.684526e-01 7.895459e-01 1.456745e-01 -7.324150e-01 -9.094126e-01 9.570266e-02 6.128491e-01 1.190661e-01 -2.144831e-01 1.275311e-02 2.894704e-01 -8.257379e-02 -1.923530e-01 2.615367e-01 6.357516e-02 -7.660311e-02 -1.481206e-01 -1.444656e-02 -1.163252e-01 -7.920532e-02 -4.864637e-02
<VARIANCE> 39
 1.282815e+01 2.219238e+01 2.494862e+01 7.250275e+01 5.017889e+01 8.926363e+01 5.160111e+01 6.502869e+01 4.874031e+01 5.091164e+01 3.429232e+01 3.793109e+01 1.547571e+01 2.348814e-01 6.184280e-01 1.350644e+00 2.591848e+00 1.967317e+00 2.055411e+00 1.223343e+00 1.512817e+00 2.425669e+00 3.054391e+00 1.933559e+00 1.776436e+00 3.012174e-01 5.513793e-02 8.217289e-02 1.921682e-01 2.632848e-01 3.104298e-01 2.262363e-01 2.619868e-01 3.252581e-01 2.650027e-01 3.576954e-01 2.856446e-01 2.043247e-01 2.917300e-02
<GCONST> 1.002233e+02
<STATE> 4
<MEAN> 39
 6.134012e+00 6.465649e+00 -9.641067e+00 -6.910473e+00 8.741593e+00 -2.050288e+01 1.475675e+01 1.244995e+01 9.561708e+00 3.183368e+00 1.395139e+00 -1.189791e+00 6.705776e+01 -2.583438e-01 -9.247141e-02 5.487520e-02 -3.541577e-01 7.254444e-01 1.284980e+00 3.251489e-01 -3.852787e-01 -8.617562e-01 -2.499138e-01 -2.841540e-01 -1.991093e-01 -1.794464e-02 -8.629922e-02 3.013436e-02 1.347488e-01 8.288990e-02 4.265905e-02 1.459360e-01 -1.629234e-01 -1.726028e-01 3.318525e-02 -4.421578e-02 2.740980e-02 8.282390e-02 -5.265479e-02
<VARIANCE> 39
 1.259685e+01 2.392735e+01 2.768311e+01 4.254629e+01 5.910654e+01 9.458759e+01 6.123734e+01 7.023759e+01 6.025747e+01 9.066773e+01 4.364109e+01 5.460376e+01 1.534327e+01 2.441616e-01 5.188612e-01 1.303622e+00 1.092386e+00 1.745764e+00 1.557357e+00 2.900321e+00 2.411620e+00 3.000505e+00 2.189129e+00 1.904549e+00 2.501824e+00 3.258904e-01 4.034961e-02 6.436348e-02 1.685887e-01 2.348580e-01 2.308902e-01 2.756172e-01 5.258148e-01 5.452095e-01 4.724075e-01 3.016112e-01 3.574561e-01 3.541615e-01 4.004413e-02
<GCONST> 1.037009e+02
<TRANSP> 5
 0.000000e+00 1.000000e+00 0.000000e+00 0.000000e+00 0.000000e+00
 0.000000e+00 7.882481e-01 2.117520e-01 0.000000e+00 0.000000e+00
 0.000000e+00 0.000000e+00 7.798833e-01 2.201166e-01 0.000000e+00
 0.000000e+00 0.000000e+00 0.000000e+00 7.799365e-01 2.200635e-01
 0.000000e+00 0.000000e+00 0.000000e+00 0.000000e+00 0.000000e+00
<ENDHMM>
~h "ae"
<BEGINHMM>
<NUMSTATES> 5
<STATE> 2
<MEAN> 39
 -1.713137e+00 -1.995452e+00 -6.161669e+00 -5.582760e+00 1.348689e+01 -1.126399e+01 3.108740e+00 2.079755e+00 8.285769e+00 2.045991e+00 1.230630e+01 -3.140504e+00 7.627303e+01 4.323090e-01 8.661088e-02 -6.043786e-01 -3.274008e-01 -5.625694e-02 -1.973365e-01 7.993311e-01 7.832922e-01 -2.730485e-01 6.624469e-02 -2.145456e-01 -1.017551e-01 -7.445011e-02 -9.100682e-02 3.723272e-02 5.033654e-02 3.258346e-02 -5.524051e-02 -1.540609e-03 -3.897968e-02 -8.764455e-02 -1.317734e-01 -1.681644e-01 -1.228799e-02 6.954718e-02 -7.361270e-02
<VARIANCE> 39
 1.183296e+01 6.675896e+00 2.317927e+01 5.049975e+01 3.696762e+01 2.035906e+01 4.773218e+01 3.790220e+01 1.909125e+01 3.483312e+01 1.854468e+01 2.263965e+01 1.525584e+01 6.224777e-01 6.220126e-01 8.983456e-01 1.240112e+00 1.151536e+00 1.391680e+00 1.518574e+00 1.495923e+00 1.705061e+00 1.803083e+00 1.577638e+00 1.401761e+00 1.702490e-01 8.839295e-02 1.033856e-01 1.228862e-01 1.995177e-01 1.797084e-01 2.282017e-01 2.730410e-01 2.435556e-01 3.158737e-01 2.303883e-01 3.110573e-01 2.520463e-01 3.433738e-02
<GCONST> 9.025228e+01
<STATE> 3
<MEAN> 39
 -4.264005e+00 3.273751e+00 -5.554899e+00 -6.562822e+00 6.275850e+00 -1.383310e+01 1.266079e+01 9.138996e+00 4.697552e+00 3.901043e+00 7.729192e+00 -2.594071e+00 6.588306e+01 -3.066013e-01 4.399472e-01 3.782634e-01 -3.941824e-02 -4.474717e-01 -1.767640e-01 -4.849295e-01 -8.513682e-02 4.369283e-02 -3.981515e-01 3.340595e-01 -2.309062e-01 -8.092235e-01 8.229253e-03 6.822491e-02 8.879678e-02 5.802554e-02 7.907445e-02 8.923101e-02 -2.240996e-01 -2.383275e-01 1.007632e-01 -6.385279e-03 1.245924e-01 -7.538731e-02 2.382674e-02
<VARIANCE> 39
 3.211131e+01 3.621135e+01 3.185369e+01 2.645373e+01 4.626730e+01 4.980561e+01 8.586532e+01 4.203958e+01 1.882021e+01 5.115316e+01 4.105073e+01 2.598067e+01 9.177657e+01 1.090114e+00 1.862811e+00 1.320867e+00 1.977399e+00 2.112045e+00 3.016834e+00 4.563932e+00 4.465418e+00 2.296288e+00 4.231992e+00 3.037552e+00 2.087988e+00 4.387688e+00 1.907784e-01 2.133210e-01 2.572543e-01 3.155270e-01 3.539652e-01 4.568584e-01 6.660637e-01 6.650982e-01 4.513139e-01 6.170790e-01 4.315574e-01 3.785899e-01 3.244213e-01
<GCONST> 1.193378e+02
<STATE> 4
<MEAN> 39
 -3.387649e+00 -3.007262e-01 -5.838749e+00 -3.032974e+00 1.226896e+01 -1.397713e+01 3.448101e+00 2.853598e+00 3.472436e+00 -8.096983e-01 1.597964e+01 -4.165173e+00 7.125378e+01 -2.437834e-01 7.365470e-01 2.167551e-01 3.156002e-01 -3.513963e-01 3.599731e-01 1.950438e-01 -3.073324e-01 -2.043444e-01 2.663379e-01 7.003175e-02 2.599573e-01 -7.677182e-01 3.522140e-02 1.333166e-01 7.844042e-02 -6.160217e-02 4.373163e-02 2.786242e-01 3.241077e-03 1.009006e-02 2.450720e-02 5.004131e-02 -3.196693e-01 7.810476e-02 -1.861154e-01
<VARIANCE> 39
 2.258850e+01 2.362914e+01 2.889091e+01 7.581179e+01 4.974855e+01 2.962509e+01 6.896494e+01 3.836596e+01 2.320232e+01 4.670544e+01 3.989433e+01 3.419099e+01 4.380401e+01 1.552139e+00 1.231596e+00 1.059134e+00 2.618250e+00 2.249353e+00 2.460086e+00 3.018652e+00 2.415963e+00 1.670894e+00 2.594163e+00 2.968795e+00 1.353454e+00 2.917702e+00 2.100709e-01 2.910804e-01 1.720425e-01 5.187116e-01 4.738583e-01 5.107760e-01 5.290669e-01 5.581772e-01 2.740321e-01 4.872144e-01 4.682594e-01 1.993838e-01 2.975459e-01
<GCONST> 1.146589e+02
<TRANSP> 5
 0.000000e+00 1.000000e+00 0.000000e+00 0.000000e+00 0.000000e+00
 0.000000e+00 8.924493e-01 1.075506e-01 0.000000e+00 0.000000e+00
 0.000000e+00 0.000000e+00 7.321928e-01 2.678072e-01 0.000000e+00
 0.000000e+00 0.000000e+00 0.000000e+00 7.783206e-01 2.216794e-01
 0.000000e+00 0.000000e+00 0.000000e+00 0.000000e+00 0.000000e+00
<ENDHMM>
~h "ah"
<BEGINHMM>
<NUMSTATES> 5
<STATE> 2
<MEAN> 39
 -4.505407e+00 2.090066e+00 4.586193e+00 5.452566e+00 1.411200e+01 -1.381516e+01 -2.483962e+00 4.229760e+00 3.487052e+00 -2.362742e+00 4.178002e+00 -8.561372e+00 6.662252e+01 3.528439e-01 2.047505e-01 2.742032e-01 6.159846e-01 4.126467e-01 -1.031925e-01 -2.372200e-01 2.559871e-01 -1.447814e-01 4.191790e-01 -8.037572e-02 -3.293056e-02 -1.728102e-01 -2.494234e-02 2.631424e-02 6.945954e-02 1.025080e-01 1.038309e-02 1.304394e-01 -6.578386e-02 -1.070278e-01 -1.416276e-01 7.143599e-02 6.111424e-02 6.527362e-02 -9.810810e-02
<VARIANCE> 39
 6.557299e+01 2.638839e+01 7.261605e+01 1.104202e+02 1.144260e+02 7.441961e+01 1.031769e+02 5.890813e+01 5.922845e+01 8.027749e+01 5.314222e+01 5.440777e+01 1.145791e+02 9.219759e-01 1.146329e+00 1.383051e+00 2.149487e+00 1.923137e+00 5.801200e+00 3.457865e+00 4.169817e+00 1.953204e+00 4.271223e+00 3.352159e+00 2.822962e+00 4.299064e+00 1.327351e-01 1.584331e-01 2.009207e-01 3.653458e-01 3.213650e-01 6.958771e-01 6.483198e-01 6.138499e-01 3.482294e-01 5.933554e-01 5.412045e-01 4.113605e-01 3.281829e-01
<GCONST> 1.260291e+02
<STATE> 3
<MEAN> 39
 -8.220900e-01 7.440200e+00 5.030929e+00 5.394118e+00 9.939121e+00 -9.505876e+00 2.199118e+00 9.338954e+00 3.923640e+00 1.820023e+00 2.077784e+00 -4.504499e+00 5.956706e+01 6.550990e-02 6.615254e-01 7.006837e-02 6.225887e-01 1.237968e-01 1.108304e+00 5.849732e-02 3.750764e-01 -5.375649e-01 1.041492e+00 -2.131796e-01 2.951402e-01 -1.307509e+00 -1.223671e-01 -8.499359e-02 8.664088e-02 -1.495472e-01 -9.161472e-03 -1.673815e-01 -1.220118e-01 -3.916670e-01 -3.277994e-02 -1.056238e-01 8.156122e-02 -1.356909e-01 2.305459e-01
<VARIANCE> 39
 7.059131e+01 3.164867e+01 8.012852e+01 7.697104e+01 1.161221e+02 9.187288e+01 5.738287e+01 4.405210e+01 4.166106e+01 4.763663e+01 3.680615e+01 2.898188e+01 8.605651e+01 3.847937e-01 1.038876e+00 8.781349e-01 1.486031e+00 1.093253e+00 3.311604e+00 2.081924e+00 2.856147e+00 1.955606e+00 2.070166e+00 1.848518e+00 1.869983e+00 1.135378e+00 5.758071e-02 8.641423e-02 1.463637e-01 2.029223e-01 2.214832e-01 4.458537e-01 4.171459e-01 3.188558e-01 2.971914e-01 4.051245e-01 2.903076e-01 2.194227e-01 7.837657e-02
<GCONST> 1.088617e+02
<STATE> 4
<MEAN> 39
 -5.093378e+00 9.445564e+00 5.088968e+00 6.907669e+00 1.252542e+01 -2.523946e+00 5.831065e+00 1.068283e+01 1.901658e+00 8.079497e+00 3.871091e+00 -1.783903e+00 5.248864e+01 -2.351872e-01 2.916474e-01 2.158469e-01 1.622321e-01 5.471040e-03 5.041651e-01 2.641715e-03 -8.313095e-02 -3.127056e-01 3.106873e-01 -5.611288e-02 1.125320e-01 -6.034823e-01 -8.567835e-02 -1.266177e-01 1.675474e-02 -7.060032e-02 2.297024e-02 -1.161739e-01 -3.540366e-02 -1.624450e-01 1.168834e-01 -1.852800e-01 8.067723e-02 -1.098927e-02 1.956467e-01
<VARIANCE> 39
 8.136609e+01 2.733145e+01 6.812955e+01 5.297729e+01 7.504155e+01 1.852988e+02 4.548566e+01 3.879388e+01 2.951113e+01 5.394896e+01 3.044271e+01 2.691909e+01 1.095813e+02 2.434033e-01 5.378780e-01 5.160170e-01 5.262702e-01 8.079213e-01 1.486152e+00 1.651710e+00 1.818957e+00 1.718785e+00 1.651693e+00 1.074367e+00 1.046292e+00 4.200629e-01 6.874767e-02 1.598769e-01 1.236142e-01 2.049932e-01 2.330801e-01 3.270972e-01 3.342543e-01 3.859358e-01 2.394004e-01 3.130262e-01 2.841910e-01 2.123285e-01 1.326366e-01
<GCONST> 1.013818e+02
<TRANSP> 5
 0.000000e+00 1.000000e+00 0.000000e+00 0.000000e+00 0.000000e+00
 0.000000e+00 7.112871e-01 2.887129e-01 0.000000e+00 0.000000e+00
 0.000000e+00 0.000000e+00 3.758805e-01 6.241195e-01 0.000000e+00
 0.000000e+00 0.000000e+00 0.000000e+00 6.480727e-01 3.519273e-01
 0.000000e+00 0.000000e+00 0.000000e+00 0.000000e+00 0.000000e+00
<ENDHMM>
~h "ao"
<BEGINHMM>
<NUMSTATES> 5
<STATE> 2
<MEAN> 39
 5.950263e+00 4.693777e+00 -2.312894e+00 -3.680033e+00 3.647348e+00 -2.864927e+01 7.010014e+00 1.631639e+01 8.371680e+00 7.238563e+00 1.901560e+00 -4.032063e+00 6.948880e+01 5.963219e-02 -1.634964e-01 -4.394084e-01 -1.157885e-02 2.227461e-01 8.621772e-02 3.731064e-01 8.466658e-02 -1.263430e-01 1.007891e-01 -7.796957e-02 -2.780014e-01 -8.872226e-03 -7.717166e-02 6.383840e-02 1.611060e-01 1.053693e-01 6.768697e-03 2.660968e-01 -1.607597e-01 -2.282869e-01 5.311281e-02 -2.053083e-01 4.818630e-02 -6.615900e-03 -8.179213e-02
<VARIANCE> 39
 1.360391e+01 1.191672e+01 2.809667e+01 4.799432e+01 4.664509e+01 1.074382e+02 5.407094e+01 6.245785e+01 3.484591e+01 9.164356e+01 2.447784e+01 2.582548e+01 1.621823e+01 4.232869e-01 6.057184e-01 1.241181e+00 1.774118e+00 1.625379e+00 4.061285e+00 3.125219e+00 3.565118e+00 2.631934e+00 4.176296e+00 2.060208e+00 1.740518e+00 5.924221e-01 4.029124e-02 7.952026e-02 1.497759e-01 1.790300e-01 2.341005e-01 3.956324e-01 3.911158e-01 4.068449e-01 4.085456e-01 4.553415e-01 3.353996e-01 3.849501e-01 5.032520e-02
<GCONST> 1.044998e+02
<STATE> 3
<MEAN> 39
 2.521265e+00 5.035843e+00 -4.717493e-01 -2.782821e+00 4.378858e+00 -1.656526e+01 3.254303e+00 1.023514e+01 1.009558e+01 1.521167e+00 2.489587e+00 -5.567575e+00 6.546342e+01 -9.584930e-01 6.618004e-01 9.271549e-01 9.714172e-02 4.109885e-01 1.335894e+00 -3.921342e-01 -3.185696e-01 6.183679e-01 -1.479979e+00 9.369578e-01 4.356247e-01 -3.601855e-01 -2.179398e-01 2.664502e-01 2.029523e-01 -5.101371e-02 2.315285e-01 -2.148581e-01 1.114300e-01 7.857131e-02 4.126444e-02 3.683125e-01 2.337519e-01 1.982991e-01 -6.985550e-02
<VARIANCE> 39
 2.837791e+01 3.397104e+01 6.207174e+01 1.127389e+02 6.368083e+01 1.187429e+02 1.000862e+02 5.848638e+01 7.480501e+01 1.341313e+02 4.054909e+01 2.667300e+01 4.328897e+01 1.711110e+00 1.666143e+00 1.444245e+00 2.290340e+00 2.522354e+00 5.403805e+00 3.617189e+00 4.356868e+00 5.026563e+00 5.527430e+00 3.379971e+00 2.593228e+00 1.129261e+00 2.582422e-01 2.598234e-01 2.566881e-01 3.894225e-01 3.585267e-01 5.237488e-01 6.322991e-01 7.153717e-01 6.839334e-01 8.607100e-01 4.535313e-01 5.391009e-01 1.514376e-01
<GCONST> 1.269091e+02
<STATE> 4
<MEAN> 39
 -3.927355e+00 5.537497e+00 3.434819e+00 -4.030651e+00 7.725411e+00 -1.408415e+01 -1.159255e+00 3.735308e+00 1.194935e+01 2.762626e+00 3.174999e+00 -2.316110e+00 6.438420e+01 -8.013216e-02 -4.623044e-02 3.968393e-02 -1.160601e-01 3.109580e-01 -2.434745e-02 -4.450530e-01 -6.881575e-01 -2.015699e-01 2.831449e-02 1.509140e-01 3.113807e-01 1.413797e-01 1.704410e-01 -9.359669e-02 -1.382843e-01 -1.153415e-01 -1.569585e-01 3.360024e-02 1.587769e-01 7.912984e-02 -9.962592e-02 7.839411e-02 -6.737468e-02 1.991214e-02 -7.689789e-03
<VARIANCE> 39
 6.900364e+01 1.388407e+02 9.651341e+01 6.037020e+01 8.463643e+01 9.414288e+01 1.552761e+02 1.096697e+02 6.512576e+01 6.771315e+01 7.595656e+01 3.430336e+01 3.766750e+01 3.218799e+00 6.064365e+00 5.802366e+00 3.439142e+00 4.955173e+00 5.008514e+00 5.426847e+00 5.545182e+00 4.838671e+00 4.814780e+00 4.744673e+00 2.722975e+00 3.644498e+00 4.018539e-01 8.103833e-01 1.046702e+00 6.331829e-01 8.243060e-01 9.458020e-01 8.442747e-01 1.010567e+00 7.673462e-01 1.075508e+00 7.800637e-01 4.818420e-01 6.839066e-01
<GCONST> 1.442162e+02
<TRANSP> 5
 0.000000e+00 1.000000e+00 0.000000e+00 0.000000e+00 0.000000e+00
 0.000000e+00 8.761598e-01 1.238402e-01 0.000000e+00 0.000000e+00
 0.000000e+00 0.000000e+00 5.957648e-01 4.042353e-01 0.000000e+00
 0.000000e+00 0.000000e+00 0.000000e+00 7.675811e-01 2.324189e-01
 0.000000e+00 0.000000e+00 0.000000e+00 0.000000e+00 0.000000e+00
<ENDHMM>
~h "aw"
<BEGINHMM>
<NUMSTATES> 5
<STATE> 2
<MEAN> 39
 -8.772230e-01 2.672232e+00 -1.128919e+01 -1.002132e+01 1.160973e+01 -1.727500e+01 1.735216e+01 7.413863e+00 1.016533e+01 8.095639e+00 1.424429e+00 -4.245530e+00 7.058502e+01 1.389892e-01 5.176556e-01 1.532028e-01 2.127240e-01 -2.215465e-01 -7.744243e-01 -1.960977e-01 1.345773e-01 6.473210e-02 7.642315e-02 -3.015367e-01 1.540941e-01 -3.455888e-01 -1.448806e-02 4.075510e-02 6.178371e-02 -4.276002e-02 -3.711105e-02 2.514045e-02 -6.619833e-02 4.825553e-02 1.496051e-02 -8.332472e-02 1.463736e-02 -1.965424e-02 -4.061832e-02
<VARIANCE> 39
 2.509063e+01 4.872307e+01 2.415262e+01 1.954053e+01 2.791556e+01 1.732608e+02 6.093040e+01 2.639537e+01 2.549171e+01 1.916566e+01 4.248722e+01 1.892165e+01 1.760832e+01 8.469718e-01 7.198536e-01 1.367280e+00 8.389049e-01 1.840006e+00 2.483518e+00 3.315346e+00 1.668671e+00 1.752684e+00 1.695404e+00 9.289758e-01 1.631279e+00 5.344198e-01 9.729411e-02 7.667635e-02 1.134416e-01 1.639753e-01 2.855023e-01 2.394859e-01 3.721927e-01 2.490318e-01 3.314952e-01 3.184339e-01 1.146269e-01 3.477789e-01 3.686465e-02
<GCONST> 9.759441e+01
<STATE> 3
<MEAN> 39
 -9.163024e+00 3.319494e+00 3.934738e+00 -1.009117e+01 4.974715e+00 -2.105055e+01 1.175698e+01 9.302351e+00 4.621325e+00 -3.633412e-01 2.002167e+00 -3.594372e+00 6.450689e+01 -2.314291e+00 -2.188812e+00 1.047358e+00 -3.974134e-01 -3.069597e-01 1.676050e+00 7.374384e-01 -1.240562e+00 -4.394826e-01 -8.417076e-01 1.524011e+00 -7.845713e-02 1.196806e+00 -3.106314e-02 -1.106557e-01 -7.919060e-02 2.425443e-02 -7.930523e-02 -1.885001e-02 5.814565e-02 -5.159359e-02 1.948689e-02 1.402244e-01 1.738368e-02 4.821705e-02 8.401138e-02
<VARIANCE> 39
 1.222836e+02 1.737596e+02 3.734311e+01 8.716207e+00 1.624226e+01 7.974368e+01 4.955829e+01 1.215942e+02 2.649721e+01 5.386213e+01 1.078447e+02 2.740255e+01 5.490625e+01 4.120788e+00 6.306995e+00 3.201303e+00 8.280330e-01 2.377997e+00 2.580554e+00 3.303345e+00 8.567617e+00 2.744422e+00 4.577503e+00 8.270144e+00 4.022824e+00 3.088263e+00 9.235389e-01 1.015448e+00 7.057208e-01 1.441834e-01 5.965711e-01 5.677666e-01 5.645889e-01 1.621310e+00 5.912035e-01 8.213828e-01 1.688249e+00 7.854198e-01 5.057234e-01
<GCONST> 1.344676e+02
<STATE> 4
<MEAN> 39
 -1.930089e+01 -1.410564e+01 9.760741e+00 -1.215943e+01 -6.505251e+00 -1.048407e+01 1.090894e+01 -2.880104e+00 -2.004605e+00 -6.269059e+00 1.468436e+01 -5.491397e-01 7.022352e+01 7.708827e-01 2.365898e-01 -4.575114e-01 3.105698e-01 -3.955356e-01 1.373069e-01 -2.803900e-01 2.742053e-01 -5.418516e-01 -2.297514e-01 -1.712440e-01 4.810555e-01 -8.170865e-01 3.012208e-02 6.451415e-02 -5.519872e-02 4.574213e-02 9.890226e-02 -8.775467e-03 6.345193e-02 4.820832e-02 -2.520093e-02 -1.955750e-02 -3.405213e-02 3.932316e-02 -6.437553e-02
<VARIANCE> 39
 5.079169e+01 7.382066e+00 1.469944e+01 2.538540e+01 1.514451e+01 1.772006e+01 1.718990e+01 3.935185e+01 3.073037e+01 2.706238e+01 1.479615e+01 3.510249e+01 4.924099e+01 3.783860e-01 5.996330e-01 9.733297e-01 1.134986e+00 1.221290e+00 9.790382e-01 1.662031e+00 1.427080e+00 1.618796e+00 1.598858e+00 1.129551e+00 1.137940e+00 5.500836e-01 8.761189e-02 9.009115e-02 1.278825e-01 1.221428e-01 1.863051e-01 2.057818e-01 2.687732e-01 2.501764e-01 2.489561e-01 3.600623e-01 1.954366e-01 1.572327e-01 3.038026e-02
<GCONST> 8.842074e+01
<TRANSP> 5
 0.000000e+00 1.000000e+00 0.000000e+00 0.000000e+00 0.000000e+00
 0.000000e+00 9.568145e-01 4.318558e-02 0.000000e+00 0.000000e+00
 0.000000e+00 0.000000e+00 9.252425e-01 7.475750e-02 0.000000e+00
 0.000000e+00 0.000000e+00 0.000000e+00 9.603862e-01 3.961381e-02
 0.000000e+00 0.000000e+00 0.000000e+00 0.000000e+00 0.000000e+00
<ENDHMM>
~h "ay"
<BEGINHMM>
<NUMSTATES> 5
<STATE> 2
<MEAN> 39
 2.727832e-01 3.368777e+00 -9.066651e-01 -1.926942e+00 6.142073e+00 -1.362656e+01 6.763039e+00 7.454365e+00 1.192058e+01 -1.573131e+00 1.957906e+00 -3.903212e+00 6.639848e+01 1.278241e+00 -5.638694e-01 -2.532008e+00 -2.107899e+00 -9.002467e-01 -2.459478e+00 8.940179e-01 -7.274932e-02 9.847994e-01 -8.480313e-01 -1.638293e-01 -7.005294e-01 2.427677e+00 9.406042e-02 6.988375e-02 1.072135e-01 3.272062e-01 1.576257e-01 3.378640e-02 8.092624e-02 1.943111e-01 -1.779077e-01 1.684785e-01 -8.825775e-02 1.712021e-01 -9.887255e-02
<VARIANCE> 39
 5.004718e+01 3.466883e+01 4.918586e+01 6.146224e+01 4.763857e+01 1.984360e+02 4.198285e+01 5.053186e+01 5.424017e+01 6.196703e+01 3.221648e+01 2.442764e+01 5.892951e+01 3.339032e+00 4.691186e+00 3.138488e+00 6.691262e+00 6.016423e+00 1.093557e+01 8.553786e+00 1.111123e+01 5.737251e+00 5.539316e+00 2.873507e+00 2.778884e+00 4.373283e+00 7.037413e-01 6.849514e-01 5.519896e-01 1.242740e+00 1.313558e+00 2.367803e+00 1.164424e+00 2.294616e+00 1.132811e+00 1.191604e+00 4.913672e-01 6.461499e-01 1.403916e+00
<GCONST> 1.448801e+02
<STATE> 3
<MEAN> 39
 5.660582e+00 1.163115e+00 -1.036902e+01 -3.666513e+00 8.037558e+00 -2.231106e+01 1.403068e+01 7.224788e+00 9.009537e+00 4.061373e+00 -8.487720e-01 -3.371561e+00 7.284767e+01 -7.834542e-01 -9.025580e-01 -7.652180e-02 1.588346e-01 1.552280e+00 2.042027e+00 -3.076670e-01 -1.715586e+00 -2.296489e+00 -1.371615e-01 1.788517e+00 3.515861e-01 7.253441e-01 -2.510051e-01 1.122427e-01 5.556399e-01 2.303893e-01 6.604232e-02 2.344521e-01 -1.075415e+00 -3.934006e-01 -9.743670e-02 -1.446608e-01 5.193439e-01 -1.734455e-02 -7.719676e-02
<VARIANCE> 39
 4.942948e+00 7.345976e+00 1.840418e+01 1.519619e+01 2.743406e+01 4.304765e+01 4.624108e+01 5.424230e+01 5.651141e+01 6.771629e+01 4.461148e+01 3.430042e+01 5.699704e+00 5.659645e-01 7.140382e-01 1.896490e+00 1.252856e+00 1.533967e+00 4.659509e+00 9.232373e+00 4.470875e+00 3.531776e+00 4.408471e+00 4.916251e+00 1.619506e+00 3.871720e-01 7.106834e-02 6.629492e-02 9.548532e-02 2.293865e-01 3.692394e-01 6.736020e-01 6.256982e-01 7.126270e-01 6.851934e-01 5.804343e-01 4.046761e-01 4.429762e-01 2.469890e-02
<GCONST> 1.049253e+02
<STATE> 4
<MEAN> 39
 -4.287127e+00 -1.465937e+00 2.360478e+00 4.976857e+00 1.797039e+01 -1.428110e+01 -5.887106e+00 -5.007304e+00 -1.277124e+00 -3.026744e+00 1.243237e+01 -8.112282e+00 7.220351e+01 -7.388137e-01 1.814812e-01 1.097450e+00 4.644193e-01 5.207805e-01 2.674502e-01 -9.718376e-01 -3.708079e-01 -8.375913e-03 -3.369784e-01 1.656514e-01 -3.723331e-01 -6.690311e-01 1.151967e-01 1.483789e-01 -1.309081e-01 -1.371125e-01 -1.068924e-01 -4.069605e-02 4.193463e-01 3.022870e-01 1.815587e-01 1.036624e-01 -3.721836e-01 5.516987e-02 -1.876596e-01
<VARIANCE> 39
 1.974641e+01 6.912314e+00 3.904327e+01 2.409143e+01 1.847743e+01 1.994855e+01 3.607136e+01 2.397899e+01 2.828992e+01 5.819531e+01 4.182294e+01 3.783228e+01 2.347394e+01 8.071659e-01 8.208498e-01 1.676413e+00 2.076745e+00 1.399023e+00 2.067565e+00 4.595541e+00 2.809188e+00 2.417201e+00 2.609822e+00 3.589617e+00 1.588901e+00 8.822257e-01 1.183593e-01 1.462896e-01 2.026559e-01 3.023210e-01 2.146653e-01 4.722769e-01 4.938378e-01 4.641808e-01 4.885040e-01 4.529433e-01 6.956229e-01 3.232488e-01 9.203144e-02
<GCONST> 1.059579e+02
<TRANSP> 5
 0.000000e+00 1.000000e+00 0.000000e+00 0.000000e+00 0.000000e+00
 0.000000e+00 6.829101e-01 3.170900e-01 0.000000e+00 0.000000e+00
 0.000000e+00 0.000000e+00 8.524870e-01 1.475130e-01 0.000000e+00
 0.000000e+00 0.000000e+00 0.000000e+00 9.156972e-01 8.430278e-02
 0.000000e+00 0.000000e+00 0.000000e+00 0.000000e+00 0.000000e+00
<ENDHMM>
~h "ch"
<BEGINHMM>
<NUMSTATES> 5
<STATE> 2
<MEAN> 39
 -1.154758e+00 3.399424e+00 -5.733888e+00 -1.249630e+01 2.192105e+01 5.118285e-01 2.785544e-01 -1.321067e+01 3.219631e+00 -3.263676e+00 1.101102e+01 9.241343e+00 6.743834e+01 -5.040362e-02 1.745008e-03 -4.485105e-01 -1.010524e-01 -2.736993e-02 -7.758006e-03 1.627916e-01 2.407016e-01 2.378312e-01 1.245742e-01 -3.606311e-01 2.968091e-01 -4.177304e-01 -4.474987e-02 -4.270147e-02 2.029003e-02 6.268528e-02 -7.871054e-02 -1.629824e-02 2.082704e-02 9.964633e-02 -8.454914e-02 2.417842e-02 -3.708453e-03 -2.883511e-02 -5.136805e-02
<VARIANCE> 39
 8.557540e+00 3.705016e+01 1.704908e+01 7.190666e+01 1.932983e+01 3.584239e+01 1.032192e+02 3.634900e+01 6.459590e+01 3.748546e+01 5.716710e+01 2.085493e+01 1.883413e+01 6.009527e-01 1.777463e+00 8.489016e-01 3.193645e+00 1.989247e+00 2.820414e+00 4.996553e+00 3.425816e+00 3.932222e+00 2.481190e+00 2.501308e+00 1.751990e+00 2.824976e-01 1.000858e-01 1.622966e-01 1.163166e-01 2.542785e-01 3.190787e-01 4.473520e-01 5.454247e-01 4.433852e-01 5.512072e-01 4.566780e-01 4.043918e-01 2.933663e-01 3.034989e-02
<GCONST> 1.072362e+02
<STATE> 3
<MEAN> 39
 -5.607502e+00 -3.738459e-02 -9.666936e+00 -3.268594e+00 1.247812e+01 -1.505945e+00 -1.841650e+00 3.281762e+00 -3.576220e+00 1.924941e+00 3.237286e+00 1.296598e+01 5.142728e+01 -5.647159e-01 7.526777e-01 5.214398e-01 2.456383e-01 -8.571663e-01 3.985214e-01 9.747262e-01 3.726755e-01 -1.671889e+00 -2.113959e-02 5.820811e-01 8.373458e-02 -1.054665e+00 -6.404728e-02 5.063878e-02 1.456492e-01 -9.003617e-02 1.001402e-01 1.430589e-01 -2.124853e-02 -2.097865e-01 2.039346e-01 1.910772e-02 -7.921950e-02 -9.693348e-02 4.814059e-02
<VARIANCE> 39
 7.456338e+00 1.786208e+01 1.156034e+01 7.165694e+00 2.615106e+01 2.691139e+01 2.829884e+01 2.017558e+01 6.374414e+01 4.854074e+01 1.702251e+01 2.244328e+01 1.427313e+01 2.285121e-01 3.940303e-01 7.991789e-01 1.063273e+00 9.929886e-01 1.246849e+00 1.166302e+00 1.677266e+00 3.418611e+00 2.051329e+00 1.404882e+00 1.225576e+00 1.171929e-01 2.266984e-02 1.061495e-01 9.037399e-02 2.134451e-01 1.436879e-01 3.145811e-01 2.124805e-01 3.299905e-01 4.015258e-01 3.299259e-01 2.139787e-01 1.965576e-01 1.302389e-02
<GCONST> 8.392915e+01
<STATE> 4
<MEAN> 39
 -1.783434e+01 4.079548e+00 6.594170e-01 1.222299e+00 1.056418e+01 3.669395e+00 6.082110e+00 8.414474e+00 -2.988393e+00 9.957579e+00 2.908712e+00 4.476762e+00 4.066381e+01 -4.005632e-01 -9.476715e-02 2.394460e-01 1.786272e-01 -7.047474e-02 3.314645e-02 1.151875e-01 2.578959e-01 1.688973e-01 1.097027e-01 -1.569879e-01 -2.847340e-01 -2.620108e-01 4.518941e-02 -4.214625e-02 -6.304166e-02 -4.135649e-02 -4.853169e-02 -3.485908e-02 -4.127703e-02 -3.104708e-02 4.874247e-02 -4.819521e-02 1.317905e-02 8.160409e-03 5.422173e-02
<VARIANCE> 39
 1.014027e+01 5.415260e+00 1.110192e+01 6.792861e+00 1.355827e+01 5.519086e+00 1.258736e+01 1.742312e+01 2.083038e+01 1.833974e+01 1.215020e+01 1.932022e+01 4.487026e+00 1.838787e-01 1.319466e-01 3.625686e-01 5.530620e-01 3.988523e-01 4.789291e-01 6.588914e-01 9.170262e-01 1.357316e+00 8.013417e-01 7.487594e-01 8.040033e-01 7.673437e-02 2.301108e-02 4.364482e-02 5.058914e-02 1.241623e-01 6.722567e-02 8.154348e-02 9.182901e-02 1.345148e-01 2.588876e-01 1.263016e-01 1.514892e-01 1.720533e-01 1.786093e-02
<GCONST> 5.947446e+01
<TRANSP> 5
 0.000000e+00 1.000000e+00 0.000000e+00 0.000000e+00 0.000000e+00
 0.000000e+00 9.696563e-01 3.034371e-02 0.000000e+00 0.000000e+00
 0.000000e+00 0.000000e+00 9.107560e-01 8.924406e-02 0.000000e+00
 0.000000e+00 0.000000e+00 0.000000e+00 9.374304e-01 6.256965e-02
 0.000000e+00 0.000000e+00 0.000000e+00 0.000000e+00 0.000000e+00
<ENDHMM>
~h "dh"
<BEGINHMM>
<NUMSTATES> 5
<STATE> 2
<MEAN> 39
 -9.859977e+00 8.001477e+00 7.371797e+00 2.398647e+00 1.250464e+01 4.131648e+00 4.336463e+00 2.463933e+00 2.605469e+00 3.087731e-01 3.353937e+00 -1.565867e+00 5.594196e+01 6.100931e-01 -1.775147e-01 4.165324e-01 -2.819156e-01 -5.653821e-02 -2.535399e-01 2.928597e-01 -8.628467e-01 5.300117e-01 -1.018744e+00 2.996355e-01 -1.318839e-01 2.133105e+00 9.498942e-02 -1.107347e-01 -1.289859e-01 -5.954596e-02 -4.992647e-02 -2.513608e-01 -1.558761e-01 -6.893752e-02 -1.190374e-01 -6.227462e-02 6.025959e-02 4.876640e-02 1.633105e-01
<VARIANCE> 39
 6.819653e+01 5.806459e+01 3.755039e+01 4.951299e+01 3.686980e+01 3.331340e+01 3.710599e+01 4.532602e+01 5.554226e+01 4.549222e+01 2.893751e+01 1.739311e+01 1.137892e+02 5.304127e+00 6.192685e+00 3.883657e+00 5.475744e+00 3.404775e+00 5.353617e+00 4.200526e+00 3.708766e+00 4.849249e+00 3.671400e+00 2.532461e+00 1.753889e+00 4.499384e+00 7.985206e-01 8.129807e-01 6.073805e-01 9.168594e-01 5.174732e-01 8.303240e-01 8.886483e-01 7.075404e-01 9.467413e-01 6.758986e-01 4.504695e-01 3.656130e-01 9.235216e-01
<GCONST> 1.342366e+02
<STATE> 3
<MEAN> 39
 -5.051859e+00 2.217290e+00 5.169705e+00 -8.963062e-01 1.093211e+01 -5.743011e+00 2.520090e+00 -4.784070e+00 3.519723e+00 -6.365677e+00 7.169392e+00 -2.720570e+00 7.259196e+01 9.543213e-01 3.879807e-02 -6.871682e-01 3.390662e-01 6.900415e-02 -1.365575e+00 -7.123393e-01 7.130737e-01 -5.155585e-01 -1.668138e-01 4.957966e-01 4.092484e-01 4.361811e-01 -7.995896e-02 3.022641e-01 -6.634339e-02 1.774719e-01 1.282658e-01 4.504859e-01 5.626511e-01 5.809383e-01 4.251262e-01 5.690629e-01 -1.613805e-01 -1.907402e-02 -6.243031e-01
<VARIANCE> 39
 1.992559e+01 3.090771e+01 2.051723e+01 4.522155e+01 2.852257e+01 3.435794e+01 6.750755e+01 2.385306e+01 2.839656e+01 4.612936e+01 3.628110e+01 3.735133e+01 2.771578e+01 1.371264e+00 1.667932e+00 1.633570e+00 3.275915e+00 3.362358e+00 3.546036e+00 4.946681e+00 3.357954e+00 3.733270e+00 3.532557e+00 2.548385e+00 3.127503e+00 1.815363e+00 1.604240e-01 2.926106e-01 3.305013e-01 5.292789e-01 4.444160e-01 4.135473e-01 8.556507e-01 6.771708e-01 5.549716e-01 4.989364e-01 3.785794e-01 4.959513e-01 2.120399e-01
<GCONST> 1.184110e+02
<STATE> 4
<MEAN> 39
 -8.516766e+00 -3.869963e-01 5.458283e+00 3.622395e+00 1.099141e+01 -4.241134e+00 1.236825e+00 -4.157875e+00 5.050681e+00 -8.494973e-01 3.957972e+00 -1.525991e+00 6.749318e+01 4.582725e-01 5.181510e-01 -5.900214e-01 6.918721e-04 5.222455e-02 4.567200e-02 1.590241e-01 9.839309e-01 1.368866e-01 5.501903e-01 1.282962e-01 -1.618983e-01 -6.397738e-01 -6.571489e-02 -1.005890e-02 -1.061331e-02 -5.505292e-02 5.242404e-02 2.425233e-01 2.108531e-01 -6.500294e-04 1.319901e-01 7.485417e-02 -5.959165e-02 -1.532904e-01 -8.895077e-02
<VARIANCE> 39
 9.094423e+01 1.521017e+02 2.695687e+01 6.999222e+01 3.587500e+01 6.712078e+01 8.368316e+01 5.418197e+01 6.299358e+01 4.286658e+01 6.013147e+01 2.964557e+01 8.045255e+01 9.430069e-01 1.632692e+00 1.283523e+00 1.182922e+00 1.375788e+00 2.179721e+00 3.148532e+00 4.034384e+00 2.836133e+00 2.327706e+00 1.711846e+00 1.978945e+00 1.699021e+00 1.207098e-01 2.499497e-01 1.723431e-01 3.027864e-01 2.331534e-01 3.076475e-01 6.089382e-01 4.476498e-01 4.669998e-01 4.266222e-01 4.245651e-01 4.297005e-01 1.662697e-01
<GCONST> 1.173646e+02
<TRANSP> 5
 0.000000e+00 1.000000e+00 0.000000e+00 0.000000e+00 0.000000e+00
 0.000000e+00 8.665253e-01 1.334747e-01 0.000000e+00 0.000000e+00
 0.000000e+00 0.000000e+00 6.002334e-01 3.997666e-01 0.000000e+00
 0.000000e+00 0.000000e+00 0.000000e+00 4.671966e-01 5.328035e-01
 0.000000e+00 0.000000e+00 0.000000e+00 0.000000e+00 0.000000e+00
<ENDHMM>
~h "eh"
<BEGINHMM>
<NUMSTATES> 5
<STATE> 2
<MEAN> 39
 -3.203562e+00 -1.879183e+00 1.790102e-01 2.349293e+00 1.971614e+01 -1.065580e+01 -7.951618e+00 -3.776051e+00 -9.253464e-01 -3.680388e+00 1.168659e+01 -1.581903e+00 7.325733e+01 2.180221e-01 3.247973e-01 -6.752415e-01 -3.218287e-01 5.285281e-01 -6.723262e-02 1.723423e-01 -2.401375e-01 -2.445350e-01 -9.941757e-02 3.236048e-01 5.275995e-01 -4.690440e-02 -8.168465e-02 1.293313e-01 3.664553e-02 -1.877971e-01 -5.350448e-02 8.343188e-02 3.733905e-01 -5.128703e-02 1.247232e-01 -1.497479e-01 -3.670675e-02 1.981039e-03 -1.151626e-01
<VARIANCE> 39
 1.889358e+01 9.460418e+00 1.350543e+01 1.859510e+01 4.772196e+01 4.054903e+01 4.022996e+01 2.772221e+01 4.444288e+01 2.939327e+01 2.142235e+01 2.322274e+01 6.603971e+01 4.714122e-01 8.126764e-01 1.178116e+00 1.745444e+00 1.025931e+00 2.401532e+00 2.120061e+00 1.645364e+00 2.118924e+00 2.282510e+00 1.443662e+00 1.352333e+00 4.076170e-01 8.380459e-02 1.729909e-01 1.120760e-01 1.496418e-01 2.219508e-01 3.880803e-01 4.341533e-01 2.964554e-01 4.459335e-01 2.971332e-01 3.050987e-01 2.198504e-01 1.473593e-01
<GCONST> 9.834714e+01
<STATE> 3
<MEAN> 39
 -9.407578e+00 -2.791714e+00 -1.621455e+00 1.380435e+00 1.677913e+01 -1.159536e+01 -5.653844e+00 -3.508124e+00 2.043548e+00 -2.070092e+00 1.318699e+01 -2.267575e+00 6.794224e+01 6.977468e-01 7.131028e-02 -1.233316e-02 4.142996e-02 5.390322e-01 -9.222068e-01 3.298096e-01 -8.123785e-01 1.576149e-01 -7.727547e-01 1.949560e-01 6.570392e-02 1.453895e+00 -5.162511e-02 3.000550e-01 9.178878e-02 5.369307e-02 5.325916e-02 1.173379e-01 2.550228e-01 1.034699e-01 9.042756e-02 3.113809e-02 -2.060917e-01 -8.185618e-04 -2.184241e-01
<VARIANCE> 39
 6.814567e+01 2.768093e+01 1.573765e+01 3.260186e+01 6.236188e+01 8.030729e+01 5.961763e+01 4.174823e+01 4.185035e+01 4.609076e+01 4.481642e+01 3.507612e+01 1.668492e+02 1.828848e+00 4.332770e+00 1.272781e+00 2.996777e+00 2.749569e+00 7.039762e+00 6.240975e+00 4.200925e+00 2.691628e+00 2.072665e+00 4.967944e+00 2.319040e+00 8.334954e+00 3.577082e-01 7.025204e-01 2.233253e-01 4.968536e-01 3.545793e-01 1.230775e+00 1.104265e+00 7.432421e-01 5.897851e-01 4.689007e-01 6.585494e-01 3.862055e-01 1.063376e+00
<GCONST> 1.305626e+02
<STATE> 4
<MEAN> 39
 -2.153132e+00 6.519643e+00 -2.164407e+00 -6.868848e+00 2.354309e+01 -1.751262e-01 3.900332e+00 -1.265715e+01 -2.350010e+00 -7.335639e+00 9.721618e+00 7.455089e+00 6.715221e+01 -2.220054e-01 3.562573e-01 7.155764e-02 5.140044e-02 5.521383e-03 -9.325764e-02 5.762659e-01 1.495316e-01 6.087205e-01 2.003412e-01 -5.522406e-01 3.875562e-02 -6.410884e-01 -2.143511e-02 4.927489e-02 1.331200e-02 7.897956e-02 -4.108672e-02 -1.113076e-02 -7.364430e-02 1.554578e-01 -2.790392e-03 1.797706e-01 4.954619e-02 -1.043960e-01 -8.940490e-02
<VARIANCE> 39
 1.706788e+01 6.150507e+01 1.199626e+01 6.178127e+01 3.019522e+01 9.073719e+01 6.124659e+01 9.357333e+01 9.078213e+01 9.284460e+01 3.078879e+01 4.447774e+01 3.766739e+01 7.256972e-01 4.861707e+00 8.129382e-01 3.943130e+00 2.439013e+00 3.645117e+00 4.680167e+00 6.726642e+00 8.061669e+00 5.008876e+00 2.250560e+00 1.723812e+00 2.471385e+00 1.647693e-01 6.206133e-01 1.626402e-01 5.931730e-01 3.170208e-01 5.081453e-01 5.068463e-01 1.376784e+00 1.566976e+00 8.021350e-01 4.118160e-01 3.389498e-01 5.156409e-01
<GCONST> 1.265131e+02
<TRANSP> 5
 0.000000e+00 1.000000e+00 0.000000e+00 0.000000e+00 0.000000e+00
 0.000000e+00 8.014200e-01 1.985800e-01 0.000000e+00 0.000000e+00
 0.000000e+00 0.000000e+00 6.851372e-01 3.148628e-01 0.000000e+00
 0.000000e+00 0.000000e+00 0.000000e+00 7.692835e-01 2.307165e-01
 0.000000e+00 0.000000e+00 0.000000e+00 0.000000e+00 0.000000e+00
<ENDHMM>
~h "er"
<BEGINHMM>
<NUMSTATES> 5
<STATE> 2
<MEAN> 39
 -5.279733e+00 6.827842e+00 -1.115304e-01 -1.597781e+01 1.065692e+01 -1.045594e-01 6.456258e+00 9.961511e-01 -1.666105e-01 -1.218641e+01 1.885938e+00 -1.123342e+00 7.030740e+01 3.584880e+00 2.988944e+00 2.167132e+00 -1.693443e+00 -1.076839e+00 1.432442e+00 -1.150684e-01 7.044014e-01 -1.724287e+00 -3.411678e+00 -6.405833e-01 1.307126e+00 -1.804780e-01 -3.461411e-01 -8.721645e-02 -2.188670e-01 1.337926e-01 -4.086984e-02 -6.183067e-02 1.826057e-01 3.181073e-01 -3.485207e-01 -4.197808e-01 2.838190e-01 2.979797e-01 -3.416802e-01
<VARIANCE> 39
 5.013197e+01 5.732844e+01 3.699393e+01 4.713631e+01 4.648961e+01 6.493182e+01 4.265204e+01 7.102123e+01 2.968271e+01 5.723853e+01 3.827581e+01 2.312000e+01 1.410561e+01 5.876933e+00 2.623213e+00 2.786818e+00 6.369253e+00 3.251304e+00 4.211465e+00 3.119858e+00 7.210311e+00 3.010137e+00 4.914407e+00 1.925944e+00 2.693743e+00 1.550930e+00 1.027163e+00 9.091138e-01 8.494780e-01 9.390873e-01 5.467504e-01 6.833962e-01 4.342236e-01 7.346784e-01 4.760568e-01 9.126486e-01 4.710690e-01 4.331709e-01 8.766205e-01
<GCONST> 1.311482e+02
<STATE> 3
<MEAN> 39
 2.276660e+00 1.291319e+01 2.465204e+00 -2.335565e+01 7.225191e+00 1.204707e+00 9.552214e+00 3.992052e+00 -5.105974e+00 -2.500667e+01 4.182395e+00 5.636312e+00 7.019202e+01 3.515632e-01 3.685104e-01 -3.652259e-02 -7.255322e-01 3.076327e-02 -6.968258e-02 6.398837e-01 1.698923e-01 -7.039344e-01 -1.179769e+00 7.103257e-01 7.769918e-01 6.760366e-02 -2.532110e-01 -2.462292e-01 -1.122777e-01 3.653524e-01 2.663766e-01 -1.100321e-01 -1.446617e-01 -2.009847e-01 1.803513e-01 4.543447e-01 1.237063e-01 -1.846464e-01 -1.025665e-02
<VARIANCE> 39
 4.716029e+00 2.486503e+01 2.817472e+01 3.510191e+01 3.289045e+01 6.013683e+01 7.065897e+01 1.039882e+02 6.029427e+01 3.325800e+01 4.868058e+01 3.910552e+01 3.632962e+00 3.682024e-01 4.778167e-01 7.704901e-01 1.497173e+00 1.641217e+00 1.337371e+00 1.628146e+00 1.445075e+00 2.008570e+00 3.042715e+00 9.971792e-01 1.515664e+00 1.210222e-01 1.324089e-01 1.289198e-01 1.529937e-01 2.594852e-01 2.039871e-01 2.237058e-01 4.005747e-01 3.323697e-01 3.227901e-01 3.656756e-01 2.390453e-01 2.472262e-01 4.346840e-02
<GCONST> 9.593241e+01
<STATE> 4
<MEAN> 39
 1.578502e+00 1.420192e+01 2.745354e-01 -2.167448e+01 1.181701e+01 -1.593039e+00 9.571745e+00 4.356309e+00 -3.079577e+00 -2.483933e+01 9.784393e+00 6.388621e+00 6.896053e+01 -3.481912e-01 -8.637283e-01 8.416016e-02 1.859658e+00 1.075594e+00 -7.205576e-01 -1.055859e+00 -8.948996e-01 1.122481e+00 2.210515e+00 1.017464e-01 -1.011583e+00 -1.116178e-01 -1.250748e-01 -3.593280e-01 2.567821e-01 4.104407e-01 -1.322457e-01 -2.843780e-01 -8.330110e-02 7.580112e-02 5.348363e-01 5.493617e-01 -3.359853e-01 -3.064307e-01 3.393325e-02
<VARIANCE> 39
 4.579486e+00 2.925396e+01 3.112584e+01 3.968892e+01 4.303366e+01 5.691382e+01 4.782049e+01 7.848746e+01 1.231407e+02 9.537877e+01 3.929568e+01 4.129066e+01 1.595924e+01 4.363475e-01 2.421527e+00 1.224509e+00 2.708076e+00 2.127429e+00 5.649460e+00 2.842023e+00 3.280722e+00 5.461143e+00 7.740628e+00 3.975786e+00 3.394746e+00 2.842932e-01 1.516168e-01 2.455930e-01 2.813322e-01 1.913650e-01 3.264725e-01 3.481120e-01 4.732847e-01 4.142842e-01 9.046146e-01 1.109069e+00 4.878435e-01 5.066755e-01 5.384644e-02
<GCONST> 1.159904e+02
<TRANSP> 5
 0.000000e+00 1.000000e+00 0.000000e+00 0.000000e+00 0.000000e+00
 0.000000e+00 6.191682e-01 3.808318e-01 0.000000e+00 0.000000e+00
 0.000000e+00 0.000000e+00 8.605484e-01 1.394516e-01 0.000000e+00
 0.000000e+00 0.000000e+00 0.000000e+00 8.528882e-01 1.471118e-01
 0.000000e+00 0.000000e+00 0.000000e+00 0.000000e+00 0.000000e+00
<ENDHMM>
~h "ey"
<BEGINHMM>
<NUMSTATES> 5
<STATE> 2
<MEAN> 39
 -6.858984e+00 1.085079e+00 9.615999e+00 9.013021e+00 2.143538e+01 -9.097690e+00 -4.782431e+00 -5.456800e+00 1.782146e+00 -1.077607e-01 8.428905e+00 -1.283679e+01 6.822952e+01 4.826885e-01 7.320712e-01 2.818011e-02 2.225376e-01 1.123660e-01 -8.293303e-02 4.336725e-01 5.775893e-01 3.706894e-01 2.141044e-02 -2.260118e-01 6.585176e-02 -3.914361e-01 -5.253693e-03 -3.116338e-02 4.885712e-02 -7.468161e-02 -2.206240e-01 -2.111839e-01 9.403157e-03 6.988224e-02 5.427433e-02 -6.475102e-04 -5.067642e-02 8.594020e-02 4.899132e-02
<VARIANCE> 39
 2.293468e+01 4.913479e+01 2.370721e+01 5.075866e+01 5.192568e+01 3.197437e+01 6.860214e+01 3.612481e+01 3.498744e+01 4.116782e+01 3.031173e+01 3.236595e+01 3.724516e+01 9.496117e-01 1.658872e+00 2.357054e+00 4.902257e+00 5.173028e+00 3.121593e+00 5.116408e+00 2.435593e+00 3.093076e+00 3.988877e+00 1.837124e+00 2.266788e+00 2.610008e+00 2.022759e-01 2.818069e-01 5.157949e-01 9.169607e-01 4.336326e-01 6.802914e-01 1.092843e+00 4.888698e-01 6.500089e-01 7.554151e-01 3.090035e-01 3.060869e-01 4.699589e-01
<GCONST> 1.226250e+02
<STATE> 3
<MEAN> 39
 -4.260832e+00 9.648741e+00 2.036520e+01 1.947336e+00 2.432340e+00 -1.805106e+01 -2.961331e+00 5.040604e+00 4.812586e+00 3.199768e+00 5.206727e+00 2.999297e-01 6.087909e+01 1.483671e-01 3.357273e-01 8.058749e-01 -1.072348e-01 -7.357914e-01 -9.722151e-01 -9.019960e-01 3.554090e-01 3.636783e-02 7.311659e-01 6.194673e-02 3.666991e-01 -4.985338e-01 -5.375302e-02 -6.819505e-02 -3.122459e-01 6.193502e-02 2.480049e-01 2.805857e-01 9.711736e-02 4.541271e-02 -8.139210e-02 5.915016e-05 -5.058751e-02 -1.376469e-01 -1.776923e-02
<VARIANCE> 39
 3.028698e+01 6.884688e+01 8.867362e+01 2.371733e+01 2.596405e+01 5.729669e+01 4.950023e+01 5.705142e+01 4.126904e+01 7.681573e+01 3.037370e+01 3.746494e+01 2.459147e+01 1.858139e+00 3.503067e+00 5.769547e+00 3.573590e+00 3.992715e+00 1.015109e+01 4.454277e+00 3.817151e+00 4.329000e+00 1.806491e+00 2.627122e+00 3.878949e+00 6.657140e-01 3.400639e-01 5.318602e-01 5.986290e-01 6.102664e-01 4.818051e-01 1.076276e+00 6.554612e-01 6.686930e-01 8.209936e-01 5.533133e-01 4.292481e-01 5.817401e-01 1.704247e-01
<GCONST> 1.277843e+02
<STATE> 4
<MEAN> 39
 -5.336383e+00 1.124705e+00 4.136604e+00 7.721584e+00 1.752597e+01 -1.823693e+01 -9.038260e+00 3.729953e+00 1.139259e+01 -6.568710e-01 3.887249e+00 -1.197789e+01 7.148702e+01 9.241786e-01 5.338891e-01 -4.967009e-01 4.299780e-01 2.836164e-01 3.917259e-01 2.892422e-01 4.959197e-01 -4.864211e-01 9.204909e-03 -2.366658e-02 -3.134520e-01 -3.484599e-01 -2.585864e-02 -3.328586e-02 -3.463735e-02 -3.909555e-02 -8.319645e-02 9.666531e-02 1.293898e-01 -1.608410e-02 -8.308182e-02 -1.167605e-02 2.223316e-02 5.786370e-02 -1.717643e-02
<VARIANCE> 39
 4.343360e+01 2.228243e+01 4.769308e+01 2.290789e+01 2.969020e+01 8.302483e+01 5.992867e+01 2.108768e+01 5.066497e+01 2.336963e+01 1.798271e+01 2.814974e+01 2.405982e+01 9.334752e-01 1.290618e+00 1.857582e+00 1.016048e+00 1.125011e+00 3.364462e+00 3.364850e+00 1.561047e+00 2.387757e+00 1.303649e+00 1.127062e+00 1.249947e+00 7.326548e-01 1.855811e-01 2.115004e-01 2.342927e-01 1.386716e-01 1.496965e-01 3.921956e-01 4.647259e-01 2.948559e-01 3.432276e-01 2.544619e-01 1.770392e-01 1.989374e-01 8.124243e-02
<GCONST> 1.021811e+02
<TRANSP> 5
 0.000000e+00 1.000000e+00 0.000000e+00 0.000000e+00 0.000000e+00
 0.000000e+00 9.105856e-01 8.941434e-02 0.000000e+00 0.000000e+00
 0.000000e+00 0.000000e+00 8.153608e-01 1.846391e-01 0.000000e+00
 0.000000e+00 0.000000e+00 0.000000e+00 9.261120e-01 7.388795e-02
 0.000000e+00 0.000000e+00 0.000000e+00 0.000000e+00 0.000000e+00
<ENDHMM>
~h "hh"
<BEGINHMM>
<NUMSTATES> 5
<STATE> 2
<MEAN> 39
 -9.650200e+00 -6.221548e+00 7.650537e-01 -4.303944e+00 1.211580e+01 -1.161271e+01 -3.457083e+00 -9.502799e-01 6.005307e+00 5.676245e+00 1.485325e+01 -4.655017e+00 7.279656e+01 1.543290e-01 1.643270e-01 -5.049613e-01 -1.774905e-01 8.589793e-02 2.025182e-01 -2.088504e-01 1.826960e-01 -8.353071e-02 -6.352310e-02 1.219488e-01 -8.808519e-02 1.661088e-01 7.858600e-02 1.011209e-01 9.849078e-02 1.126409e-01 3.170352e-02 4.971571e-02 7.985410e-02 5.262249e-02 -1.294082e-02 -2.031135e-01 -1.023811e-01 -2.212632e-02 -3.147270e-03
<VARIANCE> 39
 1.280515e+01 2.135284e+01 3.068124e+01 5.092130e+01 2.668120e+01 2.431894e+01 4.064156e+01 2.358220e+01 3.515447e+01 2.870392e+01 2.718731e+01 1.626214e+01 6.865579e+00 8.022428e-01 1.005540e+00 1.782236e+00 2.015486e+00 1.653085e+00 2.018634e+00 2.665589e+00 1.878971e+00 2.602168e+00 2.086300e+00 1.489739e+00 1.372236e+00 2.941825e-01 1.351957e-01 1.306840e-01 1.808830e-01 2.257234e-01 2.483393e-01 3.236257e-01 3.340607e-01 2.854610e-01 3.794678e-01 2.397820e-01 2.762166e-01 2.374149e-01 5.153826e-02
<GCONST> 9.778839e+01
<STATE> 3
<MEAN> 39
 -5.243523e+00 -1.696493e-01 -5.370805e+00 -9.962484e+00 1.215770e+01 -1.080816e+01 7.201546e+00 8.193284e+00 9.409812e+00 2.973537e-01 1.148747e+01 -6.580549e+00 7.133460e+01 8.236950e-01 6.405368e-01 6.512044e-02 2.919206e-02 1.856926e-01 -7.087276e-01 5.962778e-01 4.628554e-01 -1.518644e-01 -3.413907e-01 -7.637006e-01 -1.760213e-02 -5.327408e-02 4.105546e-02 -8.636560e-02 5.299330e-02 6.966306e-02 -3.512774e-02 -2.125458e-01 -2.710418e-01 -1.932564e-01 -1.237946e-01 -4.732281e-03 -8.094977e-02 9.580985e-02 2.113156e-02
<VARIANCE> 39
 1.640439e+01 2.233115e+01 7.532485e+01 5.198302e+01 4.955925e+01 3.878441e+01 9.095702e+01 6.033248e+01 3.155005e+01 3.105998e+01 2.415940e+01 2.884565e+01 1.179045e+01 1.278992e+00 1.144415e+00 2.000134e+00 2.525308e+00 1.946606e+00 2.866137e+00 2.951118e+00 2.020295e+00 2.217115e+00 2.967443e+00 1.637041e+00 1.135643e+00 5.541938e-01 2.223615e-01 1.426841e-01 3.846128e-01 3.102688e-01 2.793454e-01 5.515303e-01 4.420590e-01 2.848346e-01 3.369481e-01 4.390743e-01 2.398082e-01 3.011817e-01 6.024015e-02
<GCONST> 1.084779e+02
<STATE> 4
<MEAN> 39
 -2.065112e+00 5.309981e+00 1.490385e+00 -8.540310e+00 1.002635e+01 -1.753077e+01 2.191308e+00 8.835413e+00 1.119587e+01 1.255121e+00 4.903672e+00 -5.936349e+00 6.711990e+01 5.114816e-01 2.675897e-01 8.254889e-02 1.995030e-01 -9.087496e-02 -2.884616e-01 -9.924868e-01 -5.307432e-01 -4.634504e-01 4.161001e-01 -5.591438e-01 6.079800e-01 -1.741816e-01 -1.454551e-01 -1.010239e-01 -1.366572e-01 5.595681e-02 -4.010371e-02 -1.171318e-02 -1.177395e-02 -2.369194e-01 -1.083014e-01 -9.238504e-03 1.366287e-01 -3.204442e-02 -4.072553e-04
<VARIANCE> 39
 2.219694e+01 5.213004e+01 3.748554e+01 3.895848e+01 2.836606e+01 6.601542e+01 6.910649e+01 1.087414e+02 5.300848e+01 2.612370e+01 4.100383e+01 3.136318e+01 2.924761e+01 9.765881e-01 1.669500e+00 2.026378e+00 1.846772e+00 1.594972e+00 1.778862e+00 4.290459e+00 2.054940e+00 3.907265e+00 2.282243e+00 2.025306e+00 3.221065e+00 1.017900e+00 1.087217e-01 2.351724e-01 2.919271e-01 2.919418e-01 2.492307e-01 3.805896e-01 6.732985e-01 5.746329e-01 7.153858e-01 4.087858e-01 2.740123e-01 5.638015e-01 5.838148e-02
<GCONST> 1.139829e+02
<TRANSP> 5
 0.000000e+00 1.000000e+00 0.000000e+00 0.000000e+00 0.000000e+00
 0.000000e+00 8.905929e-01 1.094071e-01 0.000000e+00 0.000000e+00
 0.000000e+00 0.000000e+00 6.443685e-01 3.556316e-01 0.000000e+00
 0.000000e+00 0.000000e+00 0.000000e+00 6.595457e-01 3.404543e-01
 0.000000e+00 0.000000e+00 0.000000e+00 0.000000e+00 0.000000e+00
<ENDHMM>
~h "ih"
<BEGINHMM>
<NUMSTATES> 5
<STATE> 2
<MEAN> 39
 -8.372434e+00 8.406670e+00 8.445828e+00 6.489552e+00 1.368745e+01 6.385764e+00 6.712637e+00 -4.757319e+00 3.467339e+00 -1.222445e+00 3.463634e+00 -6.925858e-01 6.212761e+01 -1.628472e+00 -1.194181e-01 2.363007e-01 1.521126e-01 -1.792142e-01 1.258794e+00 1.151052e+00 -8.047485e-01 1.526056e+00 -1.475407e-02 3.363388e-01 2.599810e-01 -3.546548e-02 -1.833946e-01 -4.301914e-01 -1.101429e-01 -1.987252e-01 -1.745999e-01 -3.366317e-01 -2.585135e-02 -1.016183e-01 3.806285e-01 -2.237518e-01 -1.373622e-02 -2.244315e-01 4.557376e-01
<VARIANCE> 39
 9.274564e+01 5.100677e+01 1.743898e+01 2.516753e+01 2.188568e+01 3.249352e+01 3.048564e+01 5.150188e+01 4.858093e+01 2.466800e+01 2.417243e+01 1.740275e+01 5.232349e+01 2.303190e+00 3.534230e+00 1.877097e+00 1.741511e+00 3.202039e+00 2.191304e+00 2.045414e+00 4.025989e+00 5.502630e+00 2.690946e+00 2.704564e+00 2.065543e+00 2.152875e+00 4.539402e-01 6.343912e-01 3.866227e-01 4.063003e-01 5.099949e-01 4.464084e-01 4.715639e-01 8.533653e-01 1.069078e+00 4.973381e-01 5.167806e-01 3.382512e-01 4.426817e-01
<GCONST> 1.210805e+02
<STATE> 3
<MEAN> 39
 -1.265913e+01 1.260808e+00 7.101959e+00 2.234245e+00 1.008727e+01 5.593133e+00 6.945388e+00 -9.407706e+00 1.251767e+01 -2.306553e+00 3.216262e+00 -2.770327e+00 6.796485e+01 8.686870e-01 -1.972220e+00 -2.396853e-01 -1.342467e+00 -4.516279e-01 -2.372648e+00 -2.967156e+00 -9.332092e-01 -1.283696e+00 -8.485800e-01 2.869877e-01 -8.837826e-01 2.559475e+00 5.916346e-01 3.308671e-01 1.519317e-01 5.562397e-01 6.223891e-01 -4.532186e-01 -1.000808e+00 2.868204e-01 -1.393162e+00 -6.435110e-02 4.331807e-02 -7.483696e-02 -2.228544e-01
<VARIANCE> 39
 4.470587e+01 2.475914e+01 1.924066e+01 4.528407e+01 4.158615e+01 4.784594e+01 6.526778e+01 2.267746e+01 5.017516e+01 1.870176e+01 2.027646e+01 1.530780e+01 3.039464e+01 5.116873e+00 4.114985e+00 2.899718e+00 8.070127e+00 6.002290e+00 2.920940e+00 8.136592e+00 4.941671e+00 1.427926e+01 2.889608e+00 2.267192e+00 1.982370e+00 3.851079e+00 6.086062e-01 5.171377e-01 6.863149e-01 1.777164e+00 1.215808e+00 8.560660e-01 1.534179e+00 9.566774e-01 1.664403e+00 4.276015e-01 4.517351e-01 3.853326e-01 6.017368e-01
<GCONST> 1.325475e+02
<STATE> 4
<MEAN> 39
 -4.511836e+00 -3.413054e+00 8.584489e+00 5.464523e+00 1.802637e+01 -7.951031e+00 -9.903002e+00 -8.744688e+00 -6.397530e+00 -5.881606e+00 7.118361e+00 -7.568164e+00 7.416044e+01 1.778517e-01 -1.836050e-01 4.532571e-01 1.786667e-01 4.353798e-01 -4.916457e-01 1.283221e-01 3.479866e-01 -9.725140e-01 1.738696e-01 2.990054e-01 -2.430409e-01 9.547918e-02 -3.417904e-01 4.926410e-02 1.405955e-01 -2.081456e-01 -3.058253e-01 3.210381e-01 7.466073e-01 -5.122548e-02 5.219713e-01 2.112332e-01 -3.119000e-02 1.623087e-01 -1.291112e-01
<VARIANCE> 39
 1.490271e+01 8.571100e+00 1.423036e+01 1.656018e+01 2.299726e+01 3.294893e+01 3.349745e+01 2.630926e+01 3.294711e+01 2.843449e+01 1.711493e+01 2.820819e+01 7.836552e+00 1.298191e+00 6.222926e-01 1.413097e+00 2.726415e+00 2.700305e+00 2.942082e+00 5.829274e+00 2.059491e+00 3.455514e+00 1.990777e+00 1.690543e+00 1.267999e+00 4.203875e-01 3.353698e-01 1.665945e-01 2.787965e-01 3.547038e-01 2.937070e-01 2.867577e-01 3.933647e-01 4.185870e-01 4.543064e-01 4.257841e-01 3.563771e-01 2.127962e-01 1.472148e-01
<GCONST> 1.023853e+02
<TRANSP> 5
 0.000000e+00 1.000000e+00 0.000000e+00 0.000000e+00 0.000000e+00
 0.000000e+00 8.299745e-01 1.700255e-01 0.000000e+00 0.000000e+00
 0.000000e+00 0.000000e+00 7.460974e-01 2.539026e-01 0.000000e+00
 0.000000e+00 0.000000e+00 0.000000e+00 8.798878e-01 1.201123e-01
 0.000000e+00 0.000000e+00 0.000000e+00 0.000000e+00 0.000000e+00
<ENDHMM>
~h "iy"
<BEGINHMM>
<NUMSTATES> 5
<STATE> 2
<MEAN> 39
