~o
<STREAMINFO> 1 39
<VECSIZE> 39<NULLD><MFCC_D_A_0><DIAGC>
~s "silst"
<MEAN> 39
 -1.836471e+01 -4.540183e-01 -7.716241e-01 -5.199294e+00 4.011543e+00 -1.320178e+00 8.104561e+00 -1.392344e-01 2.739847e+00 2.009477e+00 3.824186e+00 1.572430e+00 4.975268e+01 1.515105e-01 6.229426e-02 8.018636e-02 -2.008558e-01 -1.044901e-01 -2.321336e-01 -9.955043e-03 -4.306128e-01 4.307868e-02 -3.728414e-02 2.659146e-02 -5.306564e-03 3.675751e-01 -5.430566e-03 6.655927e-02 2.395563e-02 1.190161e-01 7.701641e-02 1.980886e-02 -1.198736e-01 1.853169e-01 -1.130035e-01 1.700132e-01 -7.113331e-03 1.846799e-02 -1.860844e-01
<VARIANCE> 39
 2.740120e+01 4.058875e+01 3.773910e+01 5.102407e+01 3.836102e+01 3.405553e+01 4.954631e+01 7.961400e+01 6.307471e+01 6.294151e+01 3.289387e+01 2.311753e+01 7.836308e+01 2.119291e+00 3.438358e+00 2.532700e+00 4.493210e+00 3.209244e+00 3.831383e+00 4.897542e+00 8.980347e+00 4.787117e+00 6.120421e+00 2.777139e+00 1.950648e+00 9.153467e+00 4.139255e-01 6.430129e-01 4.640858e-01 7.696481e-01 5.807337e-01 7.305428e-01 8.954502e-01 1.643932e+00 8.800976e-01 1.125121e+00 5.103103e-01 3.438865e-01 1.653884e+00
<GCONST> 1.349126e+02
~h "b"
<BEGINHMM>
<NUMSTATES> 5
<STATE> 2
<MEAN> 39
 -1.939838e+00 5.408990e+00 4.464818e+00 5.939167e+00 1.599721e+01 -1.850663e+01 -8.530592e+00 -9.579200e-01 7.366635e+00 -4.845008e+00 -2.853023e-01 -6.591943e+00 6.731158e+01 2.360436e-01 2.852149e-02 -1.569734e-01 7.943206e-02 2.125617e-01 5.973928e-02 2.221808e-03 2.083170e-01 -2.024800e-01 -1.371301e-01 -4.834999e-02 -9.256606e-02 1.171629e-01 -6.221243e-02 1.453950e-02 -2.387174e-02 -6.503578e-02 -5.986914e-03 1.410059e-01 1.016269e-01 2.887343e-02 -8.196228e-02 4.018094e-02 9.136846e-02 6.030868e-02 -9.114806e-02
<VARIANCE> 39
 5.475837e+01 6.645133e+01 5.416339e+01 1.077688e+02 1.352251e+02 1.403749e+02 6.519985e+01 6.189673e+01 1.132446e+02 5.735848e+01 4.093610e+01 3.945198e+01 5.242437e+01 1.408673e+00 2.660858e+00 2.707871e+00 6.114609e+00 2.813061e+00 7.479348e+00 4.453662e+00 3.272567e+00 5.745275e+00 3.625254e+00 2.819086e+00 1.869421e+00 3.962215e+00 2.165557e-01 3.999754e-01 4.284904e-01 9.311974e-01 4.110387e-01 8.237498e-01 8.256766e-01 6.151186e-01 7.837447e-01 6.063965e-01 4.199450e-01 3.386673e-01 4.087791e-01
<GCONST> 1.340428e+02
<STATE> 3
<MEAN> 39
 4.603907e-01 7.305323e+00 1.040621e+01 4.563359e+00 2.945115e+00 -1.733104e+01 -2.681152e-01 1.001935e+01 2.447618e+00 -3.289715e+00 3.656577e+00 -4.798978e+00 6.276187e+01 -1.932917e-01 8.064928e-01 -3.250730e-01 -3.842396e-01 5.518974e-01 1.226861e+00 1.118204e-01 1.868222e-01 -7.597749e-01 6.964918e-01 8.148180e-01 4.937613e-01 -1.088499e+00 -1.441038e-01 6.816287e-02 -5.646673e-02 -1.097125e-01 1.161330e-01 8.626252e-02 3.676136e-02 -2.673155e-01 1.752270e-01 3.395683e-01 1.223821e-01 2.344484e-01 -8.641266e-02
<VARIANCE> 39
 2.100981e+01 5.127621e+01 1.380531e+02 7.672719e+01 1.277743e+02 1.827660e+02 8.275341e+01 5.212926e+01 4.992921e+01 7.715092e+01 4.528046e+01 4.726170e+01 3.328479e+01 7.470509e-01 1.846993e+00 3.321773e+00 3.783837e+00 2.621981e+00 3.839970e+00 4.290398e+00 3.663293e+00 3.521025e+00 2.421309e+00 3.696979e+00 1.880484e+00 1.276390e+00 8.910150e-02 1.398825e-01 4.004011e-01 5.862920e-01 2.878586e-01 9.111040e-01 5.899178e-01 6.129960e-01 5.875910e-01 4.572762e-01 4.556155e-01 3.252817e-01 9.385943e-02
<GCONST> 1.242498e+02
<STATE> 4
<MEAN> 39
 -6.912516e-01 1.039676e+01 8.265575e+00 2.005507e+00 4.331458e+00 -1.493258e+01 -3.968107e-01 9.468468e+00 2.422993e+00 1.411743e+00 4.959086e+00 -3.299517e+00 5.944535e+01 -3.021253e-01 1.136326e-01 -7.685480e-01 2.370112e-02 4.402983e-01 1.344883e+00 9.355472e-01 1.428799e-01 -3.153628e-01 1.207112e+00 -3.811765e-01 4.295942e-01 -1.105204e+00 -3.415072e-02 -1.927153e-01 -5.977118e-02 2.952777e-02 6.182363e-02 -1.833567e-02 -9.102851e-03 -2.371085e-01 4.235886e-02 -1.686235e-01 -1.114068e-01 -1.132285e-01 2.011061e-01
<VARIANCE> 39
 2.010534e+01 6.693747e+01 8.896104e+01 7.111296e+01 1.107787e+02 1.251080e+02 8.680090e+01 6.592460e+01 4.018948e+01 8.399596e+01 4.813982e+01 4.272638e+01 5.016881e+01 5.717746e-01 2.281343e+00 3.202317e+00 2.406231e+00 2.581795e+00 3.279755e+00 3.349314e+00 3.196886e+00 1.327384e+00 3.472412e+00 2.696389e+00 2.714929e+00 1.204157e+00 1.085904e-01 3.839729e-01 4.927274e-01 5.627430e-01 4.627540e-01 6.178421e-01 4.255035e-01 9.741665e-01 5.638328e-01 5.089012e-01 6.067686e-01 3.360184e-01 3.456503e-01
<GCONST> 1.255175e+02
<TRANSP> 5
 0.000000e+00 1.000000e+00 0.000000e+00 0.000000e+00 0.000000e+00
 0.000000e+00 8.578019e-01 1.421981e-01 0.000000e+00 0.000000e+00
 0.000000e+00 0.000000e+00 4.081829e-01 5.918171e-01 0.000000e+00
 0.000000e+00 0.000000e+00 0.000000e+00 4.023630e-01 5.976370e-01
 0.000000e+00 0.000000e+00 0.000000e+00 0.000000e+00 0.000000e+00
<ENDHMM>
~h "d"
<BEGINHMM>
<NUMSTATES> 5
<STATE> 2
<MEAN> 39
 1.752737e+00 3.387802e+00 -2.942675e+00 -4.052465e+00 7.096824e+00 -2.003563e+01 7.639749e+00 1.237835e+01 8.457774e+00 3.710968e+00 -6.592703e-01 -2.014010e+00 6.968405e+01 2.888427e-01 4.448345e-01 4.916608e-02 3.557080e-01 1.319848e-01 -2.274270e-01 -2.320267e-01 8.225925e-01 5.235882e-02 7.500131e-01 -3.247760e-01 -1.384173e-02 -7.750797e-01 -6.807822e-02 3.180621e-02 1.371602e-01 1.169227e-01 2.877733e-02 1.028048e-01 -8.874159e-02 -1.297640e-01 -7.996459e-02 -8.982044e-02 1.477733e-01 4.810401e-02 -6.669862e-02
<VARIANCE> 39
 4.639853e+01 2.430059e+01 2.743792e+01 3.538293e+01 4.048883e+01 1.834604e+02 4.228989e+01 6.341753e+01 5.727364e+01 9.577708e+01 1.860920e+01 2.922081e+01 5.445021e+01 5.556687e-01 7.064407e-01 1.405458e+00 9.721000e-01 1.154338e+00 4.934543e+00 2.521951e+00 2.227355e+00 3.142544e+00 6.912551e+00 1.618211e+00 1.327484e+00 1.081029e+00 5.172220e-02 1.578168e-01 1.762691e-01 1.530192e-01 2.507997e-01 4.421022e-01 3.750040e-01 4.567658e-01 5.406657e-01 7.670706e-01 2.915253e-01 2.125552e-01 1.039236e-01
<GCONST> 1.097494e+02
<STATE> 3
<MEAN> 39
 -4.489216e+00 6.317625e+00 4.672143e+00 3.582911e+00 9.387101e+00 -4.365862e+00 7.295821e+00 8.634859e+00 2.672071e+00 2.144810e+00 3.094050e+00 7.605289e-01 5.819889e+01 -1.928244e-01 9.509811e-01 3.630354e-01 4.355424e-01 3.907420e-03 4.590457e-01 -3.707135e-02 9.223738e-01 3.007085e-02 7.982860e-01 2.562067e-01 1.978448e-01 -1.470777e+00 -1.830201e-01 -5.400926e-01 -3.042696e-01 -4.329630e-01 3.114881e-02 -2.738935e-01 1.122648e-01 -4.028556e-01 2.059355e-01 -5.709232e-01 8.906557e-02 -1.270817e-01 6.582893e-01
<VARIANCE> 39
 6.061092e+01 5.461524e+01 3.531373e+01 5.877230e+01 4.393687e+01 7.593264e+01 3.455143e+01 8.043268e+01 6.617427e+01 4.716324e+01 2.803122e+01 3.030291e+01 5.966162e+01 9.072058e-01 1.063720e+00 1.660730e+00 1.253144e+00 1.302741e+00 2.813717e+00 2.515591e+00 2.339298e+00 2.466639e+00 2.701993e+00 1.043497e+00 1.341928e+00 1.551681e+00 6.861394e-02 6.326753e-01 2.293949e-01 4.168680e-01 3.218006e-01 6.540343e-01 6.770715e-01 4.800752e-01 7.241689e-01 7.892310e-01 3.182580e-01 2.975444e-01 4.668884e-01
<GCONST> 1.169384e+02
<STATE> 4
<MEAN> 39
 -6.532161e+00 -2.988326e+00 4.893252e+00 5.454127e-01 7.792559e+00 -6.541717e+00 5.684153e+00 1.745178e+00 -1.466180e+00 -1.522446e+00 5.777297e+00 3.248658e+00 6.075263e+01 -3.200987e-01 -6.887521e-01 -4.477274e-01 -5.053268e-01 -5.038079e-01 -3.306487e-01 -3.269812e-02 -1.839091e-01 -4.924290e-01 -4.961181e-01 5.062848e-01 1.792820e-01 1.686694e-01 3.108486e-02 9.018028e-02 -9.851004e-02 -2.813804e-02 1.561559e-02 -6.393176e-03 8.976778e-03 -8.973919e-03 6.902709e-02 5.245741e-02 -7.162333e-02 -8.032629e-02 -7.301793e-03
<VARIANCE> 39
 2.614878e+01 7.805834e+01 2.543959e+01 4.113572e+01 3.038682e+01 4.409078e+01 5.911313e+01 7.845309e+01 6.678487e+01 4.745288e+01 2.024592e+01 3.779042e+01 6.738261e+01 1.300642e+00 8.083475e+00 1.466638e+00 3.561714e+00 2.127038e+00 4.781033e+00 5.172293e+00 5.477382e+00 3.757121e+00 6.983324e+00 1.762865e+00 1.569627e+00 6.465310e+00 1.634127e-01 1.306693e+00 1.634514e-01 5.267726e-01 3.285506e-01 8.570294e-01 1.044182e+00 8.185400e-01 7.140881e-01 1.151622e+00 2.928414e-01 2.257732e-01 1.090511e+00
<GCONST> 1.283803e+02
<TRANSP> 5
 0.000000e+00 1.000000e+00 0.000000e+00 0.000000e+00 0.000000e+00
 0.000000e+00 7.402365e-01 2.597635e-01 0.000000e+00 0.000000e+00
 0.000000e+00 0.000000e+00 4.019254e-01 5.980747e-01 0.000000e+00
 0.000000e+00 0.000000e+00 0.000000e+00 7.668234e-01 2.331766e-01
 0.000000e+00 0.000000e+00 0.000000e+00 0.000000e+00 0.000000e+00
<ENDHMM>
~h "f"
<BEGINHMM>
<NUMSTATES> 5
<STATE> 2
<MEAN> 39
 -1.234322e+01 4.174372e+00 1.532091e+00 2.627279e+00 2.157122e+01 -1.240373e+01 9.286430e-01 -2.159364e+00 2.126875e+00 -1.227407e+00 7.375173e+00 -9.306765e+00 6.852729e+01 -2.119390e+00 9.346644e-01 5.046459e-02 -6.538048e-01 7.669050e-01 6.083336e-01 1.106140e+00 -4.529825e-01 4.773219e-01 -4.332657e-01 -3.015531e-03 5.320892e-01 6.428056e-01 -2.310373e-01 -1.507471e-01 2.885811e-02 1.540615e-01 -3.077484e-01 2.038301e-01 -4.924944e-02 -1.541980e-02 -3.737432e-03 -9.157032e-02 -1.234278e-01 9.044850e-02 -1.342542e-02
<VARIANCE> 39
 6.273253e+01 4.809078e+01 3.857674e+01 1.012917e+02 4.298477e+01 6.383204e+01 1.349903e+02 6.156382e+01 3.548014e+01 4.746940e+01 3.528658e+01 6.631136e+01 3.011509e+01 7.198365e+00 2.187057e+00 1.817620e+00 3.112992e+00 2.923493e+00 4.876802e+00 4.309396e+00 4.475784e+00 3.064252e+00 2.698315e+00 2.524078e+00 3.458632e+00 2.655660e+00 6.724813e-01 4.998114e-01 2.932698e-01 4.191889e-01 5.410093e-01 7.889807e-01 1.007672e+00 1.340469e+00 4.624580e-01 6.025474e-01 4.036818e-01 5.524054e-01 3.180058e-01
<GCONST> 1.311951e+02
<STATE> 3
<MEAN> 39
 -2.893918e+01 4.513731e+00 -3.107599e+00 -6.786785e+00 1.730411e+01 -2.751249e+00 1.132076e+01 -1.996577e+00 6.919325e+00 -1.561121e+00 5.596188e+00 -2.304824e+00 6.832962e+01 -4.192019e-01 -8.024495e-01 -3.627389e-01 -4.083075e-01 -3.945571e-01 4.129562e-01 3.043063e-03 1.552611e-01 2.090326e-02 -2.126642e-01 -4.691640e-01 -2.430857e-01 -1.755068e-01 6.541854e-01 8.791879e-03 5.488950e-02 -1.022040e-01 -1.513368e-01 -1.643385e-01 -1.445705e-01 1.013392e-01 -7.992914e-02 5.927026e-03 -5.856129e-02 -5.053340e-02 -7.235669e-02
<VARIANCE> 39
 1.358885e+01 2.979595e+01 2.172189e+01 2.742484e+01 3.363978e+01 3.833782e+01 1.913547e+01 2.094170e+01 2.310191e+01 2.030006e+01 2.117742e+01 1.232310e+01 6.988915e+00 2.320118e+00 1.370746e+00 5.208745e-01 9.503605e-01 1.243999e+00 1.445135e+00 1.812269e+00 1.364303e+00 1.219801e+00 1.045268e+00 1.186536e+00 9.307284e-01 4.046902e-01 3.170144e-01 3.747641e-01 1.289195e-01 2.137217e-01 2.229726e-01 2.103047e-01 3.686117e-01 3.219555e-01 2.802622e-01 2.128367e-01 1.934935e-01 2.054872e-01 6.682903e-02
<GCONST> 9.260552e+01
<STATE> 4
<MEAN> 39
 -1.015054e+01 5.247181e+00 -4.901242e+00 -1.335926e+01 1.178125e+01 -5.165306e+00 5.272680e+00 3.048749e+00 6.470587e+00 -3.429543e+00 1.450519e+00 -3.072990e+00 6.719055e+01 4.351577e+00 1.337527e+00 -5.460595e-02 -6.026614e-01 -8.669443e-01 -1.209170e+00 -1.732050e+00 1.157534e+00 3.050356e-01 3.212917e-01 -2.932272e-01 -9.954450e-02 1.209364e-01 1.554045e-02 2.169757e-01 6.351560e-02 1.432021e-01 1.814984e-01 5.968089e-02 1.518994e-01 2.386331e-01 8.628815e-03 -1.646292e-02 1.404609e-01 9.128934e-02 9.160072e-02
<VARIANCE> 39
 1.633662e+02 4.653739e+01 2.595751e+01 3.259418e+01 4.407274e+01 5.074424e+01 5.466329e+01 3.955186e+01 3.203529e+01 4.499309e+01 1.724841e+01 2.222655e+01 8.160772e+00 6.284212e+00 4.969905e+00 2.852956e+00 5.406324e+00 4.188968e+00 2.735752e+00 3.455019e+00 4.371326e+00 4.523434e+00 4.512926e+00 1.661019e+00 3.131179e+00 9.230071e-01 1.396222e+00 1.310322e+00 5.080136e-01 7.963498e-01 7.157249e-01 5.760799e-01 7.457902e-01 8.268759e-01 7.009066e-01 8.556926e-01 2.511182e-01 7.100973e-01 1.899031e-01
<GCONST> 1.284163e+02
<TRANSP> 5
 0.000000e+00 1.000000e+00 0.000000e+00 0.000000e+00 0.000000e+00
 0.000000e+00 8.225644e-01 1.774356e-01 0.000000e+00 0.000000e+00
 0.000000e+00 0.000000e+00 9.041918e-01 9.580822e-02 0.000000e+00
 0.000000e+00 0.000000e+00 0.000000e+00 8.017108e-01 1.982892e-01
 0.000000e+00 0.000000e+00 0.000000e+00 0.000000e+00 0.000000e+00
<ENDHMM>
~h "g"
<BEGINHMM>
<NUMSTATES> 5
<STATE> 2
<MEAN> 39
 -4.956639e+00 2.286427e+00 4.168222e+00 9.362845e+00 2.084192e+01 -1.503586e+01 -4.477254e+00 -6.547884e-01 8.980576e-01 -5.750926e+00 8.107344e+00 -8.280462e+00 6.920654e+01 3.230024e-01 4.583855e-01 7.174782e-01 1.245521e+00 4.677104e-01 6.542656e-01 -1.374784e-01 -8.249581e-04 4.643547e-01 1.004924e+00 -4.937463e-01 8.887424e-02 -9.546263e-01 7.910696e-02 3.354131e-02 -3.426161e-02 -1.370353e-01 -3.915770e-01 2.586911e-01 1.533628e-01 2.378389e-01 1.441537e-01 1.293697e-01 -2.847224e-01 5.777922e-02 -2.135667e-01
<VARIANCE> 39
 3.470852e+01 3.513288e+01 6.264474e+01 7.965851e+01 7.083326e+01 5.784269e+01 6.382152e+01 6.047131e+01 4.607452e+01 4.663581e+01 3.289591e+01 3.813021e+01 4.076100e+01 8.757995e-01 1.568139e+00 1.154804e+00 1.491049e+00 3.031920e+00 3.247410e+00 5.397826e+00 3.738575e+00 2.576376e+00 3.685639e+00 2.333390e+00 3.287658e+00 1.786120e+00 1.222632e-01 2.757861e-01 2.422443e-01 3.173657e-01 6.797009e-01 8.010395e-01 9.983546e-01 5.444482e-01 4.572207e-01 8.003629e-01 4.360547e-01 4.503059e-01 1.373957e-01
<GCONST> 1.216196e+02
<STATE> 3
<MEAN> 39
 -3.027264e+00 8.132042e+00 9.864738e+00 1.477415e+01 1.974938e+01 -6.583333e+00 -4.354412e+00 4.439426e+00 1.869880e+00 1.421229e-01 3.208550e+00 -5.810528e+00 5.623649e+01 -2.818597e-01 1.209079e+00 -6.461690e-02 -1.427323e-01 -8.832136e-01 1.302072e+00 7.757710e-01 5.098600e-01 1.104557e-01 8.582845e-01 -1.041494e+00 3.187153e-01 -1.724912e+00 -2.473352e-01 -4.617710e-01 -2.702907e-01 -7.877674e-01 -5.878585e-02 4.371727e-02 3.605243e-01 -1.787528e-01 -7.380390e-02 -4.681429e-01 1.787971e-01 -7.288850e-02 6.072793e-01
<VARIANCE> 39
 1.950361e+01 2.370389e+01 3.381505e+01 1.072327e+02 7.232375e+01 2.532779e+01 6.914886e+01 5.903905e+01 5.446054e+01 2.707768e+01 2.192895e+01 1.760373e+01 2.731429e+01 7.553419e-01 1.146242e+00 1.272324e+00 1.582878e+00 1.077116e+00 8.377942e-01 2.667490e+00 1.596086e+00 1.768811e+00 2.835180e+00 1.327303e+00 1.027112e+00 6.425244e-01 8.622043e-02 4.296700e-01 2.747345e-01 5.472968e-01 2.443614e-01 3.639412e-01 4.629652e-01 5.188739e-01 4.254274e-01 3.900720e-01 4.104153e-01 2.652804e-01 4.068216e-01
<GCONST> 1.078290e+02
<STATE> 4
<MEAN> 39
 -8.227652e+00 5.030811e+00 4.132700e+00 -2.127710e+00 1.256203e+01 -3.640554e+00 6.167563e+00 3.272985e+00 2.172232e+00 -2.416450e+00 4.788491e+00 -4.370724e+00 6.240296e+01 -8.865476e-01 -1.976962e+00 -1.860024e+00 -4.198707e+00 -2.591289e-01 -1.660155e-01 1.227599e+00 -8.765147e-01 1.903371e-01 -1.264489e+00 9.994313e-01 5.767392e-01 3.633162e+00 1.962590e-01 1.228187e-01 3.503519e-01 2.636116e-01 2.630477e-01 -6.608842e-02 -5.193733e-01 -2.889647e-01 -8.498722e-02 -3.079269e-01 1.678459e-01 1.053034e-01 2.410115e-01
<VARIANCE> 39
 2.580822e+01 9.921551e+01 8.416611e+01 1.953007e+02 5.200701e+01 8.785963e+01 8.541443e+01 7.524337e+01 8.886388e+01 5.550231e+01 3.900371e+01 1.358857e+01 1.199097e+02 2.364190e+00 6.817110e+00 7.185460e+00 1.043182e+01 4.879580e+00 5.420935e+00 1.012367e+01 5.488708e+00 8.297138e+00 4.573882e+00 4.157228e+00 1.617394e+00 1.124810e+01 6.011361e-01 1.964836e+00 2.095143e+00 3.505261e+00 7.464358e-01 1.267002e+00 1.741146e+00 1.117764e+00 1.572974e+00 1.108541e+00 9.467567e-01 2.450089e-01 3.610401e+00
<GCONST> 1.514920e+02
<TRANSP> 5
 0.000000e+00 1.000000e+00 0.000000e+00 0.000000e+00 0.000000e+00
 0.000000e+00 6.851778e-01 3.148222e-01 0.000000e+00 0.000000e+00
 0.000000e+00 0.000000e+00 6.845167e-01 3.154833e-01 0.000000e+00
 0.000000e+00 0.000000e+00 0.000000e+00 7.406261e-01 2.593739e-01
 0.000000e+00 0.000000e+00 0.000000e+00 0.000000e+00 0.000000e+00
<ENDHMM>
~h "k"
<BEGINHMM>
<NUMSTATES> 5
<STATE> 2
<MEAN> 39
 -1.098246e+01 -7.431604e-01 -1.909684e+00 -1.662652e+00 6.660676e+00 2.001952e+00 6.319415e+00 1.738209e+00 -9.045472e+00 1.736702e+00 9.639955e+00 7.621879e+00 5.120743e+01 -1.225732e-01 7.933298e-01 1.981917e-01 1.747295e-01 -7.104100e-02 3.345214e-01 6.971993e-02 5.142519e-01 -1.034175e-02 1.350229e-01 -3.264176e-01 4.346969e-03 -8.667908e-01 -4.548919e-02 -7.996784e-02 6.909941e-02 2.565276e-02 1.590630e-02 -6.760604e-02 3.390800e-02 -1.662667e-02 1.492083e-01 1.361624e-02 -4.714100e-02 -1.605211e-01 1.406353e-01
<VARIANCE> 39
 2.203591e+01 6.165590e+01 5.896861e+01 3.193165e+01 3.244121e+01 7.579330e+01 2.760356e+01 5.361837e+01 9.573610e+01 2.857427e+01 2.298948e+01 5.006731e+01 6.819987e+01 8.476065e-01 7.003784e-01 1.240758e+00 8.610816e-01 1.430909e+00 1.191088e+00 1.545945e+00 1.529610e+00 2.144974e+00 1.341482e+00 1.324505e+00 1.308109e+00 6.226630e-01 9.167929e-02 1.497458e-01 1.886435e-01 1.847543e-01 2.587399e-01 2.567013e-01 3.005747e-01 3.170419e-01 2.682559e-01 3.062063e-01 2.246495e-01 1.759414e-01 8.774448e-02
<GCONST> 1.019247e+02
<STATE> 3
<MEAN> 39
 -9.025613e+00 7.596407e+00 5.340781e-01 1.618795e+00 7.594867e+00 -3.036309e+00 5.558580e+00 5.918985e+00 2.493874e+00 5.074363e+00 5.429045e+00 -3.456879e-02 5.244744e+01 -9.276961e-01 -1.414022e-01 9.840144e-02 -1.365410e-02 -3.398067e-01 1.003909e-01 2.778869e-01 -2.232145e-01 5.485978e-01 3.966573e-01 6.602243e-02 -4.020111e-01 -4.204431e-01 -3.507436e-01 -1.252987e+00 -2.136835e-01 -2.510245e-01 1.064336e-01 -6.682850e-01 -6.003894e-03 -4.816883e-01 3.216555e-01 -6.599312e-01 7.406215e-02 -1.463256e-01 1.397716e+00
<VARIANCE> 39
 3.877810e+01 6.332827e+01 6.241068e+01 7.120248e+01 7.336909e+01 8.795650e+01 5.633413e+01 6.561562e+01 1.158512e+02 4.611786e+01 3.716698e+01 3.512572e+01 5.155080e+01 1.737113e+00 3.540771e+00 2.825947e+00 1.563939e+00 2.554372e+00 2.217638e+00 4.374722e+00 3.113326e+00 3.567354e+00 3.111099e+00 2.434246e+00 1.898763e+00 2.114609e+00 4.229467e-01 6.291779e-01 6.037976e-01 5.209503e-01 8.440062e-01 7.314443e-01 1.042703e+00 6.514950e-01 9.637917e-01 6.562673e-01 6.001062e-01 4.159521e-01 8.622237e-01
<GCONST> 1.315618e+02
<STATE> 4
<MEAN> 39
 -1.637471e+01 -6.155886e+00 -6.309870e-01 -3.174309e-01 6.765314e+00 -1.171550e+01 2.937467e+00 -1.341004e+00 6.044092e+00 -1.208319e+00 5.289018e+00 -3.397386e+00 6.937769e+01 -4.257252e-01 -1.275410e+00 5.658168e-02 -5.681337e-01 -1.971686e-01 -9.292659e-01 -5.980916e-01 -8.710789e-01 7.140677e-01 -5.904062e-01 2.369559e-01 -3.044642e-01 2.089419e+00 2.748049e-01 2.832550e-01 1.208701e-01 5.218333e-02 1.483937e-01 1.862743e-01 -1.487250e-01 7.023012e-02 -6.014749e-02 1.918694e-01 7.291328e-02 2.768934e-04 -2.894107e-01
<VARIANCE> 39
 2.405846e+01 5.926800e+01 2.349721e+01 4.439708e+01 3.975583e+01 6.882232e+01 4.944736e+01 5.655407e+01 4.394576e+01 4.903188e+01 5.093666e+01 2.683081e+01 1.427193e+02 2.913154e+00 7.556924e+00 4.193632e+00 4.176649e+00 4.652119e+00 6.868506e+00 4.388888e+00 5.218863e+00 3.984928e+00 5.722139e+00 4.936197e+00 2.334889e+00 1.419889e+01 3.538500e-01 1.153261e+00 7.168674e-01 7.175010e-01 7.139323e-01 1.154066e+00 6.974707e-01 1.020620e+00 6.721152e-01 1.001945e+00 9.431861e-01 3.687582e-01 2.767325e+00
<GCONST> 1.398433e+02
<TRANSP> 5
 0.000000e+00 1.000000e+00 0.000000e+00 0.000000e+00 0.000000e+00
 0.000000e+00 7.706910e-01 2.293089e-01 0.000000e+00 0.000000e+00
 0.000000e+00 0.000000e+00 3.972065e-01 6.027935e-01 0.000000e+00
 0.000000e+00 0.000000e+00 0.000000e+00 8.133900e-01 1.866101e-01
 0.000000e+00 0.000000e+00 0.000000e+00 0.000000e+00 0.000000e+00
<ENDHMM>
~h "l"
<BEGINHMM>
<NUMSTATES> 5
<STATE> 2
<MEAN> 39
 2.140774e+00 1.023186e+01 1.326237e+01 2.150335e+00 -4.592256e+00 -2.346597e+01 2.829200e+00 1.045698e+01 5.090049e+00 -1.852147e+00 4.688206e+00 -3.451488e+00 6.287229e+01 8.972163e-02 3.190051e-01 5.159338e-01 5.783471e-01 -3.630390e-01 -1.100627e-01 -4.056027e-01 7.152881e-02 -2.328123e-01 2.747837e-01 2.268914e-01 3.236761e-01 -4.454075e-01 -1.170516e-01 -1.741358e-01 -1.229002e-01 -1.692900e-01 6.589670e-02 1.696080e-01 3.768584e-02 -1.581358e-01 6.484969e-02 -1.430225e-01 9.022636e-02 1.882955e-02 1.441325e-01
<VARIANCE> 39
 1.483824e+01 3.801699e+01 6.451691e+01 6.950656e+01 7.399606e+01 1.242967e+02 4.181540e+01 4.985004e+01 5.587803e+01 7.087624e+01 3.922963e+01 4.788119e+01 5.453293e+01 6.268114e-01 9.674270e-01 1.139547e+00 2.100520e+00 2.503338e+00 5.371194e+00 2.405749e+00 2.900993e+00 2.443328e+00 2.924893e+00 2.040037e+00 2.104774e+00 6.578488e-01 7.260150e-02 2.086917e-01 2.301217e-01 3.067623e-01 3.085434e-01 6.291939e-01 3.561745e-01 5.837898e-01 4.863707e-01 4.412086e-01 4.352564e-01 3.942435e-01 1.531424e-01
<GCONST> 1.157017e+02
<STATE> 3
<MEAN> 39
 -1.931740e+00 1.099129e+01 1.215849e+01 7.651446e+00 1.770713e+00 -1.343458e+01 3.172156e+00 6.898820e+00 3.566818e+00 1.282581e+00 3.703539e+00 -1.642387e+00 5.748962e+01 -1.675126e+00 -2.060241e+00 -1.220828e+00 -1.298043e+00 1.201318e+00 9.335666e-01 4.404005e-01 -2.204557e+00 9.921929e-01 -9.543108e-01 9.640922e-01 1.244595e-01 2.186831e+00 -2.669336e-01 -5.991150e-01 -1.536394e-01 -4.609140e-01 -1.310826e-01 -4.474829e-01 3.945567e-01 1.323038e-01 2.088800e-01 -4.924628e-01 -5.633031e-02 -2.936522e-01 8.233390e-01
<VARIANCE> 39
 4.875970e+01 6.510651e+01 5.832649e+01 4.483035e+01 8.271747e+01 9.138889e+01 7.141195e+01 6.878289e+01 4.658081e+01 4.654316e+01 4.939579e+01 4.152978e+01 4.737867e+01 3.079282e+00 5.943726e+00 4.302845e+00 4.370422e+00 5.866491e+00 1.411237e+01 5.952000e+00 1.132986e+01 5.614212e+00 6.097167e+00 5.191310e+00 4.056799e+00 7.293369e+00 4.331402e-01 1.115527e+00 7.160053e-01 4.827261e-01 6.713701e-01 1.039739e+00 9.330778e-01 1.429595e+00 7.826437e-01 1.152993e+00 8.445792e-01 5.304323e-01 8.770756e-01
<GCONST> 1.443432e+02
<STATE> 4
<MEAN> 39
 -2.411668e+00 5.084846e+00 8.242848e+00 -1.738438e+00 1.358875e+00 -1.638929e+01 5.303765e+00 5.539138e+00 9.305102e+00 -4.435767e+00 4.186957e+00 -4.892307e+00 6.846343e+01 -2.006245e-01 -5.629480e-01 -9.383385e-01 -8.029407e-01 6.259359e-01 -1.129238e-01 4.475934e-01 1.239632e-01 1.198828e-02 -3.199000e-02 9.741648e-02 -8.408546e-02 7.779162e-01 2.243184e-01 2.655638e-01 -1.988819e-02 2.289564e-01 9.656782e-02 1.904568e-02 -1.806002e-01 1.763669e-01 -2.018745e-01 2.167661e-01 -5.432459e-02 1.871453e-02 -3.783414e-01
<VARIANCE> 39
 6.880614e+01 4.986338e+01 6.819842e+01 7.902579e+01 1.502763e+02 1.694737e+02 9.581719e+01 1.140405e+02 5.645803e+01 7.612071e+01 5.740278e+01 6.069813e+01 4.275886e+01 3.329998e+00 3.039298e+00 4.533514e+00 5.145165e+00 6.848816e+00 8.047597e+00 5.821485e+00 7.453210e+00 3.935381e+00 5.545030e+00 4.818642e+00 2.835720e+00 3.564430e+00 5.683225e-01 5.315677e-01 5.980973e-01 7.920745e-01 9.854379e-01 1.120367e+00 1.090294e+00 1.425937e+00 7.250386e-01 1.011312e+00 9.092867e-01 5.788047e-01 7.608786e-01
<GCONST> 1.457148e+02
<TRANSP> 5
 0.000000e+00 1.000000e+00 0.000000e+00 0.000000e+00 0.000000e+00
 0.000000e+00 8.096450e-01 1.903550e-01 0.000000e+00 0.000000e+00
 0.000000e+00 0.000000e+00 5.400062e-01 4.599937e-01 0.000000e+00
 0.000000e+00 0.000000e+00 0.000000e+00 7.922646e-01 2.077353e-01
 0.000000e+00 0.000000e+00 0.000000e+00 0.000000e+00 0.000000e+00
<ENDHMM>
~h "m"
<BEGINHMM>
<NUMSTATES> 5
<STATE> 2
<MEAN> 39
 5.190536e+00 6.215115e+00 -1.693838e-01 4.612088e+00 1.167049e+01 -4.899709e+00 5.414539e+00 8.481377e+00 8.268745e-01 -1.508105e+00 2.224468e+00 -6.434056e+00 6.351883e+01 -6.461354e-01 7.563158e-01 -1.022883e-01 -6.395481e-01 2.199604e-01 -1.984591e-01 1.938145e-01 -1.389016e+00 1.417960e+00 -7.857174e-01 -2.511412e-03 -9.455532e-01 4.054810e-01 -5.275584e-01 8.125155e-02 -1.460483e-01 -7.237343e-01 1.617504e-01 -4.364009e-01 2.598447e-01 -3.466274e-01 4.849294e-01 -8.575180e-02 1.789453e-01 1.147155e-01 3.617735e-01
<VARIANCE> 39
 2.566829e+01 2.939108e+01 8.934495e+01 4.280169e+01 3.151358e+01 9.782538e+01 5.173866e+01 6.741712e+01 2.759612e+01 5.746199e+01 2.275031e+01 7.696124e+01 1.081664e+01 3.908490e+00 1.578290e+00 3.412709e+00 3.628626e+00 1.890285e+00 7.371092e+00 3.995521e+00 4.894284e+00 4.352974e+00 3.495270e+00 2.696427e+00 4.122868e+00 1.160365e+00 2.160177e-01 2.627411e-01 5.175450e-01 4.439759e-01 3.146770e-01 8.438671e-01 7.043135e-01 7.838626e-01 6.478611e-01 5.611117e-01 2.732086e-01 5.588351e-01 1.542394e-01
<GCONST> 1.241634e+02
<STATE> 3
<MEAN> 39
 8.931229e-01 7.264795e+00 -2.004555e+00 2.760782e+00 1.405980e+01 -9.557813e+00 6.741729e+00 4.936091e+00 4.446482e+00 -2.826058e+00 5.415485e+00 -5.945532e+00 6.525247e+01 -8.752528e-01 3.096829e-01 4.416918e-01 -4.018335e-01 2.924755e-01 1.797688e-01 -1.702949e-01 -8.884214e-01 7.412827e-01 -2.960649e-01 5.126781e-01 -2.197939e-01 1.193331e-01 5.395643e-02 -1.007702e-01 -1.320639e-02 -1.844176e-01 -1.270501e-01 -6.279940e-02 7.632168e-02 3.713710e-01 -1.942883e-02 2.186354e-01 -1.620388e-02 1.461452e-01 -8.051267e-02
<VARIANCE> 39
 2.495909e+01 3.778282e+01 6.284213e+01 4.768182e+01 4.050495e+01 9.632769e+01 6.832408e+01 6.694211e+01 4.628771e+01 6.138944e+01 3.171200e+01 5.588851e+01 1.011110e+01 3.771575e+00 2.981898e+00 2.517428e+00 5.037377e+00 2.454352e+00 6.742144e+00 5.153040e+00 5.638097e+00 4.737406e+00 3.927199e+00 3.259491e+00 5.444112e+00 2.167877e+00 4.103505e-01 5.137242e-01 4.707709e-01 7.353716e-01 6.136352e-01 8.623974e-01 9.527224e-01 1.108610e+00 1.008798e+00 8.833362e-01 5.184530e-01 8.415048e-01 2.995694e-01
<GCONST> 1.333339e+02
<STATE> 4
<MEAN> 39
 -4.007674e+00 6.436238e-01 2.180295e+00 2.746018e+00 1.736367e+01 -7.749960e+00 -2.280605e-01 9.775653e-01 6.649928e+00 -3.931280e+00 6.307002e+00 -5.915419e+00 6.755116e+01 -2.117257e-01 -1.941695e-01 -4.575120e-02 -6.472420e-01 -2.635288e-02 2.146456e-01 3.119998e-01 -1.082603e-01 1.489640e-01 -3.773542e-01 1.685596e-01 -1.204123e-01 3.574121e-01 4.218125e-02 -3.343557e-02 -3.371953e-02 -7.862670e-02 -5.020499e-04 -4.038080e-02 2.555068e-02 1.269959e-01 -7.256980e-02 -2.911557e-02 -1.015729e-02 1.643971e-01 6.911620e-03
<VARIANCE> 39
 8.547495e+01 1.241463e+02 4.871767e+01 8.335866e+01 5.519568e+01 8.577906e+01 8.243129e+01 8.240530e+01 9.258673e+01 8.897871e+01 7.013509e+01 3.261370e+01 4.144561e+01 5.576960e+00 7.003026e+00 3.651776e+00 5.642817e+00 3.822523e+00 3.944260e+00 3.134370e+00 5.401632e+00 6.227157e+00 4.749087e+00 3.635653e+00 2.514627e+00 3.096614e+00 6.766492e-01 9.306649e-01 6.202896e-01 6.462999e-01 6.921343e-01 5.963857e-01 4.428537e-01 9.201989e-01 1.030887e+00 7.969146e-01 5.104330e-01 5.636549e-01 4.197997e-01
<GCONST> 1.405120e+02
<TRANSP> 5
 0.000000e+00 1.000000e+00 0.000000e+00 0.000000e+00 0.000000e+00
 0.000000e+00 4.493742e-01 5.506258e-01 0.000000e+00 0.000000e+00
 0.000000e+00 0.000000e+00 4.818599e-01 5.181401e-01 0.000000e+00
 0.000000e+00 0.000000e+00 0.000000e+00 8.124078e-01 1.875922e-01
 0.000000e+00 0.000000e+00 0.000000e+00 0.000000e+00 0.000000e+00
<ENDHMM>
~h "n"
<BEGINHMM>
<NUMSTATES> 5
<STATE> 2
<MEAN> 39
 -1.515636e-01 2.841480e+00 -2.387406e+00 -6.539133e-01 1.832665e+01 -1.232216e+01 4.062954e+00 4.389810e+00 6.469871e+00 -2.897249e+00 4.637711e+00 -2.191433e+00 6.958238e+01 3.702324e-01 8.899360e-01 2.199713e-01 1.586460e+00 3.202493e-01 1.723141e+00 -4.119098e-01 -7.002957e-01 7.494374e-02 2.234061e-01 -3.573255e-01 1.001953e-02 -1.484274e+00 2.905988e-01 8.640435e-02 -3.081712e-02 5.471022e-01 -1.652519e-01 1.280269e-01 -6.014086e-02 7.198946e-02 -1.740476e-01 4.564778e-01 1.229621e-02 -2.951660e-01 -4.016351e-01
<VARIANCE> 39
 2.450707e+01 1.806080e+01 5.645358e+01 6.591247e+01 5.113725e+01 5.623828e+01 1.084591e+02 5.431785e+01 3.407650e+01 3.629549e+01 5.408102e+01 4.410476e+01 3.233971e+01 1.311398e+00 1.417620e+00 1.899594e+00 3.151340e+00 1.888395e+00 3.130318e+00 3.257187e+00 3.797661e+00 2.702203e+00 2.883410e+00 2.479292e+00 1.955366e+00 1.536322e+00 1.348631e-01 1.783885e-01 3.207296e-01 4.690297e-01 3.437088e-01 4.003896e-01 6.072007e-01 5.665728e-01 5.954016e-01 4.605561e-01 4.644875e-01 3.356183e-01 1.368361e-01
<GCONST> 1.179600e+02
<STATE> 3
<MEAN> 39
 2.874697e+00 5.588017e+00 -1.873068e+00 7.791295e+00 1.855960e+01 -7.427186e+00 3.307495e+00 3.678241e+00 3.004791e+00 8.934963e-01 3.187162e+00 -3.598807e+00 6.292884e+01 9.574784e-01 8.305187e-01 1.885211e-01 1.827067e+00 -1.363921e-02 1.361937e+00 -3.115593e-01 -2.286857e-02 -8.426095e-01 1.305867e+00 -6.681395e-01 -8.146015e-01 -1.739899e+00 -1.678487e-01 -1.340520e-01 5.015500e-02 -5.051335e-01 -8.688536e-02 -3.577194e-01 3.047483e-02 4.889210e-02 1.400357e-01 -1.439134e-02 1.205828e-01 -7.500098e-02 3.596546e-01
<VARIANCE> 39
 2.037333e+01 8.596131e+00 3.846183e+01 2.704881e+01 3.232534e+01 3.101139e+01 5.208362e+01 2.349994e+01 2.631859e+01 3.559770e+01 3.557373e+01 3.050627e+01 1.580293e+01 6.276783e-01 9.243141e-01 1.509544e+00 1.892456e+00 1.860881e+00 1.898067e+00 2.081436e+00 1.557241e+00 2.297188e+00 2.236020e+00 1.377889e+00 1.421658e+00 8.864571e-01 7.144833e-02 9.733779e-02 1.681518e-01 2.696831e-01 1.760159e-01 2.732741e-01 3.247031e-01 1.988659e-01 3.300356e-01 2.596938e-01 3.023626e-01 2.152723e-01 6.842743e-02
<GCONST> 9.782681e+01
<STATE> 4
<MEAN> 39
 3.279243e+00 8.235500e+00 5.297924e-01 9.215484e+00 1.685384e+01 -4.593693e+00 2.278591e+00 4.432511e+00 1.306877e+00 5.573163e+00 2.464203e+00 -4.088684e+00 5.827495e+01 3.357131e-03 5.033282e-01 2.402897e-01 8.271873e-03 -3.414771e-01 3.377124e-01 -1.645847e-01 1.042869e-01 -5.332816e-02 3.706499e-01 -1.483052e-01 5.891778e-02 -6.240025e-01 -2.058213e-01 -8.709361e-02 1.881962e-02 -3.020993e-01 9.350985e-03 -1.048630e-01 5.557191e-02 -5.939988e-02 1.605431e-01 -2.628622e-01 1.025833e-01 1.385675e-01 2.053357e-01
<VARIANCE> 39
 2.793938e+01 1.782706e+01 3.004615e+01 2.105086e+01 2.970422e+01 3.739670e+01 3.416401e+01 2.749124e+01 2.540191e+01 2.953935e+01 4.378941e+01 2.724859e+01 2.085449e+01 4.951443e-01 6.603067e-01 8.195222e-01 1.062370e+00 1.120047e+00 1.464986e+00 1.470494e+00 1.323747e+00 1.333456e+00 1.625413e+00 1.388777e+00 1.344175e+00 3.467039e-01 9.819025e-02 1.483278e-01 1.257798e-01 2.592859e-01 1.954874e-01 3.755251e-01 3.343536e-01 3.295426e-01 2.829263e-01 3.938533e-01 2.559951e-01 2.307225e-01 1.411331e-01
<GCONST> 9.573026e+01
<TRANSP> 5
 0.000000e+00 1.000000e+00 0.000000e+00 0.000000e+00 0.000000e+00
 0.000000e+00 5.696219e-01 4.303780e-01 0.000000e+00 0.000000e+00
 0.000000e+00 0.000000e+00 5.339601e-01 4.660399e-01 0.000000e+00
 0.000000e+00 0.000000e+00 0.000000e+00 8.066378e-01 1.933622e-01
 0.000000e+00 0.000000e+00 0.000000e+00 0.000000e+00 0.000000e+00
<ENDHMM>
~h "p"
<BEGINHMM>
<NUMSTATES> 5
<STATE> 2
<MEAN> 39
 -8.567272e-01 7.850563e+00 -5.822282e+00 -1.480550e+01 6.838803e+00 -8.428170e+00 1.286104e+01 4.197725e+00 4.082439e+00 1.277558e+00 4.558127e+00 1.131631e+00 6.413486e+01 -1.736566e-02 7.212162e-02 -9.020273e-02 -3.455865e-01 -2.167596e-01 4.491839e-02 1.829689e-01 2.281507e-01 -8.216350e-02 2.061273e-01 3.855038e-02 2.341238e-01 -2.168346e-01 -5.458716e-02 -8.735379e-02 2.156584e-02 1.676773e-01 9.002538e-02 -2.712621e-02 -2.360650e-02 -5.273079e-02 -2.190212e-02 2.194753e-02 4.314592e-02 -3.992101e-02 4.186237e-03
<VARIANCE> 39
 2.815900e+01 9.456923e+01 3.102829e+01 9.326147e+01 5.817720e+01 1.205791e+02 1.357489e+02 3.376348e+01 1.592939e+02 5.245608e+01 4.197209e+01 4.291646e+01 4.045583e+01 1.413129e+00 3.902727e+00 2.155111e+00 4.989884e+00 3.824070e+00 4.918419e+00 5.428158e+00 3.455641e+00 5.501707e+00 4.305259e+00 3.043746e+00 2.037789e+00 2.899120e+00 2.069914e-01 6.042455e-01 3.704379e-01 5.161248e-01 5.422544e-01 5.368060e-01 6.441273e-01 7.068627e-01 6.040826e-01 7.351143e-01 5.878047e-01 3.965554e-01 6.540815e-01
<GCONST> 1.326040e+02
<STATE> 3
<MEAN> 39
 -9.821133e+00 -2.317798e+00 -7.825062e+00 -5.635384e+00 1.023925e+01 -6.309451e+00 5.821235e+00 1.507993e-01 3.480298e+00 1.081257e+00 7.884489e+00 -3.548519e+00 6.708327e+01 -1.131619e+00 -2.698665e+00 -5.026799e-01 1.104417e-01 -1.302554e-01 -8.506643e-01 -1.032144e+00 -2.031374e+00 8.815385e-01 -5.466135e-01 -4.959469e-02 -9.009373e-01 2.785533e+00 3.167870e-01 3.632888e-01 3.355048e-01 -1.545370e-01 -2.583749e-01 2.854271e-01 4.477058e-02 -4.143748e-02 -3.877439e-01 1.091174e-01 -5.063481e-02 3.048706e-01 -5.453815e-01
<VARIANCE> 39
 3.272926e+01 7.014101e+01 3.690292e+01 3.367714e+01 2.756954e+01 4.005723e+01 3.926393e+01 7.230079e+01 4.683850e+01 3.267440e+01 2.983106e+01 2.597440e+01 1.079722e+02 2.408571e+00 5.897105e+00 4.283327e+00 4.257180e+00 3.278468e+00 5.664801e+00 3.952948e+00 3.811802e+00 2.787704e+00 4.996721e+00 3.533753e+00 4.167513e+00 1.203660e+01 4.080490e-01 1.146110e+00 8.680978e-01 1.160688e+00 5.915347e-01 1.016870e+00 5.997553e-01 8.770815e-01 3.762697e-01 1.108793e+00 6.413369e-01 5.189289e-01 3.320001e+00
<GCONST> 1.364923e+02
<STATE> 4
<MEAN> 39
 -9.061024e+00 -1.303045e+01 -3.819850e+00 -9.269974e-01 8.361580e+00 -3.631690e+00 -5.021173e-01 -8.365826e+00 -1.358979e+00 3.890759e+00 9.439830e+00 -6.996904e-02 6.410213e+01 5.641493e-01 7.625118e-03 2.165758e-01 6.533534e-01 -1.707505e-01 6.648254e-01 4.693875e-01 5.056078e-01 -8.490381e-01 6.430936e-01 4.008570e-01 8.343105e-01 -1.331032e+00 -2.138183e-03 3.017558e-01 -9.789599e-02 -1.293113e-02 4.874525e-02 -3.706917e-02 1.617442e-01 2.432413e-01 -2.623543e-02 -8.757208e-02 2.538162e-02 4.380016e-02 -6.698947e-04
<VARIANCE> 39
 2.015218e+01 3.295522e+01 1.111155e+01 2.157871e+01 1.626370e+01 2.190755e+01 2.564122e+01 6.254996e+01 4.156629e+01 2.126198e+01 1.983842e+01 3.034738e+01 2.088820e+01 4.356702e-01 2.073764e+00 9.465322e-01 8.368120e-01 1.059657e+00 1.562830e+00 2.185159e+00 2.422267e+00 1.873930e+00 1.615268e+00 1.557416e+00 1.245427e+00 6.504572e-01 1.099366e-01 2.747389e-01 2.052007e-01 1.901047e-01 1.946221e-01 2.491662e-01 3.248770e-01 2.790146e-01 4.409900e-01 3.432532e-01 3.762313e-01 2.508704e-01 1.490631e-01
<GCONST> 9.798856e+01
<TRANSP> 5
 0.000000e+00 1.000000e+00 0.000000e+00 0.000000e+00 0.000000e+00
 0.000000e+00 9.387560e-01 6.124404e-02 0.000000e+00 0.000000e+00
 0.000000e+00 0.000000e+00 6.991786e-01 3.008215e-01 0.000000e+00
 0.000000e+00 0.000000e+00 0.000000e+00 8.228923e-01 1.771077e-01
 0.000000e+00 0.000000e+00 0.000000e+00 0.000000e+00 0.000000e+00
<ENDHMM>
~h "r"
<BEGINHMM>
<NUMSTATES> 5
<STATE> 2
<MEAN> 39
 -1.179555e+00 2.440285e+00 -3.974102e+00 -6.580708e+00 1.335686e+01 -8.815628e+00 2.379355e+00 -3.539465e-02 1.243118e+00 -1.930048e+00 8.950489e+00 2.521755e+00 6.632328e+01 -3.500164e-02 4.441426e-01 -3.003803e-02 -3.365537e-01 -7.558568e-01 5.813658e-01 1.431259e+00 7.192616e-01 -8.656415e-01 -5.132232e-01 1.891533e-01 3.931819e-01 -5.648218e-01 -5.679647e-02 4.048998e-02 6.183034e-02 8.465624e-02 1.616163e-02 5.384006e-02 -4.093102e-02 3.437282e-03 -7.933194e-02 -7.007945e-02 -7.559963e-02 2.736545e-03 -6.280676e-02
<VARIANCE> 39
 4.364976e+01 7.180424e+01 3.490771e+01 1.181810e+02 8.248454e+01 6.622170e+01 4.904756e+01 5.548758e+01 7.805856e+01 6.667849e+01 3.814096e+01 6.340964e+01 6.991165e+01 4.757098e-01 1.165149e+00 1.041969e+00 3.338027e+00 1.884748e+00 2.883654e+00 3.171365e+00 2.495368e+00 3.196612e+00 4.753911e+00 1.963796e+00 2.387793e+00 8.641954e-01 5.261645e-02 1.469290e-01 1.750426e-01 2.951145e-01 3.036214e-01 3.799657e-01 3.956207e-01 3.983412e-01 4.549589e-01 5.083214e-01 3.815139e-01 3.821543e-01 5.540567e-02
<GCONST> 1.155847e+02
<STATE> 3
<MEAN> 39
 1.186087e+00 9.740975e+00 -4.522168e+00 -1.114653e+01 1.082557e+01 -5.116631e+00 9.410198e+00 5.878218e+00 -3.043346e+00 -7.979246e+00 7.666574e+00 4.131589e+00 6.386511e+01 -5.668400e-02 6.176668e-01 2.901432e-01 4.665127e-01 -1.876222e-01 6.656588e-01 4.514372e-01 3.014077e-01 -1.041610e+00 -6.439721e-01 -3.061190e-01 2.378829e-01 -6.905596e-01 2.406395e-02 -1.199482e-01 -1.866681e-02 1.574225e-01 2.170855e-01 8.861843e-02 -2.732580e-01 -2.236577e-01 1.445854e-01 9.694701e-02 5.046002e-02 4.687844e-02 -1.001169e-02
<VARIANCE> 39
 4.042093e+01 6.786079e+01 3.841157e+01 1.449295e+02 9.342379e+01 8.850733e+01 3.647244e+01 8.011261e+01 9.553893e+01 9.557962e+01 3.336050e+01 5.110225e+01 7.825714e+01 4.534214e-01 8.873215e-01 9.852883e-01 2.429420e+00 1.412098e+00 2.690636e+00 1.893378e+00 2.637227e+00 1.820934e+00 3.909073e+00 1.635051e+00 1.471227e+00 7.385214e-01 7.234090e-02 1.592920e-01 1.256419e-01 4.136729e-01 2.730956e-01 3.983567e-01 2.467715e-01 3.932720e-01 2.685189e-01 3.581002e-01 3.509760e-01 2.359284e-01 9.895711e-02
<GCONST> 1.124648e+02
<STATE> 4
<MEAN> 39
 1.592347e+00 9.177902e+00 -4.700029e+00 -9.907881e+00 1.207238e+01 -4.113456e+00 7.470358e+00 2.973816e+00 -1.615143e+00 -1.159033e+01 7.378928e+00 5.068368e+00 6.453273e+01 -2.417418e-01 -5.561152e-01 1.787291e-01 1.447696e+00 8.865347e-01 2.676676e-01 -8.493752e-01 -6.729139e-01 2.634113e-01 5.754800e-01 5.010589e-01 1.010967e-01 -1.518025e-01 -1.387159e-01 -2.306371e-01 6.050311e-02 2.110397e-01 8.192082e-02 -1.827287e-01 -1.580172e-01 -3.263038e-02 4.449507e-01 3.889121e-01 -5.271289e-02 -2.313663e-01 8.207753e-02
<VARIANCE> 39
 3.437279e+01 6.596374e+01 3.660791e+01 1.669873e+02 7.694948e+01 6.483768e+01 8.400986e+01 9.660310e+01 1.199320e+02 1.559497e+02 5.120309e+01 4.482428e+01 6.586975e+01 8.671606e-01 2.590775e+00 1.426969e+00 4.868373e+00 4.585696e+00 4.545500e+00 6.125571e+00 5.389471e+00 4.468488e+00 8.050840e+00 3.560308e+00 3.320832e+00 1.285760e+00 1.701526e-01 2.980658e-01 2.901466e-01 9.279583e-01 4.296715e-01 7.996051e-01 7.637435e-01 8.868438e-01 9.012187e-01 1.368046e+00 6.579472e-01 7.075992e-01 1.779759e-01
<GCONST> 1.349542e+02
<TRANSP> 5
 0.000000e+00 1.000000e+00 0.000000e+00 0.000000e+00 0.000000e+00
 0.000000e+00 6.404397e-01 3.595603e-01 0.000000e+00 0.000000e+00
 0.000000e+00 0.000000e+00 5.818292e-01 4.181708e-01 0.000000e+00
 0.000000e+00 0.000000e+00 0.000000e+00 6.660243e-01 3.339756e-01
 0.000000e+00 0.000000e+00 0.000000e+00 0.000000e+00 0.000000e+00
<ENDHMM>
~h "s"
<BEGINHMM>
<NUMSTATES> 5
<STATE> 2
<MEAN> 39
 -1.406359e+01 -6.312777e+00 1.256182e+01 -2.564121e+00 1.441565e+01 -6.174705e+00 7.378610e+00 -6.054027e+00 4.903737e+00 -5.959700e+00 9.380569e+00 -2.426579e+00 7.379186e+01 -3.990627e+00 -2.280013e+00 2.631407e+00 9.177393e-02 -1.474547e+00 -8.620940e-01 2.041061e+00 2.298579e-01 1.897819e+00 7.217412e-01 4.400287e-02 -6.142628e-01 1.394264e+00 1.936077e-02 4.542575e-01 -3.249883e-01 -5.653692e-01 -3.053479e-01 2.425779e-02 1.995227e-01 3.218918e-01 -7.420737e-01 -4.890999e-01 7.024260e-02 3.180975e-02 -1.785702e-02
<VARIANCE> 39
 6.569054e+01 2.789065e+01 7.393582e+01 2.593311e+01 5.370389e+01 2.823266e+01 5.051968e+01 5.719413e+01 6.877064e+01 4.407950e+01 1.772478e+01 2.562418e+01 3.566419e+01 2.378871e+00 3.877215e+00 3.825765e+00 6.325360e+00 3.171862e+00 3.687918e+00 6.372361e+00 4.983866e+00 8.054939e+00 4.768868e+00 2.406182e+00 1.876684e+00 9.033195e-01 8.382288e-01 3.911761e-01 8.213769e-01 5.385594e-01 5.483981e-01 5.808085e-01 1.205225e+00 8.673138e-01 1.002471e+00 1.012019e+00 4.748815e-01 2.803164e-01 2.510652e-01
<GCONST> 1.297166e+02
<STATE> 3
<MEAN> 39
 -2.803624e+01 -1.250574e+01 1.830865e+01 -9.021209e+00 3.517674e+00 -7.335778e+00 1.521256e+01 -5.274912e+00 3.989050e+00 -3.250163e+00 9.243821e+00 -5.349873e+00 7.759832e+01 -5.212016e-01 -3.183414e-01 -5.803604e-02 -1.108912e-01 -5.308326e-01 -1.369234e-01 1.716904e-01 3.598759e-01 -1.761676e-01 1.668656e-01 -1.149714e-02 5.607398e-02 -3.037081e-01 3.549618e-01 9.789174e-02 -1.601888e-01 2.889548e-01 2.108993e-01 2.199092e-02 -2.585324e-01 5.272234e-02 3.135733e-02 9.202322e-03 -3.931657e-03 1.346090e-01 -2.664328e-01
<VARIANCE> 39
 1.331640e+01 1.341806e+01 2.749175e+01 2.532824e+01 2.979830e+01 1.991775e+01 2.844738e+01 3.493164e+01 2.271562e+01 2.913059e+01 1.668271e+01 1.442137e+01 1.379972e+01 8.783103e-01 4.904985e-01 1.900975e+00 1.640360e+00 1.466067e+00 1.428087e+00 1.642123e+00 1.252343e+00 1.380876e+00 1.685990e+00 9.606165e-01 9.956754e-01 4.916799e-01 2.189146e-01 7.895401e-02 3.379769e-01 1.795789e-01 2.300210e-01 2.915291e-01 3.203784e-01 2.726711e-01 2.704665e-01 3.488306e-01 2.074470e-01 1.841772e-01 9.586176e-02
<GCONST> 9.317427e+01
<STATE> 4
<MEAN> 39
 -2.105358e+01 -1.159429e+01 1.415259e+01 -1.248086e+00 3.048435e+00 -5.614149e+00 9.306654e+00 -1.011806e+00 2.680530e+00 -1.035580e+00 8.034216e+00 -2.315378e+00 6.683803e+01 1.942779e+00 9.898251e-01 -4.993231e-01 9.328861e-01 -3.363165e-01 9.739482e-01 -9.267486e-01 4.397381e-01 -5.533053e-01 4.567078e-01 -2.611774e-01 2.041285e-01 -1.709555e+00 1.572374e-01 1.136183e-01 -3.577815e-02 -1.723057e-01 -6.198661e-03 1.305747e-02 1.771747e-02 -1.152016e-01 -4.466219e-02 -6.762198e-02 -1.206711e-01 -1.742080e-01 1.734215e-01
<VARIANCE> 39
 5.893212e+01 6.503210e+01 6.161736e+01 3.479281e+01 4.927612e+01 2.983914e+01 7.288264e+01 6.155621e+01 4.313750e+01 3.066164e+01 2.717365e+01 1.973620e+01 5.365451e+01 2.471782e+00 3.157777e+00 5.635324e+00 2.830079e+00 2.829817e+00 3.266648e+00 2.410840e+00 3.213782e+00 2.348829e+00 2.206412e+00 2.576675e+00 1.941900e+00 3.092527e+00 4.460914e-01 4.273487e-01 1.103313e+00 5.062967e-01 4.693962e-01 6.964413e-01 5.624525e-01 5.466181e-01 5.027203e-01 4.584890e-01 4.935657e-01 3.547177e-01 4.953350e-01
<GCONST> 1.257857e+02
<TRANSP> 5
 0.000000e+00 1.000000e+00 0.000000e+00 0.000000e+00 0.000000e+00
 0.000000e+00 7.508876e-01 2.491123e-01 0.000000e+00 0.000000e+00
 0.000000e+00 0.000000e+00 8.810109e-01 1.189890e-01 0.000000e+00
 0.000000e+00 0.000000e+00 0.000000e+00 8.366136e-01 1.633864e-01
 0.000000e+00 0.000000e+00 0.000000e+00 0.000000e+00 0.000000e+00
<ENDHMM>
~h "t"
<BEGINHMM>
<NUMSTATES> 5
<STATE> 2
<MEAN> 39
 -5.904437e+00 6.738235e+00 3.708336e+00 4.611797e+00 1.182656e+01 -1.938855e+00 4.398943e+00 4.589522e+00 1.283568e+00 5.657422e+00 5.898209e+00 -2.975797e+00 5.507462e+01 -5.391966e-01 -5.252022e-01 -1.348999e-01 -9.286082e-01 -1.015826e-01 3.036451e-01 5.207899e-01 -7.091492e-01 6.407169e-01 -5.038927e-01 -1.277385e-01 1.157293e-01 4.228881e-01 -2.814574e-01 -6.536199e-01 1.929848e-01 -4.130987e-01 -6.333961e-02 -4.602567e-01 1.579185e-02 -3.946434e-01 3.574465e-01 -5.729598e-01 5.056465e-02 -2.082078e-01 1.047581e+00
<VARIANCE> 39
 6.020633e+01 7.547167e+01 8.387000e+01 6.302009e+01 8.007331e+01 4.957552e+01 4.921164e+01 4.800010e+01 4.212553e+01 4.745311e+01 3.724960e+01 3.721029e+01 4.625720e+01 2.710733e+00 6.578774e+00 5.774495e+00 4.423950e+00 3.450324e+00 2.909012e+00 3.211833e+00 4.638419e+00 4.449159e+00 3.840897e+00 3.507333e+00 1.955501e+00 5.791179e+00 3.882789e-01 9.828074e-01 9.487599e-01 6.235710e-01 7.118740e-01 6.630051e-01 4.646494e-01 1.065004e+00 6.549110e-01 6.507741e-01 5.490080e-01 3.296923e-01 1.143037e+00
<GCONST> 1.356724e+02
<STATE> 3
<MEAN> 39
 -1.402460e+01 -6.706137e+00 5.859878e+00 -5.811727e+00 7.527671e+00 -6.586953e+00 7.631896e+00 -2.073474e+00 8.535028e+00 -3.111609e+00 7.514933e+00 -4.215732e+00 6.904811e+01 -1.059350e+00 -2.188122e+00 1.174843e+00 -9.776950e-01 -1.433034e-01 -1.593678e+00 -4.693856e-01 -2.030822e+00 6.233178e-01 -1.767767e+00 9.952949e-02 -4.890888e-01 3.479805e+00 5.199459e-01 7.932091e-01 1.153075e-02 8.245457e-01 3.600480e-01 1.253659e-01 -6.020821e-01 3.878665e-01 -6.788036e-01 5.691728e-01 -5.561603e-02 2.336042e-01 -8.126056e-01
<VARIANCE> 39
 4.097540e+01 1.138501e+02 8.229211e+01 5.761104e+01 6.259642e+01 6.091011e+01 3.192904e+01 5.668054e+01 5.239499e+01 4.895861e+01 3.815879e+01 3.490458e+01 8.860881e+01 6.896460e+00 1.234953e+01 6.224361e+00 8.701024e+00 6.933437e+00 6.300173e+00 5.011903e+00 6.835242e+00 5.413898e+00 6.266799e+00 3.584883e+00 2.613858e+00 1.148549e+01 8.458541e-01 1.623604e+00 1.507262e+00 1.020784e+00 7.686478e-01 9.806718e-01 1.050829e+00 1.164825e+00 8.662576e-01 9.643312e-01 7.161484e-01 4.195425e-01 2.123902e+00
<GCONST> 1.478533e+02
<STATE> 4
<MEAN> 39
 -1.179369e+01 -7.611389e+00 5.843589e+00 -3.387858e+00 9.584368e+00 -5.217518e+00 2.149270e+00 -5.634824e+00 3.110394e+00 -3.486791e+00 8.375864e+00 -2.606566e+00 6.968186e+01 1.160167e+00 1.083572e+00 -4.594831e-01 5.336179e-01 3.032544e-01 1.602781e-01 -9.849601e-01 7.149404e-01 -8.809483e-01 2.689872e-01 -9.459811e-02 2.001117e-01 -9.442618e-01 2.708183e-02 1.132430e-01 -7.886331e-02 2.153713e-03 -1.312830e-01 -3.329012e-02 2.447308e-01 3.647538e-01 6.462076e-02 1.972898e-01 -3.344066e-02 4.536062e-04 -2.185207e-01
<VARIANCE> 39
 4.819571e+01 8.607111e+01 5.449138e+01 4.396314e+01 6.485422e+01 7.320240e+01 5.404358e+01 6.665408e+01 6.634513e+01 4.518909e+01 3.935570e+01 2.564931e+01 3.372034e+01 2.871479e+00 3.489505e+00 3.793137e+00 4.291919e+00 4.254922e+00 2.942943e+00 5.973861e+00 4.216341e+00 4.115899e+00 2.941831e+00 2.716072e+00 1.788919e+00 2.673451e+00 4.341773e-01 5.708355e-01 5.473614e-01 7.215186e-01 5.091320e-01 5.552834e-01 7.403633e-01 7.248955e-01 7.092131e-01 5.714464e-01 5.108638e-01 3.119134e-01 5.134019e-01
<GCONST> 1.311749e+02
<TRANSP> 5
 0.000000e+00 1.000000e+00 0.000000e+00 0.000000e+00 0.000000e+00
 0.000000e+00 6.568987e-01 3.431013e-01 0.000000e+00 0.000000e+00
 0.000000e+00 0.000000e+00 5.828639e-01 4.171361e-01 0.000000e+00
 0.000000e+00 0.000000e+00 0.000000e+00 7.126969e-01 2.873031e-01
 0.000000e+00 0.000000e+00 0.000000e+00 0.000000e+00 0.000000e+00
<ENDHMM>
~h "v"
<BEGINHMM>
<NUMSTATES> 5
<STATE> 2
<MEAN> 39
 -7.378355e+00 1.172435e+01 -2.004126e+00 2.483509e+00 2.727481e+01 -1.276593e+01 6.874228e+00 -7.035519e+00 3.115221e+00 -3.682460e+00 8.795902e+00 -2.756121e+00 6.845476e+01 -6.196390e-01 2.902873e-01 6.420382e-01 5.279515e-01 1.646605e+00 9.253502e-03 -1.797514e-01 -3.035279e-01 -5.859089e-02 -7.760119e-02 -7.506166e-03 -7.078163e-01 -3.662721e-01 3.530429e-01 -9.041538e-01 2.640460e-01 4.465429e-01 -3.137538e-01 -1.336586e-01 -1.040743e+00 1.519608e-02 -2.836226e-01 -2.749875e-01 2.061495e-01 -4.707874e-01 4.357193e-01
<VARIANCE> 39
 1.632175e+01 1.288223e+01 1.095932e+01 8.664577e+00 2.137934e+01 2.111824e+01 3.765104e+01 2.186567e+01 1.809208e+01 2.709818e+01 1.285803e+01 1.304306e+01 7.981799e+00 3.299484e+00 6.437201e+00 1.223428e+00 2.181432e+00 9.820320e-01 1.085226e+00 1.079288e+01 1.521021e+00 4.404027e+00 2.326452e+00 1.537306e+00 2.399126e+00 8.440004e-01 5.371585e-01 3.033723e-01 1.739962e-01 3.491962e-01 2.102834e-01 3.451240e-01 6.348650e-01 3.875626e-01 8.266071e-01 4.772650e-01 2.878965e-01 2.299100e-01 2.335581e-02
<GCONST> 1.021183e+02
<STATE> 3
<MEAN> 39
 -5.558380e+00 1.657073e+00 5.773712e+00 1.339817e+01 3.045953e+01 -1.718548e+01 -6.258734e+00 -8.299500e+00 1.737651e+00 -8.789859e+00 1.025470e+01 -1.311401e+01 7.198258e+01 -1.795697e-01 -1.696309e+00 2.345880e+00 2.072204e+00 -5.432235e-01 -1.504222e+00 -1.314837e+00 3.523456e-01 1.173337e+00 -1.318012e+00 -1.053324e-02 -1.703700e+00 8.222138e-01 -2.709127e-01 4.108984e-01 1.401026e-01 -3.701037e-01 -2.668930e-01 1.251162e-01 6.404481e-01 2.962495e-01 2.044195e-01 2.040125e-01 -1.932618e-01 5.061224e-01 -2.316618e-01
<VARIANCE> 39
 6.266707e+00 1.037981e+01 3.820263e+01 2.808635e+01 8.146651e+00 3.214293e+01 2.065107e+01 2.015927e+01 2.438617e+01 2.462331e+01 2.296130e+01 2.622301e+01 4.370117e+00 1.509397e+00 2.032774e+00 9.945950e-01 1.540107e+00 1.791634e+00 1.887743e+00 2.939943e+00 1.943982e+00 2.775064e+00 1.742515e+00 1.294239e+00 2.239765e+00 6.556004e-01 2.186626e-01 1.698152e-01 2.619158e-01 1.546193e-01 2.305593e-01 4.537658e-01 3.510911e-01 3.283471e-01 7.127484e-01 3.287688e-01 2.834105e-01 3.640998e-01 9.634808e-02
<GCONST> 9.845037e+01
<STATE> 4
<MEAN> 39
 -7.760738e+00 -2.477912e+00 1.636194e+01 1.614293e+01 2.766943e+01 -1.737470e+01 -8.255479e+00 -5.347557e+00 5.318178e+00 -1.069646e+01 9.331455e+00 -1.491621e+01 7.153098e+01 -1.606001e-01 -1.135499e-01 5.260315e-01 -2.041762e-01 -1.099671e-01 9.012058e-01 2.312628e-01 3.402238e-01 -2.952997e-01 8.080017e-01 -3.522102e-01 3.349372e-01 -6.811630e-01 3.530139e-02 1.606676e-01 -3.419590e-01 -2.415418e-01 3.378299e-02 2.553796e-01 1.722605e-01 3.857765e-02 -2.034593e-01 2.531518e-01 -8.885478e-02 6.682500e-02 -1.627879e-01
<VARIANCE> 39
 7.628098e+00 1.291625e+01 1.823022e+01 2.237743e+01 1.140917e+01 4.327233e+01 3.189911e+01 2.495226e+01 1.434645e+01 4.191269e+01 1.666215e+01 1.879735e+01 1.435686e+01 3.730620e-01 5.920557e-01 2.799309e+00 2.435965e+00 1.513656e+00 2.924464e+00 4.962849e+00 2.249575e+00 1.521240e+00 2.632431e+00 1.894507e+00 1.493981e+00 9.490577e-01 6.891697e-02 1.012341e-01 3.014338e-01 2.423912e-01 3.011455e-01 3.857774e-01 6.845516e-01 4.532350e-01 2.695949e-01 4.446414e-01 3.862341e-01 2.830714e-01 1.281480e-01
<GCONST> 9.936197e+01
<TRANSP> 5
 0.000000e+00 1.000000e+00 0.000000e+00 0.000000e+00 0.000000e+00
 0.000000e+00 8.384845e-01 1.615155e-01 0.000000e+00 0.000000e+00
 0.000000e+00 0.000000e+00 7.797160e-01 2.202840e-01 0.000000e+00
 0.000000e+00 0.000000e+00 0.000000e+00 8.579215e-01 1.420786e-01
 0.000000e+00 0.000000e+00 0.000000e+00 0.000000e+00 0.000000e+00
<ENDHMM>
~h "w"
<BEGINHMM>
<NUMSTATES> 5
<STATE> 2
<MEAN> 39
 -9.653735e+00 8.120244e-01 6.004620e+00 4.820906e+00 1.581705e+01 -1.385702e+01 -6.252427e-01 -2.911682e+00 2.921399e+00 -4.282885e+00 7.408109e+00 -8.937656e+00 6.607627e+01 1.055365e+00 5.991381e-01 2.066366e-01 2.561553e-01 -3.123810e-01 -7.105553e-01 -6.404341e-01 -3.789125e-01 5.703143e-01 -1.701389e-01 -3.385090e-01 -5.205405e-01 6.333448e-01 1.855899e-01 1.639760e-01 -4.585523e-02 1.034490e-01 -1.432852e-01 -1.324984e-01 -1.980629e-01 1.114302e-01 4.960476e-02 1.157597e-01 -1.721414e-01 2.053358e-02 -1.434875e-01
<VARIANCE> 39
 8.320596e+01 1.010044e+02 4.051499e+01 9.003159e+01 9.187849e+01 1.544870e+02 1.310451e+02 9.350305e+01 5.698652e+01 4.169470e+01 6.600254e+01 5.499374e+01 7.166364e+01 4.070152e+00 7.099011e+00 2.974439e+00 5.243543e+00 3.989960e+00 9.963984e+00 7.430737e+00 5.963236e+00 6.430079e+00 5.394803e+00 3.939410e+00 2.855416e+00 6.053797e+00 7.281629e-01 1.067040e+00 6.972066e-01 1.001283e+00 5.641765e-01 1.089476e+00 9.836448e-01 1.016921e+00 8.205468e-01 1.089283e+00 5.132397e-01 6.023516e-01 6.336884e-01
<GCONST> 1.466433e+02
<STATE> 3
<MEAN> 39
 3.387648e+00 1.705476e+01 7.956184e+00 2.760554e+00 5.256426e+00 -1.897811e+01 -6.101298e+00 2.659073e+00 1.009192e+01 9.747839e-01 5.550340e-01 -4.426156e+00 5.933132e+01 8.204329e-01 -7.263197e-02 -7.034729e-01 1.125431e-01 -1.843461e-01 -1.600589e+00 -7.683656e-01 5.723516e-01 8.799047e-01 5.445354e-01 -4.960550e-01 -2.852929e-01 3.273158e-01 -1.286214e-01 -3.716121e-01 -2.722851e-01 -2.306398e-01 1.884033e-01 1.334057e-01 4.841133e-01 2.131274e-01 -7.523812e-02 -1.707707e-01 6.057661e-02 -5.459185e-02 2.455594e-01
<VARIANCE> 39
 1.287183e+01 2.851414e+01 2.642548e+01 2.816637e+01 3.507584e+01 8.109138e+01 6.468904e+01 4.637727e+01 8.957700e+01 4.957486e+01 3.322954e+01 2.771429e+01 1.532495e+01 8.216113e-01 2.231270e+00 3.450532e+00 2.590446e+00 2.064382e+00 3.702307e+00 5.067812e+00 4.019005e+00 5.882812e+00 4.328680e+00 2.095739e+00 4.490076e+00 1.653547e+00 1.354332e-01 2.026898e-01 2.957893e-01 2.859334e-01 4.090773e-01 6.706089e-01 6.629594e-01 6.264526e-01 1.243141e+00 6.081008e-01 3.568321e-01 6.891913e-01 5.722045e-02
<GCONST> 1.191533e+02
<STATE> 4
<MEAN> 39
 2.120538e+00 7.877485e+00 1.217458e+00 3.047400e-01 1.493366e+01 -1.401205e+01 -4.736910e+00 2.001850e+00 6.731131e+00 -7.593424e+00 6.356828e+00 -9.934339e+00 6.805772e+01 -2.669274e-01 -1.388308e+00 -2.919039e-01 1.130986e-01 7.453784e-01 7.760921e-01 5.099182e-01 -3.172162e-01 -1.001957e+00 7.389940e-03 2.226822e-01 6.787741e-01 8.848817e-01 -1.386078e-01 8.192208e-02 2.646225e-01 1.865902e-01 -8.045572e-02 1.834399e-01 1.701634e-02 -2.225541e-01 -2.222306e-01 4.852912e-01 1.735789e-01 2.764503e-01 -1.648276e-01
<VARIANCE> 39
 1.623991e+01 6.104448e+01 2.823877e+01 3.518466e+01 6.323848e+01 9.917470e+01 4.968132e+01 5.630065e+01 1.187098e+02 1.163314e+02 7.076840e+01 4.621112e+01 3.425794e+01 7.340949e-01 4.215610e+00 3.419564e+00 3.703665e+00 4.689541e+00 6.142955e+00 6.884395e+00 6.344416e+00 1.033888e+01 1.207471e+01 3.920096e+00 3.821450e+00 2.333544e+00 1.231357e-01 4.152707e-01 4.289999e-01 6.294131e-01 6.023753e-01 1.238887e+00 1.128675e+00 1.238876e+00 2.460836e+00 2.002180e+00 7.030416e-01 9.809307e-01 1.545938e-01
<GCONST> 1.376208e+02
<TRANSP> 5
 0.000000e+00 1.000000e+00 0.000000e+00 0.000000e+00 0.000000e+00
 0.000000e+00 7.551305e-01 2.448695e-01 0.000000e+00 0.000000e+00
 0.000000e+00 0.000000e+00 8.783267e-01 1.216733e-01 0.000000e+00
 0.000000e+00 0.000000e+00 0.000000e+00 8.148317e-01 1.851684e-01
 0.000000e+00 0.000000e+00 0.000000e+00 0.000000e+00 0.000000e+00
<ENDHMM>
~h "aa"
<BEGINHMM>
<NUMSTATES> 5
<STATE> 2
<MEAN> 39
 9.697941e-02 4.318005e+00 -6.159407e+00 -1.175563e+01 6.322259e+00 -1.749390e+01 5.911318e+00 1.137184e+01 1.207197e+01 3.495954e+00 4.441916e+00 -2.656752e+00 6.512965e+01 1.102370e+00 6.711653e-01 -7.028874e-01 -3.697406e-02 2.889005e-01 -1.152961e+00 7.703234e-01 9.041115e-01 -3.106851e-01 -1.695114e-01 -3.737167e-03 5.889970e-01 1.929620e-01 -5.519772e-02 -7.351228e-02 2.921235e-02 1.052952e-01 1.841129e-02 3.158714e-02 2.322480e-02 -1.213625e-01 -8.958540e-02 -2.594695e-01 -5.998562e-02 1.002227e-01 8.360124e-02
<VARIANCE> 39
 3.027692e+01 3.788435e+01 3.175635e+01 6.909985e+01 3.989120e+01 9.518375e+01 7.621246e+01 5.295795e+01 4.578100e+01 4.859857e+01 3.056976e+01 3.051229e+01 2.577255e+01 1.748389e+00 2.747564e+00 2.067791e+00 5.593747e+00 3.130626e+00 3.847814e+00 2.909970e+00 3.183736e+00 2.434720e+00 4.017544e+00 1.917003e+00 2.320898e+00 1.198187e+00 3.137690e-01 3.391454e-01 3.278261e-01 6.057227e-01 5.032133e-01 4.191967e-01 5.040066e-01 5.339257e-01 3.552578e-01 5.329556e-01 2.663786e-01 4.393498e-01 1.533104e-01
<GCONST> 1.210315e+02
<STATE> 3
<MEAN> 39
 6.764649e+00 6.282300e+00 -9.589065e+00 -1.113445e+01 9.249330e+00 -2.306195e+01 8.256828e+00 1.409744e+01 9.978125e+00 -4.007553e-01 4.709745e+00 8.130975e-01 6.866640e+01 1.634421e-01 1.750435e-01 -2.817467e-01 -5.661471e-01 4.957757e-01 5.332676e-01 7.060999e-01 2.264039e-01 -7.913986e-01 -8.100809e-01 -3.506226e-02 6.022674e-01 1.036199e-01 -2.082847e-01 -5.119599e-03 2.378083e-01 -5.277896e-02 -1.564948e-01 2.683660e-01 1.463057e-02 -1.076247e-01 -1.048862e-01 4.022610e-02 -1.054098e-01 -1.259119e-01 -4.500196e-02
<VARIANCE> 39
 1.293064e+01 2.156993e+01 2.517222e+01 7.419659e+01 4.987757e+01 9.446018e+01 4.586623e+01 6.551407e+01 5.704020e+01 5.250007e+01 2.762622e+01 3.314620e+01 1.729975e+01 2.769914e-01 6.124793e-01 1.138332e+00 2.429443e+00 1.729977e+00 2.087615e+00 1.024210e+00 1.337171e+00 2.533096e+00 2.906599e+00 1.485919e+00 1.924960e+00 3.141188e-01 5.538433e-02 8.185144e-02 1.628580e-01 2.789365e-01 2.646526e-01 2.095484e-01 2.457463e-01 3.250161e-01 2.696786e-01 3.141795e-01 2.391406e-01 1.850195e-01 3.342703e-02
<GCONST> 9.882036e+01
<STATE> 4
<MEAN> 39
 6.030333e+00 6.758594e+00 -9.652435e+00 -6.973562e+00 8.830907e+00 -2.000870e+01 1.495249e+01 1.254175e+01 9.501769e+00 2.893937e+00 1.181417e+00 -5.836943e-01 6.674557e+01 -2.541479e-01 -8.636470e-02 5.765932e-02 -2.720445e-01 6.985960e-01 1.231810e+00 2.845719e-01 -3.772863e-01 -7.556736e-01 -2.195788e-01 -3.469267e-01 -2.400692e-01 -4.176844e-02 -7.665206e-02 2.168723e-02 1.109679e-01 9.331067e-02 6.359161e-02 1.359786e-01 -1.588142e-01 -1.804963e-01 3.312076e-02 -4.304846e-02 5.188507e-02 5.291487e-02 -5.140933e-02
<VARIANCE> 39
 1.373359e+01 2.257159e+01 2.862811e+01 4.414678e+01 6.101571e+01 9.832057e+01 6.233021e+01 6.708379e+01 6.647405e+01 9.077693e+01 4.439332e+01 5.499753e+01 1.679038e+01 2.443412e-01 5.226792e-01 1.288072e+00 1.062885e+00 1.737155e+00 1.491005e+00 2.828097e+00 2.331031e+00 2.742589e+00 2.214359e+00 1.666795e+00 2.140898e+00 3.446549e-01 4.135171e-02 6.430845e-02 1.505783e-01 2.288747e-01 2.198062e-01 2.772137e-01 5.252672e-01 5.214109e-01 4.568654e-01 3.084673e-01 3.617193e-01 3.487749e-01 4.202754e-02
<GCONST> 1.034346e+02
<TRANSP> 5
 0.000000e+00 1.000000e+00 0.000000e+00 0.000000e+00 0.000000e+00
 0.000000e+00 7.831638e-01 2.168361e-01 0.000000e+00 0.000000e+00
 0.000000e+00 0.000000e+00 7.766508e-01 2.233491e-01 0.000000e+00
 0.000000e+00 0.000000e+00 0.000000e+00 7.699283e-01 2.300718e-01
 0.000000e+00 0.000000e+00 0.000000e+00 0.000000e+00 0.000000e+00
<ENDHMM>
~h "ae"
<BEGINHMM>
<NUMSTATES> 5
<STATE> 2
<MEAN> 39
 -2.309474e+00 -2.095644e+00 -5.453997e+00 -5.994386e+00 1.233752e+01 -1.085261e+01 4.119300e+00 1.839511e+00 8.337640e+00 2.587554e+00 1.219988e+01 -2.887663e+00 7.606912e+01 4.836647e-01 1.649581e-01 -7.160823e-01 -4.154007e-01 -4.958932e-02 -1.165022e-01 8.143841e-01 9.133042e-01 -3.441848e-01 2.711913e-01 -2.794990e-01 -1.468894e-01 -5.873130e-02 -7.974592e-02 7.868206e-03 6.429162e-02 5.088576e-02 -3.092965e-02 -4.487968e-02 -5.081873e-02 -8.962146e-02 -1.393173e-01 -2.097541e-01 -6.754950e-02 6.555650e-02 -7.126951e-02
<VARIANCE> 39
 1.458826e+01 8.678403e+00 1.835207e+01 3.772922e+01 3.131965e+01 1.848126e+01 4.958430e+01 4.156352e+01 1.784850e+01 3.077802e+01 1.986858e+01 2.285805e+01 2.101951e+01 7.497318e-01 6.760638e-01 8.029467e-01 1.179006e+00 1.099527e+00 1.094570e+00 1.683020e+00 1.416829e+00 1.425844e+00 1.719353e+00 1.732667e+00 1.415267e+00 1.999688e-01 9.367766e-02 1.242695e-01 1.203107e-01 1.934104e-01 1.755852e-01 1.990365e-01 3.178438e-01 2.763379e-01 2.771362e-01 2.100460e-01 2.963940e-01 2.522040e-01 4.732176e-02
<GCONST> 9.053889e+01
<STATE> 3
<MEAN> 39
 -4.270089e+00 3.382644e+00 -4.957926e+00 -6.477736e+00 6.444883e+00 -1.287308e+01 1.216025e+01 9.293285e+00 4.861997e+00 3.927690e+00 7.304628e+00 -2.249775e+00 6.586606e+01 -1.525560e-01 2.923332e-01 3.615220e-01 -1.036545e-01 -3.582609e-01 -2.260418e-01 -6.319472e-01 -3.467871e-02 3.799858e-02 -5.411021e-01 2.135081e-01 -1.087139e-01 -7.881037e-01 4.478067e-03 1.411044e-02 5.056259e-02 5.697681e-02 4.138840e-02 9.520352e-04 -2.257548e-01 -2.931216e-01 7.364076e-02 -2.138084e-02 1.766202e-01 -7.441397e-02 4.669642e-02
<VARIANCE> 39
 3.338595e+01 3.358857e+01 2.770991e+01 3.202991e+01 4.520947e+01 4.970030e+01 9.092354e+01 4.373467e+01 2.011593e+01 5.304083e+01 3.746994e+01 2.514252e+01 9.966774e+01 9.732305e-01 1.804988e+00 1.265920e+00 1.894045e+00 1.908004e+00 2.831284e+00 4.223128e+00 4.083690e+00 2.382558e+00 4.189675e+00 2.854131e+00 1.989242e+00 4.047512e+00 1.815072e-01 1.779789e-01 2.618504e-01 3.141900e-01 3.059439e-01 4.324659e-01 5.920284e-01 6.665180e-01 4.594581e-01 5.904146e-01 4.286971e-01 3.641412e-01 3.228844e-01
<GCONST> 1.181486e+02
<STATE> 4
<MEAN> 39
 -3.553211e+00 -1.031893e+00 -4.694218e+00 -1.851205e+00 1.358643e+01 -1.466609e+01 1.524558e+00 2.807482e+00 4.422776e+00 -1.034746e+00 1.385816e+01 -5.947590e+00 7.234396e+01 -2.359354e-01 6.577208e-01 1.745922e-01 4.146701e-01 -2.353274e-01 1.164844e-01 3.407836e-01 -2.832135e-01 -1.206427e-01 1.960005e-01 2.083252e-01 1.454590e-01 -7.081117e-01 -2.280146e-02 1.717945e-01 7.812762e-02 -2.259935e-02 1.664573e-02 2.628753e-01 1.929012e-02 1.677421e-02 4.014305e-02 7.419249e-02 -2.026286e-01 3.804148e-02 -1.847578e-01
<VARIANCE> 39
 2.416604e+01 2.063865e+01 7.819939e+01 1.006368e+02 6.034123e+01 2.841107e+01 7.978252e+01 4.015419e+01 2.138007e+01 4.205171e+01 5.526292e+01 3.389112e+01 4.336931e+01 1.294425e+00 1.210901e+00 1.092362e+00 1.912234e+00 2.033363e+00 2.227825e+00 2.830156e+00 2.417247e+00 1.551103e+00 2.224979e+00 2.588467e+00 1.245774e+00 2.776344e+00 1.717910e-01 2.725068e-01 1.636379e-01 4.217854e-01 4.305934e-01 3.682602e-01 5.489786e-01 4.482585e-01 2.494493e-01 4.042689e-01 4.056082e-01 1.838776e-01 2.216122e-01
<GCONST> 1.131603e+02
<TRANSP> 5
 0.000000e+00 1.000000e+00 0.000000e+00 0.000000e+00 0.000000e+00
 0.000000e+00 8.637019e-01 1.362981e-01 0.000000e+00 0.000000e+00
 0.000000e+00 0.000000e+00 7.039019e-01 2.960981e-01 0.000000e+00
 0.000000e+00 0.000000e+00 0.000000e+00 8.207566e-01 1.792434e-01
 0.000000e+00 0.000000e+00 0.000000e+00 0.000000e+00 0.000000e+00
<ENDHMM>
~h "ah"
<BEGINHMM>
<NUMSTATES> 5
<STATE> 2
<MEAN> 39
 -3.296063e+00 3.645125e+00 4.446411e+00 4.139435e+00 1.244002e+01 -1.323998e+01 -1.051751e+00 5.886118e+00 4.939836e+00 -7.766384e-01 3.339864e+00 -6.919575e+00 6.420162e+01 3.651962e-01 3.002831e-01 1.786714e-01 6.800991e-01 4.558628e-01 -1.359787e-01 -3.443465e-01 2.110969e-01 -1.288301e-01 4.894413e-01 1.580994e-02 4.673251e-02 -2.777380e-01 -2.614929e-02 2.961934e-03 8.119982e-02 1.056893e-01 2.833275e-02 1.340745e-01 -9.578618e-02 -1.776432e-01 -1.622278e-01 3.529558e-02 6.022652e-02 3.745107e-02 -4.159565e-02
<VARIANCE> 39
 7.268205e+01 2.989401e+01 7.023980e+01 1.089936e+02 1.175531e+02 8.090087e+01 1.138284e+02 7.661799e+01 6.054364e+01 7.583142e+01 5.124705e+01 5.950537e+01 1.164926e+02 1.076778e+00 1.068949e+00 1.435062e+00 1.864124e+00 2.165369e+00 5.370923e+00 3.748187e+00 3.903043e+00 1.829695e+00 4.402327e+00 2.694019e+00 3.273142e+00 4.139464e+00 1.494787e-01 1.157595e-01 2.113090e-01 3.266053e-01 3.656003e-01 5.471478e-01 7.654095e-01 6.525980e-01 3.854463e-01 6.196117e-01 4.561774e-01 4.709442e-01 2.773294e-01
<GCONST> 1.264090e+02
<STATE> 3
<MEAN> 39
 -1.285372e+00 7.370118e+00 4.457624e+00 4.324824e+00 1.041604e+01 -1.052401e+01 2.088381e+00 7.944208e+00 3.630329e+00 2.976830e+00 1.753249e+00 -4.304890e+00 5.989306e+01 1.051842e-01 4.692703e-01 1.718625e-03 5.580282e-01 2.129593e-01 8.441929e-01 -8.216602e-02 4.789397e-02 -5.049075e-01 7.999866e-01 -2.216568e-01 2.210226e-01 -9.728917e-01 -1.199668e-01 -9.150595e-02 8.643410e-02 -1.180788e-01 -5.988705e-02 -1.626761e-01 -1.638583e-01 -3.077255e-01 5.340018e-02 -1.216680e-01 9.487550e-02 -1.238876e-01 1.481739e-01
<VARIANCE> 39
 7.370174e+01 4.407793e+01 7.282114e+01 6.129026e+01 1.216572e+02 9.600362e+01 6.659483e+01 5.789945e+01 4.561811e+01 5.472846e+01 3.980324e+01 2.624898e+01 1.016109e+02 4.535006e-01 8.692408e-01 7.049108e-01 1.246513e+00 1.279613e+00 3.755674e+00 1.876485e+00 2.614630e+00 1.849273e+00 2.096528e+00 2.055918e+00 1.712019e+00 1.010672e+00 8.815201e-02 1.253306e-01 1.833308e-01 2.666801e-01 2.842264e-01 5.073757e-01 4.425595e-01 4.099486e-01 3.193851e-01 4.816556e-01 3.222552e-01 2.571582e-01 1.486966e-01
<GCONST> 1.124741e+02
<STATE> 4
<MEAN> 39
 -4.657424e+00 8.654278e+00 3.861017e+00 6.169710e+00 1.235926e+01 -4.460618e+00 5.894475e+00 1.133813e+01 2.323837e+00 8.333525e+00 3.510654e+00 -2.244531e+00 5.362790e+01 -2.024314e-01 2.189205e-01 1.768301e-01 1.867695e-01 2.519043e-02 4.282216e-01 -1.156870e-01 -1.186652e-01 -3.123717e-01 1.038286e-01 -3.882496e-02 2.051987e-03 -5.320591e-01 -1.056518e-01 -9.579413e-02 4.466376e-02 -7.868239e-02 3.031406e-02 -9.394605e-02 -6.446261e-02 -1.747189e-01 1.277368e-01 -2.071963e-01 8.918715e-02 -9.766706e-03 1.777946e-01
<VARIANCE> 39
 8.648251e+01 2.755089e+01 6.851013e+01 5.823893e+01 6.408647e+01 2.107845e+02 4.899853e+01 4.439602e+01 2.915387e+01 5.277850e+01 3.323419e+01 2.866899e+01 1.310461e+02 3.048283e-01 6.139361e-01 5.575633e-01 6.626051e-01 9.298037e-01 1.878058e+00 1.808483e+00 1.810589e+00 1.665115e+00 2.151358e+00 1.402227e+00 1.143971e+00 4.552672e-01 7.444727e-02 1.601539e-01 1.094704e-01 2.070861e-01 2.286010e-01 3.868544e-01 3.538896e-01 3.700034e-01 2.441719e-01 3.517589e-01 2.719068e-01 2.319375e-01 1.525680e-01
<GCONST> 1.042751e+02
<TRANSP> 5
 0.000000e+00 1.000000e+00 0.000000e+00 0.000000e+00 0.000000e+00
 0.000000e+00 5.900726e-01 4.099274e-01 0.000000e+00 0.000000e+00
 0.000000e+00 0.000000e+00 3.396274e-01 6.603726e-01 0.000000e+00
 0.000000e+00 0.000000e+00 0.000000e+00 6.584044e-01 3.415955e-01
 0.000000e+00 0.000000e+00 0.000000e+00 0.000000e+00 0.000000e+00
<ENDHMM>
~h "ao"
<BEGINHMM>
<NUMSTATES> 5
<STATE> 2
<MEAN> 39
 5.941368e+00 5.066009e+00 -2.103117e+00 -2.888576e+00 4.084476e+00 -2.731171e+01 6.295075e+00 1.526232e+01 8.158905e+00 7.976991e+00 1.987198e+00 -4.548254e+00 6.859241e+01 3.669192e-02 -1.848172e-01 -5.271031e-01 -7.886989e-02 2.852272e-01 1.161811e-01 3.703784e-01 -1.119345e-01 -7.084533e-03 1.113519e-01 1.131806e-02 -2.590308e-01 3.171676e-02 -8.181313e-02 8.410929e-02 1.462204e-01 6.506280e-02 -1.311010e-02 1.821745e-01 -1.137786e-01 -1.899830e-01 1.060369e-01 -1.949776e-01 4.965009e-02 3.984916e-02 -6.148221e-02
<VARIANCE> 39
 1.833805e+01 1.463154e+01 3.270338e+01 5.703391e+01 4.781695e+01 1.461476e+02 6.413601e+01 7.427027e+01 3.745723e+01 9.014318e+01 2.266645e+01 3.134992e+01 2.477491e+01 4.468122e-01 7.101409e-01 1.365780e+00 1.941665e+00 1.430993e+00 4.318938e+00 3.795733e+00 3.267641e+00 2.455298e+00 3.914915e+00 2.160121e+00 2.210446e+00 9.438688e-01 5.317508e-02 8.414943e-02 1.671775e-01 1.992792e-01 2.310998e-01 4.536763e-01 4.184050e-01 3.758567e-01 4.605162e-01 4.847741e-01 3.895693e-01 4.775030e-01 6.949317e-02
<GCONST> 1.091929e+02
<STATE> 3
<MEAN> 39
 2.014247e+00 5.942897e+00 1.823094e-01 -4.235238e+00 5.449216e+00 -1.345783e+01 3.520942e+00 9.208572e+00 9.076431e+00 1.044918e+00 2.917809e+00 -6.003562e+00 6.459006e+01 -6.486899e-01 5.776138e-01 5.122539e-01 -2.900111e-02 1.058872e-01 7.417552e-01 -3.508355e-01 -3.802547e-01 7.347919e-01 -1.373546e+00 8.019564e-01 5.664242e-01 -8.977339e-02 -1.922029e-01 2.451917e-01 2.105638e-01 -3.456066e-02 1.524102e-01 -2.662789e-01 1.105464e-01 1.968485e-01 -1.195416e-03 2.265399e-01 1.712520e-01 2.628884e-01 -3.653333e-02
<VARIANCE> 39
 2.717369e+01 4.275365e+01 6.760763e+01 1.151288e+02 6.299436e+01 1.747120e+02 9.689323e+01 5.128697e+01 7.769637e+01 1.164040e+02 3.705503e+01 2.964151e+01 4.737214e+01 1.878706e+00 1.634777e+00 2.544295e+00 2.442811e+00 2.505784e+00 9.155197e+00 3.573913e+00 3.966182e+00 5.711709e+00 5.835076e+00 2.748337e+00 3.348068e+00 2.064478e+00 2.166369e-01 2.287246e-01 2.952958e-01 4.072290e-01 4.115714e-01 6.304059e-01 6.521291e-01 6.867186e-01 7.252076e-01 9.286269e-01 4.453280e-01 5.961864e-01 1.554680e-01
<GCONST> 1.298073e+02
<STATE> 4
<MEAN> 39
 -3.380749e+00 5.901623e+00 2.646330e+00 -4.287463e+00 7.756029e+00 -1.406850e+01 -3.736207e-01 3.621157e+00 1.129691e+01 2.160437e+00 3.174154e+00 -1.960273e+00 6.450615e+01 -1.683241e-01 -2.683365e-02 -9.645467e-02 -1.146885e-01 3.609586e-01 -3.277515e-01 -3.702988e-01 -6.097739e-01 -1.831014e-01 -1.400971e-01 3.553315e-01 3.507638e-01 3.062680e-01 1.210330e-01 -9.294502e-02 -1.234659e-01 -9.107062e-02 -1.124597e-01 7.009233e-02 1.501595e-01 1.186499e-01 -7.953058e-02 1.618693e-01 -3.725103e-02 -2.945425e-02 -3.054634e-02
<VARIANCE> 39
 7.029766e+01 1.368866e+02 9.940403e+01 5.681193e+01 7.995631e+01 9.193005e+01 1.641256e+02 1.031675e+02 7.309011e+01 6.605482e+01 7.270906e+01 3.671945e+01 3.716906e+01 3.247895e+00 6.027629e+00 5.592882e+00 3.879105e+00 5.270722e+00 6.132569e+00 5.816901e+00 5.660333e+00 4.945777e+00 5.411535e+00 4.773970e+00 3.095520e+00 4.098086e+00 3.998994e-01 8.216010e-01 9.962079e-01 6.022163e-01 8.605252e-01 1.024956e+00 9.339955e-01 1.006776e+00 7.053514e-01 1.079638e+00 7.726349e-01 5.302271e-01 6.803337e-01
<GCONST> 1.451661e+02
<TRANSP> 5
 0.000000e+00 1.000000e+00 0.000000e+00 0.000000e+00 0.000000e+00
 0.000000e+00 8.587599e-01 1.412401e-01 0.000000e+00 0.000000e+00
 0.000000e+00 0.000000e+00 5.906552e-01 4.093448e-01 0.000000e+00
 0.000000e+00 0.000000e+00 0.000000e+00 7.861966e-01 2.138033e-01
 0.000000e+00 0.000000e+00 0.000000e+00 0.000000e+00 0.000000e+00
<ENDHMM>
~h "aw"
<BEGINHMM>
<NUMSTATES> 5
<STATE> 2
<MEAN> 39
 -1.141779e+00 2.246439e+00 -1.117556e+01 -1.016516e+01 1.159112e+01 -1.650858e+01 1.711999e+01 7.297561e+00 9.940460e+00 7.831869e+00 1.760492e+00 -4.242695e+00 7.056806e+01 1.496901e-01 5.411165e-01 1.174762e-01 1.759531e-01 -2.234305e-01 -7.041240e-01 -1.021501e-01 1.255725e-01 1.578167e-03 7.258746e-02 -3.682407e-01 8.560155e-02 -3.309415e-01 -1.913793e-03 4.119220e-02 6.016612e-02 -2.796604e-02 -1.958128e-02 -4.342777e-03 -8.543201e-02 3.815806e-02 1.751460e-02 -6.472357e-02 1.381685e-02 -1.769868e-02 -3.058918e-02
<VARIANCE> 39
 2.476083e+01 4.925127e+01 2.454565e+01 1.932254e+01 2.676567e+01 1.713253e+02 5.958913e+01 2.477229e+01 2.627393e+01 1.941524e+01 4.311438e+01 1.819859e+01 1.649884e+01 8.541387e-01 7.312998e-01 1.412864e+00 9.116501e-01 1.846907e+00 2.540634e+00 3.361472e+00 1.591465e+00 1.858968e+00 1.618487e+00 9.588946e-01 1.699612e+00 5.213091e-01 1.039000e-01 7.891560e-02 1.187541e-01 1.649741e-01 2.873729e-01 2.462819e-01 3.674484e-01 2.508502e-01 3.338495e-01 3.110207e-01 1.124553e-01 3.387685e-01 4.089707e-02
<GCONST> 9.782224e+01
<STATE> 3
<MEAN> 39
 -9.239159e+00 3.257103e+00 3.940785e+00 -1.007533e+01 4.957775e+00 -2.104171e+01 1.176520e+01 9.338280e+00 4.612390e+00 -2.594952e-01 2.157200e+00 -3.566213e+00 6.456311e+01 -2.265585e+00 -2.141715e+00 1.033752e+00 -4.070357e-01 -3.099656e-01 1.669135e+00 6.839323e-01 -1.218185e+00 -4.526787e-01 -8.631843e-01 1.483974e+00 -8.629707e-02 1.167915e+00 -2.654024e-02 -1.121115e-01 -8.103965e-02 1.825907e-02 -7.732254e-02 -2.229695e-02 5.595502e-02 -6.438209e-02 6.907865e-03 1.265204e-01 1.058310e-02 4.191963e-02 8.410110e-02
<VARIANCE> 39
 1.249399e+02 1.736175e+02 3.722228e+01 8.659523e+00 1.586152e+01 8.248502e+01 4.921459e+01 1.229434e+02 2.608137e+01 5.391331e+01 1.086942e+02 2.762497e+01 5.506102e+01 4.178054e+00 6.348540e+00 3.171964e+00 8.185119e-01 2.357491e+00 2.565938e+00 3.388155e+00 8.531338e+00 2.699652e+00 4.518245e+00 8.222066e+00 3.939713e+00 3.087951e+00 9.133940e-01 9.999072e-01 6.939988e-01 1.436123e-01 5.861467e-01 5.645589e-01 5.623452e-01 1.593745e+00 5.897393e-01 8.325828e-01 1.666854e+00 7.943012e-01 4.966241e-01
<GCONST> 1.343464e+02
<STATE> 4
<MEAN> 39
 -1.803764e+01 -1.299782e+01 8.408217e+00 -1.111818e+01 -6.614860e+00 -9.890337e+00 1.102995e+01 -1.429282e+00 -3.838620e+00 -6.145388e+00 1.402699e+01 8.858819e-01 6.795084e+01 6.351359e-01 3.609692e-01 -4.828157e-01 2.965279e-01 -2.417945e-01 1.381526e-01 -2.311341e-01 2.847563e-01 -5.310127e-01 -1.409907e-01 -1.709941e-01 4.879003e-01 -8.749717e-01 1.071623e-02 5.242208e-02 -2.461537e-02 2.072637e-02 9.409451e-02 6.751819e-03 3.819720e-02 3.048461e-02 1.580450e-02 -1.272172e-02 -3.188306e-02 -3.061653e-03 -4.915282e-02
<VARIANCE> 39
 5.526033e+01 1.632734e+01 2.726457e+01 3.089857e+01 1.328785e+01 1.970864e+01 1.597826e+01 5.140966e+01 5.176954e+01 2.473995e+01 1.647533e+01 4.733197e+01 8.073553e+01 4.789131e-01 6.418760e-01 9.331510e-01 1.060161e+00 1.263207e+00 9.451227e-01 1.620141e+00 1.339844e+00 1.551330e+00 1.571664e+00 1.100739e+00 1.118703e+00 5.188043e-01 7.888753e-02 8.337632e-02 1.302461e-01 1.255187e-01 1.710679e-01 1.973387e-01 2.536507e-01 2.328135e-01 2.561768e-01 3.315854e-01 2.067074e-01 1.690292e-01 2.970284e-02
<GCONST> 9.121589e+01
<TRANSP> 5
 0.000000e+00 1.000000e+00 0.000000e+00 0.000000e+00 0.000000e+00
 0.000000e+00 9.591230e-01 4.087702e-02 0.000000e+00 0.000000e+00
 0.000000e+00 0.000000e+00 9.265254e-01 7.347461e-02 0.000000e+00
 0.000000e+00 0.000000e+00 0.000000e+00 9.650348e-01 3.496519e-02
 0.000000e+00 0.000000e+00 0.000000e+00 0.000000e+00 0.000000e+00
<ENDHMM>
~h "ay"
<BEGINHMM>
<NUMSTATES> 5
<STATE> 2
<MEAN> 39
 -8.840275e-02 3.269081e+00 -6.524484e-01 -1.744624e+00 6.335286e+00 -1.315099e+01 6.877008e+00 7.126471e+00 1.166818e+01 -1.957878e+00 2.069174e+00 -3.883606e+00 6.617372e+01 1.234638e+00 -5.747663e-01 -2.483912e+00 -2.185357e+00 -9.202526e-01 -2.324112e+00 8.153768e-01 -3.154597e-01 9.617785e-01 -9.693503e-01 -5.277404e-02 -6.932428e-01 2.481941e+00 1.436411e-01 9.029160e-02 1.078329e-01 3.277336e-01 8.669417e-02 -6.192116e-02 -1.448474e-02 2.520044e-01 -1.364713e-01 2.151888e-01 -9.953254e-02 1.517928e-01 -8.118351e-02
<VARIANCE> 39
 5.057698e+01 3.507232e+01 5.292237e+01 6.332316e+01 4.763332e+01 1.935355e+02 4.209068e+01 4.683515e+01 5.120027e+01 5.979386e+01 3.351252e+01 2.677755e+01 5.981680e+01 3.581197e+00 4.820565e+00 3.225677e+00 6.673102e+00 6.370501e+00 1.220906e+01 8.620984e+00 1.162577e+01 6.176514e+00 5.288288e+00 2.866223e+00 2.633017e+00 4.380176e+00 6.817850e-01 6.920215e-01 5.795888e-01 1.303423e+00 1.254049e+00 2.237730e+00 1.251477e+00 2.191781e+00 1.128464e+00 1.183671e+00 5.115432e-01 6.946204e-01 1.453298e+00
<GCONST> 1.454095e+02
<STATE> 3
<MEAN> 39
 5.640866e+00 1.087038e+00 -1.048215e+01 -3.823596e+00 7.851768e+00 -2.233006e+01 1.431112e+01 7.302593e+00 9.114084e+00 4.209901e+00 -8.428656e-01 -3.189564e+00 7.297906e+01 -7.229666e-01 -8.441141e-01 -1.073184e-01 1.719476e-01 1.495825e+00 1.885553e+00 -2.973270e-01 -1.565612e+00 -2.225154e+00 1.010105e-02 1.690438e+00 3.607250e-01 6.832311e-01 -2.597248e-01 1.043021e-01 5.440332e-01 2.186271e-01 1.064706e-01 2.776387e-01 -1.047275e+00 -3.908636e-01 -1.133315e-01 -1.611833e-01 5.298439e-01 -2.652621e-02 -7.973870e-02
<VARIANCE> 39
 4.501567e+00 6.447335e+00 1.808829e+01 1.468516e+01 2.671232e+01 3.854034e+01 4.446436e+01 5.387423e+01 5.596970e+01 6.638946e+01 4.136573e+01 3.270289e+01 4.998640e+00 6.450880e-01 6.781282e-01 1.897001e+00 1.204459e+00 1.518249e+00 5.256404e+00 8.410690e+00 4.566529e+00 3.530109e+00 4.332858e+00 4.976191e+00 1.569803e+00 3.619600e-01 7.481882e-02 6.706107e-02 9.468513e-02 2.229491e-01 3.994851e-01 6.358051e-01 7.024880e-01 7.097596e-01 6.581553e-01 5.574375e-01 3.871679e-01 3.973451e-01 2.816827e-02
<GCONST> 1.042134e+02
<STATE> 4
<MEAN> 39
 -4.173091e+00 -1.346072e+00 2.523860e+00 4.652323e+00 1.755237e+01 -1.403514e+01 -5.656232e+00 -4.751061e+00 -1.779794e+00 -2.955009e+00 1.247096e+01 -8.476249e+00 7.221115e+01 -7.429627e-01 2.284484e-01 1.133122e+00 5.670047e-01 5.372896e-01 3.374817e-01 -9.393238e-01 -4.030408e-01 -5.027047e-02 -3.527809e-01 2.530432e-01 -4.193223e-01 -6.594775e-01 1.049719e-01 1.536763e-01 -1.266460e-01 -1.108673e-01 -1.091783e-01 -8.697122e-02 4.230411e-01 2.973224e-01 2.271951e-01 1.057599e-01 -4.054728e-01 3.310720e-02 -1.800038e-01
<VARIANCE> 39
 2.097483e+01 7.760109e+00 4.227952e+01 2.475067e+01 1.859457e+01 2.080422e+01 3.827222e+01 2.573174e+01 2.529412e+01 5.969947e+01 4.272073e+01 3.531838e+01 2.403442e+01 8.986277e-01 9.356359e-01 1.743742e+00 2.045094e+00 1.457252e+00 2.245924e+00 5.182170e+00 3.135787e+00 2.708441e+00 2.843762e+00 4.019332e+00 1.582237e+00 1.027010e+00 1.183161e-01 1.576225e-01 2.127543e-01 3.162732e-01 2.368579e-01 5.014399e-01 5.065734e-01 4.720476e-01 5.081524e-01 4.665419e-01 7.005529e-01 3.164837e-01 9.960505e-02
<GCONST> 1.078873e+02
<TRANSP> 5
 0.000000e+00 1.000000e+00 0.000000e+00 0.000000e+00 0.000000e+00
 0.000000e+00 6.742826e-01 3.257174e-01 0.000000e+00 0.000000e+00
 0.000000e+00 0.000000e+00 8.480369e-01 1.519631e-01 0.000000e+00
 0.000000e+00 0.000000e+00 0.000000e+00 9.112866e-01 8.871341e-02
 0.000000e+00 0.000000e+00 0.000000e+00 0.000000e+00 0.000000e+00
<ENDHMM>
~h "ch"
<BEGINHMM>
<NUMSTATES> 5
<STATE> 2
<MEAN> 39
 -1.150460e+00 3.359792e+00 -5.725191e+00 -1.244808e+01 2.192026e+01 4.576253e-01 1.915312e-01 -1.314209e+01 3.214212e+00 -3.255207e+00 1.099510e+01 9.191967e+00 6.745611e+01 -4.741165e-02 -5.281549e-04 -4.502748e-01 -9.659278e-02 -2.712316e-02 -9.205747e-03 1.674697e-01 2.403518e-01 2.308350e-01 1.194064e-01 -3.582028e-01 2.987280e-01 -4.175562e-01 -4.510838e-02 -4.049233e-02 2.146101e-02 6.082009e-02 -7.928243e-02 -1.185552e-02 2.310092e-02 9.563692e-02 -7.969997e-02 2.324339e-02 -3.296922e-03 -2.790701e-02 -5.111441e-02
<VARIANCE> 39
 8.536147e+00 3.712310e+01 1.700961e+01 7.195667e+01 1.923071e+01 3.615424e+01 1.040073e+02 3.699591e+01 6.425661e+01 3.733895e+01 5.734781e+01 2.170084e+01 1.904611e+01 5.979699e-01 1.768867e+00 8.450235e-01 3.187247e+00 1.991395e+00 2.806384e+00 4.977639e+00 3.430982e+00 3.931713e+00 2.472533e+00 2.495645e+00 1.742653e+00 2.820277e-01 9.944499e-02 1.613068e-01 1.154106e-01 2.534849e-01 3.174075e-01 4.470417e-01 5.428680e-01 4.439903e-01 5.526049e-01 4.545748e-01 4.031445e-01 2.920284e-01 3.026428e-02
<GCONST> 1.072269e+02
<STATE> 3
<MEAN> 39
 -5.570898e+00 -3.581017e-02 -9.689245e+00 -3.245353e+00 1.245426e+01 -1.514603e+00 -1.854029e+00 3.290556e+00 -3.605675e+00 1.890959e+00 3.253479e+00 1.300177e+01 5.143517e+01 -5.685369e-01 7.649654e-01 5.237068e-01 2.226884e-01 -8.603507e-01 3.926448e-01 9.695057e-01 3.599634e-01 -1.676797e+00 -2.126018e-02 5.782973e-01 8.386703e-02 -1.056623e+00 -6.437717e-02 5.272540e-02 1.477743e-01 -9.308294e-02 1.017109e-01 1.412050e-01 -2.157490e-02 -2.048817e-01 2.059045e-01 2.283004e-02 -8.316141e-02 -9.939598e-02 4.803272e-02
<VARIANCE> 39
 7.271276e+00 1.793337e+01 1.163595e+01 7.115171e+00 2.584641e+01 2.663265e+01 2.777092e+01 2.029634e+01 6.442922e+01 4.876789e+01 1.664286e+01 2.211502e+01 1.392659e+01 2.255103e-01 3.845365e-01 7.992623e-01 1.033168e+00 9.737804e-01 1.246434e+00 1.171000e+00 1.650119e+00 3.415565e+00 2.073405e+00 1.412144e+00 1.237586e+00 1.182443e-01 2.296576e-02 1.055613e-01 9.046864e-02 2.125282e-01 1.444774e-01 3.151578e-01 2.137981e-01 3.314754e-01 4.046543e-01 3.327574e-01 2.145108e-01 1.979207e-01 1.287335e-02
<GCONST> 8.379739e+01
<STATE> 4
<MEAN> 39
 -1.782777e+01 4.036303e+00 5.876805e-01 1.172852e+00 1.049709e+01 3.651600e+00 6.037390e+00 8.372838e+00 -2.979474e+00 9.912871e+00 2.922046e+00 4.426296e+00 4.067941e+01 -3.981783e-01 -8.991757e-02 2.384115e-01 1.834832e-01 -6.664712e-02 4.308495e-02 1.154237e-01 2.540472e-01 1.624543e-01 1.106044e-01 -1.541642e-01 -2.829899e-01 -2.640633e-01 4.463340e-02 -4.285236e-02 -6.232668e-02 -3.938542e-02 -4.671011e-02 -3.447654e-02 -4.223891e-02 -3.261356e-02 4.738517e-02 -4.752527e-02 1.302085e-02 9.071307e-03 5.434480e-02
<VARIANCE> 39
 1.036262e+01 5.453158e+00 1.128669e+01 6.952802e+00 1.353586e+01 5.526834e+00 1.250460e+01 1.740497e+01 2.054300e+01 1.831860e+01 1.214065e+01 1.936584e+01 4.649700e+00 1.837941e-01 1.302290e-01 3.548289e-01 5.577780e-01 4.019193e-01 4.913078e-01 6.537784e-01 9.041125e-01 1.351316e+00 7.997296e-01 7.490696e-01 8.005565e-01 7.779302e-02 2.299636e-02 4.364029e-02 5.064059e-02 1.252800e-01 6.743712e-02 8.194412e-02 9.194864e-02 1.333568e-01 2.561274e-01 1.261714e-01 1.507766e-01 1.715048e-01 1.780054e-02
<GCONST> 5.953198e+01
<TRANSP> 5
 0.000000e+00 1.000000e+00 0.000000e+00 0.000000e+00 0.000000e+00
 0.000000e+00 9.698255e-01 3.017450e-02 0.000000e+00 0.000000e+00
 0.000000e+00 0.000000e+00 9.096017e-01 9.039830e-02 0.000000e+00
 0.000000e+00 0.000000e+00 0.000000e+00 9.389954e-01 6.100462e-02
 0.000000e+00 0.000000e+00 0.000000e+00 0.000000e+00 0.000000e+00
<ENDHMM>
~h "dh"
<BEGINHMM>
<NUMSTATES> 5
<STATE> 2
<MEAN> 39
 -9.944965e+00 7.714224e+00 7.435102e+00 2.230608e+00 1.236646e+01 4.208577e+00 4.616784e+00 1.800752e+00 3.195855e+00 -6.879146e-02 3.685879e+00 -1.753356e+00 5.705670e+01 6.600525e-01 -2.592771e-01 3.621270e-01 -2.597891e-01 -2.977709e-02 -4.017513e-01 1.051030e-01 -8.459061e-01 4.429057e-01 -9.742671e-01 3.491903e-01 -1.384614e-01 2.187525e+00 1.008558e-01 -7.805898e-02 -1.029301e-01 -1.767434e-02 -1.929336e-02 -2.619831e-01 -1.740504e-01 -5.367468e-02 -1.282391e-01 -1.841402e-02 3.199900e-02 5.800895e-02 1.172225e-01
<VARIANCE> 39
 6.656501e+01 5.952538e+01 3.650371e+01 4.933936e+01 3.708850e+01 3.675878e+01 3.752395e+01 4.935722e+01 5.596962e+01 4.418784e+01 2.926686e+01 1.854662e+01 1.135032e+02 5.285627e+00 6.242491e+00 4.090578e+00 6.114439e+00 3.852291e+00 5.794554e+00 4.790617e+00 4.084248e+00 5.098887e+00 3.818247e+00 2.594599e+00 2.030296e+00 4.273623e+00 7.818435e-01 8.392054e-01 6.473907e-01 1.003304e+00 5.893398e-01 8.806528e-01 8.980768e-01 7.689363e-01 9.502800e-01 6.778688e-01 4.615209e-01 4.150192e-01 9.303107e-01
<GCONST> 1.358759e+02
<STATE> 3
<MEAN> 39
 -4.663151e+00 2.683843e+00 5.573784e+00 4.563320e-02 1.125237e+01 -5.602108e+00 2.385931e+00 -4.391217e+00 3.168619e+00 -5.631643e+00 6.943385e+00 -2.419909e+00 7.196966e+01 8.608107e-01 1.290468e-01 -5.337472e-01 2.667819e-01 -5.380815e-02 -1.149197e+00 -5.607517e-01 7.888772e-01 -3.393023e-01 7.009962e-02 3.805037e-01 5.112678e-01 1.910843e-01 -9.981397e-02 1.936497e-01 -1.316573e-01 8.050125e-02 4.131475e-02 4.188865e-01 5.891906e-01 5.660801e-01 4.024886e-01 4.803576e-01 -1.353814e-01 -7.649821e-02 -5.957488e-01
<VARIANCE> 39
 2.172020e+01 3.449839e+01 2.245037e+01 5.048711e+01 2.800675e+01 4.281602e+01 7.360075e+01 2.632647e+01 2.838448e+01 4.746169e+01 3.753364e+01 4.166542e+01 3.463686e+01 1.176465e+00 1.376765e+00 1.838723e+00 2.504011e+00 2.502587e+00 3.221629e+00 4.408988e+00 3.150468e+00 3.346319e+00 3.352149e+00 2.291319e+00 2.836831e+00 1.805794e+00 1.274650e-01 2.652538e-01 3.102337e-01 5.054783e-01 3.725207e-01 3.869093e-01 8.880437e-01 6.298517e-01 5.836723e-01 4.518419e-01 3.511140e-01 4.792385e-01 2.071561e-01
<GCONST> 1.172544e+02
<STATE> 4
<MEAN> 39
 -9.488081e+00 2.131736e-02 5.900979e+00 3.743627e+00 1.075400e+01 -3.156524e+00 2.376893e+00 -4.055089e+00 5.372842e+00 -2.333570e-01 4.031890e+00 -1.448325e+00 6.690529e+01 4.131986e-01 3.662191e-01 -5.327880e-01 -3.344780e-02 5.008368e-02 4.828149e-02 9.929596e-02 8.916183e-01 1.194906e-01 4.990700e-01 8.608902e-02 -1.577148e-01 -5.887034e-01 -5.391125e-02 -6.196648e-04 -3.679764e-02 -3.840530e-02 6.443281e-02 2.492257e-01 1.840865e-01 -2.368305e-03 1.508308e-01 2.346820e-02 -3.821672e-02 -1.538886e-01 -8.020521e-02
<VARIANCE> 39
 9.678896e+01 1.523842e+02 2.885021e+01 7.005309e+01 2.979760e+01 7.761412e+01 8.382763e+01 5.602939e+01 6.211642e+01 4.200624e+01 5.937267e+01 2.906453e+01 8.443864e+01 1.186494e+00 1.752560e+00 1.435735e+00 1.243296e+00 1.288257e+00 1.995018e+00 3.387753e+00 3.706555e+00 2.926541e+00 2.254128e+00 1.616811e+00 1.847517e+00 1.465608e+00 1.289951e-01 2.367850e-01 1.627199e-01 2.952416e-01 2.270250e-01 2.862678e-01 5.716331e-01 4.682719e-01 4.430316e-01 4.357391e-01 4.304896e-01 4.103355e-01 1.644819e-01
<GCONST> 1.172343e+02
<TRANSP> 5
 0.000000e+00 1.000000e+00 0.000000e+00 0.000000e+00 0.000000e+00
 0.000000e+00 8.698494e-01 1.301506e-01 0.000000e+00 0.000000e+00
 0.000000e+00 0.000000e+00 5.727052e-01 4.272948e-01 0.000000e+00
 0.000000e+00 0.000000e+00 0.000000e+00 4.615154e-01 5.384847e-01
 0.000000e+00 0.000000e+00 0.000000e+00 0.000000e+00 0.000000e+00
<ENDHMM>
~h "eh"
<BEGINHMM>
<NUMSTATES> 5
<STATE> 2
<MEAN> 39
 -3.872797e+00 -1.896751e+00 2.149429e-01 2.711833e+00 1.977137e+01 -1.052067e+01 -7.925954e+00 -3.539444e+00 -4.545670e-01 -3.125230e+00 1.126387e+01 -1.540339e+00 7.188988e+01 2.205099e-01 2.309963e-01 -6.400108e-01 -3.849697e-01 5.374954e-01 -2.083142e-01 2.128486e-02 -3.879607e-01 -9.957726e-02 -1.178346e-01 4.632731e-01 5.208234e-01 1.292241e-01 -6.787402e-02 7.653123e-02 4.965309e-02 -2.196633e-01 -1.001373e-01 2.416290e-02 3.687713e-01 -8.332778e-02 1.342764e-01 -1.982710e-01 -3.550239e-03 -6.247742e-03 -1.777790e-02
<VARIANCE> 39
 2.810263e+01 9.515804e+00 1.323858e+01 1.919388e+01 5.196191e+01 4.613685e+01 4.113796e+01 2.974878e+01 4.506153e+01 3.256069e+01 2.404307e+01 2.129624e+01 9.764577e+01 6.329504e-01 1.096192e+00 1.273790e+00 1.861798e+00 1.156772e+00 3.042475e+00 2.668089e+00 2.106748e+00 2.226049e+00 2.518807e+00 1.747594e+00 1.418979e+00 1.257631e+00 9.482981e-02 1.931633e-01 1.260774e-01 1.605735e-01 2.155017e-01 5.281320e-01 4.435139e-01 3.605641e-01 4.790360e-01 3.408619e-01 3.403488e-01 2.500388e-01 3.401437e-01
<GCONST> 1.048901e+02
<STATE> 3
<MEAN> 39
 -7.160944e+00 -2.286500e+00 -2.124081e+00 -2.980387e-02 1.835499e+01 -1.202187e+01 -5.877106e+00 -4.875121e+00 9.792370e-01 -4.201726e+00 1.443246e+01 -1.317911e+00 7.083710e+01 6.451659e-01 2.576613e-01 -3.606613e-02 -9.168082e-02 3.826767e-01 -5.696810e-01 5.696743e-01 -5.465262e-01 5.425930e-03 -8.791173e-01 -8.328557e-03 1.686756e-01 1.086742e+00 -4.948111e-02 3.284468e-01 9.092534e-02 1.020384e-01 6.369147e-02 2.065360e-01 2.401322e-01 1.594513e-01 8.344482e-02 5.786070e-02 -3.064221e-01 -2.046059e-02 -3.435568e-01
<VARIANCE> 39
 6.049430e+01 2.850585e+01 1.599484e+01 4.825350e+01 5.248968e+01 6.978446e+01 5.181789e+01 3.680391e+01 4.701003e+01 5.757525e+01 3.373526e+01 3.992157e+01 9.917892e+01 1.598077e+00 3.783889e+00 1.125064e+00 3.103813e+00 2.347925e+00 6.277412e+00 5.453451e+00 3.667612e+00 2.410439e+00 1.916662e+00 4.332561e+00 2.286941e+00 7.597586e+00 3.034899e-01 5.711855e-01 2.032944e-01 4.576217e-01 3.478315e-01 9.472873e-01 1.022718e+00 5.497888e-01 5.085822e-01 3.622606e-01 5.377755e-01 3.154734e-01 5.423281e-01
<GCONST> 1.259411e+02
<STATE> 4
<MEAN> 39
 -2.286251e+00 6.290138e+00 -2.289110e+00 -7.298728e+00 2.320404e+01 -5.891147e-01 3.777138e+00 -1.215778e+01 -2.321387e+00 -8.461496e+00 9.476746e+00 7.446799e+00 6.723020e+01 -2.151503e-01 2.895246e-01 8.427946e-02 1.487184e-01 -3.718568e-02 -6.180944e-02 4.186011e-01 2.148391e-01 6.117615e-01 2.505359e-01 -5.805079e-01 -7.328378e-02 -6.224942e-01 -3.738197e-02 7.438831e-02 -6.310494e-03 6.686702e-02 -5.331532e-02 -1.734208e-03 -2.712115e-02 1.854493e-01 1.303118e-02 2.066579e-01 5.525415e-02 -1.260725e-01 -1.228317e-01
<VARIANCE> 39
 2.002868e+01 6.413780e+01 1.209099e+01 6.470998e+01 3.327245e+01 8.789739e+01 6.187323e+01 9.080445e+01 8.679490e+01 1.105877e+02 2.768196e+01 4.246952e+01 3.809118e+01 7.505980e-01 4.702638e+00 7.967319e-01 3.969620e+00 2.830839e+00 3.784352e+00 4.446270e+00 6.323054e+00 7.769553e+00 5.472980e+00 2.168649e+00 1.700091e+00 2.631763e+00 1.681358e-01 6.543348e-01 1.599916e-01 6.260481e-01 3.880679e-01 5.688319e-01 5.735180e-01 1.345942e+00 1.547365e+00 1.006644e+00 4.201290e-01 3.669760e-01 6.254752e-01
<GCONST> 1.279609e+02
<TRANSP> 5
 0.000000e+00 1.000000e+00 0.000000e+00 0.000000e+00 0.000000e+00
 0.000000e+00 8.033414e-01 1.966586e-01 0.000000e+00 0.000000e+00
 0.000000e+00 0.000000e+00 6.967239e-01 3.032761e-01 0.000000e+00
 0.000000e+00 0.000000e+00 0.000000e+00 7.814253e-01 2.185747e-01
 0.000000e+00 0.000000e+00 0.000000e+00 0.000000e+00 0.000000e+00
<ENDHMM>
~h "er"
<BEGINHMM>
<NUMSTATES> 5
<STATE> 2
<MEAN> 39
 -5.936069e+00 6.207337e+00 -1.057691e+00 -1.632746e+01 1.068738e+01 -1.078748e+00 7.342095e+00 1.813213e+00 3.451347e-01 -1.106263e+01 2.274381e+00 -1.356525e+00 7.056774e+01 3.602652e+00 3.062642e+00 2.306775e+00 -1.693487e+00 -9.806689e-01 1.606878e+00 2.858043e-02 6.803997e-01 -1.625194e+00 -3.400998e+00 -7.903447e-01 1.368640e+00 -9.244160e-02 -2.268605e-01 5.630319e-02 8.539930e-04 3.470605e-01 -7.605910e-03 1.244344e-01 6.397206e-02 2.437344e-01 -4.873944e-01 -5.233723e-01 1.976496e-01 2.996141e-01 -5.200129e-01
<VARIANCE> 39
 5.178120e+01 6.773199e+01 3.530500e+01 4.301849e+01 4.917441e+01 6.292082e+01 3.203649e+01 6.616137e+01 2.621163e+01 5.542996e+01 3.939161e+01 2.268400e+01 1.768808e+01 6.752747e+00 2.867192e+00 2.954182e+00 6.997588e+00 3.796457e+00 4.820493e+00 3.088440e+00 8.604292e+00 3.221674e+00 4.898098e+00 1.783365e+00 2.479408e+00 1.795860e+00 1.139835e+00 1.017995e+00 1.036892e+00 1.064132e+00 5.979809e-01 7.638628e-01 4.539659e-01 7.599156e-01 4.434884e-01 9.254783e-01 5.722431e-01 4.489154e-01 1.045650e+00
<GCONST> 1.330151e+02
<STATE> 3
<MEAN> 39
 1.535388e+00 1.227722e+01 2.703335e+00 -2.225885e+01 7.849813e+00 2.574862e+00 8.808268e+00 2.240609e+00 -5.730707e+00 -2.333442e+01 4.618003e+00 3.732863e+00 7.041438e+01 5.910659e-01 5.824156e-01 7.568397e-03 -9.783768e-01 -2.098469e-01 -5.402236e-02 7.125986e-01 2.523232e-01 -7.949662e-01 -1.491737e+00 7.107527e-01 9.277548e-01 6.838878e-02 -3.299215e-01 -3.191767e-01 -1.855922e-01 3.226394e-01 2.556422e-01 -1.571093e-01 -7.171333e-02 -1.516763e-01 1.708947e-01 4.628109e-01 1.661535e-01 -1.378649e-01 8.896850e-04
<VARIANCE> 39
 5.041708e+00 3.029393e+01 2.872012e+01 4.698595e+01 3.590734e+01 6.188368e+01 7.968597e+01 9.411213e+01 4.018090e+01 2.880328e+01 5.155807e+01 2.654358e+01 3.330849e+00 6.366984e-01 6.740782e-01 9.708621e-01 1.656016e+00 1.706789e+00 1.421064e+00 2.032474e+00 1.523242e+00 2.367552e+00 3.905415e+00 1.069303e+00 1.560498e+00 1.980928e-01 1.993674e-01 1.569842e-01 2.298197e-01 3.571051e-01 2.638575e-01 2.754593e-01 4.794202e-01 3.953303e-01 3.392025e-01 3.908042e-01 2.144335e-01 2.482317e-01 6.217892e-02
<GCONST> 1.008022e+02
<STATE> 4
<MEAN> 39
 2.201041e+00 1.510567e+01 -6.825216e-01 -2.096770e+01 1.030401e+01 -2.918499e+00 1.026886e+01 5.536032e+00 -1.925515e+00 -2.423934e+01 8.079201e+00 5.810245e+00 6.841657e+01 -3.101531e-01 -8.973354e-01 1.225799e-01 1.523496e+00 1.010731e+00 -5.743051e-01 -9.489489e-01 -7.782512e-01 7.995223e-01 1.545226e+00 2.538273e-01 -6.746382e-01 6.414103e-02 -1.270855e-01 -2.808678e-01 1.889774e-01 3.271382e-01 -8.130898e-02 -2.342379e-01 -7.411731e-02 3.429463e-02 3.967475e-01 3.966030e-01 -2.124349e-01 -2.380857e-01 4.559382e-02
<VARIANCE> 39
 6.214333e+00 4.295090e+01 3.797469e+01 4.269741e+01 5.978873e+01 5.271157e+01 6.333960e+01 9.352054e+01 1.125254e+02 8.794560e+01 5.149139e+01 5.483346e+01 2.063007e+01 6.009061e-01 2.872238e+00 1.355711e+00 3.047439e+00 2.456467e+00 4.590446e+00 2.903648e+00 3.379954e+00 5.594986e+00 7.965118e+00 3.817512e+00 3.505376e+00 6.223147e-01 1.482671e-01 2.443873e-01 2.758889e-01 2.225263e-01 3.794318e-01 3.468798e-01 4.848637e-01 4.792281e-01 8.485904e-01 1.042452e+00 5.626536e-01 4.993802e-01 6.690770e-02
<GCONST> 1.204653e+02
<TRANSP> 5
 0.000000e+00 1.000000e+00 0.000000e+00 0.000000e+00 0.000000e+00
 0.000000e+00 5.332612e-01 4.667388e-01 0.000000e+00 0.000000e+00
 0.000000e+00 0.000000e+00 8.356455e-01 1.643545e-01 0.000000e+00
 0.000000e+00 0.000000e+00 0.000000e+00 9.040467e-01 9.595332e-02
 0.000000e+00 0.000000e+00 0.000000e+00 0.000000e+00 0.000000e+00
<ENDHMM>
~h "ey"
<BEGINHMM>
<NUMSTATES> 5
<STATE> 2
<MEAN> 39
 -6.906252e+00 1.007429e+00 9.582582e+00 8.898136e+00 2.128907e+01 -9.052573e+00 -4.709151e+00 -5.477001e+00 1.733142e+00 -9.574768e-02 8.410104e+00 -1.280845e+01 6.828169e+01 4.960035e-01 7.384069e-01 3.012295e-02 2.433764e-01 1.152571e-01 -8.827017e-02 4.163028e-01 5.733780e-01 3.390038e-01 3.655665e-02 -2.243700e-01 7.121352e-02 -3.985319e-01 -3.631571e-03 -3.124495e-02 5.663544e-02 -7.094893e-02 -2.126852e-01 -2.175513e-01 6.599770e-03 7.094347e-02 5.075759e-02 -2.705063e-03 -5.031479e-02 8.410361e-02 4.490766e-02
<VARIANCE> 39
 2.309995e+01 4.947228e+01 2.373730e+01 5.174247e+01 5.360593e+01 3.166088e+01 6.868481e+01 3.606763e+01 3.483796e+01 4.087447e+01 3.032951e+01 3.252334e+01 3.713693e+01 9.640125e-01 1.661942e+00 2.355077e+00 4.884410e+00 5.118254e+00 3.132454e+00 5.099761e+00 2.432049e+00 3.117593e+00 3.984964e+00 1.855196e+00 2.223631e+00 2.607835e+00 2.054148e-01 2.819867e-01 5.196588e-01 9.174470e-01 4.401557e-01 6.783794e-01 1.090792e+00 4.862976e-01 6.443508e-01 7.557716e-01 3.080234e-01 3.125045e-01 4.707126e-01
<GCONST> 1.227093e+02
<STATE> 3
<MEAN> 39
 -4.233113e+00 9.617245e+00 2.031579e+01 1.953473e+00 2.370972e+00 -1.805170e+01 -3.145020e+00 5.072250e+00 4.902582e+00 2.664181e+00 5.363740e+00 3.218001e-01 6.097056e+01 1.475729e-01 3.605573e-01 9.033115e-01 -1.245853e-01 -7.508336e-01 -1.004317e+00 -9.285421e-01 3.079245e-01 4.013010e-02 7.654927e-01 4.892946e-02 3.830882e-01 -5.145969e-01 -6.115919e-02 -7.239662e-02 -3.199565e-01 4.429040e-02 2.631423e-01 2.567456e-01 1.118451e-01 5.108203e-02 -7.313719e-02 3.486256e-02 -7.358055e-02 -1.642545e-01 -1.627354e-03
<VARIANCE> 39
 3.186722e+01 7.078911e+01 8.974449e+01 2.429057e+01 2.552020e+01 5.759498e+01 4.814711e+01 5.905419e+01 4.090335e+01 6.513727e+01 3.069687e+01 3.696535e+01 2.394812e+01 1.867398e+00 3.460269e+00 5.208472e+00 3.590611e+00 4.089784e+00 1.026211e+01 4.430318e+00 3.816961e+00 4.347441e+00 1.773516e+00 2.650892e+00 3.857343e+00 6.735270e-01 3.420117e-01 5.264957e-01 5.941365e-01 6.070266e-01 4.719182e-01 1.094282e+00 6.651604e-01 6.808062e-01 8.375598e-01 4.803143e-01 4.352717e-01 5.814137e-01 1.670556e-01
<GCONST> 1.274991e+02
<STATE> 4
<MEAN> 39
 -5.066873e+00 1.131236e+00 3.904448e+00 7.852468e+00 1.736786e+01 -1.785308e+01 -8.713131e+00 3.716977e+00 1.104193e+01 -4.884045e-01 3.866145e+00 -1.199671e+01 7.125309e+01 8.933492e-01 5.299181e-01 -4.422864e-01 4.151970e-01 2.524364e-01 3.617174e-01 2.779171e-01 4.908995e-01 -4.197263e-01 7.277679e-02 -2.194586e-02 -3.415921e-01 -3.609242e-01 -3.956375e-02 -2.107464e-02 -3.215715e-02 -5.063321e-02 -8.645294e-02 9.054592e-02 1.406853e-01 -1.487795e-02 -6.194240e-02 -2.287889e-02 3.391181e-02 6.753441e-02 -7.682555e-03
<VARIANCE> 39
 4.710278e+01 2.324660e+01 5.009152e+01 2.417863e+01 3.068515e+01 8.446920e+01 6.083992e+01 2.134168e+01 5.222760e+01 2.543430e+01 1.744184e+01 2.755132e+01 2.469724e+01 9.249842e-01 1.278553e+00 1.862721e+00 1.002325e+00 1.238831e+00 3.300225e+00 3.399037e+00 1.551446e+00 2.487053e+00 1.352885e+00 1.082647e+00 1.281265e+00 7.124643e-01 1.842656e-01 2.112499e-01 2.276345e-01 1.491826e-01 1.573839e-01 3.813731e-01 4.493626e-01 2.942127e-01 3.504770e-01 2.524458e-01 1.781123e-01 1.977195e-01 8.211759e-02
<GCONST> 1.027060e+02
<TRANSP> 5
 0.000000e+00 1.000000e+00 0.000000e+00 0.000000e+00 0.000000e+00
 0.000000e+00 9.113795e-01 8.862051e-02 0.000000e+00 0.000000e+00
 0.000000e+00 0.000000e+00 8.124235e-01 1.875765e-01 0.000000e+00
 0.000000e+00 0.000000e+00 0.000000e+00 9.292758e-01 7.072420e-02
 0.000000e+00 0.000000e+00 0.000000e+00 0.000000e+00 0.000000e+00
<ENDHMM>
~h "hh"
<BEGINHMM>
<NUMSTATES> 5
<STATE> 2
<MEAN> 39
 -9.495861e+00 -5.865188e+00 1.516124e+00 -2.835802e+00 1.271002e+01 -1.163709e+01 -4.511586e+00 -6.259247e-01 5.543515e+00 4.748588e+00 1.389768e+01 -5.611612e+00 7.302271e+01 1.630931e-01 9.870060e-02 -4.105250e-01 -1.321206e-01 9.098996e-02 1.958677e-01 -2.535199e-01 1.617363e-01 -2.044004e-01 1.398648e-02 -2.211969e-02 -7.813950e-02 1.153851e-01 6.620926e-02 8.074207e-02 8.747909e-02 9.556097e-02 2.732858e-02 2.957339e-02 7.396041e-02 5.539898e-02 -7.440023e-03 -1.730089e-01 -7.882506e-02 -1.278295e-02 4.276546e-03
<VARIANCE> 39
 1.308692e+01 2.126893e+01 4.304963e+01 7.118900e+01 3.144799e+01 2.410363e+01 4.376202e+01 2.704603e+01 4.073592e+01 3.710428e+01 4.367384e+01 2.337675e+01 8.769831e+00 6.689124e-01 9.069147e-01 1.700701e+00 1.939834e+00 1.425057e+00 1.911959e+00 2.080089e+00 1.729136e+00 2.258452e+00 2.034536e+00 1.533128e+00 1.508340e+00 3.551754e-01 1.354375e-01 1.253740e-01 1.902953e-01 2.167307e-01 2.293855e-01 3.057907e-01 2.965961e-01 2.909470e-01 3.772106e-01 2.525022e-01 2.640094e-01 2.378834e-01 5.260522e-02
<GCONST> 9.933059e+01
<STATE> 3
<MEAN> 39
 -5.009186e+00 -2.756935e-01 -3.644906e+00 -9.541304e+00 1.251542e+01 -1.212282e+01 5.335857e+00 7.466297e+00 9.230036e+00 -3.705966e-01 1.133662e+01 -6.630007e+00 7.135480e+01 8.306163e-01 5.506366e-01 6.860171e-02 1.972904e-01 2.941796e-01 -6.539504e-01 4.286543e-01 3.145522e-01 -2.377908e-01 -6.427878e-01 -8.029594e-01 1.412028e-01 1.256838e-02 -2.187245e-02 -4.988336e-02 3.195268e-03 7.047232e-02 -1.082478e-01 -1.432795e-01 -1.426061e-01 -1.117986e-01 -1.018881e-01 1.020690e-01 -2.599764e-02 1.041095e-01 5.870629e-03
<VARIANCE> 39
 1.724344e+01 2.256227e+01 7.750018e+01 5.294270e+01 5.069217e+01 3.489663e+01 1.031563e+02 6.441301e+01 3.746198e+01 3.033192e+01 2.991727e+01 2.445137e+01 1.427607e+01 1.109723e+00 1.129703e+00 2.046537e+00 2.085981e+00 1.957142e+00 2.596667e+00 3.427902e+00 2.106957e+00 2.026269e+00 2.132881e+00 1.584208e+00 1.407977e+00 4.901483e-01 2.084525e-01 1.544882e-01 3.844254e-01 2.494475e-01 2.580104e-01 5.419031e-01 4.940283e-01 2.359925e-01 2.635686e-01 3.490376e-01 2.418944e-01 2.662987e-01 5.311140e-02
<GCONST> 1.074021e+02
<STATE> 4
<MEAN> 39
 -2.263126e+00 4.713702e+00 8.635576e-01 -8.266832e+00 1.044643e+01 -1.772172e+01 2.447160e+00 8.779854e+00 1.040248e+01 9.211466e-01 5.262426e+00 -5.186056e+00 6.759364e+01 4.026271e-01 4.136919e-01 1.787344e-01 2.768984e-01 1.636747e-02 -9.620318e-02 -8.197952e-01 -4.252552e-01 -5.554604e-01 6.384759e-01 -4.018131e-01 5.634717e-01 -1.780882e-01 -9.127833e-02 -6.740008e-02 -6.738228e-02 1.268910e-01 -2.503570e-02 1.147146e-02 3.727959e-03 -2.712044e-01 -5.602964e-02 7.664954e-02 1.283038e-01 -7.091224e-02 -1.446476e-02
<VARIANCE> 39
 2.484909e+01 5.578725e+01 4.019006e+01 3.836372e+01 2.854726e+01 7.085432e+01 7.914291e+01 1.172472e+02 5.484273e+01 2.954385e+01 4.866968e+01 2.108578e+01 3.182702e+01 1.101886e+00 1.804299e+00 2.290467e+00 1.986079e+00 1.709729e+00 2.021037e+00 5.494308e+00 2.722923e+00 4.095229e+00 2.301156e+00 2.216707e+00 2.722132e+00 1.156231e+00 1.188363e-01 2.283201e-01 3.359403e-01 3.070560e-01 2.420487e-01 4.178049e-01 8.253633e-01 5.937399e-01 7.753194e-01 3.383179e-01 3.182352e-01 5.149544e-01 6.501741e-02
<GCONST> 1.163545e+02
<TRANSP> 5
 0.000000e+00 1.000000e+00 0.000000e+00 0.000000e+00 0.000000e+00
 0.000000e+00 8.970675e-01 1.029325e-01 0.000000e+00 0.000000e+00
 0.000000e+00 0.000000e+00 6.456182e-01 3.543818e-01 0.000000e+00
 0.000000e+00 0.000000e+00 0.000000e+00 5.852895e-01 4.147104e-01
 0.000000e+00 0.000000e+00 0.000000e+00 0.000000e+00 0.000000e+00
<ENDHMM>
~h "ih"
<BEGINHMM>
<NUMSTATES> 5
<STATE> 2
<MEAN> 39
 -6.789102e+00 8.090304e+00 7.749642e+00 5.883320e+00 1.403375e+01 5.699231e+00 5.707214e+00 -4.920260e+00 2.835251e+00 -1.362528e+00 2.958960e+00 -1.753601e-01 6.244125e+01 -1.690808e+00 -4.176836e-02 1.865109e-01 1.871545e-01 -3.165400e-01 1.297056e+00 1.283818e+00 -1.042665e+00 1.799062e+00 -9.417001e-02 4.472040e-01 2.088820e-01 1.631037e-02 -2.793911e-01 -4.251613e-01 -6.216493e-02 -1.679156e-01 -1.613610e-01 -3.707782e-01 3.932558e-02 -1.107735e-01 4.038270e-01 -3.019223e-01 -4.996244e-02 -2.937686e-01 4.990218e-01
<VARIANCE> 39
 8.217979e+01 5.698867e+01 1.398208e+01 2.540341e+01 2.414658e+01 3.172524e+01 2.623726e+01 4.826461e+01 5.053155e+01 2.440576e+01 2.505059e+01 1.528555e+01 5.683638e+01 2.481305e+00 3.735259e+00 1.729043e+00 1.895774e+00 3.444323e+00 2.382372e+00 2.134423e+00 3.392008e+00 5.575613e+00 2.586687e+00 2.789063e+00 2.039169e+00 2.501679e+00 4.212496e-01 6.938093e-01 3.856854e-01 4.268863e-01 5.670752e-01 4.429083e-01 4.814480e-01 8.374781e-01 1.219131e+00 4.687569e-01 5.205268e-01 3.071244e-01 4.775217e-01
<GCONST> 1.212583e+02
<STATE> 3
<MEAN> 39
 -1.205559e+01 1.892551e+00 7.256043e+00 2.485662e+00 1.020986e+01 5.406716e+00 7.610865e+00 -9.587456e+00 1.242801e+01 -3.177567e+00 2.864177e+00 -2.826556e+00 6.798300e+01 5.974957e-01 -1.872452e+00 -1.388106e-01 -1.258217e+00 -3.012367e-01 -2.210351e+00 -2.682206e+00 -8.539915e-01 -1.493343e+00 -1.078427e+00 2.341145e-01 -7.751763e-01 2.519359e+00 6.288212e-01 2.974833e-01 5.825023e-02 4.774287e-01 6.222060e-01 -4.178589e-01 -1.044517e+00 2.678558e-01 -1.430002e+00 -4.289320e-02 8.779190e-02 -2.565860e-02 -1.960673e-01
<VARIANCE> 39
 4.194463e+01 2.893740e+01 1.929637e+01 4.795125e+01 3.911260e+01 4.178645e+01 5.747348e+01 2.613295e+01 5.372640e+01 1.513231e+01 1.907881e+01 1.259871e+01 2.927042e+01 5.691967e+00 4.553004e+00 2.452749e+00 7.287148e+00 5.821190e+00 2.727664e+00 8.273640e+00 4.602246e+00 1.460946e+01 2.737222e+00 2.253713e+00 1.435714e+00 4.055243e+00 6.214498e-01 5.495364e-01 5.981625e-01 1.678304e+00 1.087502e+00 7.151886e-01 1.501105e+00 8.522710e-01 1.744031e+00 4.721591e-01 4.419007e-01 2.275611e-01 5.819552e-01
<GCONST> 1.305794e+02
<STATE> 4
<MEAN> 39
 -4.602420e+00 -3.278345e+00 8.586081e+00 5.520858e+00 1.806177e+01 -7.903568e+00 -9.694521e+00 -8.712761e+00 -6.369541e+00 -5.852588e+00 7.091522e+00 -7.482831e+00 7.396927e+01 1.103969e-01 -1.745902e-01 4.450670e-01 1.269956e-01 4.132482e-01 -4.241372e-01 1.669095e-01 3.293205e-01 -9.289933e-01 1.720518e-01 3.012004e-01 -2.297195e-01 9.539826e-02 -3.314846e-01 2.887994e-02 1.407707e-01 -2.235757e-01 -3.184399e-01 3.234547e-01 7.170191e-01 -3.808690e-02 5.258292e-01 2.254273e-01 -2.085372e-02 1.588996e-01 -1.235027e-01
<VARIANCE> 39
 1.635030e+01 1.242874e+01 1.349826e+01 1.577694e+01 2.260480e+01 3.511416e+01 3.761771e+01 2.586550e+01 3.218468e+01 2.820943e+01 1.694207e+01 2.771542e+01 9.806743e+00 1.360072e+00 6.493790e-01 1.412248e+00 2.394507e+00 2.536704e+00 2.940761e+00 5.997196e+00 1.993106e+00 3.515009e+00 2.009822e+00 1.690132e+00 1.293463e+00 4.257254e-01 3.523155e-01 1.762366e-01 2.745524e-01 3.289886e-01 2.799422e-01 2.850823e-01 4.215540e-01 4.171809e-01 4.333549e-01 4.334700e-01 3.587193e-01 1.976939e-01 1.510255e-01
<GCONST> 1.029653e+02
<TRANSP> 5
 0.000000e+00 1.000000e+00 0.000000e+00 0.000000e+00 0.000000e+00
 0.000000e+00 8.043597e-01 1.956403e-01 0.000000e+00 0.000000e+00
 0.000000e+00 0.000000e+00 7.241752e-01 2.758249e-01 0.000000e+00
 0.000000e+00 0.000000e+00 0.000000e+00 8.828484e-01 1.171517e-01
 0.000000e+00 0.000000e+00 0.000000e+00 0.000000e+00 0.000000e+00
<ENDHMM>
~h "iy"
<BEGINHMM>
<NUMSTATES> 5
<STATE> 2
<MEAN> 39
