~o
<STREAMINFO> 1 39
<VECSIZE> 39<NULLD><MFCC_D_A_0><DIAGC>
~s "silst"
<MEAN> 39
 -1.868834e+01 -5.124736e-01 -3.313352e-01 -5.504774e+00 3.587259e+00 -7.145566e-01 8.049482e+00 -1.778953e-01 2.457357e+00 2.847000e+00 4.154288e+00 2.010931e+00 4.927058e+01 9.242124e-02 7.723140e-02 9.982169e-02 -1.343558e-01 -1.232294e-01 -1.380475e-01 2.099928e-03 -2.732444e-01 -7.495426e-02 1.621297e-01 -4.433597e-02 8.690400e-02 1.604319e-01 5.251877e-04 5.831696e-02 5.220472e-03 9.354785e-02 5.138344e-02 2.805145e-02 -6.863311e-02 1.131065e-01 -9.135176e-02 9.700105e-02 -1.513050e-02 6.004106e-03 -1.474084e-01
<VARIANCE> 39
 1.780951e+01 2.726558e+01 2.861292e+01 4.345832e+01 2.935635e+01 3.174584e+01 4.227831e+01 7.782273e+01 5.727334e+01 5.682419e+01 2.957497e+01 1.855356e+01 7.797974e+01 1.342894e+00 2.723834e+00 1.968868e+00 3.769461e+00 2.395225e+00 3.242092e+00 4.258099e+00 8.976767e+00 3.904284e+00 5.281288e+00 2.532266e+00 1.647201e+00 9.084136e+00 2.727914e-01 5.391563e-01 3.717870e-01 6.990061e-01 4.550752e-01 6.667644e-01 8.116130e-01 1.743807e+00 7.674735e-01 1.034825e+00 4.635471e-01 3.196282e-01 1.712290e+00
<GCONST> 1.286198e+02
~h "b"
<BEGINHMM>
<NUMSTATES> 5
<STATE> 2
<MEAN> 39
 -3.400963e+00 3.858999e+00 5.922008e+00 6.469854e+00 1.311824e+01 -1.887182e+01 -4.250649e+00 1.722736e+00 6.617896e+00 -5.102121e+00 -1.086032e-01 -5.414578e+00 6.558571e+01 2.897262e-01 9.206380e-02 -2.924366e-01 6.673872e-02 4.213640e-01 -1.060040e-01 -1.323922e-01 4.894176e-02 -4.851353e-01 -1.068431e-01 8.376239e-02 3.063194e-02 1.117095e-01 -8.852610e-02 7.930298e-02 -2.004378e-03 -6.627651e-02 3.945432e-02 1.211275e-01 -2.523466e-02 -1.163374e-01 -4.504334e-02 8.545402e-02 1.833738e-01 4.898392e-02 -5.388930e-02
<VARIANCE> 39
 6.765720e+01 6.789165e+01 7.498534e+01 1.146255e+02 1.979067e+02 1.537119e+02 8.574997e+01 9.738965e+01 8.736792e+01 7.180069e+01 3.527835e+01 4.985871e+01 7.486097e+01 1.371020e+00 2.514363e+00 3.029284e+00 5.156274e+00 3.428334e+00 7.939172e+00 4.824234e+00 4.282150e+00 4.369401e+00 3.724258e+00 3.144846e+00 1.862754e+00 5.424363e+00 1.807106e-01 3.620979e-01 4.417946e-01 9.434015e-01 4.293767e-01 7.789940e-01 8.458499e-01 6.099634e-01 5.250250e-01 6.195152e-01 4.270350e-01 3.427576e-01 4.289690e-01
<GCONST> 1.363701e+02
<STATE> 3
<MEAN> 39
 -6.503360e-01 7.035560e+00 8.909632e+00 3.415653e+00 4.073440e+00 -1.519066e+01 6.830561e-01 8.706041e+00 3.290704e+00 -2.367249e+00 3.537743e+00 -4.246984e+00 6.227594e+01 -2.354014e-01 6.788479e-01 -3.390373e-01 -4.158939e-01 7.345026e-01 1.019578e+00 -8.581658e-02 -1.913161e-01 -5.712074e-01 8.610876e-01 6.682894e-01 4.788116e-01 -8.072718e-01 -1.562144e-01 9.079870e-03 -5.934790e-03 1.784637e-02 -1.323335e-03 -5.339950e-02 1.425027e-01 -1.602446e-01 1.714984e-01 2.503732e-01 7.693710e-02 1.530679e-01 -3.700870e-02
<VARIANCE> 39
 2.787314e+01 7.137211e+01 1.271130e+02 1.034172e+02 1.387700e+02 1.444564e+02 8.216965e+01 6.226345e+01 4.601655e+01 7.022008e+01 4.024424e+01 4.633825e+01 4.401425e+01 7.881599e-01 1.986829e+00 2.657294e+00 3.907049e+00 2.170258e+00 4.238605e+00 4.140632e+00 3.726418e+00 2.983032e+00 2.707623e+00 2.970327e+00 1.963896e+00 2.593473e+00 9.209698e-02 2.017573e-01 4.121423e-01 5.504141e-01 2.455451e-01 7.291014e-01 5.226032e-01 6.671804e-01 5.286393e-01 3.967632e-01 3.850874e-01 3.007795e-01 2.102590e-01
<GCONST> 1.256283e+02
<STATE> 4
<MEAN> 39
 -9.738157e-01 8.850758e+00 7.248727e+00 9.824846e-01 3.977784e+00 -1.456028e+01 -2.904432e-01 8.004889e+00 3.106195e+00 -1.573164e-01 4.757635e+00 -3.626410e+00 6.080290e+01 -2.503234e-01 7.335506e-02 -5.244692e-01 8.502848e-02 4.384317e-01 9.187891e-01 6.153620e-01 1.138645e-01 -3.838317e-01 1.222164e+00 -1.979627e-01 2.610438e-01 -8.678226e-01 -3.220862e-02 -9.350005e-02 -8.972228e-03 1.086158e-01 1.794866e-02 4.926076e-02 6.753815e-02 -5.406794e-02 5.749113e-02 -6.486253e-02 -1.092704e-01 -6.189217e-02 6.606830e-02
<VARIANCE> 39
 2.547972e+01 7.709811e+01 1.015928e+02 7.591670e+01 1.170742e+02 9.659116e+01 8.370050e+01 6.092529e+01 4.083485e+01 9.013169e+01 4.191266e+01 4.321339e+01 6.085912e+01 6.042268e-01 2.153407e+00 3.140489e+00 2.748895e+00 2.370732e+00 2.754448e+00 3.253982e+00 3.274654e+00 1.547650e+00 3.178319e+00 2.749818e+00 2.449480e+00 1.461493e+00 1.097971e-01 3.356558e-01 3.972799e-01 4.975728e-01 4.091413e-01 6.026992e-01 4.770520e-01 7.994016e-01 5.032706e-01 4.964424e-01 4.760557e-01 3.033691e-01 3.955469e-01
<GCONST> 1.249080e+02
<TRANSP> 5
 0.000000e+00 1.000000e+00 0.000000e+00 0.000000e+00 0.000000e+00
 0.000000e+00 7.342374e-01 2.657626e-01 0.000000e+00 0.000000e+00
 0.000000e+00 0.000000e+00 2.929617e-01 7.070383e-01 0.000000e+00
 0.000000e+00 0.000000e+00 0.000000e+00 4.465054e-01 5.534946e-01
 0.000000e+00 0.000000e+00 0.000000e+00 0.000000e+00 0.000000e+00
<ENDHMM>
~h "d"
<BEGINHMM>
<NUMSTATES> 5
<STATE> 2
<MEAN> 39
 6.899209e-01 3.474435e+00 -1.817553e+00 -2.651232e+00 6.911504e+00 -1.885257e+01 8.231771e+00 1.142201e+01 7.776896e+00 3.079658e+00 -1.647580e-01 -1.801554e+00 6.848550e+01 2.925368e-01 4.401234e-01 5.792664e-02 3.939248e-01 1.180749e-01 -1.117095e-01 -3.089921e-01 8.100856e-01 -8.439861e-03 7.504736e-01 -2.070015e-01 8.409938e-02 -9.075751e-01 -3.930913e-02 4.120579e-02 8.615906e-02 7.900906e-02 1.589301e-02 7.557835e-02 -1.010853e-01 -8.860733e-02 -7.398400e-02 -1.363657e-01 1.320105e-01 7.254940e-03 -5.110565e-02
<VARIANCE> 39
 5.765583e+01 3.254399e+01 3.199149e+01 3.957933e+01 4.311161e+01 1.716177e+02 4.051479e+01 6.736261e+01 6.222125e+01 9.723820e+01 1.994326e+01 3.419753e+01 6.459521e+01 6.449966e-01 7.624782e-01 1.438014e+00 1.219082e+00 1.151165e+00 4.697981e+00 2.328260e+00 2.051687e+00 2.989339e+00 6.126187e+00 1.468894e+00 1.379892e+00 1.525548e+00 7.502001e-02 1.832148e-01 1.758660e-01 1.777229e-01 2.439427e-01 4.136670e-01 3.778400e-01 3.759514e-01 5.219219e-01 7.184499e-01 2.915552e-01 2.145737e-01 1.511211e-01
<GCONST> 1.120798e+02
<STATE> 3
<MEAN> 39
 -4.464064e+00 5.675879e+00 4.054483e+00 2.701498e+00 8.502101e+00 -7.141123e+00 6.582155e+00 8.014201e+00 2.880087e+00 1.705327e+00 2.757171e+00 3.049026e-01 5.901193e+01 -5.413505e-02 7.871954e-01 3.213767e-01 5.728095e-01 2.052072e-02 2.155592e-01 -3.813584e-01 8.057809e-01 -9.397635e-02 6.020656e-01 2.869018e-01 1.887095e-01 -1.371909e+00 -1.458481e-01 -3.576524e-01 -2.191214e-01 -2.602318e-01 1.447336e-01 -1.121891e-01 6.025539e-02 -2.839975e-01 1.951765e-01 -5.320861e-01 1.390844e-01 -1.030265e-01 4.941289e-01
<VARIANCE> 39
 7.184856e+01 6.129712e+01 3.065202e+01 5.354520e+01 5.385981e+01 1.055479e+02 4.246700e+01 8.457625e+01 7.539990e+01 6.226474e+01 2.761205e+01 3.725894e+01 7.699320e+01 1.148385e+00 1.279595e+00 1.593961e+00 1.696431e+00 1.541836e+00 4.103333e+00 3.153977e+00 2.634853e+00 2.965584e+00 3.647809e+00 1.066371e+00 1.462058e+00 2.271233e+00 7.355566e-02 4.811198e-01 1.752276e-01 2.957757e-01 3.072258e-01 6.156932e-01 7.261035e-01 3.641042e-01 6.683860e-01 7.510178e-01 2.352524e-01 3.532221e-01 3.464337e-01
<GCONST> 1.194905e+02
<STATE> 4
<MEAN> 39
 -6.709362e+00 -2.597429e+00 4.497099e+00 1.009083e+00 7.736110e+00 -6.824238e+00 5.973241e+00 2.556114e+00 -1.204172e+00 -9.269788e-01 5.696622e+00 3.607951e+00 5.943661e+01 -4.246596e-01 -6.859030e-01 -3.326910e-01 -4.210219e-01 -3.987690e-01 -1.561426e-01 7.177576e-03 -2.153004e-01 -5.592282e-01 -4.903661e-01 4.275239e-01 1.092055e-01 5.755693e-02 3.036817e-02 2.924562e-02 -9.715483e-02 -8.762796e-02 2.846520e-02 -2.136808e-02 -2.355834e-02 -8.038506e-02 7.338811e-02 -1.453682e-02 -5.600388e-02 -1.060112e-01 1.160205e-01
<VARIANCE> 39
 3.005479e+01 7.936067e+01 2.382519e+01 3.489808e+01 3.448904e+01 5.645150e+01 5.407573e+01 8.582125e+01 6.757050e+01 4.813215e+01 1.891935e+01 3.718064e+01 5.302498e+01 1.050436e+00 6.886567e+00 1.105528e+00 2.926873e+00 1.974311e+00 4.831484e+00 4.120488e+00 4.967159e+00 3.284252e+00 6.586439e+00 1.564379e+00 1.818863e+00 5.211559e+00 1.494167e-01 1.109561e+00 1.383064e-01 4.267310e-01 3.340518e-01 8.411379e-01 6.952119e-01 7.024568e-01 6.669017e-01 1.124110e+00 2.315895e-01 2.531102e-01 9.274059e-01
<GCONST> 1.251926e+02
<TRANSP> 5
 0.000000e+00 1.000000e+00 0.000000e+00 0.000000e+00 0.000000e+00
 0.000000e+00 7.280722e-01 2.719278e-01 0.000000e+00 0.000000e+00
 0.000000e+00 0.000000e+00 3.145908e-01 6.854092e-01 0.000000e+00
 0.000000e+00 0.000000e+00 0.000000e+00 7.592340e-01 2.407660e-01
 0.000000e+00 0.000000e+00 0.000000e+00 0.000000e+00 0.000000e+00
<ENDHMM>
~h "f"
<BEGINHMM>
<NUMSTATES> 5
<STATE> 2
<MEAN> 39
 -1.070679e+01 4.455276e+00 -1.568596e-01 6.673489e-01 1.793204e+01 -1.127266e+01 3.930733e+00 -1.461912e+00 2.389399e+00 1.640570e-01 6.536616e+00 -7.065178e+00 6.658511e+01 -2.047764e+00 8.855370e-01 -1.020970e-01 -8.450100e-01 7.569109e-01 2.028683e-01 1.218008e+00 -5.338317e-01 4.369146e-01 -5.449059e-01 -3.177043e-02 3.601019e-01 5.258068e-01 -2.493324e-01 -8.869686e-02 6.821008e-02 1.270572e-01 -1.963615e-01 9.519914e-02 -1.061727e-01 -3.039949e-02 -1.194273e-02 -9.630793e-02 -7.793269e-02 2.082901e-02 9.310164e-02
<VARIANCE> 39
 6.382723e+01 4.875778e+01 2.807460e+01 1.130079e+02 6.359085e+01 5.247030e+01 1.159619e+02 7.108737e+01 3.852181e+01 4.093985e+01 3.401608e+01 6.433504e+01 4.534858e+01 6.182371e+00 2.681823e+00 1.970230e+00 2.892049e+00 3.907652e+00 4.363490e+00 4.371038e+00 5.238567e+00 3.787485e+00 3.022769e+00 2.895484e+00 3.266787e+00 2.162738e+00 6.300594e-01 4.868282e-01 2.531076e-01 4.096878e-01 5.212917e-01 6.605186e-01 7.500854e-01 1.301625e+00 5.382867e-01 6.256063e-01 4.135902e-01 3.847005e-01 2.721618e-01
<GCONST> 1.309867e+02
<STATE> 3
<MEAN> 39
 -2.845061e+01 4.439951e+00 -3.468064e+00 -7.363869e+00 1.631696e+01 -3.887273e+00 1.119572e+01 -1.780193e+00 7.153854e+00 -1.120605e+00 5.957876e+00 -2.068129e+00 6.794108e+01 -4.868425e-01 -7.188150e-01 -3.313528e-01 -4.113554e-01 -2.984737e-01 4.596277e-01 -4.209862e-02 7.009020e-02 -3.736178e-02 -2.622069e-01 -4.724364e-01 -2.131719e-01 -9.036271e-02 6.557627e-01 1.382787e-02 5.837874e-02 -7.174151e-02 -1.753170e-01 -1.389179e-01 -1.840798e-01 1.155051e-01 -9.875917e-02 -4.809937e-04 -8.134013e-02 -5.325459e-02 -7.158437e-02
<VARIANCE> 39
 2.157298e+01 3.337165e+01 1.555411e+01 2.967285e+01 3.371488e+01 4.073814e+01 2.044177e+01 2.549933e+01 2.516809e+01 2.167736e+01 2.332294e+01 1.362712e+01 1.195643e+01 3.710856e+00 1.531901e+00 6.151692e-01 1.067639e+00 1.259126e+00 1.638535e+00 1.935764e+00 1.450014e+00 1.349234e+00 1.185398e+00 1.328316e+00 1.015509e+00 5.181740e-01 3.122068e-01 4.190355e-01 1.392021e-01 2.545133e-01 2.305691e-01 2.690561e-01 4.013324e-01 3.234882e-01 3.012727e-01 2.556547e-01 2.302260e-01 2.071537e-01 7.366299e-02
<GCONST> 9.719138e+01
<STATE> 4
<MEAN> 39
 -7.536119e+00 5.334888e+00 -6.383508e+00 -1.059591e+01 1.523840e+01 -5.798084e+00 4.904283e+00 1.835009e+00 5.681549e+00 -5.099655e+00 2.291365e+00 -1.445016e+00 6.731548e+01 2.545056e+00 7.985618e-01 4.063134e-02 -3.662617e-01 -4.023893e-01 -4.983339e-01 -9.935570e-01 7.439205e-01 1.034667e-01 7.879543e-02 -1.219327e-01 -1.907644e-02 1.337187e-01 -6.957859e-03 1.193927e-01 2.117489e-02 1.466350e-02 7.418622e-02 8.025806e-02 1.338804e-01 1.268920e-01 -3.534347e-02 -4.688111e-02 8.204261e-02 7.009988e-02 3.844008e-02
<VARIANCE> 39
 1.814273e+02 6.786472e+01 2.480853e+01 7.582324e+01 7.841068e+01 4.561399e+01 9.129097e+01 5.533565e+01 3.361558e+01 7.243430e+01 2.825853e+01 3.154672e+01 1.993050e+01 1.033698e+01 5.531167e+00 2.596187e+00 5.128864e+00 4.163744e+00 2.824057e+00 5.169410e+00 4.742243e+00 3.550584e+00 4.851056e+00 1.911199e+00 3.716842e+00 9.367996e-01 9.873367e-01 9.687874e-01 4.333649e-01 6.377289e-01 6.746548e-01 5.204789e-01 7.636876e-01 7.795414e-01 5.739719e-01 8.835288e-01 3.264475e-01 8.011170e-01 1.590771e-01
<GCONST> 1.332139e+02
<TRANSP> 5
 0.000000e+00 1.000000e+00 0.000000e+00 0.000000e+00 0.000000e+00
 0.000000e+00 7.962119e-01 2.037881e-01 0.000000e+00 0.000000e+00
 0.000000e+00 0.000000e+00 8.962596e-01 1.037404e-01 0.000000e+00
 0.000000e+00 0.000000e+00 0.000000e+00 8.794002e-01 1.205998e-01
 0.000000e+00 0.000000e+00 0.000000e+00 0.000000e+00 0.000000e+00
<ENDHMM>
~h "g"
<BEGINHMM>
<NUMSTATES> 5
<STATE> 2
<MEAN> 39
 -7.196494e+00 1.669230e+00 6.938246e+00 1.236152e+01 2.083357e+01 -1.576299e+01 -7.022806e+00 -1.647123e+00 2.088302e-01 -5.688618e+00 9.890505e+00 -1.177569e+01 6.827389e+01 4.580840e-01 3.776096e-01 5.613642e-01 1.187769e+00 3.551975e-01 4.080628e-01 3.413276e-01 -3.875352e-01 6.568536e-02 7.537042e-01 -5.389203e-01 1.772923e-01 -3.224491e-01 -4.046381e-02 -2.878161e-02 -7.558876e-02 -2.072697e-01 -2.654126e-01 2.227646e-01 1.588482e-01 1.168054e-01 4.488688e-02 1.534373e-01 -3.133797e-01 1.741142e-01 -1.920810e-01
<VARIANCE> 39
 2.731767e+01 2.927067e+01 7.033295e+01 8.405196e+01 7.095216e+01 7.095311e+01 8.751907e+01 5.416959e+01 4.135151e+01 5.331766e+01 5.422084e+01 5.233944e+01 5.608416e+01 9.405743e-01 1.959717e+00 1.003065e+00 2.146224e+00 1.722481e+00 5.592520e+00 2.893103e+00 4.449224e+00 2.150490e+00 3.090831e+00 3.030311e+00 2.953595e+00 2.842025e+00 1.466151e-01 2.869514e-01 2.850722e-01 5.028619e-01 6.802205e-01 8.973937e-01 6.770077e-01 6.140884e-01 3.222785e-01 8.643124e-01 4.857859e-01 4.279027e-01 2.645923e-01
<GCONST> 1.243782e+02
<STATE> 3
<MEAN> 39
 -4.032222e+00 5.619088e+00 1.233926e+01 1.737784e+01 2.162974e+01 -9.133443e+00 -5.776046e+00 2.261597e+00 6.088989e-01 5.234113e-01 1.969871e+00 -7.773288e+00 6.001050e+01 -4.129540e-02 9.375661e-01 8.213110e-02 1.166121e-01 -3.505033e-01 1.296965e+00 4.006495e-01 4.534890e-01 -5.740605e-03 6.264580e-01 -8.911734e-01 3.833602e-01 -1.377870e+00 -2.027601e-01 -3.527171e-01 -2.515121e-01 -5.535958e-01 -1.356311e-01 -1.108415e-02 3.073949e-01 -9.403750e-02 -3.688143e-02 -3.650800e-01 1.277241e-01 -8.373165e-02 4.356793e-01
<VARIANCE> 39
 1.233553e+01 4.021422e+01 3.644749e+01 6.261236e+01 6.418275e+01 6.610027e+01 6.030350e+01 4.921416e+01 4.119881e+01 2.862100e+01 3.296143e+01 3.500770e+01 5.962997e+01 7.404408e-01 9.655180e-01 1.149895e+00 1.053613e+00 1.225151e+00 1.762510e+00 1.400836e+00 2.547984e+00 2.003745e+00 2.815824e+00 2.525944e+00 1.201785e+00 1.220182e+00 1.064086e-01 5.533436e-01 2.602033e-01 5.568531e-01 3.379241e-01 4.670559e-01 4.455503e-01 4.379752e-01 4.594568e-01 5.499689e-01 4.684802e-01 2.257487e-01 6.042649e-01
<GCONST> 1.127448e+02
<STATE> 4
<MEAN> 39
 -6.070273e+00 2.473065e+00 4.704195e+00 8.302784e-01 1.005977e+01 -6.735674e+00 6.810482e+00 1.879501e+00 3.074122e+00 -1.791454e+00 4.729627e+00 -4.489552e+00 6.543553e+01 -4.101216e-01 -1.325948e+00 -1.177070e+00 -2.376014e+00 -2.237367e-01 -9.529737e-02 4.781767e-01 -7.307018e-01 -8.063790e-02 -9.176759e-01 7.003994e-01 2.870625e-01 2.263634e+00 1.432325e-01 1.170757e-01 1.276935e-01 4.063828e-02 6.372166e-02 -8.207738e-02 -2.611519e-01 -7.421253e-02 1.716015e-02 -1.600138e-01 5.701764e-02 6.033369e-02 8.452114e-02
<VARIANCE> 39
 4.441858e+01 7.493258e+01 6.435466e+01 1.085968e+02 5.714098e+01 1.414274e+02 8.317270e+01 6.558997e+01 6.008297e+01 7.910143e+01 3.597873e+01 1.353345e+01 1.152150e+02 3.450241e+00 9.428287e+00 6.174320e+00 1.124352e+01 4.667481e+00 7.005483e+00 1.054960e+01 6.744407e+00 6.650723e+00 7.041641e+00 3.561840e+00 1.686991e+00 1.433232e+01 5.792931e-01 1.941902e+00 1.419900e+00 2.145134e+00 6.762810e-01 1.100674e+00 1.988158e+00 1.535427e+00 1.267698e+00 1.126875e+00 7.316977e-01 2.503358e-01 2.980693e+00
<GCONST> 1.512231e+02
<TRANSP> 5
 0.000000e+00 1.000000e+00 0.000000e+00 0.000000e+00 0.000000e+00
 0.000000e+00 6.867266e-01 3.132734e-01 0.000000e+00 0.000000e+00
 0.000000e+00 0.000000e+00 7.622849e-01 2.377151e-01 0.000000e+00
 0.000000e+00 0.000000e+00 0.000000e+00 8.742531e-01 1.257469e-01
 0.000000e+00 0.000000e+00 0.000000e+00 0.000000e+00 0.000000e+00
<ENDHMM>
~h "k"
<BEGINHMM>
<NUMSTATES> 5
<STATE> 2
<MEAN> 39
 -1.136366e+01 -1.000309e+00 -1.113575e+00 -1.192695e+00 6.957038e+00 2.065153e+00 6.415906e+00 1.536491e+00 -7.574584e+00 1.865398e+00 9.085550e+00 7.050889e+00 5.250826e+01 -1.208006e-01 6.363215e-01 1.061326e-01 1.661200e-01 -5.670114e-02 3.938941e-01 3.587735e-02 5.535774e-01 3.937329e-02 1.490512e-01 -2.556023e-01 2.561817e-02 -8.330732e-01 -1.691275e-02 -9.817627e-02 4.367219e-02 2.231829e-03 2.250111e-02 -8.808964e-02 -2.839185e-03 -4.467285e-02 1.329323e-01 1.332044e-02 2.283769e-02 -1.435435e-01 1.011043e-01
<VARIANCE> 39
 2.394084e+01 7.482027e+01 6.154814e+01 3.376072e+01 3.573933e+01 8.011539e+01 2.587072e+01 6.036655e+01 1.105102e+02 2.629801e+01 2.851874e+01 5.175303e+01 9.734237e+01 9.016309e-01 8.142524e-01 1.337285e+00 8.739278e-01 1.428236e+00 1.327103e+00 1.652334e+00 1.393266e+00 2.105504e+00 1.545991e+00 1.361480e+00 1.332356e+00 7.363623e-01 1.143995e-01 1.859408e-01 1.883609e-01 1.839968e-01 2.470948e-01 2.681773e-01 2.779506e-01 3.063907e-01 2.676063e-01 2.965711e-01 2.703387e-01 2.061054e-01 1.516510e-01
<GCONST> 1.050627e+02
<STATE> 3
<MEAN> 39
 -1.007094e+01 5.563540e+00 -1.696655e-01 1.363177e+00 7.388294e+00 -2.051628e+00 5.938071e+00 5.790872e+00 1.661481e+00 4.039918e+00 5.169603e+00 7.342024e-01 5.353934e+01 -6.367807e-01 -2.938480e-01 2.360733e-01 1.240291e-01 -3.697017e-01 7.449508e-02 -3.339305e-01 -2.274352e-01 5.598342e-01 4.147604e-01 3.507031e-01 -6.231556e-01 -4.846205e-01 -1.834326e-01 -9.319711e-01 -1.106021e-01 -2.514877e-01 1.571781e-01 -6.485812e-01 -7.012340e-02 -5.643309e-01 2.209305e-01 -3.933465e-01 1.844689e-01 -2.276945e-01 1.065589e+00
<VARIANCE> 39
 4.286205e+01 8.256697e+01 6.088941e+01 5.676373e+01 5.421438e+01 8.720340e+01 4.392207e+01 5.868180e+01 1.181209e+02 3.890628e+01 3.315352e+01 3.461842e+01 9.987517e+01 1.245339e+00 2.998357e+00 2.394084e+00 2.038306e+00 2.108605e+00 3.439732e+00 2.364659e+00 2.750668e+00 3.451548e+00 3.279767e+00 3.049581e+00 2.176811e+00 2.534616e+00 3.644320e-01 8.249063e-01 5.767801e-01 3.768305e-01 6.455641e-01 6.222612e-01 7.960585e-01 5.156838e-01 8.834189e-01 7.022879e-01 5.447856e-01 3.928985e-01 1.083587e+00
<GCONST> 1.299316e+02
<STATE> 4
<MEAN> 39
 -1.560853e+01 -5.485161e+00 -7.586219e-01 -2.801457e-01 6.630778e+00 -1.099348e+01 2.713339e+00 -1.831250e+00 6.117079e+00 -4.937355e-01 5.596255e+00 -3.280239e+00 6.800366e+01 -2.461531e-01 -9.772910e-01 -8.553721e-02 -5.096171e-01 -3.674936e-02 -8.220280e-01 -5.964455e-01 -7.800204e-01 4.932317e-01 -4.789152e-01 2.883385e-01 -4.096144e-01 1.853623e+00 2.232445e-01 2.772814e-01 7.751402e-02 2.289186e-02 1.486815e-01 1.690134e-01 -5.663742e-02 1.299670e-01 -6.055285e-02 1.453340e-01 2.180375e-02 4.465069e-02 -2.448887e-01
<VARIANCE> 39
 2.719598e+01 6.464780e+01 2.814381e+01 5.227106e+01 4.274054e+01 8.037145e+01 5.229404e+01 6.251787e+01 4.508657e+01 5.104936e+01 4.974448e+01 2.760311e+01 1.397341e+02 2.334482e+00 7.488045e+00 4.351960e+00 4.219282e+00 3.744442e+00 7.046634e+00 3.660135e+00 4.957113e+00 4.006545e+00 5.553777e+00 5.278825e+00 2.335184e+00 1.427149e+01 3.655617e-01 1.240730e+00 7.852310e-01 8.417116e-01 6.918806e-01 1.219795e+00 7.084036e-01 1.017646e+00 6.792245e-01 1.070327e+00 9.124617e-01 3.902334e-01 2.808104e+00
<GCONST> 1.407775e+02
<TRANSP> 5
 0.000000e+00 1.000000e+00 0.000000e+00 0.000000e+00 0.000000e+00
 0.000000e+00 7.776676e-01 2.223324e-01 0.000000e+00 0.000000e+00
 0.000000e+00 0.000000e+00 2.366222e-01 7.633778e-01 0.000000e+00
 0.000000e+00 0.000000e+00 0.000000e+00 7.919260e-01 2.080740e-01
 0.000000e+00 0.000000e+00 0.000000e+00 0.000000e+00 0.000000e+00
<ENDHMM>
~h "l"
<BEGINHMM>
<NUMSTATES> 5
<STATE> 2
<MEAN> 39
 1.207252e+00 9.813515e+00 1.048280e+01 4.792039e-01 -1.050736e+00 -1.983442e+01 4.688060e+00 1.006905e+01 3.786503e+00 3.099058e+00 2.971456e+00 -2.064765e+00 6.169464e+01 2.616839e-01 3.546049e-01 2.119754e-01 5.863762e-01 -3.601635e-01 -8.200327e-01 -6.766313e-01 1.905718e-01 -3.361390e-01 5.341887e-02 3.950634e-01 3.290358e-01 -1.970093e-01 -9.879199e-02 -1.779855e-01 -1.072244e-01 -1.470107e-01 9.164630e-03 1.318325e-01 4.758678e-02 -1.292589e-01 6.382705e-02 -2.895967e-01 1.669653e-01 -2.216431e-02 1.607078e-01
<VARIANCE> 39
 2.861460e+01 3.812197e+01 7.404901e+01 7.015444e+01 6.903817e+01 1.689761e+02 5.643108e+01 7.998399e+01 6.231861e+01 4.799167e+01 3.557581e+01 5.566908e+01 7.238963e+01 7.613358e-01 1.225258e+00 1.859517e+00 2.684438e+00 2.958593e+00 7.704926e+00 2.749629e+00 4.081387e+00 2.653415e+00 3.414894e+00 2.248728e+00 2.926450e+00 8.850867e-01 1.219876e-01 2.671531e-01 2.681657e-01 3.358002e-01 3.717716e-01 7.345749e-01 4.373983e-01 7.326033e-01 4.766140e-01 5.217428e-01 4.894087e-01 4.657425e-01 2.041996e-01
<GCONST> 1.232057e+02
<STATE> 3
<MEAN> 39
 -3.335564e+00 8.570844e+00 1.055518e+01 5.764111e+00 2.173698e+00 -1.453270e+01 2.127480e+00 6.557726e+00 3.061918e+00 1.632229e+00 4.174046e+00 -2.542959e+00 5.935178e+01 -8.717136e-01 -1.167637e+00 -9.206985e-01 -8.047680e-01 4.600968e-01 2.108999e-01 6.609838e-02 -1.639244e+00 7.485297e-01 -1.057038e+00 1.129944e+00 1.306231e-01 1.458876e+00 -1.935688e-01 -5.584362e-01 -5.238330e-02 -3.866490e-01 -1.281795e-01 -1.085986e-01 4.306605e-01 -5.418219e-03 2.687331e-01 -3.152987e-01 -4.892844e-02 -1.269824e-01 6.225744e-01
<VARIANCE> 39
 8.796932e+01 1.157807e+02 6.686057e+01 6.889349e+01 1.099994e+02 1.276387e+02 6.137275e+01 8.930955e+01 6.082671e+01 4.722728e+01 3.991961e+01 2.902090e+01 8.929658e+01 4.289844e+00 6.719876e+00 3.887215e+00 3.101546e+00 7.097734e+00 1.079515e+01 4.686695e+00 9.453669e+00 4.328325e+00 4.704849e+00 3.685671e+00 3.509889e+00 5.646024e+00 5.342800e-01 1.064790e+00 4.294841e-01 5.021468e-01 8.566831e-01 9.218260e-01 6.399702e-01 1.071871e+00 7.462898e-01 8.511279e-01 7.256532e-01 3.863167e-01 9.362379e-01
<GCONST> 1.437928e+02
<STATE> 4
<MEAN> 39
 -6.528471e-01 5.760899e+00 7.169009e+00 -1.232030e+00 -1.380736e+00 -2.087919e+01 5.518311e+00 9.093821e+00 8.772962e+00 -3.535987e+00 5.823825e+00 -3.894792e+00 6.803935e+01 -3.388830e-01 -5.753729e-01 -8.504456e-01 -9.468192e-01 5.960644e-01 2.783692e-01 5.869412e-01 -4.754395e-02 3.198449e-01 -1.298908e-01 6.669610e-02 -1.893463e-02 6.787632e-01 1.222969e-01 1.984645e-01 1.013247e-02 1.240169e-01 1.486791e-01 1.091187e-01 -1.201422e-01 1.376314e-01 -1.458708e-01 1.897224e-01 -1.282076e-01 1.978848e-02 -2.756976e-01
<VARIANCE> 39
 6.727598e+01 3.829839e+01 6.928970e+01 6.774779e+01 1.117756e+02 1.582744e+02 7.040522e+01 1.399066e+02 5.377552e+01 7.811852e+01 5.045429e+01 4.862683e+01 4.500753e+01 2.917740e+00 3.016563e+00 3.773566e+00 4.600202e+00 5.674353e+00 6.699367e+00 4.233840e+00 7.617350e+00 3.911920e+00 4.537679e+00 4.001138e+00 3.129026e+00 3.722250e+00 4.842982e-01 4.746793e-01 5.061491e-01 6.826431e-01 8.395666e-01 9.371149e-01 8.070424e-01 1.377563e+00 6.314563e-01 8.747318e-01 7.075459e-01 6.022752e-01 6.687613e-01
<GCONST> 1.412597e+02
<TRANSP> 5
 0.000000e+00 1.000000e+00 0.000000e+00 0.000000e+00 0.000000e+00
 0.000000e+00 7.006258e-01 2.993742e-01 0.000000e+00 0.000000e+00
 0.000000e+00 0.000000e+00 5.097805e-01 4.902195e-01 0.000000e+00
 0.000000e+00 0.000000e+00 0.000000e+00 8.029922e-01 1.970078e-01
 0.000000e+00 0.000000e+00 0.000000e+00 0.000000e+00 0.000000e+00
<ENDHMM>
~h "m"
<BEGINHMM>
<NUMSTATES> 5
<STATE> 2
<MEAN> 39
 1.149925e+00 6.052987e+00 -7.128183e-01 3.790097e+00 1.156181e+01 -7.181109e+00 4.636483e+00 5.960927e+00 4.000763e+00 -1.297332e+00 2.579393e+00 -5.798503e+00 6.241172e+01 -6.068332e-01 6.124718e-01 6.171591e-01 -5.461850e-01 3.377131e-01 -8.632192e-02 -2.184173e-01 -1.936338e+00 1.073567e+00 -1.438519e+00 4.256161e-01 -7.616650e-01 8.783135e-01 -2.833851e-01 -3.775349e-02 1.169050e-02 -3.898057e-01 2.607805e-01 -2.329189e-01 1.878444e-01 -7.291267e-02 7.805153e-02 -9.188604e-02 1.671405e-01 -7.194102e-02 4.139918e-01
<VARIANCE> 39
 1.028120e+02 3.687003e+01 8.595219e+01 5.329665e+01 4.707506e+01 1.177274e+02 1.088478e+02 9.225826e+01 5.745278e+01 4.711689e+01 3.325186e+01 5.590308e+01 5.025141e+01 4.986124e+00 2.539940e+00 4.365228e+00 3.665851e+00 2.328839e+00 8.152420e+00 8.111219e+00 6.654372e+00 4.709198e+00 4.030468e+00 2.912484e+00 4.204251e+00 4.811176e+00 4.276988e-01 3.699718e-01 6.901989e-01 6.384168e-01 3.712431e-01 7.434535e-01 1.185640e+00 1.457340e+00 8.174568e-01 8.684421e-01 3.208705e-01 5.768484e-01 4.569273e-01
<GCONST> 1.385770e+02
<STATE> 3
<MEAN> 39
 -5.792439e-01 6.258088e+00 7.938887e-01 3.514093e+00 1.301115e+01 -1.001100e+01 5.340737e+00 2.584248e+00 5.819820e+00 -4.072533e+00 5.748414e+00 -5.375476e+00 6.619011e+01 -2.825095e-01 1.010696e-01 4.824901e-01 1.588017e-02 8.156981e-01 5.378587e-01 -3.583487e-01 -2.862237e-01 -9.174766e-02 -3.297526e-01 6.752505e-01 -3.478726e-01 1.506179e-01 9.366959e-02 -9.753843e-02 -2.029911e-01 -1.288609e-01 1.949053e-03 -1.101064e-01 -5.391553e-02 4.229451e-01 -1.008514e-01 2.996413e-01 -1.336353e-01 -4.715689e-02 -5.089113e-02
<VARIANCE> 39
 5.270501e+01 4.275631e+01 1.025263e+02 5.078938e+01 4.322683e+01 1.222114e+02 1.279760e+02 7.284471e+01 5.772474e+01 5.629008e+01 3.903139e+01 5.337460e+01 1.542544e+01 4.389992e+00 2.991199e+00 2.922026e+00 4.831504e+00 3.933938e+00 6.361621e+00 6.441255e+00 6.356899e+00 5.190277e+00 5.468037e+00 3.784150e+00 5.105100e+00 2.654915e+00 4.954354e-01 5.894800e-01 8.222016e-01 5.162362e-01 5.719916e-01 1.022358e+00 1.247610e+00 1.167615e+00 9.892465e-01 9.581844e-01 5.231594e-01 9.031034e-01 4.493326e-01
<GCONST> 1.397179e+02
<STATE> 4
<MEAN> 39
 -5.294858e+00 9.198704e-01 2.913677e+00 4.322626e+00 1.826958e+01 -7.659331e+00 -2.571913e+00 1.785615e+00 6.156681e+00 -3.226106e+00 5.464223e+00 -7.822149e+00 6.805163e+01 -1.169158e-01 -9.639599e-02 -9.455507e-02 -4.330743e-01 -5.705436e-02 2.688754e-01 3.149240e-01 7.179856e-03 7.366195e-02 -5.935320e-02 2.339350e-02 -2.520524e-02 1.279747e-01 4.328767e-03 6.376434e-03 -2.285688e-02 -4.409435e-02 -5.310826e-02 -7.220850e-02 2.716892e-02 2.868397e-02 3.182527e-02 3.359840e-02 -3.587735e-02 6.942885e-02 -1.694243e-02
<VARIANCE> 39
 1.013260e+02 1.002976e+02 4.577613e+01 7.464540e+01 5.764046e+01 9.133063e+01 1.014841e+02 6.990986e+01 9.277509e+01 7.981081e+01 4.999346e+01 3.732492e+01 4.250819e+01 4.149558e+00 6.065394e+00 2.896490e+00 4.088609e+00 3.441520e+00 3.959883e+00 3.811031e+00 5.174884e+00 5.416450e+00 4.436000e+00 2.916374e+00 2.569423e+00 3.099654e+00 5.109115e-01 7.821486e-01 5.022180e-01 5.343964e-01 5.789690e-01 5.739082e-01 6.281467e-01 8.308141e-01 8.324931e-01 7.473136e-01 4.305422e-01 4.260620e-01 4.205987e-01
<GCONST> 1.372615e+02
<TRANSP> 5
 0.000000e+00 1.000000e+00 0.000000e+00 0.000000e+00 0.000000e+00
 0.000000e+00 4.135671e-01 5.864329e-01 0.000000e+00 0.000000e+00
 0.000000e+00 0.000000e+00 5.817010e-01 4.182990e-01 0.000000e+00
 0.000000e+00 0.000000e+00 0.000000e+00 9.067699e-01 9.323010e-02
 0.000000e+00 0.000000e+00 0.000000e+00 0.000000e+00 0.000000e+00
<ENDHMM>
~h "n"
<BEGINHMM>
<NUMSTATES> 5
<STATE> 2
<MEAN> 39
 -1.236393e+00 2.582327e+00 -1.676505e+00 1.217804e+00 1.808783e+01 -1.227731e+01 3.462393e+00 3.773490e+00 5.010481e+00 -2.748400e+00 5.168242e+00 -3.528564e+00 6.820816e+01 4.170467e-01 6.184016e-01 1.528073e-01 1.515663e+00 2.268169e-01 1.486474e+00 -4.174186e-01 -5.691440e-01 6.449816e-02 2.814615e-01 -3.842714e-01 -1.078905e-01 -1.320973e+00 1.701352e-01 9.556620e-02 -2.553781e-03 3.239774e-01 -1.333094e-01 1.377288e-01 -3.501271e-02 9.590691e-02 -7.583089e-02 3.826616e-01 -1.218648e-02 -1.257954e-01 -3.066541e-01
<VARIANCE> 39
 4.582522e+01 2.163810e+01 5.496442e+01 7.608357e+01 5.125426e+01 6.088961e+01 9.373323e+01 7.178716e+01 3.614247e+01 4.239753e+01 6.243277e+01 4.256758e+01 6.285287e+01 1.124976e+00 1.343676e+00 2.067070e+00 3.193066e+00 1.968895e+00 3.961063e+00 3.177353e+00 3.822518e+00 2.753410e+00 2.556062e+00 2.393604e+00 1.769285e+00 1.621024e+00 1.660118e-01 2.148183e-01 3.514232e-01 5.940099e-01 3.017097e-01 4.679216e-01 5.374755e-01 6.115608e-01 5.406339e-01 3.995232e-01 4.469207e-01 3.189820e-01 1.622143e-01
<GCONST> 1.205946e+02
<STATE> 3
<MEAN> 39
 2.090428e+00 5.189896e+00 -1.746074e+00 6.382783e+00 1.769918e+01 -7.802160e+00 2.524317e+00 4.052017e+00 3.200980e+00 7.721857e-01 2.960167e+00 -3.905888e+00 6.255777e+01 6.600802e-01 7.644479e-01 2.219012e-01 1.461483e+00 -7.589322e-02 1.248405e+00 -2.529638e-01 5.321051e-02 -6.210057e-01 1.128722e+00 -4.890086e-01 -4.702358e-01 -1.547539e+00 -1.866627e-01 -4.915603e-02 1.030661e-01 -4.098423e-01 -5.861133e-02 -2.699734e-01 1.747367e-02 3.887204e-02 1.437886e-01 -1.984763e-03 1.348184e-01 -6.545638e-02 2.602990e-01
<VARIANCE> 39
 3.693627e+01 1.402409e+01 4.359907e+01 4.988222e+01 3.659024e+01 4.217218e+01 5.451841e+01 2.693946e+01 3.136882e+01 4.688423e+01 3.501398e+01 3.002641e+01 3.878082e+01 7.027497e-01 7.989781e-01 1.476305e+00 2.264087e+00 1.917308e+00 2.314690e+00 2.301965e+00 1.534372e+00 2.042720e+00 2.265486e+00 1.534971e+00 1.653326e+00 1.001846e+00 8.331455e-02 1.150798e-01 1.698207e-01 3.078928e-01 1.980688e-01 3.452965e-01 3.537174e-01 2.687152e-01 3.413710e-01 3.038060e-01 3.304812e-01 2.353048e-01 1.174661e-01
<GCONST> 1.044057e+02
<STATE> 4
<MEAN> 39
 1.759564e+00 7.022029e+00 9.726384e-01 8.911305e+00 1.817875e+01 -5.348176e+00 2.007181e+00 3.655228e+00 1.013741e+00 5.503695e+00 2.221070e+00 -3.969791e+00 5.871787e+01 -4.920180e-02 4.826773e-01 3.576783e-01 1.104003e-01 -2.469243e-01 5.000266e-01 -1.625004e-01 -1.710775e-02 -1.024898e-01 4.231798e-01 -2.073803e-01 2.188843e-02 -6.470689e-01 -1.866701e-01 -8.202033e-02 3.296129e-03 -3.015428e-01 -1.161705e-02 -8.901501e-02 5.958026e-02 -8.058096e-02 1.829528e-01 -2.661349e-01 9.660564e-02 1.141524e-01 2.111550e-01
<VARIANCE> 39
 4.416993e+01 2.591351e+01 2.967119e+01 2.602158e+01 4.383660e+01 5.588795e+01 3.899821e+01 2.742129e+01 2.818980e+01 3.868679e+01 3.333483e+01 3.120757e+01 4.116537e+01 6.514559e-01 7.313662e-01 1.034351e+00 1.196657e+00 1.201280e+00 2.196570e+00 1.442607e+00 1.949097e+00 1.682106e+00 1.950960e+00 1.437798e+00 1.468988e+00 6.333696e-01 1.177873e-01 1.439608e-01 1.615476e-01 2.518713e-01 1.956340e-01 4.470539e-01 2.992769e-01 4.245833e-01 3.457817e-01 4.328052e-01 2.480200e-01 2.702412e-01 1.565455e-01
<GCONST> 1.025274e+02
<TRANSP> 5
 0.000000e+00 1.000000e+00 0.000000e+00 0.000000e+00 0.000000e+00
 0.000000e+00 5.936410e-01 4.063590e-01 0.000000e+00 0.000000e+00
 0.000000e+00 0.000000e+00 4.175334e-01 5.824666e-01 0.000000e+00
 0.000000e+00 0.000000e+00 0.000000e+00 8.086783e-01 1.913217e-01
 0.000000e+00 0.000000e+00 0.000000e+00 0.000000e+00 0.000000e+00
<ENDHMM>
~h "p"
<BEGINHMM>
<NUMSTATES> 5
<STATE> 2
<MEAN> 39
 -1.074651e+00 7.114785e+00 -5.591460e+00 -1.437843e+01 6.881244e+00 -9.045564e+00 1.216774e+01 4.382509e+00 5.182262e+00 1.744108e+00 4.159324e+00 1.047223e+00 6.439396e+01 2.481733e-02 -7.368417e-02 -1.917253e-01 -2.430336e-01 -2.107621e-01 -1.582296e-01 1.562863e-01 9.563078e-02 -7.787140e-02 1.537537e-01 4.668365e-02 2.133633e-01 -5.450286e-03 -2.155596e-02 -3.628233e-02 1.062457e-02 1.459171e-01 5.648410e-02 1.315671e-02 -3.329483e-02 -4.325069e-02 -4.562293e-02 1.286758e-02 3.921868e-02 -4.718821e-02 1.653755e-02
<VARIANCE> 39
 3.107137e+01 9.797269e+01 3.109504e+01 8.750101e+01 5.968551e+01 1.185334e+02 1.345319e+02 3.605901e+01 1.575691e+02 5.073473e+01 4.263726e+01 3.780112e+01 4.019705e+01 1.596986e+00 4.853089e+00 2.102443e+00 5.084972e+00 4.325949e+00 5.190610e+00 5.271172e+00 3.538185e+00 5.356747e+00 4.550891e+00 3.017981e+00 2.153174e+00 3.951864e+00 2.291499e-01 6.517376e-01 3.748043e-01 5.695039e-01 6.163334e-01 5.659637e-01 6.392794e-01 7.006673e-01 5.828910e-01 7.683271e-01 5.643608e-01 3.866396e-01 7.411944e-01
<GCONST> 1.339901e+02
<STATE> 3
<MEAN> 39
 -8.742943e+00 -1.269298e+00 -7.301220e+00 -5.650765e+00 1.001623e+01 -5.666247e+00 5.818426e+00 7.013586e-01 2.954676e+00 1.140474e+00 7.396064e+00 -2.923457e+00 6.657059e+01 -7.700741e-01 -1.806916e+00 -8.420247e-02 2.802989e-01 -4.348633e-01 -5.674741e-01 -9.550201e-01 -1.601759e+00 4.793713e-01 -3.385633e-01 -2.215746e-01 -7.617146e-01 1.993659e+00 3.244315e-01 3.622559e-01 3.170576e-01 -1.147012e-01 -1.464250e-01 1.818776e-01 2.636662e-02 -2.391050e-02 -3.362196e-01 1.272080e-01 6.519631e-04 2.834470e-01 -5.940554e-01
<VARIANCE> 39
 4.718818e+01 7.316605e+01 3.487852e+01 3.321360e+01 2.111293e+01 4.980277e+01 3.410518e+01 7.299207e+01 5.952339e+01 2.922400e+01 2.796060e+01 3.581943e+01 1.098389e+02 2.419098e+00 7.195887e+00 3.797687e+00 3.232169e+00 2.270818e+00 5.063296e+00 4.115540e+00 4.509077e+00 2.609812e+00 4.371552e+00 2.898350e+00 3.901618e+00 1.257132e+01 3.421133e-01 1.087788e+00 8.658721e-01 7.374993e-01 4.238862e-01 1.092439e+00 6.157953e-01 7.442226e-01 4.701009e-01 1.025367e+00 6.457513e-01 6.405651e-01 2.893143e+00
<GCONST> 1.353079e+02
<STATE> 4
<MEAN> 39
 -8.112507e+00 -1.199901e+01 -3.754767e+00 -3.387952e-01 8.599860e+00 -3.836116e+00 -7.780910e-02 -7.390856e+00 -1.533240e+00 3.922002e+00 8.931741e+00 -2.639412e-01 6.396794e+01 5.727375e-01 1.313849e-01 2.849292e-01 6.566200e-01 -1.132689e-01 6.431606e-01 4.407812e-01 5.233149e-01 -8.969851e-01 5.419645e-01 3.388489e-01 7.774879e-01 -1.297515e+00 -6.264991e-02 2.335310e-01 -1.003445e-01 -8.222567e-02 4.323317e-02 -4.459509e-02 1.425854e-01 2.211961e-01 1.900168e-02 -1.270687e-01 5.777912e-02 4.741056e-02 1.055108e-02
<VARIANCE> 39
 3.605326e+01 4.671942e+01 1.109334e+01 2.258978e+01 1.466072e+01 2.805490e+01 2.832151e+01 7.572926e+01 3.774428e+01 1.928497e+01 2.494654e+01 3.406091e+01 2.198869e+01 5.523541e-01 2.520792e+00 1.138183e+00 7.665258e-01 1.096103e+00 1.556143e+00 2.274631e+00 2.436931e+00 2.025092e+00 1.850819e+00 1.614606e+00 1.447216e+00 7.715160e-01 1.169627e-01 2.746532e-01 1.731918e-01 1.735812e-01 1.771288e-01 2.278559e-01 3.056392e-01 2.888129e-01 4.758167e-01 3.642777e-01 3.855493e-01 2.284961e-01 1.834806e-01
<GCONST> 1.006402e+02
<TRANSP> 5
 0.000000e+00 1.000000e+00 0.000000e+00 0.000000e+00 0.000000e+00
 0.000000e+00 9.436438e-01 5.635620e-02 0.000000e+00 0.000000e+00
 0.000000e+00 0.000000e+00 6.862383e-01 3.137617e-01 0.000000e+00
 0.000000e+00 0.000000e+00 0.000000e+00 8.348151e-01 1.651849e-01
 0.000000e+00 0.000000e+00 0.000000e+00 0.000000e+00 0.000000e+00
<ENDHMM>
~h "r"
<BEGINHMM>
<NUMSTATES> 5
<STATE> 2
<MEAN> 39
 -2.793834e+00 1.979216e+00 -2.914715e+00 -4.000497e+00 1.339591e+01 -7.652033e+00 2.333742e+00 -1.920795e-01 -1.184301e+00 9.275138e-01 8.880832e+00 3.882099e+00 6.299504e+01 -7.654683e-02 3.923650e-01 -1.164254e-01 3.430460e-02 -5.834533e-01 8.939762e-01 1.211172e+00 5.838909e-01 -1.044304e+00 -4.808892e-01 2.218480e-01 3.756323e-01 -6.128566e-01 -5.763418e-02 1.997729e-02 4.972180e-02 6.965588e-02 4.371683e-02 1.789764e-02 -3.380991e-03 9.312984e-03 -5.299848e-02 -9.503853e-02 -7.587874e-02 -1.458154e-02 -5.126948e-02
<VARIANCE> 39
 5.514095e+01 7.782214e+01 3.267600e+01 1.162578e+02 6.595694e+01 8.048375e+01 5.714251e+01 6.141058e+01 9.734522e+01 8.228628e+01 3.927191e+01 5.817249e+01 9.830319e+01 4.277787e-01 1.015648e+00 1.421003e+00 2.940991e+00 1.619587e+00 2.378208e+00 2.657911e+00 3.007919e+00 2.609378e+00 4.028452e+00 1.896633e+00 2.238400e+00 8.217537e-01 5.670736e-02 1.183765e-01 1.816572e-01 2.821541e-01 2.543321e-01 3.118099e-01 3.078785e-01 3.687255e-01 4.642362e-01 3.354312e-01 3.401090e-01 3.993429e-01 6.256761e-02
<GCONST> 1.146479e+02
<STATE> 3
<MEAN> 39
 -1.584920e+00 7.454766e+00 -4.472984e+00 -7.704105e+00 1.232505e+01 -3.541934e+00 8.138192e+00 4.506085e+00 -3.145356e+00 -4.901762e+00 8.249087e+00 4.137213e+00 6.176868e+01 -1.241956e-01 3.936300e-01 2.735957e-01 5.931921e-01 -3.065154e-01 5.881305e-01 5.575213e-01 3.452287e-01 -7.283289e-01 -3.095251e-01 -2.709235e-01 1.007098e-01 -6.832096e-01 -1.044672e-03 -1.305508e-01 1.512065e-02 1.058209e-01 9.656048e-02 6.916799e-03 -2.272908e-01 -2.192802e-01 1.632716e-01 1.243407e-01 2.373492e-02 4.911222e-02 -7.700499e-03
<VARIANCE> 39
 6.105019e+01 8.305712e+01 3.121662e+01 1.587379e+02 7.462610e+01 8.973080e+01 4.204116e+01 7.528201e+01 1.077040e+02 1.040848e+02 3.180439e+01 5.992638e+01 1.083522e+02 3.753842e-01 9.371909e-01 9.325199e-01 2.303853e+00 1.331687e+00 2.260561e+00 1.854706e+00 3.164413e+00 1.909811e+00 3.740021e+00 1.509477e+00 1.385454e+00 5.902514e-01 9.357458e-02 1.964155e-01 1.720883e-01 3.523580e-01 2.318307e-01 3.492403e-01 3.345487e-01 4.854064e-01 3.104800e-01 3.521732e-01 3.047108e-01 3.139371e-01 1.173369e-01
<GCONST> 1.140832e+02
<STATE> 4
<MEAN> 39
 -1.776270e+00 6.179619e+00 -3.080591e+00 -4.790139e+00 1.096861e+01 -2.218512e+00 8.269835e+00 3.009373e+00 -3.287215e+00 -5.837042e+00 7.637261e+00 5.443453e+00 6.046172e+01 -2.246448e-01 -1.852026e-01 2.747436e-01 6.650361e-01 2.000812e-01 4.592170e-01 -2.125982e-01 -4.385818e-01 1.157089e-01 2.567695e-01 1.580732e-01 9.942747e-02 -4.527296e-01 -1.062528e-01 -1.543327e-01 -9.716518e-03 5.184167e-02 1.879105e-01 -1.546194e-01 -1.669921e-01 -1.146635e-01 3.826609e-01 2.789682e-01 9.171951e-02 -1.437502e-01 1.208607e-01
<VARIANCE> 39
 6.219334e+01 6.762364e+01 3.185483e+01 1.564040e+02 5.552224e+01 7.372402e+01 3.697309e+01 7.082883e+01 1.487191e+02 1.763055e+02 3.413557e+01 6.366328e+01 1.010492e+02 7.280977e-01 1.525883e+00 8.803689e-01 3.210747e+00 2.507274e+00 3.460752e+00 2.495142e+00 3.695059e+00 3.903057e+00 6.126484e+00 2.560108e+00 1.809564e+00 7.182689e-01 1.371066e-01 3.049423e-01 2.044256e-01 6.331363e-01 1.852565e-01 6.201641e-01 4.355310e-01 7.161911e-01 7.586771e-01 1.274056e+00 4.514526e-01 4.845525e-01 1.725317e-01
<GCONST> 1.252404e+02
<TRANSP> 5
 0.000000e+00 1.000000e+00 0.000000e+00 0.000000e+00 0.000000e+00
 0.000000e+00 6.025543e-01 3.974457e-01 0.000000e+00 0.000000e+00
 0.000000e+00 0.000000e+00 4.827054e-01 5.172946e-01 0.000000e+00
 0.000000e+00 0.000000e+00 0.000000e+00 5.291778e-01 4.708222e-01
 0.000000e+00 0.000000e+00 0.000000e+00 0.000000e+00 0.000000e+00
<ENDHMM>
~h "s"
<BEGINHMM>
<NUMSTATES> 5
<STATE> 2
<MEAN> 39
 -1.568414e+01 -6.643108e+00 1.304917e+01 -3.290475e+00 1.290622e+01 -6.318147e+00 8.332569e+00 -6.367772e+00 4.779155e+00 -6.188816e+00 9.541145e+00 -2.750054e+00 7.398373e+01 -3.712487e+00 -1.918361e+00 2.276075e+00 -2.602465e-01 -1.501787e+00 -5.967637e-01 2.129454e+00 1.883553e-01 1.234026e+00 6.663008e-01 1.624486e-01 -4.907339e-01 1.251133e+00 1.762032e-01 4.084398e-01 -3.707145e-01 -4.227543e-01 -1.875475e-01 6.448676e-02 7.288992e-03 2.564462e-01 -6.857582e-01 -2.368736e-01 -3.356621e-02 -4.204853e-03 -8.312540e-02
<VARIANCE> 39
 6.510502e+01 3.310880e+01 7.532619e+01 3.180735e+01 4.877249e+01 2.785163e+01 5.269087e+01 5.769327e+01 6.401520e+01 5.749651e+01 1.848090e+01 2.291447e+01 5.400424e+01 2.922859e+00 2.947465e+00 3.946081e+00 5.026149e+00 3.230072e+00 3.221170e+00 5.206169e+00 4.843561e+00 5.896862e+00 4.282779e+00 2.178744e+00 1.651375e+00 9.566104e-01 7.172512e-01 4.062077e-01 8.073672e-01 5.927500e-01 5.171952e-01 4.945772e-01 1.051025e+00 8.795791e-01 9.806540e-01 7.898321e-01 4.367005e-01 2.782783e-01 2.205887e-01
<GCONST> 1.285055e+02
<STATE> 3
<MEAN> 39
 -2.800618e+01 -1.253830e+01 1.831304e+01 -8.936831e+00 3.578706e+00 -7.288321e+00 1.527537e+01 -5.316834e+00 3.901915e+00 -3.206447e+00 9.071948e+00 -5.256744e+00 7.742185e+01 -4.592327e-01 -3.422650e-01 -9.661549e-02 -6.671654e-02 -5.432467e-01 -1.276066e-01 1.520975e-01 3.394055e-01 -2.085356e-01 1.448992e-01 1.711432e-03 4.486034e-02 -3.219710e-01 3.511319e-01 1.107288e-01 -1.688083e-01 2.740711e-01 2.016963e-01 2.671098e-02 -2.458934e-01 5.436733e-02 1.458761e-02 3.484786e-03 6.817786e-03 1.427368e-01 -2.562233e-01
<VARIANCE> 39
 1.585852e+01 1.445450e+01 2.788531e+01 2.883665e+01 3.049136e+01 1.952252e+01 2.915458e+01 3.401572e+01 2.381276e+01 2.949612e+01 1.746958e+01 1.428919e+01 1.738979e+01 9.776800e-01 5.293767e-01 1.996948e+00 1.560238e+00 1.484602e+00 1.348845e+00 1.697749e+00 1.247232e+00 1.311960e+00 1.686118e+00 1.007641e+00 1.011783e+00 5.394017e-01 2.085173e-01 8.522321e-02 3.647199e-01 1.967621e-01 2.557105e-01 2.773231e-01 3.101122e-01 2.596418e-01 2.690910e-01 3.252456e-01 2.112351e-01 1.866813e-01 9.085230e-02
<GCONST> 9.424118e+01
<STATE> 4
<MEAN> 39
 -2.152047e+01 -1.197045e+01 1.309944e+01 -2.136209e+00 2.679209e+00 -5.973249e+00 9.627537e+00 -1.903085e+00 2.367310e+00 -1.535572e+00 8.211448e+00 -1.985080e+00 6.703341e+01 1.671667e+00 8.378025e-01 -5.022635e-01 9.032911e-01 -2.544861e-01 8.116308e-01 -8.566750e-01 4.730900e-01 -4.558712e-01 4.692121e-01 -1.557306e-01 2.956172e-01 -1.619124e+00 1.552631e-01 1.181263e-01 1.548435e-02 -8.921500e-02 2.699696e-02 8.406039e-02 -2.582852e-02 -8.200171e-02 -2.391503e-02 -1.635137e-02 -1.134767e-01 -1.323742e-01 8.277488e-02
<VARIANCE> 39
 5.695667e+01 6.091832e+01 7.305280e+01 3.811843e+01 4.582264e+01 2.724046e+01 7.947865e+01 6.051840e+01 3.820412e+01 3.894769e+01 2.635695e+01 2.363604e+01 6.348927e+01 2.473842e+00 2.920944e+00 5.436576e+00 2.964657e+00 2.314707e+00 2.876734e+00 2.027986e+00 2.974160e+00 2.093588e+00 1.905885e+00 2.338465e+00 1.830715e+00 3.286116e+00 4.050666e-01 4.070029e-01 1.083337e+00 5.063838e-01 3.784797e-01 5.760885e-01 4.724642e-01 4.660563e-01 3.985862e-01 3.835544e-01 4.501649e-01 3.674290e-01 4.637411e-01
<GCONST> 1.238523e+02
<TRANSP> 5
 0.000000e+00 1.000000e+00 0.000000e+00 0.000000e+00 0.000000e+00
 0.000000e+00 7.397903e-01 2.602097e-01 0.000000e+00 0.000000e+00
 0.000000e+00 0.000000e+00 8.706508e-01 1.293492e-01 0.000000e+00
 0.000000e+00 0.000000e+00 0.000000e+00 8.300863e-01 1.699137e-01
 0.000000e+00 0.000000e+00 0.000000e+00 0.000000e+00 0.000000e+00
<ENDHMM>
~h "t"
<BEGINHMM>
<NUMSTATES> 5
<STATE> 2
<MEAN> 39
 -6.531205e+00 5.530284e+00 4.520445e+00 4.437413e+00 1.134378e+01 -2.621539e+00 4.013127e+00 4.784225e+00 1.370699e+00 4.596650e+00 6.033003e+00 -2.973449e+00 5.625404e+01 -4.360624e-01 -4.640408e-01 -2.852745e-01 -7.749524e-01 9.354389e-02 2.926971e-01 4.282254e-01 -7.695103e-01 5.489636e-01 -4.696159e-01 -4.739881e-02 5.211432e-02 4.040605e-01 -2.264453e-01 -6.223696e-01 1.229392e-01 -4.418918e-01 -2.046506e-02 -4.491414e-01 1.482523e-02 -4.351833e-01 3.653657e-01 -5.481480e-01 2.111196e-02 -1.713110e-01 1.014143e+00
<VARIANCE> 39
 6.926939e+01 8.925659e+01 9.859679e+01 6.693852e+01 7.559911e+01 5.493756e+01 5.287057e+01 5.040658e+01 3.967645e+01 5.451042e+01 3.658110e+01 3.725785e+01 5.778418e+01 3.339159e+00 6.237158e+00 5.653894e+00 4.859054e+00 3.786456e+00 3.183786e+00 3.370365e+00 4.365404e+00 3.779233e+00 3.938355e+00 3.421960e+00 1.860701e+00 5.951949e+00 3.883189e-01 1.004673e+00 9.659025e-01 7.188254e-01 7.667291e-01 7.533956e-01 5.081430e-01 1.001124e+00 5.468782e-01 6.279170e-01 5.913133e-01 3.565503e-01 1.146315e+00
<GCONST> 1.372175e+02
<STATE> 3
<MEAN> 39
 -1.278869e+01 -5.411098e+00 5.075675e+00 -4.690766e+00 8.663309e+00 -6.157279e+00 7.175680e+00 -1.405615e+00 7.723971e+00 -2.268421e+00 7.354792e+00 -3.441396e+00 6.834309e+01 -9.761811e-01 -2.160450e+00 9.485500e-01 -8.027632e-01 1.397237e-02 -1.372025e+00 -5.920754e-01 -1.907310e+00 6.238561e-01 -1.615454e+00 8.500869e-02 -3.615039e-01 3.049446e+00 4.162176e-01 5.830969e-01 -4.171946e-03 6.098241e-01 1.985988e-01 8.027194e-02 -4.975218e-01 3.323124e-01 -4.842905e-01 3.530706e-01 -4.000312e-02 1.582933e-01 -5.751492e-01
<VARIANCE> 39
 4.756658e+01 1.131813e+02 9.001453e+01 6.645457e+01 6.459363e+01 6.421358e+01 4.282035e+01 5.985677e+01 5.380313e+01 5.333711e+01 3.705702e+01 3.094418e+01 9.242052e+01 6.730748e+00 1.204531e+01 6.993756e+00 9.276550e+00 7.126483e+00 6.524411e+00 5.680040e+00 6.078699e+00 6.059083e+00 5.981360e+00 3.929755e+00 2.799808e+00 1.206608e+01 8.588617e-01 1.765694e+00 1.544010e+00 1.261690e+00 9.308383e-01 1.033767e+00 1.168856e+00 1.120988e+00 9.842554e-01 1.098748e+00 7.853601e-01 4.460512e-01 2.278667e+00
<GCONST> 1.502728e+02
<STATE> 4
<MEAN> 39
 -1.113503e+01 -7.021968e+00 6.006408e+00 -2.264163e+00 1.223910e+01 -5.623816e+00 1.377555e+00 -4.844125e+00 2.553078e+00 -3.384378e+00 7.107822e+00 -2.084781e+00 6.877263e+01 8.239131e-01 7.863131e-01 -4.470468e-01 3.230608e-01 9.904561e-02 -1.165825e-01 -7.777691e-01 6.325855e-01 -4.507825e-01 2.997263e-01 -5.081146e-02 1.725771e-01 -7.211478e-01 4.963239e-02 1.245368e-01 -5.399415e-02 2.458241e-02 -1.111380e-01 3.210225e-02 2.382844e-01 3.550878e-01 6.648903e-02 2.329889e-01 -3.406319e-02 -2.257592e-02 -2.433114e-01
<VARIANCE> 39
 5.267479e+01 8.033356e+01 6.932291e+01 7.426434e+01 1.146597e+02 7.522726e+01 6.263330e+01 6.819011e+01 7.438971e+01 5.838411e+01 4.542099e+01 2.872883e+01 4.448403e+01 2.682024e+00 3.504783e+00 3.576587e+00 5.130713e+00 4.533514e+00 2.809225e+00 5.623237e+00 4.664145e+00 4.383334e+00 3.276105e+00 2.938616e+00 1.949245e+00 2.957757e+00 3.863948e-01 6.306394e-01 4.934527e-01 8.105351e-01 5.836853e-01 5.092869e-01 7.734778e-01 8.622929e-01 7.700211e-01 6.286018e-01 5.157591e-01 3.186624e-01 6.361014e-01
<GCONST> 1.348671e+02
<TRANSP> 5
 0.000000e+00 1.000000e+00 0.000000e+00 0.000000e+00 0.000000e+00
 0.000000e+00 6.315421e-01 3.684579e-01 0.000000e+00 0.000000e+00
 0.000000e+00 0.000000e+00 6.455076e-01 3.544924e-01 0.000000e+00
 0.000000e+00 0.000000e+00 0.000000e+00 7.556103e-01 2.443897e-01
 0.000000e+00 0.000000e+00 0.000000e+00 0.000000e+00 0.000000e+00
<ENDHMM>
~h "v"
<BEGINHMM>
<NUMSTATES> 5
<STATE> 2
<MEAN> 39
 -6.605979e+00 1.017760e+01 -1.446070e+00 3.408814e+00 2.748395e+01 -1.273188e+01 5.326442e+00 -6.687907e+00 2.154215e+00 -3.744381e+00 9.554902e+00 -3.777840e+00 6.870004e+01 -7.173397e-01 3.187422e-01 8.131834e-01 6.033902e-01 1.520456e+00 -2.446076e-01 -6.221207e-02 -3.144327e-01 2.440575e-01 -1.596853e-01 6.206746e-02 -8.260183e-01 -3.028303e-01 1.378475e-01 -6.672856e-01 3.399426e-01 3.025963e-01 -3.353261e-01 -4.907505e-02 -7.549164e-01 2.068388e-02 -5.807952e-02 -1.975754e-01 1.587990e-01 -3.284507e-01 3.626510e-01
<VARIANCE> 39
 1.673232e+01 2.405220e+01 1.340401e+01 1.450170e+01 2.555940e+01 1.970196e+01 5.314705e+01 2.126885e+01 2.452675e+01 2.857337e+01 1.508925e+01 2.101261e+01 9.018006e+00 2.969556e+00 6.571155e+00 1.446433e+00 2.371732e+00 1.522829e+00 1.278441e+00 1.148507e+01 1.640761e+00 4.702052e+00 2.574819e+00 1.767666e+00 2.715887e+00 1.301368e+00 6.684288e-01 5.607105e-01 1.818299e-01 3.631116e-01 2.195657e-01 2.397140e-01 1.143641e+00 3.714063e-01 1.049662e+00 4.918991e-01 3.302910e-01 3.389954e-01 5.679226e-02
<GCONST> 1.096207e+02
<STATE> 3
<MEAN> 39
 -7.068367e+00 3.161949e+00 6.939909e+00 1.116387e+01 2.932926e+01 -1.602147e+01 -4.240248e+00 -8.332336e+00 2.933225e+00 -8.765631e+00 1.018664e+01 -1.208544e+01 7.160171e+01 6.368856e-02 -1.675017e+00 2.056919e+00 1.890245e+00 -2.798715e-01 -8.704771e-01 -1.299328e+00 1.206829e-01 8.074269e-01 -1.193166e+00 -1.484245e-01 -1.487632e+00 5.971609e-01 -3.395373e-02 1.254283e-01 -2.176974e-02 -1.423901e-01 -1.497153e-01 -2.837420e-02 3.009085e-01 2.140312e-01 1.255665e-02 1.440629e-01 -1.321684e-01 3.240711e-01 -1.171857e-01
<VARIANCE> 39
 9.398936e+00 2.782274e+01 5.071381e+01 3.436765e+01 9.128101e+00 2.677690e+01 3.923273e+01 1.904921e+01 2.131367e+01 2.700642e+01 1.915726e+01 4.287989e+01 4.318005e+00 1.805749e+00 2.380059e+00 1.562230e+00 1.857695e+00 1.914745e+00 2.570388e+00 3.033757e+00 1.549682e+00 3.077515e+00 2.036607e+00 1.076780e+00 2.657277e+00 7.205146e-01 3.256784e-01 4.411028e-01 2.133702e-01 3.492066e-01 2.440034e-01 6.235375e-01 6.794115e-01 3.381847e-01 6.021941e-01 4.206948e-01 2.906606e-01 5.842684e-01 1.424504e-01
<GCONST> 1.065901e+02
<STATE> 4
<MEAN> 39
 -7.654779e+00 -2.650630e+00 1.514723e+01 1.421043e+01 2.799509e+01 -1.620380e+01 -6.833083e+00 -4.631465e+00 3.685830e+00 -1.016658e+01 7.978703e+00 -1.477879e+01 7.059079e+01 -9.050200e-02 -7.985532e-03 2.772545e-01 -4.592620e-01 -5.762891e-01 6.356678e-01 3.001505e-01 5.113447e-01 -1.184017e-01 6.723893e-01 -4.689417e-01 1.808671e-01 -6.134995e-01 4.607503e-03 1.793435e-01 -2.024306e-01 -2.672009e-01 -1.618873e-01 1.118799e-01 1.559626e-01 1.023128e-01 -1.508714e-02 2.219182e-01 -1.224236e-02 7.638825e-02 -1.156149e-01
<VARIANCE> 39
 1.125686e+01 1.422268e+01 3.765696e+01 6.538364e+01 2.302148e+01 6.343649e+01 5.935837e+01 4.915387e+01 3.072585e+01 4.321607e+01 2.388874e+01 2.018699e+01 1.987113e+01 5.166234e-01 1.247134e+00 3.085952e+00 4.689341e+00 3.153417e+00 4.841545e+00 5.402785e+00 2.814451e+00 2.605005e+00 3.378788e+00 2.021856e+00 2.118757e+00 1.176788e+00 1.001535e-01 1.485577e-01 3.896584e-01 4.156555e-01 4.366181e-01 7.227380e-01 1.007982e+00 5.122199e-01 5.121742e-01 5.997048e-01 4.056430e-01 4.085375e-01 1.462351e-01
<GCONST> 1.149153e+02
<TRANSP> 5
 0.000000e+00 1.000000e+00 0.000000e+00 0.000000e+00 0.000000e+00
 0.000000e+00 8.442767e-01 1.557233e-01 0.000000e+00 0.000000e+00
 0.000000e+00 0.000000e+00 7.422979e-01 2.577021e-01 0.000000e+00
 0.000000e+00 0.000000e+00 0.000000e+00 8.907222e-01 1.092778e-01
 0.000000e+00 0.000000e+00 0.000000e+00 0.000000e+00 0.000000e+00
<ENDHMM>
~h "w"
<BEGINHMM>
<NUMSTATES> 5
<STATE> 2
<MEAN> 39
 -8.480541e+00 7.749701e-01 7.466910e+00 4.642622e+00 1.482801e+01 -1.246096e+01 -1.431215e+00 -2.080155e+00 2.721703e+00 -4.113109e+00 6.028718e+00 -9.396959e+00 6.662499e+01 1.028775e+00 6.597388e-01 1.852704e-01 -8.839405e-02 -4.481238e-01 -7.589882e-01 -4.643863e-01 -1.817779e-01 6.766943e-01 -1.905287e-01 -5.287163e-01 -3.504209e-01 6.159242e-01 1.153394e-01 1.128920e-01 -1.044174e-01 4.633631e-02 -9.214386e-02 -1.605383e-01 -1.091232e-01 1.058089e-01 1.167621e-01 1.142389e-01 -1.176753e-01 1.179856e-02 -1.206377e-01
<VARIANCE> 39
 8.043488e+01 9.338094e+01 5.931913e+01 8.717617e+01 1.022582e+02 1.404518e+02 1.311058e+02 8.015518e+01 4.956583e+01 4.512346e+01 7.404552e+01 5.378101e+01 7.306020e+01 3.721766e+00 6.510232e+00 3.773709e+00 6.880144e+00 4.061957e+00 9.230520e+00 9.006442e+00 5.992161e+00 5.282301e+00 5.148163e+00 4.231238e+00 2.661269e+00 5.748218e+00 6.540096e-01 9.923153e-01 7.409810e-01 1.130605e+00 5.579826e-01 1.147475e+00 1.255828e+00 1.016363e+00 8.400326e-01 1.110945e+00 7.420292e-01 5.560623e-01 6.411236e-01
<GCONST> 1.475981e+02
<STATE> 3
<MEAN> 39
 3.360748e+00 1.553134e+01 5.701110e+00 5.228623e-01 5.483305e+00 -2.146072e+01 -4.099338e+00 4.552589e+00 1.112779e+01 1.389528e+00 -1.496055e-01 -4.398552e+00 6.142238e+01 5.213497e-01 1.992760e-02 -6.529334e-01 -5.196414e-02 3.129462e-02 -1.134526e+00 -4.818859e-01 3.478030e-01 5.945063e-01 4.110914e-01 -3.128102e-01 -1.534332e-01 1.760020e-01 -1.046413e-01 -2.584302e-01 -1.717585e-01 -1.712190e-01 1.442493e-01 2.034972e-01 3.348131e-01 6.986263e-02 -1.438306e-01 -1.574559e-01 9.331361e-02 -3.976209e-02 1.786718e-01
<VARIANCE> 39
 1.698297e+01 3.975436e+01 5.786317e+01 5.767438e+01 3.720839e+01 9.609505e+01 9.063282e+01 5.770915e+01 7.425945e+01 5.283950e+01 3.406934e+01 3.389392e+01 3.281662e+01 9.508995e-01 2.236242e+00 3.305164e+00 3.191465e+00 2.287281e+00 4.231575e+00 4.819016e+00 3.737519e+00 5.807559e+00 4.717831e+00 2.547732e+00 3.925705e+00 1.699739e+00 1.556102e-01 2.291566e-01 3.262655e-01 4.238844e-01 3.707855e-01 5.793645e-01 6.854818e-01 6.856218e-01 1.083976e+00 7.314057e-01 4.506440e-01 6.392718e-01 1.135934e-01
<GCONST> 1.250247e+02
<STATE> 4
<MEAN> 39
 6.097572e-01 7.043740e+00 4.705501e-02 -2.713854e+00 1.424695e+01 -1.233301e+01 -2.628173e+00 3.129798e-01 6.749562e+00 -7.229281e+00 7.041512e+00 -7.647639e+00 6.762872e+01 -1.524996e-01 -6.125208e-01 -3.234102e-02 1.103665e-01 3.973647e-01 5.210041e-01 1.961275e-01 -1.639521e-01 -3.359877e-01 -1.017676e-01 1.654409e-01 3.179339e-01 3.873215e-01 -7.302600e-02 4.054353e-03 1.204744e-01 1.102819e-01 -2.390364e-02 4.224642e-02 2.089946e-02 -8.501597e-02 -9.727818e-02 2.240231e-01 4.183277e-02 1.144405e-01 -5.293430e-02
<VARIANCE> 39
 3.337825e+01 7.556934e+01 4.087962e+01 9.912607e+01 5.938475e+01 9.675127e+01 9.617303e+01 6.225071e+01 1.264036e+02 9.184131e+01 5.929570e+01 5.634448e+01 3.403872e+01 1.369143e+00 4.650055e+00 2.949081e+00 4.214106e+00 3.787485e+00 6.558745e+00 6.566735e+00 5.406398e+00 9.609513e+00 9.009061e+00 3.932714e+00 3.590187e+00 2.135595e+00 1.681698e-01 4.635234e-01 4.423054e-01 5.888466e-01 5.416700e-01 1.007921e+00 1.091591e+00 9.590459e-01 1.692283e+00 1.510426e+00 7.094010e-01 7.277840e-01 1.668991e-01
<GCONST> 1.392227e+02
<TRANSP> 5
 0.000000e+00 1.000000e+00 0.000000e+00 0.000000e+00 0.000000e+00
 0.000000e+00 8.228328e-01 1.771672e-01 0.000000e+00 0.000000e+00
 0.000000e+00 0.000000e+00 8.947948e-01 1.052052e-01 0.000000e+00
 0.000000e+00 0.000000e+00 0.000000e+00 9.167757e-01 8.322424e-02
 0.000000e+00 0.000000e+00 0.000000e+00 0.000000e+00 0.000000e+00
<ENDHMM>
~h "aa"
<BEGINHMM>
<NUMSTATES> 5
<STATE> 2
<MEAN> 39
 -4.521232e-01 4.477767e+00 -6.396505e+00 -1.091084e+01 6.716879e+00 -1.672889e+01 6.736631e+00 1.127445e+01 1.123110e+01 2.476383e+00 4.822793e+00 -1.679089e+00 6.435378e+01 8.632931e-01 6.980890e-01 -6.450255e-01 -2.427248e-01 2.091836e-01 -1.077698e+00 7.106730e-01 1.067995e+00 -2.349448e-01 -2.456405e-01 -8.638377e-02 4.878127e-01 -3.823119e-02 -6.309125e-02 -8.488407e-02 1.072810e-01 8.379244e-02 1.104900e-02 3.013133e-02 -2.077430e-02 -9.463679e-02 -9.801193e-02 -8.503374e-02 -8.706962e-02 3.645320e-02 7.981012e-02
<VARIANCE> 39
 3.969079e+01 4.174470e+01 3.538617e+01 6.697911e+01 4.011552e+01 9.405877e+01 5.789487e+01 5.981977e+01 5.047222e+01 5.191407e+01 2.680869e+01 2.940072e+01 3.474945e+01 1.452899e+00 1.787574e+00 1.636058e+00 4.222580e+00 2.973810e+00 3.307786e+00 2.656224e+00 2.631403e+00 2.567820e+00 3.605548e+00 1.840221e+00 2.641459e+00 1.361181e+00 2.555691e-01 2.801669e-01 2.506635e-01 5.901827e-01 4.995779e-01 3.880520e-01 4.375177e-01 4.294683e-01 3.009031e-01 4.058034e-01 2.337772e-01 4.570539e-01 1.473558e-01
<GCONST> 1.184538e+02
<STATE> 3
<MEAN> 39
 5.167693e+00 5.636411e+00 -8.773275e+00 -9.584187e+00 8.721235e+00 -2.145346e+01 8.234539e+00 1.387138e+01 8.105087e+00 5.195465e-01 4.750041e+00 8.929458e-01 6.698975e+01 2.405249e-01 1.329043e-01 -2.075907e-01 -2.247476e-01 3.484658e-01 3.967624e-01 6.050961e-01 4.219200e-01 -9.277384e-01 -4.413452e-01 -1.193240e-01 4.665757e-01 3.868838e-02 -1.903608e-01 -3.843753e-02 1.542114e-01 -7.608756e-04 -1.190967e-01 2.515570e-01 -1.923963e-04 -1.323856e-01 -7.396901e-02 3.919668e-02 -2.822013e-02 -1.161995e-01 -4.822493e-02
<VARIANCE> 39
 3.678864e+01 3.198558e+01 2.846325e+01 6.334374e+01 5.246497e+01 1.190650e+02 4.769009e+01 7.648591e+01 7.404021e+01 5.570864e+01 2.460457e+01 3.061733e+01 3.947987e+01 3.919603e-01 7.590895e-01 1.073447e+00 2.357913e+00 1.602710e+00 2.108156e+00 1.151676e+00 1.420888e+00 2.698811e+00 2.225563e+00 1.188112e+00 2.118229e+00 4.479686e-01 5.769629e-02 9.837782e-02 1.264301e-01 3.049746e-01 2.397340e-01 2.261596e-01 3.002392e-01 3.285967e-01 2.980545e-01 2.790241e-01 2.082820e-01 2.063165e-01 4.865111e-02
<GCONST> 1.028356e+02
<STATE> 4
<MEAN> 39
 3.543397e+00 5.508813e+00 -9.051703e+00 -6.269612e+00 8.569919e+00 -1.834827e+01 1.212699e+01 1.236012e+01 7.830136e+00 4.020785e+00 1.721111e+00 2.547088e-01 6.398966e+01 -2.022535e-01 1.401648e-02 2.597626e-02 -1.180308e-01 5.670863e-01 1.002233e+00 2.342944e-01 -2.400698e-01 -5.641465e-01 -1.711629e-01 -2.570356e-01 -1.477006e-01 -1.008921e-01 -6.936492e-02 1.329667e-02 8.723450e-02 7.932098e-02 4.521240e-02 1.326418e-01 -1.147512e-01 -1.592847e-01 5.453113e-03 -4.201917e-02 4.797971e-02 -1.303557e-02 -3.923946e-02
<VARIANCE> 39
 5.925650e+01 3.369814e+01 2.851942e+01 4.402969e+01 5.545266e+01 1.178835e+02 8.593061e+01 6.398918e+01 7.657697e+01 8.433943e+01 3.864804e+01 4.858146e+01 6.688318e+01 3.369435e-01 5.669203e-01 1.101151e+00 1.042692e+00 1.488546e+00 1.445147e+00 2.502091e+00 2.065123e+00 2.477769e+00 2.154895e+00 1.519805e+00 1.864409e+00 3.738442e-01 4.620380e-02 6.413192e-02 1.254155e-01 2.184677e-01 2.149713e-01 2.358434e-01 4.447410e-01 4.364108e-01 3.932932e-01 3.033987e-01 3.156127e-01 3.214032e-01 4.102355e-02
<GCONST> 1.052993e+02
<TRANSP> 5
 0.000000e+00 1.000000e+00 0.000000e+00 0.000000e+00 0.000000e+00
 0.000000e+00 7.444988e-01 2.555011e-01 0.000000e+00 0.000000e+00
 0.000000e+00 0.000000e+00 6.687839e-01 3.312161e-01 0.000000e+00
 0.000000e+00 0.000000e+00 0.000000e+00 8.332881e-01 1.667119e-01
 0.000000e+00 0.000000e+00 0.000000e+00 0.000000e+00 0.000000e+00
<ENDHMM>
~h "ae"
<BEGINHMM>
<NUMSTATES> 5
<STATE> 2
<MEAN> 39
 -3.592673e+00 -1.591995e+00 -3.905672e+00 -4.502139e+00 1.172234e+01 -9.888747e+00 5.417898e+00 1.528653e+00 6.759910e+00 4.091474e+00 1.214858e+01 -2.862781e+00 7.276170e+01 4.327829e-01 2.867734e-01 -6.514445e-01 -4.981627e-01 -8.431961e-02 6.633435e-02 6.859097e-01 9.322602e-01 -3.645785e-01 2.996760e-01 -1.976127e-01 -1.271708e-01 -1.783971e-01 -5.402228e-02 -2.014889e-02 4.033507e-02 1.213611e-02 -2.707403e-02 -5.203699e-02 -6.734580e-02 -8.465987e-02 -9.814292e-02 -1.809734e-01 -1.134216e-01 8.490367e-02 -4.569665e-02
<VARIANCE> 39
 2.198689e+01 1.414663e+01 1.758759e+01 4.125797e+01 2.141061e+01 3.560469e+01 5.580775e+01 3.977890e+01 2.483352e+01 2.632321e+01 2.867138e+01 2.126160e+01 6.938295e+01 1.075505e+00 7.206771e-01 8.609017e-01 9.742177e-01 1.279352e+00 1.148106e+00 1.896435e+00 1.461915e+00 1.467612e+00 1.824040e+00 2.112780e+00 1.587785e+00 4.351569e-01 1.141145e-01 1.242629e-01 1.305470e-01 2.106177e-01 1.860012e-01 2.022729e-01 3.640686e-01 2.844263e-01 3.159602e-01 2.600681e-01 3.302505e-01 2.823424e-01 8.841968e-02
<GCONST> 9.712276e+01
<STATE> 3
<MEAN> 39
 -3.992693e+00 2.979418e+00 -4.334629e+00 -6.043917e+00 7.681914e+00 -1.086309e+01 9.793254e+00 8.950607e+00 4.699543e+00 3.162640e+00 8.464549e+00 -2.401502e+00 6.651891e+01 8.841261e-02 1.936907e-01 2.069393e-01 -2.729472e-01 -2.311538e-01 -9.212215e-02 -4.276534e-01 -2.392201e-02 -4.352189e-02 -5.521383e-01 2.523647e-02 1.481891e-01 -5.804409e-01 -8.122437e-02 -1.944141e-02 3.033810e-02 9.095140e-02 1.604579e-02 -1.561778e-01 -1.002934e-01 -3.402749e-01 5.078179e-02 -2.253932e-02 1.270314e-01 -1.015997e-01 6.623760e-02
<VARIANCE> 39
 3.388869e+01 3.400000e+01 3.052022e+01 3.965906e+01 4.418815e+01 5.996907e+01 8.506944e+01 4.694611e+01 2.061216e+01 5.051629e+01 3.521046e+01 2.629022e+01 1.113167e+02 9.721667e-01 1.772027e+00 1.441223e+00 1.781563e+00 1.625591e+00 2.511040e+00 3.177602e+00 3.410346e+00 2.324657e+00 3.501774e+00 2.851736e+00 1.676503e+00 3.752621e+00 1.939854e-01 1.535827e-01 2.467559e-01 2.836234e-01 2.508431e-01 4.379101e-01 4.683905e-01 5.427671e-01 3.971686e-01 4.114790e-01 3.635893e-01 3.050033e-01 2.753569e-01
<GCONST> 1.157001e+02
<STATE> 4
<MEAN> 39
 -3.317706e+00 -4.568945e-01 -5.562249e+00 -4.703224e+00 1.352309e+01 -1.303137e+01 2.048163e+00 3.242218e+00 4.351597e+00 -1.393368e+00 1.277806e+01 -5.594003e+00 7.203659e+01 -1.215857e-01 5.825932e-01 -2.800911e-02 3.550659e-01 -1.600047e-01 -5.338699e-02 2.104277e-01 -2.150736e-01 -2.014237e-01 -3.272997e-02 7.872415e-02 6.054823e-02 -6.169842e-01 -5.231880e-02 1.120169e-01 8.720360e-02 5.354306e-02 -9.119700e-03 1.557876e-01 7.904045e-03 -8.860752e-03 1.719706e-02 9.653188e-02 -1.131367e-01 -1.390578e-02 -1.553328e-01
<VARIANCE> 39
 2.586726e+01 2.262441e+01 8.305118e+01 1.104803e+02 5.028529e+01 3.696448e+01 6.994850e+01 4.039062e+01 1.990061e+01 4.609051e+01 5.037650e+01 3.101647e+01 5.566860e+01 1.309085e+00 1.113962e+00 1.046402e+00 1.850877e+00 1.995814e+00 2.262661e+00 1.971660e+00 2.574075e+00 1.562706e+00 2.285225e+00 2.304915e+00 1.107571e+00 2.913007e+00 2.039000e-01 2.718084e-01 1.666940e-01 3.676062e-01 4.162276e-01 3.296099e-01 4.225734e-01 4.432414e-01 2.636267e-01 3.760383e-01 3.740196e-01 1.938895e-01 2.128556e-01
<GCONST> 1.124630e+02
<TRANSP> 5
 0.000000e+00 1.000000e+00 0.000000e+00 0.000000e+00 0.000000e+00
 0.000000e+00 8.426060e-01 1.573940e-01 0.000000e+00 0.000000e+00
 0.000000e+00 0.000000e+00 6.262795e-01 3.737205e-01 0.000000e+00
 0.000000e+00 0.000000e+00 0.000000e+00 8.451548e-01 1.548452e-01
 0.000000e+00 0.000000e+00 0.000000e+00 0.000000e+00 0.000000e+00
<ENDHMM>
~h "ah"
<BEGINHMM>
<NUMSTATES> 5
<STATE> 2
<MEAN> 39
 -3.269103e+00 5.771391e+00 3.046782e+00 1.255739e+00 8.132437e+00 -9.804803e+00 3.066225e+00 9.489423e+00 4.208116e+00 1.641044e+00 3.400421e+00 -3.737505e+00 6.047183e+01 2.714512e-01 3.867339e-01 -5.338550e-02 8.306990e-01 4.339104e-01 7.497782e-02 -3.217731e-01 1.402078e-01 -2.240068e-01 6.637959e-01 4.726968e-02 1.121222e-02 -4.648236e-01 -3.450938e-02 -3.710953e-02 1.508642e-01 3.219869e-02 4.342140e-02 -6.702036e-02 -2.071416e-01 -3.257448e-01 -1.348937e-01 -1.394738e-01 1.005841e-01 -9.610342e-03 1.385119e-01
<VARIANCE> 39
 9.494633e+01 2.626339e+01 6.772945e+01 7.688960e+01 9.554707e+01 9.123323e+01 6.491267e+01 5.464828e+01 4.728086e+01 5.816787e+01 2.930287e+01 3.262065e+01 1.440636e+02 8.368195e-01 1.034772e+00 1.324764e+00 1.287011e+00 1.920405e+00 4.282370e+00 2.758656e+00 3.108138e+00 1.695793e+00 3.228583e+00 2.041180e+00 2.623317e+00 4.253467e+00 1.355078e-01 1.521097e-01 2.114203e-01 3.220321e-01 2.825262e-01 4.592598e-01 6.396652e-01 4.470959e-01 3.911402e-01 4.750949e-01 4.156779e-01 3.873967e-01 3.310423e-01
<GCONST> 1.200498e+02
<STATE> 3
<MEAN> 39
 -1.922423e+00 7.543746e+00 3.596033e+00 3.305860e+00 8.460547e+00 -8.796021e+00 3.354537e+00 8.880136e+00 3.089356e+00 3.377486e+00 2.872485e+00 -3.911227e+00 5.866987e+01 8.886971e-02 2.952983e-01 7.786860e-02 6.360157e-01 2.665425e-01 2.613360e-01 -2.245382e-01 -3.339120e-01 -4.185585e-01 5.588079e-01 1.235279e-02 8.441056e-02 -6.061132e-01 -9.640715e-02 -9.950829e-02 1.115017e-01 -1.182603e-01 -5.064116e-02 -2.364752e-01 -1.822659e-01 -2.156574e-01 8.250833e-02 -1.895120e-01 1.222399e-01 -4.165325e-02 1.971933e-01
<VARIANCE> 39
 8.576026e+01 3.820187e+01 8.328713e+01 6.158508e+01 9.996516e+01 9.235287e+01 5.441067e+01 4.055327e+01 4.051163e+01 4.525948e+01 2.863909e+01 2.587570e+01 1.186315e+02 5.657811e-01 1.012903e+00 7.377496e-01 1.253448e+00 1.421104e+00 3.212091e+00 2.185181e+00 2.496789e+00 1.394603e+00 2.348997e+00 2.094799e+00 1.546960e+00 1.332637e+00 1.167521e-01 1.676398e-01 1.935189e-01 3.153028e-01 3.940163e-01 5.413509e-01 4.846896e-01 4.069944e-01 3.084207e-01 4.567182e-01 3.807207e-01 3.033598e-01 2.445022e-01
<GCONST> 1.138461e+02
<STATE> 4
<MEAN> 39
 -4.298818e+00 8.532888e+00 3.474076e+00 5.905089e+00 1.140943e+01 -5.301503e+00 5.962613e+00 1.139927e+01 2.649678e+00 8.957243e+00 3.870227e+00 -1.849335e+00 5.380297e+01 -2.029811e-01 1.248262e-01 1.927609e-01 2.126347e-01 2.784563e-02 2.016999e-01 -1.377135e-01 -6.538829e-02 -9.010474e-02 -3.888036e-02 1.279639e-02 6.964362e-02 -3.450825e-01 -8.232342e-02 -8.416540e-02 9.421709e-03 -9.917273e-02 -8.903404e-03 -8.041365e-02 -6.442449e-02 -1.096260e-01 1.332412e-01 -2.333529e-01 8.690398e-02 -5.798408e-03 1.593663e-01
<VARIANCE> 39
 9.291279e+01 2.724707e+01 7.076936e+01 5.150375e+01 5.484348e+01 2.225083e+02 4.214642e+01 4.394303e+01 3.627569e+01 4.462181e+01 3.044136e+01 2.723256e+01 1.372383e+02 4.762487e-01 8.411076e-01 7.727507e-01 1.146094e+00 1.269868e+00 2.437438e+00 2.174492e+00 1.867111e+00 1.409751e+00 2.307219e+00 1.562394e+00 1.040609e+00 8.272266e-01 7.253418e-02 1.542952e-01 1.064296e-01 1.764736e-01 2.379082e-01 4.391413e-01 3.605203e-01 3.188703e-01 2.434226e-01 3.186486e-01 2.436751e-01 2.261369e-01 1.566684e-01
<GCONST> 1.064521e+02
<TRANSP> 5
 0.000000e+00 1.000000e+00 0.000000e+00 0.000000e+00 0.000000e+00
 0.000000e+00 3.137737e-01 6.862262e-01 0.000000e+00 0.000000e+00
 0.000000e+00 0.000000e+00 2.935089e-01 7.064911e-01 0.000000e+00
 0.000000e+00 0.000000e+00 0.000000e+00 7.069311e-01 2.930689e-01
 0.000000e+00 0.000000e+00 0.000000e+00 0.000000e+00 0.000000e+00
<ENDHMM>
~h "ao"
<BEGINHMM>
<NUMSTATES> 5
<STATE> 2
<MEAN> 39
 5.597888e+00 5.336319e+00 -1.515225e+00 -2.065228e-01 5.919579e+00 -2.308982e+01 4.338839e+00 1.300340e+01 7.230893e+00 9.972231e+00 2.024911e+00 -6.094460e+00 6.615921e+01 6.384043e-02 -2.228430e-01 -5.034792e-01 -1.181312e-01 4.146407e-01 5.202982e-01 3.580323e-01 -1.689175e-01 -5.377635e-03 1.851440e-01 1.786581e-01 -4.194698e-01 2.019917e-01 -4.310209e-02 1.258552e-01 9.668311e-02 4.395029e-02 -2.971798e-02 5.666332e-02 -1.001191e-01 -1.122649e-01 1.022772e-01 -1.110449e-01 2.820890e-03 1.075671e-01 -5.393882e-02
<VARIANCE> 39
 4.486954e+01 2.500522e+01 4.357099e+01 6.312061e+01 7.048599e+01 1.905157e+02 8.639644e+01 7.001697e+01 4.228796e+01 1.001938e+02 2.578159e+01 3.127932e+01 3.702333e+01 6.567802e-01 1.092938e+00 1.953593e+00 2.744184e+00 1.514163e+00 3.400802e+00 5.219750e+00 2.998728e+00 2.818468e+00 3.537885e+00 2.126685e+00 2.750350e+00 1.937353e+00 1.100294e-01 1.035501e-01 2.076302e-01 2.921928e-01 2.864933e-01 5.407197e-01 5.583699e-01 3.909427e-01 5.738441e-01 5.407248e-01 4.419501e-01 6.348932e-01 1.207245e-01
<GCONST> 1.187334e+02
<STATE> 3
<MEAN> 39
 1.245263e+00 6.281407e+00 4.374498e-01 -2.227097e+00 6.995623e+00 -1.256061e+01 4.370459e+00 8.651349e+00 6.996953e+00 4.760262e+00 3.295287e+00 -6.949833e+00 6.359689e+01 -1.941450e-02 4.966626e-01 1.197974e-01 5.582452e-03 6.459981e-03 3.704925e-01 -3.698142e-01 -4.170834e-01 5.609143e-01 -1.070232e+00 2.846491e-01 4.510897e-01 2.744893e-01 -1.834534e-01 1.389331e-01 2.008843e-01 -4.647517e-02 3.448138e-02 -2.221109e-01 9.266584e-02 1.931295e-01 1.940735e-03 -8.953553e-02 1.175827e-01 3.833367e-01 -3.296571e-02
<VARIANCE> 39
 5.045893e+01 4.630238e+01 8.371272e+01 1.030842e+02 8.626727e+01 2.213358e+02 1.054243e+02 6.319570e+01 6.827209e+01 1.129773e+02 4.761551e+01 3.993294e+01 5.511751e+01 2.340606e+00 1.636289e+00 3.521813e+00 3.662017e+00 2.588056e+00 7.710950e+00 4.549378e+00 2.787616e+00 4.533064e+00 5.541658e+00 2.844638e+00 2.966276e+00 2.655668e+00 2.279873e-01 2.167841e-01 3.226046e-01 4.266807e-01 4.082437e-01 1.018637e+00 6.982625e-01 6.382430e-01 7.669878e-01 7.769797e-01 7.571105e-01 7.169433e-01 2.765882e-01
<GCONST> 1.343452e+02
<STATE> 4
<MEAN> 39
 -3.526361e+00 5.768558e+00 3.730559e+00 -3.529880e+00 7.567975e+00 -1.252262e+01 1.133710e+00 3.728208e+00 9.206200e+00 7.007697e-01 2.944164e+00 -2.304851e+00 6.430825e+01 -1.333730e-01 5.141070e-02 -2.812723e-01 -1.817678e-01 2.221402e-01 -1.559097e-01 -2.702985e-01 -5.483052e-01 -9.799902e-02 -5.662982e-01 3.980749e-01 3.868815e-01 4.827220e-01 1.890159e-02 -3.298045e-02 -1.152683e-01 -8.486137e-02 -7.049163e-02 6.607169e-03 1.267126e-01 1.166273e-01 -6.860635e-02 1.809859e-01 2.358614e-02 3.005035e-03 -7.661149e-02
<VARIANCE> 39
 7.869073e+01 1.477081e+02 9.635239e+01 5.919350e+01 6.746203e+01 1.068540e+02 1.577527e+02 1.140002e+02 7.276674e+01 6.386510e+01 6.896260e+01 4.074209e+01 4.712033e+01 3.998753e+00 5.496221e+00 5.661403e+00 4.315253e+00 4.273448e+00 6.874638e+00 5.547929e+00 5.782460e+00 4.756106e+00 5.337581e+00 5.204103e+00 3.368161e+00 4.810874e+00 4.621212e-01 7.244108e-01 9.751316e-01 6.370855e-01 7.444574e-01 8.721448e-01 8.187212e-01 1.009446e+00 5.568916e-01 9.455293e-01 7.680282e-01 5.549706e-01 7.574338e-01
<GCONST> 1.454430e+02
<TRANSP> 5
 0.000000e+00 1.000000e+00 0.000000e+00 0.000000e+00 0.000000e+00
 0.000000e+00 7.700811e-01 2.299189e-01 0.000000e+00 0.000000e+00
 0.000000e+00 0.000000e+00 4.703426e-01 5.296574e-01 0.000000e+00
 0.000000e+00 0.000000e+00 0.000000e+00 7.662879e-01 2.337121e-01
 0.000000e+00 0.000000e+00 0.000000e+00 0.000000e+00 0.000000e+00
<ENDHMM>
~h "aw"
<BEGINHMM>
<NUMSTATES> 5
<STATE> 2
<MEAN> 39
 -1.892908e+00 1.705543e+00 -1.070315e+01 -1.038599e+01 1.129088e+01 -1.547134e+01 1.684963e+01 6.579994e+00 1.043507e+01 7.211769e+00 2.357828e+00 -4.086719e+00 7.097009e+01 5.420729e-02 5.127732e-01 2.046183e-02 1.033335e-01 -2.032581e-01 -5.869558e-01 -5.215012e-02 6.010438e-02 2.936146e-02 3.038757e-02 -2.906600e-01 3.485336e-02 -3.026982e-01 2.482806e-02 4.146432e-02 4.502105e-02 -2.980174e-02 -1.716076e-02 -9.462313e-03 -6.106121e-02 3.650602e-02 -1.397063e-03 -3.467452e-02 -2.348319e-02 -4.324991e-02 -3.828088e-02
<VARIANCE> 39
 3.837990e+01 5.635382e+01 3.467376e+01 1.920770e+01 2.782905e+01 1.713606e+02 6.078086e+01 2.062513e+01 2.540502e+01 2.190921e+01 4.839239e+01 1.887460e+01 1.677970e+01 9.740016e-01 7.393290e-01 1.312314e+00 9.951101e-01 1.814220e+00 2.632338e+00 3.206245e+00 1.511429e+00 1.941027e+00 1.608804e+00 9.281044e-01 1.891377e+00 5.212660e-01 1.302744e-01 7.403221e-02 1.320118e-01 1.689752e-01 2.788069e-01 2.416463e-01 3.450309e-01 2.687679e-01 3.462858e-01 3.143999e-01 1.037716e-01 3.372982e-01 4.660898e-02
<GCONST> 9.939497e+01
<STATE> 3
<MEAN> 39
 -1.000504e+01 3.190112e+00 3.670203e+00 -1.024629e+01 4.554175e+00 -2.108546e+01 1.282163e+01 7.310517e+00 5.447915e+00 3.361173e-01 1.785002e+00 -3.678730e+00 6.450072e+01 -1.992236e+00 -2.302786e+00 8.773186e-01 -5.303090e-01 -4.047982e-01 1.592256e+00 1.711599e-01 -1.126955e+00 -6.063318e-01 -7.670608e-01 1.304510e+00 -1.769260e-01 1.074917e+00 -3.577888e-03 -2.112899e-01 -7.984486e-02 -2.624653e-04 -1.089896e-01 -7.906623e-02 -2.891499e-02 -2.116794e-01 -1.199871e-01 9.135962e-03 7.956569e-02 1.304133e-01 1.467767e-01
<VARIANCE> 39
 1.361537e+02 1.783982e+02 3.785044e+01 8.980096e+00 1.244385e+01 8.324139e+01 3.827669e+01 1.017947e+02 2.372600e+01 5.428513e+01 1.264078e+02 3.379320e+01 5.624339e+01 3.524411e+00 6.009961e+00 2.584227e+00 5.076593e-01 2.269876e+00 2.127231e+00 2.105368e+00 7.862781e+00 2.343401e+00 5.186777e+00 7.844438e+00 4.772986e+00 3.036290e+00 8.279192e-01 8.929740e-01 5.366874e-01 1.215544e-01 5.136257e-01 4.526826e-01 4.040690e-01 1.396899e+00 4.902041e-01 1.188948e+00 1.406717e+00 9.883872e-01 3.925129e-01
<GCONST> 1.310936e+02
<STATE> 4
<MEAN> 39
 -1.741214e+01 -1.137790e+01 7.186671e+00 -1.045340e+01 -6.007369e+00 -9.328067e+00 1.085140e+01 -3.188319e-01 -5.024970e+00 -5.712859e+00 1.296575e+01 1.971965e+00 6.553983e+01 4.228822e-01 3.611437e-01 -3.857051e-01 2.691425e-01 -1.127149e-01 1.905673e-01 -1.752094e-01 2.847275e-01 -3.510254e-01 -4.825346e-02 -2.196054e-01 3.516370e-01 -8.143280e-01 1.746905e-02 4.736513e-02 -1.815674e-02 3.672099e-02 7.091957e-02 8.189633e-03 4.598841e-02 5.167484e-02 3.210188e-02 1.300667e-02 -4.745684e-02 -1.617363e-02 -4.832808e-02
<VARIANCE> 39
 5.165924e+01 3.670888e+01 3.645393e+01 3.135233e+01 1.557816e+01 2.374809e+01 1.573834e+01 5.664159e+01 5.788260e+01 2.490221e+01 2.317288e+01 4.971115e+01 1.226113e+02 1.010446e+00 6.598586e-01 9.734740e-01 1.016016e+00 1.264534e+00 9.101129e-01 1.582529e+00 1.233033e+00 1.731015e+00 1.626533e+00 1.338954e+00 1.180520e+00 6.224441e-01 9.277746e-02 1.029416e-01 1.245578e-01 1.241255e-01 1.772825e-01 1.810601e-01 2.554845e-01 2.494123e-01 2.758384e-01 3.067599e-01 2.337013e-01 1.650071e-01 4.141800e-02
<GCONST> 9.559374e+01
<TRANSP> 5
 0.000000e+00 1.000000e+00 0.000000e+00 0.000000e+00 0.000000e+00
 0.000000e+00 9.559337e-01 4.406633e-02 0.000000e+00 0.000000e+00
 0.000000e+00 0.000000e+00 8.755418e-01 1.244582e-01 0.000000e+00
 0.000000e+00 0.000000e+00 0.000000e+00 9.690892e-01 3.091078e-02
 0.000000e+00 0.000000e+00 0.000000e+00 0.000000e+00 0.000000e+00
<ENDHMM>
~h "ay"
<BEGINHMM>
<NUMSTATES> 5
<STATE> 2
<MEAN> 39
 -1.838400e+00 3.738667e+00 2.601472e+00 -1.261932e-01 7.481530e+00 -1.335005e+01 5.927822e+00 6.793819e+00 1.104160e+01 -2.080607e+00 1.139035e+00 -2.790106e+00 6.586417e+01 9.123518e-01 -6.613951e-01 -2.028819e+00 -1.889962e+00 -1.054653e+00 -2.269103e+00 9.568137e-01 -4.921085e-01 7.404557e-01 -6.904891e-01 2.926201e-01 -6.726915e-01 2.215991e+00 2.231120e-01 9.771097e-02 -1.893967e-03 1.953263e-01 -9.218992e-02 -1.405841e-01 3.606589e-02 2.749612e-01 -1.031198e-01 1.736956e-01 -2.135359e-02 4.783096e-02 -3.263350e-02
<VARIANCE> 39
 6.455527e+01 5.251579e+01 8.716335e+01 6.020936e+01 4.973618e+01 1.840510e+02 5.658929e+01 4.288320e+01 3.579869e+01 5.353551e+01 5.315982e+01 2.288993e+01 6.098336e+01 6.476923e+00 4.580909e+00 6.010591e+00 6.726180e+00 6.149014e+00 1.242994e+01 8.613477e+00 1.057370e+01 6.596348e+00 5.057101e+00 3.034169e+00 2.778094e+00 4.216169e+00 6.883645e-01 7.456818e-01 6.088495e-01 1.475181e+00 1.072480e+00 2.151052e+00 1.666812e+00 1.934886e+00 1.089933e+00 1.283997e+00 6.209810e-01 5.610417e-01 1.346306e+00
<GCONST> 1.478879e+02
<STATE> 3
<MEAN> 39
 5.088813e+00 1.006131e+00 -1.023172e+01 -4.059085e+00 7.704875e+00 -2.257119e+01 1.434290e+01 7.007831e+00 9.263808e+00 4.461331e+00 -5.989795e-01 -2.462758e+00 7.316698e+01 -5.903404e-01 -6.804148e-01 -1.436403e-01 1.695286e-01 1.191132e+00 1.377932e+00 2.020639e-02 -1.212242e+00 -1.917834e+00 2.933748e-01 1.314374e+00 1.646627e-01 5.686667e-01 -2.380583e-01 8.235116e-02 4.772725e-01 1.712541e-01 1.539452e-01 4.151345e-01 -8.842194e-01 -3.396826e-01 -1.406096e-01 -2.168338e-01 4.755057e-01 -6.012351e-02 -8.833173e-02
<VARIANCE> 39
 1.941938e+01 7.737388e+00 3.060764e+01 1.495659e+01 2.533568e+01 4.035654e+01 5.261465e+01 5.950275e+01 5.120696e+01 6.357007e+01 4.812246e+01 2.642945e+01 5.152650e+00 7.709914e-01 6.297646e-01 2.364839e+00 1.152766e+00 1.629247e+00 4.930012e+00 8.539740e+00 4.397538e+00 3.108852e+00 3.864320e+00 4.730777e+00 1.647157e+00 3.314953e-01 1.432351e-01 9.589860e-02 1.248989e-01 2.451326e-01 4.030361e-01 6.101418e-01 9.652128e-01 7.282513e-01 6.236390e-01 5.248539e-01 4.720172e-01 3.384004e-01 4.152312e-02
<GCONST> 1.084335e+02
<STATE> 4
<MEAN> 39
 -4.763852e+00 -7.837020e-01 3.192488e+00 2.389155e+00 1.507131e+01 -1.372503e+01 -7.074680e-01 -1.325356e+00 -1.017537e+00 -4.099561e+00 1.099370e+01 -7.119785e+00 7.192542e+01 -3.888310e-01 2.342346e-01 7.693447e-01 5.836475e-01 5.786998e-01 3.653277e-01 -1.088082e+00 -2.582209e-01 -2.028870e-01 -3.308212e-01 4.682436e-01 -3.130841e-01 -5.025127e-01 5.403336e-02 9.235853e-02 -5.453934e-02 4.015118e-03 -9.061936e-02 -1.342379e-01 2.561343e-01 1.890345e-01 2.488116e-01 1.537718e-01 -3.177851e-01 -6.365236e-03 -1.413432e-01
<VARIANCE> 39
 7.238441e+01 3.340913e+01 7.745671e+01 4.762135e+01 6.130827e+01 2.618501e+01 9.246088e+01 7.410393e+01 4.157880e+01 6.897528e+01 4.027172e+01 3.093244e+01 2.596102e+01 2.162869e+00 1.471683e+00 2.585155e+00 2.171211e+00 3.501711e+00 3.191486e+00 5.974998e+00 4.127847e+00 3.070724e+00 4.170754e+00 4.783107e+00 1.677330e+00 1.050596e+00 2.167635e-01 1.734435e-01 2.822388e-01 4.144316e-01 4.638380e-01 6.415165e-01 7.800875e-01 5.711523e-01 5.919569e-01 6.836382e-01 6.929908e-01 2.922351e-01 9.210221e-02
<GCONST> 1.230897e+02
<TRANSP> 5
 0.000000e+00 1.000000e+00 0.000000e+00 0.000000e+00 0.000000e+00
 0.000000e+00 7.278094e-01 2.721906e-01 0.000000e+00 0.000000e+00
 0.000000e+00 0.000000e+00 8.329525e-01 1.670475e-01 0.000000e+00
 0.000000e+00 0.000000e+00 0.000000e+00 9.103781e-01 8.962184e-02
 0.000000e+00 0.000000e+00 0.000000e+00 0.000000e+00 0.000000e+00
<ENDHMM>
~h "ch"
<BEGINHMM>
<NUMSTATES> 5
<STATE> 2
<MEAN> 39
 -1.175137e+00 3.464844e+00 -5.887708e+00 -1.262010e+01 2.191015e+01 4.743645e-01 3.923337e-01 -1.310320e+01 3.294086e+00 -3.238113e+00 1.090028e+01 9.457617e+00 6.725268e+01 -7.259174e-02 -2.165511e-02 -4.418609e-01 -7.149138e-02 -8.659137e-02 -8.244783e-03 1.634505e-01 2.931718e-01 2.018248e-01 1.269944e-01 -3.647301e-01 2.742245e-01 -4.462862e-01 -4.098786e-02 -3.404224e-02 2.372380e-02 5.992053e-02 -7.737994e-02 -1.221813e-03 2.111830e-02 9.093602e-02 -9.352561e-02 2.003423e-02 -3.599431e-03 -3.201792e-02 -5.338160e-02
<VARIANCE> 39
 8.492068e+00 3.689492e+01 1.620513e+01 7.097932e+01 1.976281e+01 3.644991e+01 1.018859e+02 4.009180e+01 6.598915e+01 3.806495e+01 5.925131e+01 1.928443e+01 1.924474e+01 5.368861e-01 1.755803e+00 8.519968e-01 3.268072e+00 1.947509e+00 2.835470e+00 5.030421e+00 3.435697e+00 4.053443e+00 2.519655e+00 2.536996e+00 1.692674e+00 2.667190e-01 9.940239e-02 1.611884e-01 1.154512e-01 2.596683e-01 3.210287e-01 4.611187e-01 5.471657e-01 4.677542e-01 5.524479e-01 4.631283e-01 4.066094e-01 2.926953e-01 2.998801e-02
<GCONST> 1.072641e+02
<STATE> 3
<MEAN> 39
 -5.113722e+00 -4.113781e-01 -1.027528e+01 -3.319523e+00 1.296716e+01 -1.693536e+00 -2.285656e+00 3.114739e+00 -2.859604e+00 2.118907e+00 3.163640e+00 1.334392e+01 5.192450e+01 -5.407350e-01 8.011177e-01 5.002890e-01 1.065979e-01 -9.942218e-01 3.668498e-01 9.250867e-01 2.302443e-01 -1.902188e+00 -7.508740e-02 6.409445e-01 6.061141e-02 -1.055936e+00 -6.136596e-02 9.595321e-02 1.552537e-01 -1.326857e-01 9.219462e-02 1.411431e-01 -4.902017e-02 -1.972340e-01 1.936626e-01 1.429845e-02 -1.217877e-01 -1.326951e-01 4.025497e-02
<VARIANCE> 39
 5.868462e+00 1.629912e+01 1.116558e+01 7.256305e+00 2.531922e+01 2.710141e+01 2.412624e+01 2.097084e+01 5.222083e+01 4.449828e+01 1.482853e+01 2.248004e+01 1.170848e+01 2.199565e-01 3.613186e-01 7.497434e-01 8.584607e-01 8.249988e-01 1.298442e+00 1.284011e+00 1.703079e+00 2.998620e+00 2.069968e+00 1.419316e+00 1.343354e+00 1.272274e-01 2.498294e-02 8.903074e-02 8.579124e-02 2.008964e-01 1.444650e-01 2.847963e-01 2.474410e-01 3.131558e-01 4.012435e-01 3.516260e-01 2.363954e-01 2.233971e-01 1.269538e-02
<GCONST> 8.251471e+01
<STATE> 4
<MEAN> 39
 -1.849842e+01 3.761814e+00 9.564263e-02 5.759594e-01 9.018712e+00 3.055725e+00 5.424584e+00 8.673867e+00 -3.143279e+00 8.953360e+00 2.461650e+00 3.602414e+00 4.020683e+01 -2.865824e-01 -5.109418e-02 1.527482e-01 1.474040e-01 -1.980732e-02 6.732617e-02 9.466887e-02 1.756956e-01 1.418736e-01 1.223468e-01 -9.002233e-02 -2.302616e-01 -2.032335e-01 2.644752e-02 -2.397558e-02 -3.597986e-02 -1.679193e-02 -7.130206e-03 -1.780011e-02 -3.315055e-02 -1.506877e-02 2.896779e-02 -1.191199e-02 4.259476e-03 7.358723e-03 3.126267e-02
<VARIANCE> 39
 1.438307e+01 4.884781e+00 8.640517e+00 9.037264e+00 1.047296e+01 6.087625e+00 9.856259e+00 1.511882e+01 2.553275e+01 2.576831e+01 1.206715e+01 1.719202e+01 6.425611e+00 1.880863e-01 1.694315e-01 3.200120e-01 5.493659e-01 3.451962e-01 5.391535e-01 6.678553e-01 6.947812e-01 1.067479e+00 8.765100e-01 9.810016e-01 7.737443e-01 8.734573e-02 2.539032e-02 4.033314e-02 4.266448e-02 9.410547e-02 6.586016e-02 9.466196e-02 1.019999e-01 1.156610e-01 2.021374e-01 1.438076e-01 1.987578e-01 1.461883e-01 1.246779e-02
<GCONST> 5.933631e+01
<TRANSP> 5
 0.000000e+00 1.000000e+00 0.000000e+00 0.000000e+00 0.000000e+00
 0.000000e+00 9.693864e-01 3.061359e-02 0.000000e+00 0.000000e+00
 0.000000e+00 0.000000e+00 8.915174e-01 1.084826e-01 0.000000e+00
 0.000000e+00 0.000000e+00 0.000000e+00 9.713297e-01 2.867031e-02
 0.000000e+00 0.000000e+00 0.000000e+00 0.000000e+00 0.000000e+00
<ENDHMM>
~h "dh"
<BEGINHMM>
<NUMSTATES> 5
<STATE> 2
<MEAN> 39
 -1.013152e+01 6.870335e+00 6.821526e+00 2.047537e+00 1.229078e+01 3.983389e+00 4.588086e+00 1.100371e+00 3.097322e+00 1.796969e-01 3.980908e+00 -1.519240e+00 5.762330e+01 7.968189e-01 -1.230577e-01 3.107597e-01 -2.314544e-01 6.151026e-02 -4.180254e-01 -4.751712e-03 -8.562647e-01 3.331447e-01 -8.876281e-01 3.708874e-01 -5.544804e-02 2.157780e+00 1.024541e-01 -2.327577e-02 -4.520963e-02 1.733518e-02 6.949533e-03 -2.187520e-01 -1.213900e-01 -2.007630e-02 -9.029855e-02 1.307524e-02 -8.313332e-03 6.408533e-02 6.661263e-02
<VARIANCE> 39
 6.285270e+01 5.001622e+01 4.552268e+01 5.290175e+01 3.996698e+01 4.426337e+01 4.298598e+01 5.230172e+01 5.512651e+01 4.167719e+01 2.825228e+01 1.750721e+01 1.236228e+02 4.984469e+00 5.377575e+00 4.393157e+00 6.553291e+00 3.650747e+00 5.948829e+00 5.143287e+00 3.920739e+00 5.252393e+00 3.802295e+00 2.241947e+00 2.031630e+00 4.077782e+00 6.982844e-01 7.318206e-01 6.758143e-01 1.032236e+00 5.546873e-01 9.372223e-01 9.119992e-01 8.014743e-01 1.016275e+00 6.713120e-01 3.656344e-01 3.999519e-01 8.942761e-01
<GCONST> 1.357047e+02
<STATE> 3
<MEAN> 39
 -4.831933e+00 3.940084e+00 5.482855e+00 1.241890e+00 1.133774e+01 -4.371650e+00 3.095629e+00 -2.641120e+00 2.310387e+00 -3.472748e+00 5.907995e+00 -2.402502e+00 6.905764e+01 9.405273e-01 3.499239e-01 -7.853782e-02 4.114014e-01 1.244156e-01 -8.273668e-01 -3.457764e-01 6.089678e-01 -2.477031e-01 -2.660978e-02 3.640890e-02 4.656287e-01 1.465132e-01 -1.733779e-01 4.315961e-02 -1.617404e-01 9.798998e-03 -1.049170e-02 3.029989e-01 4.433521e-01 3.230335e-01 2.731844e-01 3.209197e-01 -7.386506e-02 -7.753971e-02 -5.403088e-01
<VARIANCE> 39
 3.025244e+01 3.747766e+01 2.736251e+01 5.803165e+01 2.704371e+01 6.332872e+01 7.553098e+01 3.087032e+01 2.632735e+01 4.776466e+01 3.768539e+01 3.896474e+01 6.428732e+01 1.424657e+00 1.450866e+00 2.383580e+00 2.044200e+00 1.676372e+00 2.632190e+00 3.595477e+00 3.143730e+00 2.952857e+00 3.067171e+00 1.768361e+00 2.478765e+00 2.194995e+00 1.775268e-01 2.529562e-01 3.010904e-01 5.003378e-01 2.537873e-01 4.225494e-01 8.854222e-01 6.053179e-01 6.118512e-01 3.696961e-01 3.082585e-01 4.190691e-01 2.284618e-01
<GCONST> 1.176981e+02
<STATE> 4
<MEAN> 39
 -1.031421e+01 1.072491e+00 -1.898186e+00 -7.659318e-01 8.804863e+00 3.041120e-01 5.030108e+00 7.225981e-01 -1.826397e+00 4.682148e+00 3.085538e+00 6.175231e-01 5.566622e+01 2.743114e-01 2.055697e-01 -8.309832e-02 7.385132e-02 6.860520e-02 1.586474e-02 1.647561e-01 4.612837e-01 2.484754e-01 1.633516e-01 1.635148e-02 -6.734344e-02 -2.318075e-01 -8.243244e-02 -4.104964e-02 -9.223016e-02 -4.023258e-02 2.153938e-02 1.170226e-01 9.970963e-02 -4.504136e-02 1.122398e-01 3.770372e-02 2.954611e-02 -1.007356e-01 -5.426436e-02
<VARIANCE> 39
 6.673991e+01 7.240457e+01 1.004310e+02 8.006100e+01 3.450248e+01 4.308603e+01 4.885045e+01 3.936166e+01 7.246423e+01 5.078567e+01 3.556305e+01 2.930183e+01 1.464832e+02 1.298601e+00 1.381999e+00 1.644925e+00 1.862237e+00 1.453953e+00 1.542834e+00 2.595978e+00 2.633343e+00 2.436043e+00 1.800315e+00 1.459312e+00 1.795260e+00 1.510235e+00 1.544771e-01 1.693206e-01 1.944571e-01 3.529280e-01 2.436175e-01 2.280996e-01 5.485451e-01 3.714638e-01 4.212885e-01 3.130322e-01 3.808223e-01 3.835271e-01 1.584990e-01
<GCONST> 1.148577e+02
<TRANSP> 5
 0.000000e+00 1.000000e+00 0.000000e+00 0.000000e+00 0.000000e+00
 0.000000e+00 8.465462e-01 1.534538e-01 0.000000e+00 0.000000e+00
 0.000000e+00 0.000000e+00 4.672866e-01 5.327134e-01 0.000000e+00
 0.000000e+00 0.000000e+00 0.000000e+00 7.079219e-01 2.920781e-01
 0.000000e+00 0.000000e+00 0.000000e+00 0.000000e+00 0.000000e+00
<ENDHMM>
~h "eh"
<BEGINHMM>
<NUMSTATES> 5
<STATE> 2
<MEAN> 39
 -4.175514e+00 -1.960462e+00 2.539505e-01 2.583754e+00 2.002394e+01 -1.018642e+01 -8.060198e+00 -4.119326e+00 -1.061247e+00 -3.247449e+00 1.134276e+01 -1.271800e+00 7.086617e+01 2.262872e-01 2.690729e-01 -6.104362e-01 -4.911695e-01 6.518327e-01 -3.406234e-01 5.974695e-03 -5.979701e-01 1.695425e-02 -2.382837e-01 6.122465e-01 5.623999e-01 4.042859e-01 -6.874594e-02 4.341901e-02 6.574167e-02 -2.209514e-01 -1.342496e-01 2.405818e-02 4.054900e-01 -7.085700e-02 1.708720e-01 -1.775348e-01 -8.185036e-02 -3.564676e-03 1.226078e-02
<VARIANCE> 39
 3.918715e+01 1.104652e+01 1.651068e+01 2.396416e+01 5.009352e+01 4.434391e+01 4.666383e+01 3.135893e+01 4.064644e+01 3.937353e+01 2.615088e+01 2.068571e+01 1.145261e+02 7.658727e-01 1.385826e+00 1.348220e+00 2.215627e+00 1.273829e+00 4.347456e+00 3.009437e+00 3.079513e+00 2.464055e+00 3.007210e+00 1.891090e+00 1.656319e+00 2.805619e+00 1.318625e-01 2.206033e-01 1.344794e-01 2.173476e-01 2.108248e-01 5.381936e-01 4.696571e-01 4.202363e-01 4.889180e-01 3.239051e-01 3.917372e-01 3.042479e-01 3.532830e-01
<GCONST> 1.105236e+02
<STATE> 3
<MEAN> 39
 -5.876568e+00 -1.023404e+00 -2.138907e+00 -1.393224e+00 1.908077e+01 -1.082826e+01 -3.910314e+00 -5.266913e+00 5.515149e-01 -5.906673e+00 1.380376e+01 4.103014e-01 7.117422e+01 5.115656e-01 4.096717e-01 3.161979e-02 -1.896833e-01 3.826287e-01 -7.631838e-02 8.687564e-01 -3.315879e-01 -1.274500e-01 -7.458161e-01 -3.014944e-01 3.963887e-01 4.561820e-01 3.354438e-02 2.752242e-01 6.295448e-02 1.512802e-01 4.083112e-02 2.066278e-01 1.511204e-01 2.221832e-01 1.254032e-02 8.883317e-02 -2.718712e-01 -5.191636e-02 -3.628432e-01
<VARIANCE> 39
 6.029818e+01 2.962064e+01 1.604589e+01 5.574148e+01 4.744922e+01 6.212587e+01 5.016455e+01 3.874184e+01 5.045293e+01 7.431641e+01 3.052221e+01 3.800698e+01 7.787090e+01 1.517629e+00 2.981391e+00 1.027853e+00 2.769493e+00 1.934803e+00 3.488629e+00 4.076846e+00 2.981541e+00 2.279684e+00 1.794443e+00 3.041319e+00 1.929686e+00 4.814993e+00 2.117769e-01 4.700195e-01 2.046946e-01 4.791228e-01 3.142017e-01 8.110214e-01 8.590178e-01 5.754202e-01 4.669675e-01 2.782028e-01 4.306720e-01 2.720900e-01 3.257366e-01
<GCONST> 1.208683e+02
<STATE> 4
<MEAN> 39
 -2.691799e+00 5.927656e+00 -2.181500e+00 -7.066367e+00 2.308351e+01 -7.509639e-01 3.629559e+00 -1.220535e+01 -2.112986e+00 -7.923127e+00 9.320709e+00 7.327035e+00 6.687264e+01 -1.505146e-01 1.658471e-01 9.217717e-02 2.314570e-01 -5.474418e-02 -9.341971e-02 3.440271e-01 3.012336e-01 5.268208e-01 3.978570e-01 -5.715635e-01 -1.588800e-01 -5.808296e-01 -3.442890e-02 6.129838e-02 4.557041e-03 8.216717e-02 -5.883829e-02 3.265260e-03 4.664907e-03 2.298889e-01 2.791046e-02 2.030958e-01 2.881577e-02 -1.271963e-01 -1.377183e-01
<VARIANCE> 39
 2.406145e+01 6.881174e+01 1.212959e+01 6.191661e+01 3.240247e+01 9.220254e+01 6.383670e+01 9.109248e+01 8.824556e+01 1.056657e+02 2.842616e+01 4.080639e+01 4.269803e+01 8.769681e-01 4.632674e+00 9.071720e-01 4.147739e+00 2.859407e+00 3.845237e+00 4.368966e+00 6.378973e+00 7.816078e+00 5.460158e+00 2.114885e+00 1.815906e+00 2.775034e+00 1.616779e-01 6.951361e-01 1.624940e-01 6.295473e-01 4.192979e-01 6.019352e-01 6.181284e-01 1.368452e+00 1.569523e+00 1.039715e+00 4.155181e-01 3.603441e-01 6.544945e-01
<GCONST> 1.290607e+02
<TRANSP> 5
 0.000000e+00 1.000000e+00 0.000000e+00 0.000000e+00 0.000000e+00
 0.000000e+00 7.833616e-01 2.166384e-01 0.000000e+00 0.000000e+00
 0.000000e+00 0.000000e+00 6.326810e-01 3.673190e-01 0.000000e+00
 0.000000e+00 0.000000e+00 0.000000e+00 7.807792e-01 2.192208e-01
 0.000000e+00 0.000000e+00 0.000000e+00 0.000000e+00 0.000000e+00
<ENDHMM>
~h "er"
<BEGINHMM>
<NUMSTATES> 5
<STATE> 2
<MEAN> 39
 -5.633779e+00 6.464573e+00 -1.480857e+00 -1.756142e+01 1.007953e+01 -1.835016e+00 7.496581e+00 2.824884e+00 6.019015e-01 -1.131296e+01 2.702511e+00 -1.740162e+00 7.104375e+01 3.294759e+00 2.543842e+00 1.681072e+00 -1.723077e+00 -1.119789e+00 1.156102e+00 2.604181e-02 5.567258e-01 -1.254844e+00 -3.184446e+00 -8.322080e-01 1.214277e+00 2.365041e-01 -2.269966e-01 4.943531e-02 1.062716e-01 6.391602e-01 1.030664e-01 1.627816e-01 -5.570792e-02 4.480434e-02 -3.592854e-01 -2.847358e-01 1.548434e-01 1.844723e-01 -6.127419e-01
<VARIANCE> 39
 6.484179e+01 7.370883e+01 3.649124e+01 5.078830e+01 5.000427e+01 5.799022e+01 4.137022e+01 6.428749e+01 3.045736e+01 6.206448e+01 3.634842e+01 2.238409e+01 1.850938e+01 7.153888e+00 3.053823e+00 4.457715e+00 6.595492e+00 5.066294e+00 7.355056e+00 3.249646e+00 8.009267e+00 4.532859e+00 6.110250e+00 1.862051e+00 1.636262e+00 2.641618e+00 1.362702e+00 1.160280e+00 1.281572e+00 1.216526e+00 7.636462e-01 7.356626e-01 4.721765e-01 6.851847e-01 5.123423e-01 8.315861e-01 5.205104e-01 3.263694e-01 1.130506e+00
<GCONST> 1.361396e+02
<STATE> 3
<MEAN> 39
 9.127373e-01 1.060640e+01 2.417453e+00 -2.048878e+01 8.788344e+00 3.058334e+00 6.406920e+00 2.103587e+00 -4.816248e+00 -2.091540e+01 4.115028e+00 2.349029e+00 7.049775e+01 9.168347e-01 9.050099e-01 7.815027e-02 -1.141886e+00 -5.849553e-01 1.066484e-01 6.516290e-01 3.481495e-01 -9.211299e-01 -1.978546e+00 6.151695e-01 1.030019e+00 6.856281e-02 -4.554065e-01 -4.050809e-01 -2.922494e-01 3.054765e-01 2.374376e-01 -2.364179e-01 9.293102e-02 -1.693906e-01 2.364506e-01 5.320413e-01 2.387021e-01 -9.769351e-02 -1.460817e-02
<VARIANCE> 39
 8.882019e+00 3.575070e+01 3.676442e+01 5.945723e+01 3.969893e+01 7.455088e+01 8.002723e+01 9.675688e+01 5.117120e+01 4.761861e+01 4.430144e+01 1.977892e+01 3.249832e+00 1.436829e+00 1.050776e+00 1.444652e+00 1.873336e+00 1.889703e+00 1.700180e+00 2.948228e+00 1.946670e+00 2.873579e+00 3.868216e+00 1.228762e+00 1.175206e+00 3.646606e-01 3.331913e-01 2.269291e-01 2.926314e-01 5.419071e-01 4.021499e-01 3.320289e-01 5.825745e-01 4.759758e-01 3.639792e-01 5.096312e-01 2.208609e-01 2.264863e-01 1.115020e-01
<GCONST> 1.093232e+02
<STATE> 4
<MEAN> 39
 2.487022e+00 1.274475e+01 1.437855e-02 -1.909476e+01 9.432229e+00 -4.329427e+00 8.821134e+00 5.491948e+00 1.017399e+00 -2.086301e+01 6.869587e+00 4.769844e+00 6.889414e+01 -3.339849e-01 -7.020286e-01 2.838714e-01 1.077925e+00 6.747328e-01 -4.514970e-01 -5.414206e-01 -5.166126e-01 6.477956e-01 9.180630e-01 2.011167e-01 -3.409525e-01 1.177955e-01 -1.510813e-01 -1.777196e-01 1.461440e-01 1.825122e-01 -6.880525e-02 -1.532534e-01 -3.873007e-02 4.697439e-02 2.070103e-01 1.642441e-01 -9.332158e-02 -1.451999e-01 5.200356e-02
<VARIANCE> 39
 8.555767e+00 5.061528e+01 4.439777e+01 6.981551e+01 6.647272e+01 7.989333e+01 6.466762e+01 9.745493e+01 1.287675e+02 1.036831e+02 4.932655e+01 4.903545e+01 1.909641e+01 1.255286e+00 3.261122e+00 2.053159e+00 4.701863e+00 2.856955e+00 4.124228e+00 3.159897e+00 3.967958e+00 6.146987e+00 7.678316e+00 3.220064e+00 3.565982e+00 9.306129e-01 1.927703e-01 2.287184e-01 2.612877e-01 4.430538e-01 4.469573e-01 3.720393e-01 5.087995e-01 6.541490e-01 8.028375e-01 1.177038e+00 5.346097e-01 5.382767e-01 1.071332e-01
<GCONST> 1.265408e+02
<TRANSP> 5
 0.000000e+00 1.000000e+00 0.000000e+00 0.000000e+00 0.000000e+00
 0.000000e+00 4.872877e-01 5.127123e-01 0.000000e+00 0.000000e+00
 0.000000e+00 0.000000e+00 7.451677e-01 2.548324e-01 0.000000e+00
 0.000000e+00 0.000000e+00 0.000000e+00 9.425563e-01 5.744369e-02
 0.000000e+00 0.000000e+00 0.000000e+00 0.000000e+00 0.000000e+00
<ENDHMM>
~h "ey"
<BEGINHMM>
<NUMSTATES> 5
<STATE> 2
<MEAN> 39
 -6.713672e+00 1.014657e+00 9.243874e+00 8.616848e+00 2.082579e+01 -8.690297e+00 -4.722149e+00 -5.159861e+00 1.376285e+00 2.832162e-01 8.233906e+00 -1.181797e+01 6.784483e+01 4.057035e-01 6.976362e-01 5.762726e-02 2.894876e-01 -4.793079e-02 -2.873259e-01 3.501188e-01 5.529490e-01 3.748651e-01 -4.140716e-02 -2.628422e-01 1.385446e-01 -3.304675e-01 -2.500826e-02 -2.124262e-02 7.569379e-02 -6.166778e-02 -1.754663e-01 -1.719484e-01 1.150115e-02 5.969473e-02 5.779192e-02 6.892893e-03 -4.712199e-02 6.733165e-02 3.930769e-02
<VARIANCE> 39
 2.389982e+01 5.104149e+01 2.478111e+01 5.307843e+01 6.015289e+01 3.509908e+01 7.317265e+01 3.738608e+01 3.415532e+01 4.298042e+01 2.964447e+01 3.767804e+01 4.318957e+01 1.716007e+00 2.989870e+00 2.731630e+00 5.301452e+00 5.069308e+00 4.275102e+00 6.678746e+00 2.557641e+00 3.390216e+00 3.797714e+00 1.736186e+00 2.248864e+00 4.044485e+00 2.620895e-01 4.758787e-01 5.325083e-01 9.225467e-01 4.591689e-01 7.285749e-01 1.223878e+00 5.049194e-01 6.751940e-01 7.300767e-01 2.996776e-01 3.060259e-01 6.861742e-01
<GCONST> 1.273054e+02
<STATE> 3
<MEAN> 39
 -4.475521e+00 1.001607e+01 2.025939e+01 1.934373e+00 2.753509e+00 -1.768933e+01 -3.709234e+00 4.632115e+00 5.338430e+00 2.866740e+00 5.762691e+00 2.212858e-01 6.101964e+01 9.088472e-02 3.438789e-01 8.284287e-01 -4.181724e-01 -9.430989e-01 -7.357791e-01 -7.457032e-01 1.542971e-01 1.167023e-01 7.221918e-01 2.680825e-02 2.331079e-01 -4.530286e-01 -7.628143e-03 -1.142830e-01 -3.104273e-01 6.706297e-02 2.276654e-01 2.273863e-01 1.844817e-01 4.880575e-02 -1.431594e-01 4.360094e-02 -9.422877e-02 -1.603512e-01 -1.660178e-02
<VARIANCE> 39
 3.359037e+01 6.714847e+01 1.025517e+02 2.564420e+01 3.621024e+01 6.154139e+01 5.297624e+01 6.107103e+01 4.466321e+01 6.343625e+01 2.906066e+01 4.175359e+01 2.872095e+01 1.941252e+00 3.508697e+00 4.944393e+00 2.836151e+00 4.480105e+00 9.269683e+00 4.171704e+00 3.779831e+00 4.305527e+00 1.927026e+00 2.602828e+00 3.532791e+00 6.576306e-01 4.013616e-01 5.635697e-01 6.483138e-01 6.262510e-01 5.504480e-01 1.185274e+00 7.119366e-01 7.126980e-01 8.688167e-01 4.191488e-01 4.300906e-01 6.131497e-01 2.099020e-01
<GCONST> 1.290336e+02
<STATE> 4
<MEAN> 39
 -5.193063e+00 1.489216e+00 4.909888e+00 6.687094e+00 1.584492e+01 -1.883996e+01 -8.331384e+00 2.514001e+00 1.115592e+01 1.946554e-01 2.976450e+00 -1.097606e+01 7.083094e+01 8.445473e-01 4.613187e-01 -4.144768e-01 4.218837e-01 3.060716e-01 2.137750e-01 1.524012e-01 4.621453e-01 -2.458424e-01 1.671385e-01 -7.571421e-02 -3.626438e-01 -3.516690e-01 -2.609210e-02 -3.378712e-02 -9.814692e-02 -5.983322e-02 -3.930764e-02 9.476134e-02 1.422858e-01 1.211174e-02 -6.102423e-02 -4.056522e-02 3.892709e-02 7.692035e-02 8.887229e-03
<VARIANCE> 39
 5.704175e+01 4.170421e+01 4.940764e+01 2.349711e+01 4.198811e+01 7.914640e+01 7.394382e+01 2.169407e+01 4.388617e+01 2.877113e+01 2.214718e+01 3.400673e+01 3.289271e+01 9.072415e-01 1.308196e+00 2.050634e+00 9.853088e-01 1.208938e+00 3.252159e+00 3.332532e+00 1.675907e+00 2.454149e+00 1.368081e+00 1.202641e+00 1.365631e+00 7.348735e-01 1.828742e-01 2.175149e-01 2.112603e-01 1.626690e-01 2.052810e-01 3.802297e-01 3.809767e-01 2.771089e-01 3.123259e-01 2.667713e-01 1.831484e-01 1.940828e-01 8.918291e-02
<GCONST> 1.049862e+02
<TRANSP> 5
 0.000000e+00 1.000000e+00 0.000000e+00 0.000000e+00 0.000000e+00
 0.000000e+00 9.218741e-01 7.812592e-02 0.000000e+00 0.000000e+00
 0.000000e+00 0.000000e+00 7.980456e-01 2.019544e-01 0.000000e+00
 0.000000e+00 0.000000e+00 0.000000e+00 9.211071e-01 7.889288e-02
 0.000000e+00 0.000000e+00 0.000000e+00 0.000000e+00 0.000000e+00
<ENDHMM>
~h "hh"
<BEGINHMM>
<NUMSTATES> 5
<STATE> 2
<MEAN> 39
 -8.284544e+00 -5.052248e+00 -6.922209e-02 -3.114193e+00 1.170592e+01 -1.150733e+01 -3.565569e+00 7.437658e-02 6.598194e+00 3.210697e+00 1.467091e+01 -5.010788e+00 7.411427e+01 1.110040e-01 5.926757e-02 -3.641583e-01 -9.703097e-02 4.816812e-02 1.120840e-01 -2.021254e-01 9.717043e-02 -2.161517e-01 1.227227e-01 -9.123176e-03 -1.359952e-01 2.098722e-02 2.708944e-02 6.057127e-02 6.858125e-02 6.535073e-02 4.679979e-02 1.822389e-02 1.911526e-02 1.693649e-02 -5.062212e-02 -1.345924e-01 -5.963445e-02 -3.474684e-02 -1.454472e-02
<VARIANCE> 39
 2.003241e+01 2.053198e+01 5.261866e+01 6.954782e+01 3.740809e+01 2.371786e+01 5.017090e+01 2.844069e+01 4.328424e+01 4.218268e+01 4.534445e+01 2.820350e+01 1.471466e+01 7.422714e-01 8.423451e-01 1.677915e+00 1.763709e+00 1.318211e+00 1.785095e+00 1.941048e+00 1.662596e+00 2.092162e+00 2.002837e+00 1.913042e+00 1.259430e+00 5.262495e-01 1.256501e-01 1.366708e-01 1.889464e-01 2.257550e-01 2.259673e-01 3.028672e-01 3.099610e-01 2.726961e-01 3.369888e-01 2.680452e-01 3.279107e-01 2.122466e-01 7.819383e-02
<GCONST> 1.016288e+02
<STATE> 3
<MEAN> 39
 -4.221279e+00 -7.223128e-01 -3.553841e+00 -6.443021e+00 1.343364e+01 -1.317857e+01 3.613517e+00 5.520211e+00 7.512644e+00 1.010141e+00 1.163922e+01 -6.191663e+00 7.171889e+01 6.469278e-01 5.509548e-01 3.255451e-02 1.673658e-01 3.749091e-01 -5.434563e-01 6.575666e-01 1.092265e-01 -2.605613e-01 -5.390964e-01 -5.960859e-01 4.564361e-02 -5.451724e-02 -2.814512e-02 3.006679e-02 8.722953e-03 4.608759e-02 -7.926274e-02 -6.859084e-02 3.692337e-02 -3.483669e-02 -1.532304e-02 5.008403e-02 -7.061645e-02 9.819257e-02 -3.201443e-02
<VARIANCE> 39
 1.937817e+01 2.303487e+01 7.203891e+01 7.009261e+01 4.461808e+01 3.514975e+01 1.364424e+02 5.756157e+01 3.349699e+01 3.047302e+01 4.099892e+01 2.043063e+01 1.569503e+01 9.418966e-01 1.029844e+00 1.943324e+00 1.885426e+00 1.610801e+00 2.588705e+00 4.522525e+00 1.867095e+00 1.907738e+00 2.023784e+00 1.475261e+00 1.083937e+00 3.924712e-01 1.789955e-01 1.544493e-01 3.176156e-01 1.674302e-01 2.525902e-01 4.828790e-01 5.653116e-01 2.524526e-01 2.550046e-01 2.665928e-01 2.489510e-01 2.106765e-01 5.145355e-02
<GCONST> 1.055818e+02
<STATE> 4
<MEAN> 39
 -2.737410e+00 5.074931e+00 7.483995e-01 -7.921392e+00 9.805449e+00 -1.986701e+01 5.688210e+00 1.036545e+01 8.014996e+00 1.059608e+00 3.988743e+00 -5.537966e+00 6.634044e+01 -3.984638e-01 -1.680457e-01 5.200993e-01 1.421838e-01 -1.080877e-01 3.914226e-01 -2.188354e-01 -5.691711e-01 -4.045398e-01 -3.072971e-02 1.105401e-01 4.335852e-01 6.632450e-02 -1.063337e-01 2.218373e-03 3.316681e-02 9.111677e-02 7.062703e-03 5.225786e-02 1.077319e-02 -1.563100e-01 4.174908e-03 7.449336e-02 1.218583e-01 3.502809e-02 1.390917e-02
<VARIANCE> 39
 4.635079e+01 7.795153e+01 3.735003e+01 3.211018e+01 3.154803e+01 8.059832e+01 9.768237e+01 1.304527e+02 5.092409e+01 4.651078e+01 6.119706e+01 1.993662e+01 3.760853e+01 3.505366e+00 4.639459e+00 3.177451e+00 1.855684e+00 2.144042e+00 3.206231e+00 6.435816e+00 5.284368e+00 3.465775e+00 3.221992e+00 4.923376e+00 2.252059e+00 2.209970e+00 3.255234e-01 4.794290e-01 4.676452e-01 2.876703e-01 4.000438e-01 4.882608e-01 9.393159e-01 9.045798e-01 6.825984e-01 3.677734e-01 7.895479e-01 4.819951e-01 2.200020e-01
<GCONST> 1.288643e+02
<TRANSP> 5
 0.000000e+00 1.000000e+00 0.000000e+00 0.000000e+00 0.000000e+00
 0.000000e+00 9.150970e-01 8.490299e-02 0.000000e+00 0.000000e+00
 0.000000e+00 0.000000e+00 7.330884e-01 2.669116e-01 0.000000e+00
 0.000000e+00 0.000000e+00 0.000000e+00 7.487841e-01 2.512160e-01
 0.000000e+00 0.000000e+00 0.000000e+00 0.000000e+00 0.000000e+00
<ENDHMM>
~h "ih"
<BEGINHMM>
<NUMSTATES> 5
<STATE> 2
<MEAN> 39
 -7.212102e+00 6.311511e+00 8.194098e+00 6.321558e+00 1.399245e+01 4.246068e+00 4.395908e+00 -4.592072e+00 3.099664e+00 -1.957072e+00 2.825744e+00 -4.347230e-01 6.230202e+01 -1.136952e+00 -2.480750e-01 1.298077e-01 9.066949e-02 -1.999120e-01 8.287079e-01 8.051274e-01 -8.501939e-01 1.450669e+00 -1.416594e-01 3.716177e-01 1.492031e-01 9.727979e-02 -2.200365e-01 -3.674687e-01 -4.503962e-02 -1.553411e-01 -1.072335e-01 -3.003134e-01 5.662536e-02 -1.131321e-01 3.056025e-01 -2.496001e-01 -5.554799e-02 -1.969596e-01 4.196569e-01
<VARIANCE> 39
 8.857395e+01 7.893549e+01 1.726496e+01 3.453040e+01 2.788363e+01 4.543964e+01 4.181225e+01 3.885535e+01 7.320373e+01 2.666478e+01 2.409402e+01 1.433237e+01 6.215665e+01 4.247954e+00 5.036204e+00 2.053893e+00 2.856064e+00 3.835913e+00 3.710523e+00 3.754049e+00 3.805337e+00 7.896373e+00 2.900397e+00 2.559766e+00 1.922505e+00 3.249298e+00 5.351433e-01 8.696272e-01 4.603217e-01 5.298146e-01 6.444313e-01 5.939422e-01 6.897116e-01 7.605299e-01 1.517322e+00 5.466436e-01 4.348427e-01 3.460124e-01 5.678179e-01
<GCONST> 1.286301e+02
<STATE> 3
<MEAN> 39
 -1.233199e+01 4.013051e-01 7.497484e+00 2.685867e+00 1.054893e+01 3.626254e+00 6.828094e+00 -9.533696e+00 1.160803e+01 -3.547603e+00 3.030921e+00 -2.309247e+00 6.839418e+01 -1.895259e-01 -1.831666e+00 -4.837636e-02 -1.020865e+00 -2.724661e-01 -1.865724e+00 -1.945062e+00 -9.345562e-01 -1.017522e+00 -8.636348e-01 2.919064e-01 -7.349929e-01 2.313105e+00 5.495564e-01 2.482281e-01 1.559688e-02 3.836870e-01 5.054306e-01 -3.247456e-01 -9.125098e-01 2.743014e-01 -1.192157e+00 4.850211e-02 4.969996e-02 -5.946980e-02 -1.976356e-01
<VARIANCE> 39
 3.745958e+01 9.330968e+01 1.606309e+01 4.680062e+01 3.733076e+01 6.339241e+01 5.117144e+01 3.655793e+01 5.776007e+01 1.836813e+01 1.975562e+01 1.355519e+01 3.499181e+01 4.663677e+00 5.447081e+00 1.795691e+00 6.769714e+00 5.389520e+00 4.104634e+00 8.957307e+00 4.870554e+00 1.327762e+01 3.164020e+00 2.258372e+00 1.469111e+00 4.388687e+00 4.654704e-01 7.164463e-01 4.453371e-01 1.541717e+00 1.083370e+00 7.822205e-01 1.373222e+00 9.905880e-01 1.817813e+00 4.905487e-01 4.610013e-01 2.759081e-01 5.704706e-01
<GCONST> 1.328256e+02
<STATE> 4
<MEAN> 39
 -5.527639e+00 -4.421087e+00 8.618215e+00 5.205177e+00 1.769911e+01 -7.978263e+00 -9.336166e+00 -9.278028e+00 -5.513973e+00 -5.163925e+00 6.844592e+00 -7.449871e+00 7.395417e+01 1.165245e-01 -1.093620e-01 3.887184e-01 1.225036e-02 2.931703e-01 -3.055006e-01 1.034201e-01 3.474808e-01 -8.717310e-01 2.244109e-01 3.011394e-01 -2.241209e-01 8.141068e-02 -2.930302e-01 4.962524e-02 1.460433e-01 -2.136688e-01 -2.961713e-01 2.871563e-01 6.505131e-01 -1.875274e-03 4.757769e-01 1.698756e-01 5.648443e-03 1.323183e-01 -9.718739e-02
<VARIANCE> 39
 2.661665e+01 3.468248e+01 1.382985e+01 1.720275e+01 2.460847e+01 3.746049e+01 4.129156e+01 2.896552e+01 4.383221e+01 2.885485e+01 1.734689e+01 2.725897e+01 9.416448e+00 1.622748e+00 9.632656e-01 1.485945e+00 2.259929e+00 2.414425e+00 2.764046e+00 6.684588e+00 1.969746e+00 3.648956e+00 1.794990e+00 1.769094e+00 1.390455e+00 4.684597e-01 3.385726e-01 1.834438e-01 2.635948e-01 3.292750e-01 2.627221e-01 2.828713e-01 4.559565e-01 4.152746e-01 3.902966e-01 3.826056e-01 3.591283e-01 2.099429e-01 1.389878e-01
<GCONST> 1.056425e+02
<TRANSP> 5
 0.000000e+00 1.000000e+00 0.000000e+00 0.000000e+00 0.000000e+00
 0.000000e+00 8.318414e-01 1.681586e-01 0.000000e+00 0.000000e+00
 0.000000e+00 0.000000e+00 7.545064e-01 2.454936e-01 0.000000e+00
 0.000000e+00 0.000000e+00 0.000000e+00 8.894367e-01 1.105633e-01
 0.000000e+00 0.000000e+00 0.000000e+00 0.000000e+00 0.000000e+00
<ENDHMM>
~h "iy"
<BEGINHMM>
<NUMSTATES> 5
<STATE> 2
<MEAN> 39
